437 100
clothes -0.87787 -0.13815 -0.23026 -0.26867 0.057137 -0.33554 0.095376 0.31268 -0.039263 0.14171 0.086256 -0.75077 -0.35018 0.40137 -0.044258 0.2307 0.18991 -0.20728 0.29238 0.15408 0.04224 -0.39718 0.0087297 -0.36561 0.35223 -0.15281 0.4513 0.15627 -0.60315 0.14979 0.13758 0.9709 0.091061 -0.27 0.27434 0.2536 0.28129 0.15628 0.36149 0.33287 -0.35614 -0.15777 -0.26105 -0.13968 -0.12736 0.3902 0.2729 -0.35571 0.38721 -0.48734 -0.45519 0.46757 -0.24388 -0.50847 -0.56345 -0.042206 -0.51766 -0.37385 0.029587 -0.44361 0.53791 0.06831 -0.1473 -0.29664 0.13364 -0.0611 0.031575 0.18858 0.013401 -0.11813 -0.19542 0.0044501 -0.13317 -0.21345 -0.82349 -0.14951 -0.44623 -0.54934 0.50525 -0.039812 0.38047 0.23741 0.085387 -0.093674 0.50241 -0.0015273 -0.26218 -0.24585 0.014785 0.15698 0.45712 0.17748 0.60357 -0.37738 0.097769 -0.16138 -0.044303 -0.18958 -0.38293 0.55268 
investigation -0.070743 0.48435 -0.20838 0.13241 -0.15185 0.31416 0.54197 0.047372 -0.036826 0.0087581 -0.06083 -0.36659 0.2577 -0.081718 0.1568 -0.15389 -0.20399 0.044299 0.18025 -0.90299 1.0333 -0.22863 0.80195 -0.24982 0.090957 0.33899 0.21754 0.37489 0.14573 -0.023116 -0.072549 -0.05511 -0.042833 -0.269 -0.37464 -0.35359 -0.64599 -0.29552 -0.24711 0.58072 -0.19485 0.2561 0.3357 0.18123 0.13536 -0.13747 0.5969 -0.42894 0.40197 -0.53707 -0.43184 -0.045387 -0.22019 -0.18537 -0.50639 0.22922 -0.40694 0.18036 0.10785 0.34327 0.41704 -0.48567 -0.015364 -0.10633 -0.059517 0.20698 -0.52251 0.087035 -0.5192 -0.34895 0.23117 -0.094407 -0.11479 0.46822 -0.23069 -0.43138 0.50537 0.35 0.49151 0.60018 0.31562 0.072631 0.18387 0.37768 0.42964 0.20277 -0.093799 -0.091123 -0.11788 0.50977 0.21413 -0.1119 -0.26897 -0.31692 0.037153 -0.44668 0.13454 0.12413 0.92704 0.40296 
serial -0.066277 0.41114 -0.66623 -0.2373 -0.39594 -0.025886 0.48366 -0.037169 0.32072 0.17004 0.41018 -0.12069 -0.12861 -0.18996 -0.24767 0.67478 -0.22825 -0.3942 0.074447 -0.13093 0.66617 0.019617 -0.098803 -0.47375 0.32452 0.079875 0.23112 0.047263 -0.25608 -0.32431 -0.015202 -0.25513 -0.3051 -0.23678 -0.51627 -0.22636 0.17495 0.16596 -0.083099 0.21298 -0.028326 -0.095074 0.074077 0.29526 -0.15108 -0.86466 0.1281 -0.27514 0.62908 -0.1854 0.15307 0.46116 0.31961 0.17399 -0.42521 -0.18167 -0.51564 0.4806 -0.39757 0.040512 0.17824 0.01216 -0.22394 0.28339 -0.17652 -0.061808 -0.10446 0.050819 -0.2488 0.15734 0.04205 -0.14706 -0.024869 0.23453 -0.44854 -0.48824 0.058658 -0.59633 0.034665 0.5732 0.39612 0.20759 0.28262 0.050826 -0.052559 0.50509 -0.08836 -0.16768 -0.10789 0.64541 0.0097962 -0.016227 0.5159 -0.32401 -0.40717 -0.094148 -0.30723 0.033403 -0.11639 0.36455 
cash -0.54193 -0.16654 -0.33639 -0.21897 0.11052 -0.1688 -0.41229 -0.45399 -0.38767 0.30113 0.1322 -0.078635 -0.084976 -0.40773 -0.46381 0.031168 -0.52185 0.28511 0.09452 -0.26829 0.47526 -0.092864 0.19716 -0.30304 0.35484 -0.47339 0.1013 0.5966 -0.41448 0.15732 0.28557 0.34977 -0.060487 0.21296 -0.2845 0.12556 -0.25047 -0.046615 0.4755 -0.10334 -0.22982 0.24745 -0.17512 -0.16593 -0.044473 0.23239 0.1846 0.20294 1.0729 -0.040653 -0.22727 0.43007 0.0093194 0.081186 0.054105 0.070873 -0.78516 -0.088729 0.57658 -0.055978 0.51984 -0.090499 -0.4466 -0.76177 0.34475 0.34388 0.46737 -0.11253 0.47184 -0.28756 0.24969 -0.033934 0.27566 0.11328 -0.51152 -0.41761 0.2891 0.46716 -0.15489 0.097932 -0.00015269 -0.00046619 0.059544 -0.064135 -0.41247 -0.18583 -0.39786 0.13299 -0.54024 -0.10878 0.78586 -0.53465 -0.28791 -0.087715 -0.15784 0.12655 -0.25367 -0.21591 -0.12414 -0.13801 
television -0.02669 0.67567 -0.21488 0.097347 -0.13101 -0.13199 0.27325 0.37122 0.008019 -0.068125 0.010137 -0.15193 -0.52 -0.5362 0.013719 0.63167 0.28593 -0.014983 0.15317 -0.38512 0.16981 -0.22282 -0.21772 -0.30528 0.03845 -0.070143 -0.63306 -0.42143 -0.41209 -0.03709 -0.058688 -0.44006 0.50071 -1.0618 -0.055142 -0.027529 -0.1814 0.13713 0.066829 0.095504 -0.17482 0.046611 0.13493 0.30418 0.36397 0.52536 0.65459 0.23192 0.92421 -0.11379 -0.11559 0.11316 0.2678 0.20112 -0.48845 0.10806 -0.47461 0.11578 0.38267 -0.10239 0.42755 0.029444 -0.53352 0.50128 -0.11524 0.059162 0.14744 0.44439 -0.003511 -0.12946 -0.12219 -0.061301 0.03802 -0.11874 -0.45349 -0.10633 -0.20348 -0.11134 -0.28137 0.23367 0.11186 0.24665 -0.051857 -0.3941 0.32231 0.42414 -0.10066 0.033292 -0.29526 0.010381 -0.05758 0.57119 0.62751 -0.12252 -0.057551 -0.018677 -0.029343 0.088504 -0.16041 0.18773 
area -0.17887 -0.14402 -0.16978 -0.22916 0.11002 -0.4361 0.22291 -0.044252 0.22375 0.67199 0.071836 -0.36692 -0.54856 -0.35973 0.10794 -0.060692 -0.18915 0.25106 -0.063323 -0.25899 -0.058374 -0.0035343 -0.21534 -0.13855 -0.10643 -0.012275 0.13969 0.032714 0.091879 0.13901 -0.15067 0.19631 0.056334 -0.37464 -0.024327 0.1503 0.026676 -0.22378 0.34959 -0.18372 -0.57406 0.30033 -0.294 0.26579 -0.32498 -0.44719 -0.12115 0.21228 0.55952 0.010226 -0.15694 -0.025687 -0.018851 -0.49919 -0.5901 0.017989 -0.23499 -0.23477 -0.050031 -0.024345 0.012358 -0.2935 0.011722 0.070086 -0.28779 0.22685 -0.099671 0.66994 -0.30974 -0.30823 0.1949 -0.10573 -0.28532 0.3563 -0.26747 -0.1076 -0.046817 0.43614 0.20924 0.083099 -0.42712 -0.098224 -0.037695 0.28272 0.20326 0.20717 -0.47665 0.11147 0.27343 0.39763 0.039747 0.04926 -0.20402 -0.15317 0.37003 0.066258 0.08613 0.08984 0.45734 0.32964 
memorabilia -1.3451 0.022351 0.07087 -0.1154 -0.28362 0.13784 0.53613 0.14004 0.14083 0.80674 0.86859 -0.72687 -0.32706 0.069178 -0.40084 0.32843 -0.44415 0.024442 0.36517 -0.50011 -0.048336 -0.45065 0.040247 0.054969 0.093273 0.21077 -0.22409 0.60514 -1.3846 0.34455 0.18037 -0.20478 -0.060697 -0.051372 -0.21188 -0.56736 0.22098 0.030271 -0.067066 -0.044524 -0.37143 -0.11521 0.64379 -0.21334 0.13113 0.39241 0.28174 -0.5286 0.90155 0.09633 -0.00032388 0.41126 0.28942 0.13276 -0.54486 0.38217 -0.24266 -0.019853 0.027055 -0.086557 0.99756 0.39798 -0.20392 -0.17912 -0.138 -0.082776 0.25303 -0.14392 -0.077384 -0.44344 -0.40146 -0.04344 0.24733 0.33192 -0.3409 -0.12854 -0.0044356 -0.26417 0.88059 0.072068 0.31598 0.038824 0.041744 -0.10519 -0.25206 0.32822 -0.69585 -0.67762 -0.085289 -0.06308 0.43481 -0.21374 0.30521 0.14212 0.48491 0.39994 -0.19075 -0.08199 0.28681 0.46172 
recognition -0.48999 -0.28089 0.28442 0.12671 0.64412 -0.15309 0.49285 -0.044885 -0.442 0.0029271 -0.61874 -0.16846 0.015349 -0.57946 -0.29793 0.12959 -0.36085 -0.3735 0.19788 -0.10102 -0.15697 -0.34564 -0.22596 0.14842 -0.0098602 0.34175 -0.058824 -0.33314 -0.6974 0.07702 0.036538 0.046384 0.1337 0.14669 -0.081223 0.16283 -0.0082889 0.18809 0.20602 -0.31688 -0.067786 0.39257 0.33324 0.078866 0.13243 -0.21903 -0.12532 0.42872 0.55718 0.24433 -0.23886 -0.687 -0.022436 0.145 -0.43836 0.014142 -0.12279 0.28674 0.076641 0.034993 0.57224 -0.13549 0.098357 0.037526 -0.53311 -0.047395 -0.42037 0.33833 0.085465 -0.43371 0.41467 0.10882 0.29465 0.12465 -0.6227 -0.64089 -0.046807 0.070476 0.26536 0.16708 0.13832 0.21928 -0.054208 0.27194 0.36966 0.31136 -0.1984 0.11375 -0.2359 -0.14786 0.52778 -0.011796 -0.17122 0.061177 -0.58676 -0.33837 0.067417 0.16596 -0.047374 -0.044434 
tableware -1.3737 0.12085 -0.53923 -0.079347 -0.46081 0.16705 0.1446 0.15753 0.10976 0.35537 -0.031354 0.10416 -0.55449 0.29646 -0.43718 -0.17748 -0.015656 -0.37903 0.042558 -0.16828 0.41019 -0.19652 0.13445 -0.24064 0.14327 -0.18796 0.28939 0.060539 -0.49302 0.76482 0.2285 0.41197 -0.0071967 0.097739 -0.038622 0.4861 0.11091 0.093178 0.20918 0.26692 -0.3057 -0.043564 -0.21987 -0.21945 -0.36019 0.10802 -0.074935 -0.0090452 0.67104 0.0060676 0.16712 -0.0087362 0.40007 -0.068309 -0.10825 0.18439 -0.19693 -0.18124 0.14342 -0.1216 -0.051509 0.35437 -0.47861 -0.27656 -0.032467 -0.5447 0.40198 -0.23562 -0.019822 -0.095622 0.17627 0.17182 -0.072071 0.13793 -0.14098 -0.65429 -0.030058 -0.13363 0.16851 -0.1842 -0.26196 0.16064 0.50733 -0.48068 0.47343 0.14603 -0.4484 -0.53629 -0.1506 0.012161 0.52051 0.047682 0.12307 0.1282 0.20055 -0.15056 0.12662 -0.14016 0.19807 0.48623 
cat -0.39168 0.34561 -0.42257 -0.053784 -0.059104 -0.19133 0.53299 -0.11396 -0.079696 0.17978 0.29283 -0.31482 -0.3206 0.17842 0.1558 0.96587 -0.12681 -0.13505 -0.23662 -0.15038 0.34163 0.0045392 -0.3804 -0.67694 0.099473 -0.085787 0.41466 0.42233 -0.26172 0.074243 0.7189 0.69654 -0.024256 -0.64477 -0.26421 0.015674 0.027493 0.15346 0.14796 0.34363 -0.17913 0.1443 -0.060637 0.050608 -0.66262 0.29425 0.044851 0.17639 0.46076 -0.074532 0.41585 0.16786 0.4691 -0.38919 0.11109 -0.43518 -0.30673 0.075948 -0.53589 -0.025891 0.23526 -0.47503 0.48024 -0.076787 0.26114 -0.78708 0.34195 0.016279 -0.021178 0.2171 0.10916 -0.13192 -0.21624 0.73665 -0.48042 -0.4695 -0.0077696 0.026732 0.51939 -0.14074 -0.11741 0.38195 0.21849 -0.2095 0.1441 0.32098 0.1452 0.33673 0.12278 0.3054 0.68731 0.2716 0.13354 -0.29952 0.12298 0.089118 -0.11583 0.04778 -0.37959 0.32215 
record -0.017848 -0.12764 -0.11051 -0.21153 -0.047959 0.033786 0.279 0.071185 0.41916 0.20581 -0.037387 -0.13659 -0.12942 -0.26456 -0.16357 0.010565 -0.16042 0.023231 -0.43849 -0.48319 0.54248 -0.39858 -0.14337 -0.78623 -0.14572 -0.023021 0.35145 0.04027 -0.19331 0.82883 -0.064446 0.024231 0.31742 -0.069384 0.050425 0.083766 0.51698 0.042239 0.075511 -0.051088 -0.21318 -0.025768 0.15239 0.29261 0.045086 0.33782 0.21422 -0.24804 0.034641 0.72271 -0.0040432 0.35099 0.35358 0.28587 0.20675 -0.13921 -0.05422 -0.062166 0.32079 1.0944 0.29999 0.56744 -0.25752 -0.089226 -0.13261 0.090646 -0.15822 0.20296 0.10971 -0.50813 0.17906 0.34935 0.089695 0.13975 -0.15262 -0.43518 0.66852 -0.25145 0.66347 -0.077611 0.11634 -0.088025 0.34316 -0.030493 -0.075837 0.45546 -0.022593 0.79542 -0.19725 -0.021416 -0.015199 -0.098784 0.16849 -0.21977 -0.3231 0.14711 -0.27156 -0.34217 -0.12981 0.095489 
office -0.18679 -0.0087425 -0.20758 0.21536 0.2504 0.20133 0.091891 0.25028 -0.27692 0.30554 -0.23758 -0.30564 -0.30489 -0.35376 -0.060265 -0.36754 0.19397 0.012079 0.079844 -0.15029 0.68144 -0.35786 -0.15476 -0.63345 -0.279 -0.053254 0.041172 -0.1933 -0.15361 -0.036952 0.45548 -0.32271 0.22096 -0.14671 -0.2465 0.29514 0.12807 -0.12207 0.20208 0.57803 -0.73152 0.093028 0.049085 0.14825 0.16025 0.33267 0.050138 0.035667 0.51467 -0.43928 -0.068875 0.068898 0.074983 -0.50429 -0.20768 0.16484 -0.23531 0.29688 0.30433 -0.057688 0.08236 0.47309 0.11157 -0.33901 -0.32817 0.40652 -0.53057 -0.20758 -0.38002 -0.38767 -0.25605 0.10934 -0.35233 0.66688 -0.42307 0.15709 -0.23411 0.20822 0.21578 0.28603 0.18337 0.2045 0.19002 -0.10515 -0.18328 0.054945 -0.18211 0.053709 0.002902 0.44091 0.72578 0.10848 0.10794 -0.24442 0.28832 0.15745 0.073553 0.10133 0.45241 -0.028596 
moon -0.17258 0.25437 0.17968 0.081991 0.14643 -0.019932 0.34836 0.087285 0.03341 -0.17274 -0.26266 -1.0281 0.23644 0.13547 0.13875 -0.31229 0.074084 -0.13934 0.29536 -0.3639 0.64586 -0.90279 -0.11239 -0.14997 1.0239 -0.63505 0.4656 -0.60728 -0.7327 0.20744 0.43576 1.1542 0.61011 -0.61965 0.075677 -0.96452 -0.22989 -0.41796 -0.36978 -0.1709 -0.3149 0.56202 0.0034266 -0.17723 -0.52485 -0.34994 0.53752 0.13995 0.78081 0.59764 0.52829 0.44124 0.34663 -0.68575 -0.17185 -0.0050089 -0.19705 0.24419 0.15775 0.15158 0.029375 0.1268 -0.027935 0.49394 -0.4756 -0.36544 -0.23045 -0.1431 -0.0302 -0.42398 0.55714 0.39929 0.16262 0.19987 -0.75072 -0.43465 -0.28129 0.55512 0.11152 -0.71996 -0.082911 -0.0052434 0.11776 -0.68499 0.15029 0.053167 -0.26439 -0.24668 -0.057214 0.22731 -0.15568 0.44914 0.40898 0.25042 0.41639 0.22624 0.207 0.18121 0.2042 -0.11378 
combination -0.43767 0.12419 -0.7102 -0.25687 -0.077876 -0.23695 0.31296 -0.16002 -0.16232 0.17583 -0.56322 0.16019 -0.19139 -0.23243 0.084719 -0.019385 -0.70397 -0.54936 0.079381 -0.043342 0.42002 -0.023054 0.2177 0.061233 -0.24123 0.039374 0.4921 0.091258 -0.39852 0.14557 0.26154 0.14977 0.073096 0.030493 -0.074722 -0.23372 0.15078 0.10413 -0.18012 -0.49184 -0.3135 0.06115 -0.022344 -0.017361 0.12903 -0.0141 -0.13922 0.040473 0.1946 0.162 0.010214 -0.23607 0.23618 0.19626 -0.10719 -0.20233 -0.017793 -0.25101 -0.1267 0.10334 0.16091 -0.238 -0.2278 0.12907 -0.13669 -0.32957 0.345 0.12381 0.097364 -0.55115 0.13708 -0.093021 -0.031127 0.12502 -0.20324 -0.23018 0.066992 0.49673 0.066118 0.27655 -0.085507 -0.093669 0.11103 -0.0682 0.53648 -0.37389 -0.076935 0.12694 -0.03834 0.087751 0.38301 -0.58901 0.15873 0.22898 -0.5306 -0.037745 -0.1358 -0.12679 0.16062 0.45102 
importance -0.15552 -0.41134 0.10951 -0.17351 0.60673 -0.42491 0.12763 0.16093 -0.05025 -0.12673 -0.62959 -0.46745 -0.021769 -0.28128 0.24258 -0.23331 -0.27294 -0.16415 -0.2767 -0.32415 0.021283 0.25742 0.26983 -0.3867 -0.17377 0.28793 0.33564 -0.44613 -0.17379 0.25957 -0.32007 -0.03262 -0.46682 -0.3624 -0.0086154 -0.38633 -0.10138 -0.11379 0.33988 -0.058182 0.12159 0.35839 -0.2248 0.1253 0.050496 0.38711 0.24727 0.38043 0.47982 0.33548 -0.24587 -0.85229 0.14373 -0.0036437 -0.52508 0.43441 -0.36103 0.02184 0.18929 -0.10129 0.437 -0.29399 -0.20611 -0.14417 -0.13785 -0.3617 -0.091401 0.32168 0.088866 -0.475 0.31938 0.48973 0.22329 0.034104 -0.56909 -0.3092 -0.082494 -0.32883 0.41613 0.023484 0.043629 0.097349 -0.052631 0.38509 0.045533 -0.0094001 -0.29871 -0.060777 -0.014407 0.52842 0.37788 0.20856 0.16717 0.49386 -0.26673 0.31942 -0.14636 -0.61126 0.053091 0.19859 
production -0.13483 0.19502 0.15182 -0.33655 -0.0011996 -0.015639 0.13918 -0.10951 0.017795 -0.34923 -0.0032653 -0.047766 -0.28302 0.080619 0.15804 0.10499 0.28822 -0.021466 -0.026461 -0.58164 0.40702 -0.035838 0.50569 0.14141 -0.29708 -0.12695 0.034256 -0.26022 -0.33788 0.097299 -0.085062 0.20371 0.21931 -0.2202 -0.31153 0.1686 0.52111 -0.04347 -0.10712 -0.16284 0.013606 0.0081248 0.071673 0.43331 0.044275 0.22116 0.16812 0.18932 1.212 -0.62355 0.21302 0.31693 0.33456 0.59345 -0.57477 -0.37351 -0.28004 -0.54558 0.43185 -0.25296 -0.11535 -0.0018941 -0.22612 -0.10201 -0.63097 -0.011852 -0.14027 -0.15547 0.053705 -0.55532 0.25946 -0.31266 0.06041 0.38643 -0.31911 -0.39744 0.33674 -0.31005 -0.33818 0.11136 0.078605 -0.50393 0.17786 -0.090469 0.51635 -0.33248 -0.29381 0.87753 -0.58424 0.012224 0.012857 -0.18238 0.24427 0.53248 0.35971 0.23112 0.040206 0.57109 -0.058597 0.56245 
conclusion 0.031425 0.075278 0.2868 -0.018172 0.1457 0.073366 0.34284 -0.05159 -0.30237 0.077737 -0.35286 -0.31265 0.25256 -0.050673 0.22297 -0.16531 -0.34274 -0.018213 0.44607 -0.31025 0.68044 -0.54305 0.24935 -0.27449 -0.080656 0.38304 0.75826 0.28096 -0.23376 -0.13689 0.29142 0.11591 0.36673 -0.46731 0.02673 0.12128 -0.49806 0.059578 -0.47278 0.022241 0.15286 -0.015397 0.20646 0.23472 0.27703 -0.17382 0.14423 -0.08442 0.020984 -0.14235 0.29138 -0.25939 -0.11445 0.057227 -0.46877 -0.29951 -0.40613 -0.11945 0.20696 0.44784 0.37236 -0.091071 -0.1142 0.10711 -0.18128 -0.34902 -0.32813 0.44877 0.065597 -0.89877 0.30583 0.2078 0.01375 0.49788 -0.15692 -0.41306 0.018943 -0.1612 0.16494 -0.020291 -0.26752 -0.02476 0.036038 -0.09423 0.16798 0.076278 -0.11536 -0.13073 0.12889 0.42758 -0.25233 -0.28578 0.21987 -0.085164 -0.22409 -0.080856 0.075564 0.028548 0.4388 -0.17307 
drought 0.17157 -0.33348 -0.50574 -0.49922 -0.059254 -0.41312 0.29046 -0.20911 0.4153 -0.56543 -0.068429 0.37569 -0.38272 -0.65052 0.40682 0.23677 -0.20153 -0.0027035 0.29496 0.20217 0.69458 -0.19176 -0.42098 -0.0097859 -0.6258 -0.57673 0.31545 0.3902 -0.60092 0.3811 -0.38918 0.67987 0.48673 -0.0526 -0.017848 -0.9082 -0.18848 0.40635 -0.04278 -0.047921 -0.56134 0.077331 -0.20525 0.3619 -0.18717 0.010745 0.21405 0.090899 0.33923 0.10557 0.26473 -0.036489 0.63592 0.032269 -0.10463 -0.37326 -0.65598 -0.21397 -0.11122 -0.29273 0.41622 0.21734 0.31267 0.53773 -0.66163 0.43833 -0.27991 0.52786 0.26819 -0.68031 0.73136 0.13661 -0.19126 -0.31387 -0.041159 -0.37 0.54445 -0.048166 0.53039 -0.071927 -0.68686 -0.33397 -0.51683 -0.18732 0.23589 -0.072811 -0.11533 0.88476 -0.12739 0.15678 -0.11428 -0.029636 -0.83083 -0.57478 -0.63022 -0.018936 0.46887 -0.020498 -0.3391 0.44482 
consumer -0.46899 0.13362 -0.26012 0.34333 -0.1509 0.2756 -0.22669 -0.02834 -0.21919 0.4161 -0.12702 0.19103 -0.41957 0.064726 0.0077212 0.36861 0.066179 -0.091719 0.37724 -0.10785 0.40776 -0.35527 0.60032 0.0059257 -0.20716 0.083003 -0.006959 -0.05315 -0.89313 0.60595 0.34973 -0.071448 -0.83745 -0.78383 0.28919 0.27746 0.58632 0.082189 0.1601 0.047779 -0.057701 0.49987 -0.47682 0.5343 -0.6106 0.57727 0.40023 0.29252 0.51943 0.43554 -0.21514 0.055353 0.38368 0.5413 -0.35587 0.16307 0.037375 -0.31712 0.19235 0.11524 0.050767 -0.21181 -0.022861 -0.13783 -0.030011 -0.069616 -0.14748 0.30837 0.13192 -0.46525 0.049189 0.31189 0.35986 0.16607 -0.18664 -0.091367 0.12782 -0.2054 -0.23582 0.12428 -0.14476 -0.03399 0.021221 0.36062 0.4512 -0.44819 -0.090252 0.42836 -0.11828 0.33871 0.88193 0.27593 0.2459 -0.61483 -0.58311 -0.20983 0.068775 0.13785 0.048617 0.48288 
isolation 0.13793 0.40912 -0.23824 -0.15987 0.66132 -0.26308 0.22676 -0.0023798 -0.14686 -0.095564 -0.30352 -0.13917 0.19175 0.081816 0.25553 0.22934 -0.22411 -0.2258 0.10977 -0.0068325 0.34734 -0.09376 0.24712 0.29853 -0.25186 0.028918 0.5976 0.027146 -0.23404 -0.45085 0.30243 0.4769 -0.27868 -0.11325 0.51751 0.040917 -0.25224 0.13749 0.34146 -0.036629 -0.61584 0.10383 0.26545 0.26573 0.07543 -0.52707 0.22369 -0.030264 0.7042 0.41577 0.0012286 -0.45843 -0.087233 0.12197 -0.17979 0.15768 -0.28138 0.24555 0.054973 -0.062082 0.39791 -0.041866 0.16865 -0.23402 -0.35347 -0.013006 -0.27756 0.44832 -0.14091 -0.8222 0.22432 0.32702 -0.19705 -0.079843 -0.56493 0.0042321 -0.04154 0.35309 0.051731 0.10922 -0.45288 0.28526 0.020146 -0.33592 0.61309 0.25964 -0.049083 0.43768 -0.34492 0.34823 0.28819 -0.031819 -0.2639 0.02693 0.13396 0.029342 -0.039754 -0.32395 0.12304 0.097273 
food -0.36919 -0.027216 -0.76291 0.024225 0.27648 -0.40526 -0.19536 0.14469 -0.037613 0.11912 -0.16838 -0.32138 -0.33124 0.16973 0.021343 0.56981 0.063356 0.10397 0.28925 -0.028884 0.20006 -0.35045 0.23549 -0.17964 -0.14301 -0.5111 0.53865 -0.20913 -0.62893 0.40052 -0.058506 0.60521 -0.167 -0.52903 0.33554 0.22108 -0.066307 0.46417 0.086223 -0.017423 -0.36381 -0.052339 -0.30517 0.070089 -0.55721 0.45452 0.37077 -0.056688 0.96346 -0.55572 -0.36274 -0.31749 -0.090773 0.1991 -0.61125 0.079968 -0.37094 -0.14222 -0.28209 -0.053081 0.12621 0.12212 0.42738 -0.055678 -0.12341 -0.50753 0.29234 -0.16416 0.21448 0.00014121 0.4283 0.43535 0.027846 0.072223 -0.27784 -0.057669 0.3528 -0.46393 -0.0044316 -0.094833 -0.3743 -0.068565 -0.49884 0.011786 0.44042 -0.12147 -0.11644 0.483 -0.17214 -0.030381 0.59859 -0.18163 -0.29986 -0.25459 0.15708 -0.38843 0.19768 0.093312 0.039379 0.45923 
territory 0.21968 -0.19619 -0.012894 0.059336 0.51066 -0.60446 0.39917 -0.096926 0.036316 0.3506 -0.40707 0.10295 -0.33635 0.34305 -0.011212 0.45569 -0.06068 0.36108 0.19571 -0.49163 0.41503 -0.090866 -0.16463 -0.0030236 -0.14428 0.2138 0.16029 0.11769 -0.17389 -0.06413 -0.29742 0.32691 0.26089 -0.47577 0.28722 0.23827 0.29712 0.14393 0.17967 -0.13819 -0.10666 0.20539 -0.11149 0.036816 0.0077353 -0.53838 0.70818 0.053055 0.42681 0.17237 0.47291 0.042341 -0.17722 -0.018433 -0.62982 0.1055 0.23701 0.43833 0.25762 0.070591 0.11377 -0.41195 -0.056841 -0.23562 -0.01101 0.25885 0.30928 0.4441 -0.03575 -0.89553 0.63728 -0.2082 0.33222 -0.066504 -0.37671 -0.28582 0.12028 0.66612 -0.075876 -0.011729 0.26855 -0.26063 -0.33783 -0.16007 -0.077631 0.72569 -0.49214 0.37434 0.14173 0.50242 0.7169 0.41763 -0.047886 -0.11727 0.32876 0.57259 -0.26122 0.09172 0.25845 0.41337 
row 0.0096496 -0.038863 -0.34379 -0.084763 -0.5794 -0.25681 0.46061 -0.006876 0.30732 -0.3688 0.47957 0.40297 -0.15081 -0.26574 -0.053847 0.20649 0.17877 -0.45054 0.28768 -0.46553 0.14699 -0.30182 -0.25808 -0.11494 -0.21467 -0.15375 0.095223 0.11345 -0.1821 -0.020859 -0.51736 -0.23425 0.038801 -0.24513 -0.10007 0.46473 0.078218 0.39155 -0.18773 0.30185 -0.46475 0.37588 0.029277 0.27554 0.14541 -0.012734 0.061852 -0.29741 0.30472 -0.42693 0.21524 -0.075975 0.029615 -0.086643 -0.23415 -0.30923 0.034091 0.23303 -0.0052753 0.49027 0.37672 -0.2566 -0.088688 -0.11768 -0.10291 0.071971 -0.60601 0.27506 0.044472 -0.7694 0.24727 0.261 -0.22684 0.22871 -0.16353 -0.24818 0.19429 0.026641 0.36634 0.21475 -0.46806 -0.02939 0.62361 -0.23358 0.38289 0.055728 -0.083012 -0.059765 0.21858 0.11068 0.21223 -0.0038651 -0.0056967 -0.13395 -0.094012 0.32088 -0.1112 -0.41762 -0.13214 -0.064255 
lawyer -0.14854 -0.30474 0.16979 -0.14651 0.3937 0.4881 0.087643 -0.26163 0.32527 0.42559 -0.034289 -0.43802 0.0461 -0.04821 0.28872 0.069977 -0.48625 -0.053607 -0.25389 -0.11459 1.0134 -0.33294 0.028731 -0.59553 -0.18179 0.07552 0.039812 0.66419 -0.05867 -0.15497 0.77479 -0.1006 0.55297 -0.24743 -0.25277 0.53846 -0.010608 0.19226 -0.45563 0.061715 0.072774 0.21122 0.34007 0.32485 0.35767 0.2524 0.60287 -0.23166 0.19226 -0.17782 -0.32159 -0.42786 -0.24549 0.21335 -0.70292 0.23312 0.010719 0.65438 -0.075667 -0.38765 0.49655 -0.15251 -0.083954 0.3952 -0.10776 0.32226 -0.46965 0.24014 -0.80067 0.0012715 -0.42817 -0.054115 -0.28961 0.24668 -0.32259 -0.018335 -0.019781 -0.35992 0.45445 0.51552 0.56401 0.27777 0.27972 -0.12364 0.12395 -0.43946 -0.44236 -0.077079 -0.070116 0.35508 0.13358 0.17974 0.40662 -0.80434 0.11808 0.19932 0.18072 -0.37954 -0.16273 0.24908 
implement 0.15412 0.026737 -0.25792 0.20264 0.24253 0.24022 0.062596 -0.56007 -0.35434 -0.24474 -1.0103 0.074269 -0.092617 0.082448 0.22088 -0.48694 -0.35397 -0.47849 0.23367 0.057663 0.21997 0.23349 0.23905 -0.40258 -0.35717 0.26965 0.39703 -0.17225 -0.34987 0.27473 -0.0071919 0.27459 0.11215 0.65319 -0.010336 0.57344 -0.16394 -0.13217 0.16637 0.23593 -0.41235 -0.081582 0.14502 0.29089 0.022636 -0.03901 0.085426 0.63451 0.73818 -0.11579 -0.4569 -0.10138 0.059331 0.00026605 -0.31012 0.20962 -0.17859 -0.28629 0.14866 0.54356 0.43501 -0.22123 0.048939 0.17363 -0.52884 0.34237 -0.15569 0.056215 0.034234 -0.080795 0.36635 -0.13367 0.58808 0.265 0.18572 -0.43886 0.22675 0.21618 0.2101 0.036847 -0.21532 0.37313 0.088325 -0.10491 0.21369 -0.32201 -0.58105 0.19187 -0.65673 0.5009 0.28403 0.096988 0.26407 -0.47604 -0.34086 0.070712 0.15467 0.044975 0.61284 0.45571 
deployment -0.1085 -0.50956 -0.21857 -0.18281 0.27699 -0.016322 0.72104 0.056547 -0.23236 -0.15281 -0.44455 -0.052917 -0.062195 0.015412 0.019556 -0.43096 -0.26879 -0.46544 0.31735 -0.21732 0.56687 -0.41071 0.41776 -0.048408 0.11373 0.16922 0.081743 -0.44915 0.029189 -0.38659 -0.51599 0.070558 0.41562 0.18949 0.042006 0.15146 0.040654 -0.20092 0.15419 -0.64127 -0.070523 0.18335 0.033946 -0.19454 -0.52924 -0.0089085 0.22196 0.30694 0.46162 -0.48023 -0.031919 0.077881 0.70254 -0.24635 -0.19026 0.47192 0.074317 0.1754 0.34976 0.13314 0.51442 -0.24877 -0.53611 0.23966 -0.91812 0.33358 -0.66434 0.10489 -0.40604 -0.38652 0.56621 -0.029232 0.59237 -0.074189 -0.12512 -0.61747 -0.31515 0.50944 -0.14678 0.23448 -0.70375 0.47673 -0.016263 -0.072038 -0.12628 -0.23006 -0.46239 0.52049 -0.1172 0.20241 0.29644 0.035055 0.17052 -0.28249 -0.11169 0.24191 0.16732 0.24531 0.71431 0.54151 
month 0.058831 -0.083476 0.24728 -0.44068 0.10937 0.12625 0.25045 0.016684 0.1389 -0.09738 -0.15533 -0.26103 -0.26655 -0.12399 -0.37839 -0.022624 0.041344 0.15046 0.36843 -0.50009 0.25195 -0.028377 -0.60103 -0.06297 -0.15253 -0.47047 0.066938 0.19769 -0.14655 0.29446 -0.11892 0.11453 -0.25916 -0.52503 -0.10108 0.64494 0.31174 0.30499 -0.3055 0.080009 0.050972 -0.0075867 0.46831 0.44083 -0.26022 0.19031 0.059901 -0.23097 0.25489 -0.28082 -0.13636 -0.11543 0.13298 -0.41135 -0.26074 0.34695 0.14457 -0.32316 0.33866 0.46879 0.30733 -0.15957 -0.27727 -0.24081 -0.1382 0.24656 -0.19697 -0.021634 0.40859 -0.54458 -0.052723 0.020257 0.14355 0.014331 -0.29737 0.21017 0.23426 0.14112 0.0017968 0.35005 -0.25197 0.08865 0.36331 -0.023956 0.028771 0.023116 -0.5065 0.34057 0.42948 0.26865 0.17938 0.098179 0.049445 -0.3157 -0.3678 0.10404 -0.1999 0.10376 0.3301 0.25244 
substance -0.013285 0.29747 -0.48127 -0.55089 0.54906 -0.30917 0.073632 0.23771 -0.2382 0.13512 -0.66643 -0.25568 -0.38744 -0.34548 -0.0036474 0.23424 -0.32267 -0.4523 0.075461 -0.54512 0.37134 0.054738 0.38884 -0.10277 -0.20534 -0.1305 0.94635 0.19952 -0.54564 0.13102 0.65273 0.24703 -0.076628 -0.52671 -0.57319 -0.58144 0.019171 -0.56095 -0.37139 0.25273 -0.58834 0.07595 -0.26576 -0.37945 -0.1667 -0.24461 0.32895 -0.34335 0.33757 -0.10004 -0.058356 -0.027188 0.40039 0.32413 -0.3882 0.28349 -0.24464 0.11794 -0.094461 -0.20824 0.32285 -0.075192 -0.049495 -0.091038 -0.0021378 -0.18783 0.28146 -0.046349 -0.11889 -0.56281 0.0037303 -0.10185 0.010805 0.4898 -0.29703 0.0407 0.17329 0.17341 0.29627 -0.078831 0.2485 0.29317 -0.10199 0.26894 0.30172 -0.04487 0.22751 0.28009 -0.022181 0.071721 0.044124 0.22695 0.039172 0.19517 0.1471 -0.24375 0.42372 -0.5134 0.43962 0.29113 
world 0.0063818 0.032308 0.097613 -0.32844 0.1396 -0.21911 0.2859 -0.024346 0.3028 0.29127 -0.23952 0.23874 -0.43504 0.65115 -0.14016 0.45574 -0.00057425 -0.1855 -0.10781 -0.21941 0.37678 -0.076773 -0.11403 -0.10049 -0.5741 -0.39294 -0.070659 -0.16577 -0.33274 0.38428 0.1684 0.14096 0.17545 -0.094927 0.014289 -0.18728 0.068286 -0.050957 -0.097969 0.29106 -0.060075 0.4533 0.24116 0.16932 -0.21258 0.040211 0.22066 0.16214 0.27315 0.53428 0.30035 -0.23335 0.47118 0.04948 -0.40304 -0.27486 -0.4325 -0.25697 -0.24169 0.64023 0.083155 0.29074 -0.45221 0.033459 -0.17715 -0.082645 0.035028 0.22399 0.020757 -0.22262 0.31097 0.66496 0.10709 -0.050166 -0.41238 -0.071968 0.076704 -0.5659 0.45874 -0.35767 -0.20051 0.3719 0.18977 0.22921 0.37837 -0.049043 -0.28729 -0.052386 -0.21162 0.54927 0.27372 -0.051967 0.055684 0.12757 -0.21534 0.48663 -0.53905 0.12549 -0.033468 -0.17854 
rooster -0.19682 0.5138 -0.060974 -0.30786 0.49154 -0.14513 0.42155 0.19771 0.076625 0.0251 0.051877 0.046516 -0.52814 -0.0067627 0.29642 0.53887 0.017266 -0.13969 -0.10692 -0.11114 0.26714 -0.16595 -0.56867 -0.53139 0.62188 -0.436 0.15289 0.12026 -0.13744 0.2599 0.76626 0.9748 0.21778 -0.44051 -0.34814 -0.37483 0.14652 0.2638 -0.16331 -0.17879 -0.0078692 -0.047196 0.085891 0.19113 -0.17373 0.0079163 0.28053 -0.026916 0.4615 -0.13997 -0.029143 0.17135 0.39365 -0.80367 -0.43968 0.12887 -0.2002 0.18365 -0.28746 0.1052 0.086572 0.017871 0.3385 -0.08116 0.18882 -0.55037 0.12907 -0.1218 -0.34005 0.03557 0.095011 -0.18277 -0.41769 0.71449 -0.17035 -0.41875 -0.14431 0.47234 0.34429 -0.23383 -0.23734 -0.16224 -0.082972 -0.58409 0.25382 0.1604 0.044236 -0.35443 0.19369 -0.15422 0.1369 0.32431 0.41198 -0.078028 0.23093 -0.15185 -0.30615 0.005717 -0.37123 0.28287 
preparation -0.10214 -0.29244 -0.20291 -0.53741 0.19878 0.27033 0.28398 0.08927 -0.2484 0.091095 -0.58334 -0.028716 -0.18403 -0.098538 0.23793 -0.070691 -0.024282 -0.20574 0.29139 -0.23851 0.45674 0.066385 0.38196 -0.39627 0.04751 0.06107 0.31088 -0.13109 -0.37149 -0.033638 -0.26707 0.20151 0.10136 -0.028815 -0.060631 -0.18312 -0.048186 0.12341 -0.26022 -0.067119 0.18072 0.034935 -0.071269 -0.13651 0.28184 -0.018956 0.17453 0.22146 0.47815 -0.47105 -0.29828 -0.09485 0.14437 -0.43846 -0.42438 0.18927 0.093771 -0.14829 -0.067569 0.32951 0.46742 -0.033861 0.15602 -0.15806 -0.32269 -0.18994 0.06997 -0.10848 0.18746 -0.80159 0.18493 0.39183 0.10575 0.11439 -0.14387 0.067538 0.11485 0.1918 0.18863 -0.018578 -0.091187 0.22666 0.14007 -0.37248 0.2253 0.13024 -0.4401 0.21708 -0.050968 -0.21981 -0.22815 -0.42517 0.2522 -0.13089 -0.097772 -0.27398 0.11486 -0.26101 0.34297 0.52461 
Harvard -0.17071 0.085494 0.59697 0.05374 -0.32594 0.23709 -0.29762 -0.33405 -0.45398 0.20116 0.31911 -0.49583 -0.34059 -0.72809 -0.29791 -0.11254 -0.042894 -0.58103 0.32348 -0.065573 0.87719 -0.18122 -0.24719 0.10759 -0.60788 -0.71218 0.43768 0.10276 -0.11712 0.26199 0.32015 -0.10447 -0.50668 0.17177 -0.30233 0.38374 -0.47749 0.2426 0.17553 0.032729 -0.38743 0.30949 0.32401 0.11334 0.51576 0.030863 0.033717 -0.27029 -0.070121 0.78086 -0.14793 -0.31785 0.68507 -0.15853 -0.56298 0.66238 -0.79599 0.1043 -0.27411 -0.15331 0.17327 -0.64921 -0.2063 0.43449 0.30578 -0.48181 -0.21866 -0.36168 -0.59476 -0.46366 0.31512 0.36626 -0.32546 0.44783 -0.39256 0.15764 -0.39898 -0.21712 -0.042105 0.070855 0.60152 0.21338 -0.24697 -0.71957 0.41254 -0.26345 0.18078 0.1956 -0.19244 0.089416 0.17255 0.14689 0.55793 -0.33197 -0.37393 0.48701 0.10386 -0.47549 0.39792 -0.040192 
brother -0.056395 0.35536 -0.010476 -0.47764 0.62131 0.17524 0.67681 -0.19404 0.016291 0.23917 0.36546 -0.30404 -0.1825 0.28525 0.16194 0.16589 -0.24917 -0.27959 -0.3408 0.091282 0.52718 -0.2326 -0.32635 -0.43339 0.22112 -0.59513 0.22067 0.16089 -0.2641 -0.55697 -0.071457 0.10272 0.2756 -0.089842 -0.76463 0.099923 0.4482 0.0051737 -0.06167 0.2339 -0.36385 0.085996 0.11767 0.40062 0.034041 0.46415 0.44863 -0.14138 0.42255 -0.059074 -0.52784 -0.28897 0.33869 -0.25895 -0.42207 0.19917 0.034737 0.22923 -0.37914 0.0025511 0.40219 -0.22204 -0.19796 0.34098 0.45995 -0.1107 -0.30923 0.64045 -0.12751 0.13486 -0.13185 -0.32774 -0.14107 0.57455 -0.35816 0.060199 -0.095679 -0.25429 0.47213 0.62362 0.2329 -0.048586 0.29642 -0.51617 0.086472 -0.40637 -0.15399 -0.3409 -0.2158 0.0025279 -0.014133 0.37617 -0.0013443 0.027559 -0.0515 0.775 -0.18319 -0.080071 -0.32645 -0.24291 
day -0.27918 -0.27433 -0.077228 -0.53147 0.062298 -0.13689 0.25597 0.10455 -0.019075 0.15214 -0.18218 -0.12034 -0.40639 0.12211 0.044738 0.074695 0.17547 -0.088633 0.20078 -0.25601 0.31295 -0.072726 -0.51042 -0.29671 -0.074013 -0.60646 0.13778 -0.12291 0.18832 0.093759 -0.092139 0.12775 0.28706 -0.82847 -0.22605 0.16915 -0.014816 -0.098281 -0.10512 0.065713 -0.015559 -0.089447 0.38746 0.20501 -0.067288 0.2061 0.34524 -0.081322 0.15469 -0.040607 -0.059218 0.05659 -0.016545 -0.55833 -0.2792 0.014357 -0.10145 -0.43584 -0.066606 0.29341 0.40086 0.0030992 0.005672 -0.39517 0.093916 0.083312 -0.0023338 -0.036659 0.3536 -0.49372 -0.11634 0.40911 0.073965 0.10399 -0.34852 -0.081402 0.079889 -0.015941 0.27932 0.21866 -0.12584 0.13967 0.28678 -0.39625 0.11457 -0.22866 -0.27622 0.22006 0.098323 0.17581 -0.0076291 0.017008 0.069122 0.017059 -0.1698 0.083169 -0.0097778 -0.057979 0.24089 0.17431 
mouth -0.52818 0.85371 -0.11242 -0.15315 0.047542 -0.38806 0.68397 -0.36328 -0.010059 0.57483 -0.21831 -0.25581 -0.89246 0.029927 0.36395 0.50217 -0.12667 -0.43101 -0.22136 -0.65689 0.55141 -0.047553 -0.55425 -0.0026113 -0.032255 -0.20941 0.11943 -0.33047 -0.279 0.17778 0.17847 0.65541 0.18727 -0.391 -0.17343 -0.26774 -0.26079 0.37514 0.046717 -0.18276 0.010342 -0.67425 -0.26436 0.10501 -0.18566 -0.17267 -0.25013 0.30608 -0.038913 -0.24139 0.050041 -0.040477 0.08079 -0.48284 -0.19872 -0.14619 -0.60689 0.31733 0.42212 0.012884 0.23144 -0.35451 -0.14685 -0.62168 0.086581 -0.43196 -0.0092258 0.22254 0.16752 -0.35059 0.44376 -0.69502 -0.41326 0.34228 -0.60407 -0.20605 0.20183 0.08441 0.43173 0.10929 0.35977 0.37076 -0.0040552 -0.025368 0.1792 -0.13654 0.068329 0.28147 -0.040208 0.016423 0.53417 0.061771 0.18758 0.025746 0.50056 0.22917 -0.055349 -0.72592 -0.49254 -0.13944 
magician -0.76214 -0.14095 -0.34632 -0.31476 0.049796 0.60788 0.6859 0.2523 0.18686 -0.18245 0.19872 -0.11506 -0.15362 -0.13496 0.2066 1.0579 -0.56384 -0.29914 -0.058787 0.13829 0.48268 -0.14334 -0.58612 -0.37533 0.0033774 -0.23169 0.079868 0.014426 -0.40139 -0.24697 0.43445 0.16796 0.3752 -0.3412 -0.1608 -0.27354 0.067474 0.034167 0.27974 -0.51768 -0.11849 -0.18878 0.28615 0.39137 0.43561 0.27254 0.24606 0.092169 0.39553 0.22303 0.015255 0.14082 0.31692 -0.15567 -0.33229 0.26017 -0.3898 0.34034 -0.41226 -0.16592 -0.026691 -0.40964 -0.48468 -0.36804 -0.16461 -0.207 0.43076 -0.29417 -0.16359 0.064809 -0.15895 0.13327 -0.45128 0.67711 -0.29108 -0.54516 -0.18536 -0.27144 0.71662 0.28202 0.28902 0.14723 0.32101 -0.15662 0.23494 0.28869 -0.53565 -0.27781 -0.58921 -0.25645 0.17793 0.41092 0.66171 -0.05642 0.33214 0.26947 -0.332 0.32285 -0.17855 0.0020208 
stroke -0.10507 0.5751 -0.19873 -0.0031669 0.032907 -0.18534 0.98545 -0.14057 -0.34361 0.50949 -0.49716 0.74117 -0.31375 -0.72241 -0.16268 0.61809 -0.30558 -0.26925 -0.37866 0.59437 0.46873 -0.14646 -0.418 -0.41044 -0.42008 -0.73144 0.58007 -0.38178 -0.015559 -0.20885 0.74214 0.29629 0.13591 -0.71839 -0.1941 -1.1094 0.040333 0.33121 0.14317 -0.061299 -0.35161 0.11503 0.20229 0.77608 0.24815 -0.0013871 -0.5014 -0.65017 0.34372 0.043759 -0.15683 0.0073826 0.5432 -0.22147 -0.047821 0.46177 -0.016175 0.089402 -0.2638 0.13131 0.40692 -0.84801 0.22931 -0.53187 -0.21596 -0.23918 -0.70174 0.40349 0.39243 -0.63645 0.067984 0.011144 -0.23883 -0.005897 0.087536 -0.23076 0.08524 -0.28309 -0.1659 -0.182 0.017454 0.07395 -0.34506 0.02244 0.33101 -0.39956 -0.42132 0.31027 0.04841 -0.028003 0.0066869 0.090543 0.10851 0.043769 -0.048286 0.35085 -0.12928 -0.048886 0.47944 -0.12709 
drug -0.087165 0.59103 -1.0446 -0.36351 0.32683 -0.29219 -0.30726 0.38806 -0.061855 0.75119 -0.56157 -0.050504 -0.36097 -0.042107 -0.2896 0.21464 -0.18263 -0.47795 0.24167 -0.76513 0.40196 0.041924 0.2492 -0.037478 -0.18464 -0.42453 0.62436 0.47477 -0.49576 -0.32991 0.48577 -0.26773 -0.24463 -0.011568 -0.43245 -0.52881 -0.074721 -0.012614 -0.58596 0.18586 -0.35493 -0.37881 0.12037 -0.13895 -0.58626 -0.02694 -0.053265 -0.43803 0.41535 0.17434 0.0257 0.039987 0.35284 0.15759 -0.64819 0.44694 -0.52468 0.22832 -0.27344 0.068818 0.5167 -0.31041 0.0068741 0.19204 -0.043312 0.15839 -0.27314 -0.0049661 -0.060883 -0.016164 -0.15024 -0.67167 0.1547 0.12815 -0.36441 -0.339 0.23142 0.031252 -0.00095785 0.31134 0.023944 0.52354 -0.15957 0.57208 0.005347 -0.21821 -0.31523 0.5742 -0.43317 -0.21342 0.34456 -0.26046 -0.061874 -0.087416 -0.042326 0.6809 -0.14919 0.15856 0.62694 0.69574 
game -0.38757 -0.45863 -0.062976 0.36637 0.23005 0.036842 0.15393 -0.18307 0.31917 0.2052 0.20225 0.43141 -0.36678 -0.21645 0.31858 0.58118 0.0011891 -0.32625 0.24048 -0.48158 0.10619 -0.2896 -0.038007 -0.12027 -0.43402 -0.20725 0.30986 0.11623 -0.15563 0.29932 -0.12986 -0.17445 0.21053 -0.63347 -0.34241 -0.096367 -0.27628 0.15703 0.20644 -0.0088149 -0.15553 0.22035 -0.20185 0.00078375 0.2094 0.36645 0.13012 -0.2669 -0.040683 0.23541 -0.042251 0.46486 0.30607 -0.66658 -0.069541 0.13331 0.012099 -0.035615 -0.033643 -0.23729 0.5048 0.13882 -0.16952 0.1602 -0.063405 -0.075117 -0.068258 0.54049 -0.021065 -0.85086 0.209 0.19708 0.2985 0.29967 0.0088502 -0.36813 0.43235 0.1911 0.79451 0.21514 -0.46651 0.22377 0.042727 -0.39965 0.37826 0.053395 -0.55745 0.30091 -0.41228 -0.11793 -0.10486 0.34823 0.59205 0.26479 -0.23999 0.11566 -0.085825 0.22601 -0.29207 0.27877 
phone -0.28911 0.51082 -0.29075 0.41984 0.046172 0.0017712 0.31073 -0.16364 -0.095399 0.86026 0.32538 -0.10098 -0.64469 -0.16609 -0.26809 0.34379 0.029422 -0.095954 -0.053089 -0.0063502 0.79144 -0.37862 -0.25065 0.12638 -0.11085 -0.26694 0.16218 -0.43742 0.057865 -0.1517 0.042565 -0.18781 0.24039 -0.1868 -0.25186 0.40064 -0.18641 0.090436 0.079243 0.17765 -0.26854 -0.21571 0.042154 -0.2366 -0.1213 0.62126 0.10728 0.23728 0.71909 -0.30753 0.051105 0.30754 0.24754 -0.0090202 0.19 -0.035607 -0.26202 -0.25637 0.15046 -0.063326 0.6308 -0.15135 -0.83734 0.38162 -0.41497 -0.23244 -0.39919 0.3296 0.40798 -0.19747 -0.23519 -0.21069 0.14596 0.25064 -0.54145 -0.71155 0.033664 -0.23899 -0.0011887 0.26003 0.014727 1.1081 0.35884 -0.12287 0.070939 -0.29589 -0.29085 -0.031942 0.35097 0.29694 0.44753 0.41465 -0.22189 -0.82252 0.045699 -0.022206 -0.57931 -0.082433 -0.041353 -0.046917 
FBI 0.12449 0.30818 0.035991 -0.24161 -0.19332 0.75368 0.4836 -0.34396 0.10028 0.7913 0.58678 -0.9409 -0.027515 -0.35564 0.031571 -0.25136 -0.30579 -0.17443 0.26395 -0.3907 0.97253 -0.39535 0.12951 -0.2635 0.1734 0.12352 0.31168 -0.12035 0.12013 -0.13722 0.036282 -0.33191 -0.07561 0.053338 -0.30201 -0.32601 -0.29454 -0.24863 0.025321 0.76146 -0.25053 -0.016116 -0.1799 0.16356 -0.35116 0.36889 0.142 -0.28366 0.28238 0.13384 0.17725 0.51531 0.022537 0.34939 -0.62537 0.4782 -0.41512 0.61702 -0.29229 -0.056025 0.78577 -0.11022 -0.1588 0.030204 0.011469 -0.012051 -0.14573 0.073522 -0.72817 -0.23186 0.20061 0.15468 -0.26501 0.84792 -0.025864 -0.044334 0.0050103 0.33945 0.29892 0.36667 0.27888 0.49544 -0.11886 0.21548 0.11608 0.17528 -0.59009 0.10498 -0.1692 0.34246 0.51385 0.08471 -0.02806 -0.76485 0.17916 -0.20269 -0.23474 0.65397 0.61263 0.69961 
keyboard -0.85454 0.48748 0.047816 0.082549 0.044096 0.51304 0.5399 0.33526 0.40095 0.57467 -0.1441 0.55668 -0.77515 -0.33815 -0.13435 0.528 -0.083572 -0.5394 -0.30165 0.34965 0.14635 -0.27386 0.043827 0.18767 0.14928 -0.073715 0.5734 -0.74869 0.27197 -0.099291 0.57236 1.0246 -0.14071 -0.14018 -0.32856 0.31342 0.77761 -0.078017 0.54791 -0.65222 -0.42018 -0.10118 0.079064 -0.8539 -0.43179 0.42003 0.090898 0.27846 0.35125 0.25498 0.26413 -0.026635 0.43509 -0.39491 0.17415 0.38826 -0.25686 0.12157 -0.19166 -0.27832 0.26985 -0.62441 -0.67757 -0.011004 -0.42811 -0.70233 0.35063 0.18437 -0.12452 -0.47498 0.26601 -0.1259 0.34474 0.84827 -0.36763 -0.83619 0.4753 0.025999 0.17709 0.29765 -0.34317 0.61678 0.40212 -0.6751 0.33587 -0.20906 -0.10344 -0.33084 -0.54282 0.19519 0.45872 0.24767 0.20432 0.20006 -0.081638 0.22224 -0.22923 0.37687 -0.2369 0.19843 
kind -0.17398 -0.076902 -0.33239 -0.26634 0.0007497 0.15927 0.23968 -0.033373 -0.067679 0.032887 -0.13209 -0.18325 -0.13904 -0.19692 0.10284 0.25812 -0.40789 -0.35561 0.27975 0.038402 -0.0089919 0.13977 -0.007838 0.081305 -0.15803 0.0087618 0.32577 -0.043524 -0.41422 -0.032752 0.48222 0.32363 0.02604 -0.25218 0.12483 -0.28293 -0.15546 0.1769 -0.14927 -0.093491 -0.12924 0.088832 0.067804 0.10583 0.02492 -0.24518 0.51324 0.43295 0.11901 0.18156 -0.020816 0.00042232 0.23254 -0.16078 -0.29489 -0.04757 -0.14785 -0.15847 0.13276 -0.027656 0.32637 -0.13795 -0.010099 -0.0042743 -0.154 -0.51206 0.13488 0.1352 0.023353 -0.41048 0.026598 0.062291 0.10171 0.58482 -0.33836 -0.35329 -0.11002 -0.099707 0.36783 0.23355 -0.11806 0.023888 0.17954 -0.038918 0.34385 0.2602 -0.17392 0.17748 -0.065804 0.42805 0.37877 0.12858 0.26282 0.098793 -0.063004 -0.21396 -0.54042 -0.4233 0.16769 0.02092 
animal -0.43034 0.325 -0.3612 0.14727 0.26653 -0.5752 0.1454 -0.39691 0.28075 0.2127 -0.016813 -0.62766 -0.10723 0.10172 0.34244 0.93576 -0.14467 0.24007 0.33024 -0.43672 0.14995 0.32039 -0.084808 -0.50066 0.26508 -0.32594 0.25191 0.40047 -0.40188 0.31107 0.66858 0.40305 -0.30017 -0.31152 -0.15354 -0.13365 0.12528 0.14305 -0.20666 -0.044026 0.088998 0.50774 -0.3187 0.51911 -0.38408 -0.058928 0.19103 0.13852 0.86404 0.072481 0.28085 -0.14724 0.33784 -0.061715 -0.44695 0.079135 -0.35397 0.45266 -0.40407 -0.14279 0.21632 -0.34559 0.69089 -0.23372 -0.010995 -0.45368 0.11704 -0.098718 -0.19657 0.34665 0.29634 -0.15059 -0.12959 0.39875 -0.037845 -0.15315 0.12654 0.041019 0.54567 -0.37755 -0.15756 0.36749 0.18927 0.0571 0.56047 0.092224 0.053192 0.67997 -0.18921 0.36237 0.37829 0.11263 0.21446 -0.2034 0.075908 -0.50694 0.2896 0.085118 0.096786 0.70374 
queen -0.46175 -0.031408 -0.37029 0.20475 0.11529 -0.21651 0.7422 -0.23738 0.077052 -0.17257 -0.1553 -0.34635 -0.091273 0.042034 -0.094161 0.9174 -0.18686 -0.48061 0.12235 -0.74046 -0.044368 -0.25461 -0.82357 -0.87203 -0.48108 -0.20816 -0.44988 0.0077371 -0.2074 -0.27465 0.17738 0.80985 0.4474 -0.19252 -0.37153 -0.17102 -0.052318 0.37788 -0.21853 0.1544 0.31319 0.0093089 0.36724 0.0057249 -0.037208 -0.071294 0.33625 -0.034737 0.7279 0.0039618 0.0097295 -0.13937 0.10209 0.002629 -0.064361 -0.24027 -0.67252 0.18005 -0.28117 0.10219 -0.42237 -0.0059834 -0.20891 -0.1356 -0.55779 -0.32774 0.079627 -0.47308 -0.32475 -0.59621 -0.62341 0.30239 -0.22416 0.46519 -0.80871 -0.32838 -0.30139 -0.29545 0.27661 -0.11742 0.47246 -0.25239 0.1239 0.026091 0.42293 0.23523 -0.13903 0.096729 0.038201 -0.56922 0.65212 0.50158 0.20642 -0.013272 0.4464 0.44041 -0.56783 -0.29054 0.11558 -0.12288 
organism -0.22918 0.45558 0.014395 -0.11641 0.20055 -0.28957 0.22779 -0.53605 -0.23575 -0.005996 -0.29333 -0.39101 -0.24659 0.026608 -0.12097 0.1754 -0.33405 0.051604 0.57809 0.20636 0.62205 0.43529 0.2365 -0.049062 -0.080481 -0.12318 0.77368 0.18502 -0.32806 0.60773 0.3923 1.109 -0.35663 -0.50085 -0.39867 -0.52727 0.047285 0.17837 -0.11977 -0.2493 -0.16392 0.16194 0.11898 0.043055 -0.0714 -0.67866 0.31463 0.27069 0.52735 0.029656 0.30706 -0.55895 0.17126 0.090468 -0.19605 0.3131 -0.63774 0.00034483 -0.22059 -0.36608 0.21961 -0.05234 0.40667 0.0085036 -0.49951 -0.58899 0.088585 0.291 -0.11798 -0.25766 0.25702 -0.15705 -0.1625 0.60532 -0.35189 -0.065552 0.52373 -0.44416 0.69042 -0.22245 -0.47954 0.29467 -0.23593 -0.063142 0.86706 -0.13129 -0.18919 0.045605 -0.17469 0.22938 0.024863 0.056392 0.42161 0.17527 -0.048808 -0.65396 0.063584 -0.35986 0.24167 0.40304 
president 0.073353 -0.084695 0.21578 -0.1131 0.46986 0.12047 0.3124 0.28626 -0.036462 -0.39905 -0.42588 -0.65479 -0.38697 0.072229 0.096605 -0.21024 -0.1405 -0.35069 0.065404 0.064039 0.39519 -0.24154 0.22883 0.15022 -0.84315 -0.16709 -0.22706 0.015531 -0.45072 0.4201 0.24543 0.055887 0.24389 -0.15062 -0.52684 0.2727 -0.13525 0.24091 -0.02767 0.18254 -0.71322 0.1303 0.40545 0.28062 -0.0077178 0.5704 0.28037 0.31089 0.12131 -0.2478 -0.3726 0.048839 -0.039383 0.23274 -0.33886 0.62965 0.099605 0.31103 0.1452 -0.073264 -0.07332 -0.2793 0.16448 0.033626 -0.38779 0.00057788 -0.26455 0.36137 -0.28071 -0.29322 -0.33908 0.22192 0.30472 0.23519 -0.33276 -0.097601 -0.19856 -0.047587 0.06673 0.26209 0.092072 -0.053749 -0.10888 -0.31492 -0.23316 -0.2201 -0.14712 0.15792 -0.33709 -0.01116 0.30345 0.53835 0.1898 -0.63578 -0.13607 0.69502 -0.2762 -0.096184 0.46618 -0.15135 
cell -0.06514 0.86133 -0.14918 0.057014 0.29438 -0.42536 0.3113 -0.084701 -0.51421 0.96027 0.69812 -0.64847 -0.72211 -0.071653 -0.2729 0.11296 0.19752 -0.32803 0.26114 0.058623 0.73739 0.32017 0.21578 0.109 -0.18138 -0.65195 0.22428 -0.17666 -0.087119 -0.28803 0.4498 -0.19299 -0.15425 -0.21855 -0.3284 0.14276 -0.078346 -0.18769 -0.058589 0.21231 -0.1042 -0.14091 -0.17236 0.014518 -0.41339 -0.17011 -0.054746 0.14302 0.89782 -0.13224 0.070744 0.045014 0.31279 0.3716 0.087833 0.11253 -0.17427 -0.21912 -0.12773 0.044991 0.32687 -0.34326 -0.53166 0.30574 -0.78008 -0.36696 -0.40974 0.39875 -0.1317 -0.22647 0.06597 -0.58115 -0.29204 0.20482 -0.33238 -0.2592 0.35973 0.02481 -0.041386 -0.18467 -0.15652 0.77902 0.23933 -0.56188 0.54952 -0.52109 -0.27005 0.14111 0.084755 0.061546 0.52875 0.44221 0.42045 -0.38189 -0.36137 -0.060998 -0.37777 -0.35869 -0.31586 0.29351 
egg -0.54659 0.49288 0.032186 -0.0020785 -0.39706 -0.4108 -0.43789 -0.30763 -0.25821 -0.23027 0.17262 -0.3138 -0.32246 -0.020412 0.2149 1.0362 -0.15556 -0.46992 0.76424 -0.22838 0.92168 -0.18651 -0.21915 -0.92466 0.28086 -0.52729 0.54397 0.27144 -0.59054 0.68572 0.33275 0.83748 0.032904 -0.4101 0.25165 0.28481 -0.17327 0.37079 -0.14518 -0.27303 0.038382 -0.059331 -0.26914 0.12786 -0.46104 -0.29339 0.21277 0.22887 0.51154 -0.47224 0.18772 0.18664 -0.048165 -0.06831 0.15302 -0.13291 -0.23184 0.54389 -0.36728 -0.17259 0.46398 -0.31744 -0.030878 -0.65112 -0.078668 -0.81564 0.13899 -0.31789 0.25602 -0.41334 0.5297 0.22456 -0.56409 0.93828 -0.45131 -0.22621 0.62226 -0.13179 -0.38467 -0.33833 0.0018709 0.30415 -0.19659 -0.072621 0.775 -0.26577 0.054597 -0.036113 0.30601 -0.02593 0.11424 0.057545 0.13502 0.063216 0.27338 -0.5395 -0.35259 -0.56601 -0.3861 0.43166 
sun -0.26214 0.19312 -0.74259 -0.4049 0.54455 0.20214 0.40179 0.20989 -0.14536 0.13903 -0.56441 -0.44034 -0.43092 -0.28924 0.13079 -0.18076 0.63113 -0.040214 0.30071 -0.18898 1.1163 -0.58705 -0.2598 0.05221 0.53482 -0.65659 0.25917 -0.47571 -0.25519 0.26974 0.22298 1.0968 0.67272 -0.77122 0.28802 -0.64792 0.12556 -0.13327 0.016616 -0.13959 0.054024 0.25697 -0.11128 0.18529 -0.12164 -0.0071993 -0.077462 0.45016 0.172 0.48582 0.27585 0.038756 0.27735 -0.50483 -0.035626 0.041004 -0.21657 -0.16119 -0.35847 -0.0024078 0.37738 0.21363 -0.13666 -0.29581 -0.2602 -0.08601 -0.22214 0.075033 -0.19753 -0.51702 0.10391 -0.015969 -0.51001 -0.30384 -0.35872 -0.41074 -0.32665 0.34854 0.39921 -0.25579 -0.36715 -0.11327 0.064392 -0.34499 0.92271 0.12093 -0.17463 -0.41052 -0.024285 0.14333 -0.035226 0.24011 0.30238 0.19129 0.2421 -0.063277 0.51816 -0.16417 -0.42523 -0.10178 
canyon -0.70616 0.18995 -0.59367 0.32007 -0.29865 -0.52524 0.50751 -0.2164 1.0565 0.335 -0.17168 -0.77363 -0.7853 0.20097 0.22879 -0.17907 -0.12424 0.45978 -0.068536 -0.098108 0.6103 0.018521 -0.86779 0.29684 0.27749 -0.28813 0.47126 0.25481 -0.20109 0.33962 0.14931 0.77149 0.0068858 -0.37955 0.12646 -0.37766 0.16073 -0.14077 0.42834 0.028987 -0.19911 0.25172 0.46982 -0.16366 0.23925 -0.5507 0.19948 -0.036807 0.52639 0.48265 0.21862 0.093996 0.38673 -0.49742 -0.16352 -0.31274 -0.16532 -0.33374 0.2603 0.19622 -0.0039506 -0.21169 -0.018528 0.0023956 -0.28795 0.11879 -0.41286 0.48506 -0.26668 -0.69365 0.49781 -0.25445 -0.42961 0.82719 0.22516 -0.33197 -0.63831 0.16518 0.12339 -0.37948 -0.10932 -0.50517 -0.28954 0.0024487 0.21744 0.44221 0.014955 -0.16849 -0.43149 0.47186 0.49621 -0.1897 -0.19784 -0.29406 0.61952 0.054569 0.53007 -0.15908 0.080218 0.3735 
star 0.044491 0.13732 -0.57503 -0.18916 0.17475 0.53045 0.48773 0.37175 0.47078 -0.22137 0.24742 -0.36868 -0.017761 -0.69832 0.11865 0.34903 -0.14919 -0.2336 -0.33169 -0.74312 0.39262 -0.39433 -0.43684 -0.22537 -0.12645 -0.20021 0.047457 0.42981 -0.21614 -0.22253 0.28228 0.39544 0.49985 -0.3058 -0.43634 -0.086516 0.030853 0.27245 0.10082 -0.0037848 0.053807 0.16912 0.32804 0.21479 0.34581 0.13161 0.34208 -0.077082 0.49121 0.24398 -0.025096 0.086287 0.34076 0.13408 -0.38682 0.12422 0.34298 0.17491 -0.36215 0.051608 -0.014407 -0.0051032 -0.30965 0.33033 -0.25703 -0.13492 -0.0798 0.3521 -0.41407 -0.049969 -0.033761 -0.00015929 0.078191 0.12188 -0.85389 -0.195 0.079008 -0.28537 0.36164 0.067872 0.11137 -0.37029 -0.12952 0.1809 0.58172 0.42348 -0.44048 -0.25826 -0.050123 -0.21499 0.10241 0.016981 0.80354 0.19979 0.088388 0.073381 0.13399 0.32752 -0.47748 -0.22743 
law -0.20389 -0.067936 -0.33534 -0.013176 0.17132 0.50555 -0.28603 -0.47283 -0.51834 0.088282 -0.52305 -0.22803 0.12904 -0.45575 0.46994 0.20378 0.21278 -0.22412 0.38607 -0.47738 0.79814 0.18892 0.017924 -0.391 -0.1884 0.15752 0.053866 -0.08403 -0.42768 0.27446 0.45107 -0.060569 0.40859 -0.049492 0.22458 0.25085 0.6502 -0.091477 -0.11535 0.29626 -0.15771 -0.017219 0.34782 0.02402 0.2111 -0.28026 -0.080506 0.33301 0.011753 0.2181 -0.37546 -0.49821 0.12189 0.20121 -0.44174 0.38367 -0.60233 0.2476 -0.36625 0.13557 0.20604 -0.36387 -0.25139 0.020732 0.094062 0.31093 -0.53042 0.15354 -0.53351 -0.27588 0.24596 -0.22636 0.42673 0.092718 0.017546 -0.22707 -0.04125 -0.05138 0.57811 0.45557 0.10009 0.35027 -0.60371 -0.18864 0.3722 0.11905 -0.38206 0.40669 0.1137 0.57797 0.41591 0.52623 0.1206 -0.76866 -0.105 -0.11845 0.34922 -0.41446 0.31697 -0.030571 
cucumber -0.92934 0.3384 -0.28081 -0.49013 -0.071821 -0.25069 0.19748 0.0055396 0.21265 -0.25584 -0.40498 0.28964 -0.14969 0.10317 0.093957 0.19602 -0.39506 -0.62439 0.7043 -0.27696 0.58183 -0.032052 -0.64618 -0.45538 0.17951 -0.76 0.3896 0.023503 -0.19739 0.71867 0.027611 1.2701 0.12949 -0.40049 0.081347 0.13757 0.27394 0.42483 -0.016899 -0.44669 -0.43862 -0.48588 -0.1589 0.16818 -0.58859 -0.23551 0.37383 0.45172 0.30808 -0.35021 0.15243 0.43808 0.21775 -0.29007 -0.47022 -0.19468 -0.22625 0.22512 -0.4989 -0.041011 -0.0011338 -0.20856 -0.15583 -0.28708 -0.018515 -0.74128 0.57525 -0.48803 -0.11343 -0.2099 0.3769 -0.055064 -0.95029 0.71497 -0.071654 -0.36288 -0.016426 -0.48266 0.11576 0.092339 0.023499 0.18496 -0.20747 -0.14988 0.6333 -0.10021 -0.3738 -0.29616 -0.37835 -0.012285 0.65317 0.45784 -0.59361 -0.24158 0.37299 0.27328 -0.18526 -0.57257 -0.75572 0.26704 
information -0.40493 -0.15201 0.010039 -0.15733 0.03737 0.37688 0.40727 -0.045404 -0.31683 0.72856 -0.47701 -0.11823 -0.20036 -0.35619 0.049282 -0.19645 -0.4256 0.42865 -0.13808 -0.29038 0.84757 0.19028 0.24116 0.34078 -0.016258 0.22925 0.53573 -0.41056 0.03884 0.11407 0.1673 -0.30565 -0.48208 -0.21122 -0.26665 -0.12357 -0.39408 0.3681 0.3883 -0.086583 -0.28834 0.44992 -0.16004 0.092276 -0.52898 -0.30931 0.5375 0.23746 0.82561 -0.31786 -0.36717 0.032154 -0.45741 0.39644 -0.37209 0.098713 -0.20649 0.25396 -0.068527 0.29461 0.66634 -0.054473 -0.75464 -0.41789 0.10079 -0.078966 -0.36178 0.39057 0.081614 -0.0095106 -0.08318 0.34464 0.11361 0.18013 -0.32007 -0.59993 0.26637 -0.20962 0.12971 -0.10816 0.22886 0.63321 -0.16772 -0.18073 0.084821 0.017062 -0.17375 -0.066871 0.11177 0.12467 0.29079 -0.25598 -0.071433 -0.11678 -0.031265 -0.57011 0.22624 -0.27389 0.46272 0.31918 
precedent -0.24886 -0.23741 -0.20281 -0.01414 0.21764 0.052597 0.34463 -0.28339 0.13904 -0.077699 -0.6529 0.039303 0.15486 -0.18511 0.15303 0.02683 0.039538 0.088129 0.027799 -0.3219 0.62291 0.29041 0.39111 -0.13102 -0.045342 0.23148 0.30746 0.20522 -0.92735 0.36385 0.66453 0.1489 0.26978 -0.039154 0.47634 0.1883 0.015668 -0.026025 -0.38503 0.29001 -0.054807 0.11351 0.26272 0.13664 0.3256 -0.34483 0.3697 0.20913 0.2415 0.22317 0.22482 -0.2892 -0.24977 0.045936 -0.57103 0.065732 -0.53107 0.44219 0.0089167 0.30099 0.5028 0.093685 0.075863 -0.029108 -0.70544 -0.019732 -0.21901 0.62344 -0.0037753 -0.49973 -0.17329 -0.011703 0.61157 0.44026 -0.15218 -0.050839 0.13115 0.097221 0.46609 0.44794 -0.34093 0.003365 -0.10016 -0.072564 0.17934 0.19467 -0.14359 -0.085438 0.12438 0.60497 0.10437 0.0041739 0.14969 -0.26237 -0.64529 0.09189 -0.19846 -0.33242 0.16278 -0.056049 
sea -0.55507 0.59412 -0.3203 0.057645 0.10714 -0.60352 0.0824 -0.22946 0.55188 0.22484 -0.21984 -0.59368 -0.11925 0.025511 0.40548 0.011555 0.17899 0.00035696 0.44438 0.040307 0.5989 -0.45212 -0.21853 0.29209 0.46786 -0.35536 0.3752 -0.11976 -0.2395 0.39768 -0.43944 1.2999 0.4552 -0.54051 0.036904 -0.41306 0.28788 0.5047 0.22466 -0.31779 0.15275 -0.040212 0.049816 0.30605 -0.37295 -0.32477 -0.023109 0.092034 0.51717 -0.13955 0.40658 0.0063098 0.62078 -0.064028 -0.40423 -0.17351 -0.28027 0.017038 -0.3148 0.44577 0.016015 -0.01867 0.37471 0.015677 -0.36022 -0.181 0.14502 0.37741 -0.26185 -0.56119 0.31474 0.11287 -0.056901 0.034409 -0.075634 -0.46119 -0.049039 0.16673 0.19312 -0.57163 -0.26527 -0.11278 0.17326 -0.096708 0.30179 0.3176 -0.44595 0.20988 0.14096 0.089739 0.26648 0.3113 -0.28485 -0.22263 0.45256 0.27915 0.37276 -0.21876 0.269 0.17326 
butter -0.81094 0.13728 -0.39879 -0.27905 -0.21498 -0.24349 0.18356 -0.2032 0.015594 0.08487 -0.37803 0.47698 -0.53643 -0.014656 0.43776 0.16013 -0.089225 -0.34233 0.28377 -0.42755 0.77003 -0.1933 0.079485 -0.56801 -0.25267 -0.80699 0.48246 -0.31472 -0.96159 0.88172 0.11543 1.1803 0.09877 -0.37059 -0.034939 0.030101 0.20706 0.49005 -0.42311 -0.27649 -0.22769 -0.3641 -0.43895 0.023856 -0.96973 0.08606 0.49865 -0.018009 0.12855 -0.55788 -0.012358 0.043708 0.34175 -0.039461 -0.11294 -0.14053 -0.3103 0.029281 -0.10218 -0.24352 0.19218 -0.33345 -0.019905 -0.73681 0.39413 -0.86472 0.20092 -0.27965 0.011487 -0.37344 0.52914 0.12312 -0.8112 0.59815 -0.23124 -0.21001 0.60206 -0.10656 -0.03556 -0.10657 0.08812 -0.14602 -0.057962 -0.069795 0.20044 -0.1595 0.045498 -0.32861 -0.10588 -0.30602 0.56635 0.079674 -0.29056 0.12653 0.43467 -0.23441 0.054926 -0.33418 -0.31951 0.44853 
reservation -0.40669 -0.22991 -0.32839 0.29865 0.037292 -0.15988 0.35696 -0.22435 0.21514 0.28941 -0.35861 -0.18869 -0.34438 -0.056569 0.26826 -0.38038 -0.051207 0.20135 -0.3974 -0.34505 0.50192 -0.11068 -0.0051643 -0.059044 0.3303 -0.18469 0.019842 -0.055376 0.10961 0.183 0.22132 0.13241 -0.048325 -0.19099 -0.22009 0.14466 0.23954 0.57682 0.19996 -0.22979 -0.36065 0.064017 0.26534 0.14086 0.15119 -0.104 -0.14886 0.29735 0.73744 0.097424 -0.13966 -0.10411 0.070684 0.14194 -0.11133 0.14349 0.060583 -0.56746 0.0307 -0.089295 0.46864 -0.05356 -0.080239 0.094865 0.090423 -0.22918 -0.19358 0.31749 -6.5022e-05 -0.32972 0.079565 0.040662 0.0048032 0.87297 0.069829 -0.13205 0.15485 0.35032 0.3626 -0.046163 -0.25672 0.41917 -0.21841 -0.11799 -0.040114 0.090388 -0.46766 0.1294 0.16604 0.15612 0.26508 -0.11109 -0.49002 -0.28679 0.66336 0.022984 -0.030229 -0.19089 0.0054404 0.3443 
archive -0.94328 0.34875 0.69235 0.13226 -0.40666 0.23533 0.70917 0.15809 -0.015079 0.61915 0.46032 -0.15646 -0.11727 -0.24597 -0.1314 0.2758 -0.24062 -0.14302 0.56845 -0.51292 0.68267 -0.17742 0.08317 -0.19083 0.24467 0.64731 -0.11529 -0.7468 -0.42618 -0.0054806 0.15214 -0.078772 -0.28856 -0.070913 -0.19264 0.48383 -0.30925 0.015986 0.33466 -0.1019 -0.87393 0.37726 0.79078 0.25691 -0.12044 0.014858 0.59314 0.1093 0.80075 0.17372 0.2299 -0.019937 0.24767 0.12334 0.14247 0.19856 -0.49245 0.18861 0.19802 -0.13211 0.42966 0.43409 -0.56585 -0.3956 -0.59572 0.19932 -0.25071 0.63285 -0.12098 -0.03401 0.24935 0.351 -0.10561 0.40045 -0.56624 0.18755 0.11001 -0.20075 0.12532 0.0093218 0.21183 0.35553 -0.060091 -0.60149 -0.032521 0.5551 -0.59029 -0.19344 -0.22491 0.26397 -0.38732 -0.031335 0.40554 0.44163 0.049991 0.012849 0.17576 0.18082 0.34641 0.3034 
clinic -0.0018065 -0.14663 -0.35305 0.057478 0.29769 -0.12636 0.37011 -0.1143 -0.61298 0.76024 -0.29368 -0.41517 -0.28224 0.14959 -0.052423 0.74925 0.36306 -0.041412 0.0939 -0.54338 0.65424 -0.027155 -0.19149 -0.81015 -0.55614 -0.05366 0.14147 0.049925 0.22947 -0.44095 0.47513 0.038599 -0.095255 -0.10444 -0.05555 0.15799 -0.41427 0.37634 -0.18908 -0.11804 -0.043712 0.16658 -0.062712 0.11829 0.20364 0.029734 -0.013288 -0.27391 0.81369 -0.03659 -0.19162 -0.32927 0.15644 -0.59831 -0.22847 0.81797 0.042831 -0.08492 -0.11533 -0.16212 0.45989 -0.35184 -0.015805 -0.13262 -0.21614 0.059876 -0.65222 0.2005 -0.43054 0.1342 0.13931 -0.23715 -0.3688 0.66913 -0.19702 -0.0043019 -0.41719 -0.046044 -0.0066953 0.17342 -0.21533 -0.018418 -0.28851 -0.096455 0.48077 -0.10653 -0.3025 0.42066 -0.14685 -0.20013 0.069378 -0.47635 0.36994 -0.56324 0.75214 -0.27263 0.021115 -0.49823 0.36377 0.48554 
term 0.082465 0.20295 -0.31493 -0.29358 0.30547 -0.12424 0.21744 0.12317 -0.21026 -0.25759 -0.66494 -0.46092 0.1077 -0.3986 0.14975 -0.15804 -0.28178 -0.56738 -0.062048 0.11846 0.54932 0.16864 0.19682 -0.33125 -0.29931 -0.3083 0.13256 0.21163 -0.43938 0.33259 -0.13013 -0.031742 0.25162 0.013087 -0.72898 0.3185 0.25489 0.015276 -0.17802 -0.24864 -0.65476 0.2246 0.10496 0.4591 -0.27569 -0.097274 0.57714 0.037889 0.14347 0.039634 0.11833 0.54663 -0.049889 -0.13498 -0.18871 0.096937 -0.57983 -0.28561 -0.022285 -0.24965 -0.046117 0.13166 0.017079 -0.25455 -0.57735 0.4329 -0.55959 -0.10723 0.36294 -0.63709 0.031688 -0.26693 0.024261 0.227 -0.31376 -0.30622 0.20983 0.43884 -0.16024 0.36447 0.038468 0.25288 -0.056059 -0.72816 -0.4123 -0.29441 -0.31967 0.44649 0.30249 0.23826 0.29625 -0.077004 0.078119 -0.45039 -0.70901 0.49605 0.11866 -0.68148 -0.1454 -0.4085 
space -0.17227 0.1524 -0.10811 0.26421 0.12795 0.24813 0.11436 0.25749 0.47816 0.20215 -0.212 -0.34401 -0.21127 0.14409 0.30076 -0.37116 0.26077 -0.1262 -0.036772 -0.0079442 0.10648 -0.49223 0.3037 -0.53199 0.60982 -0.05431 0.14881 -0.17179 -0.28251 0.024204 0.40612 0.57266 0.17602 -0.54261 0.31672 -0.23018 0.33881 0.10342 0.083831 -0.48129 -0.62891 0.76985 0.12308 0.19109 -0.20508 0.17733 -0.058989 -0.041449 0.83179 -0.080147 0.24903 -0.14082 0.25265 -0.63659 -0.22401 0.33975 -0.45483 0.13994 0.18417 -0.34258 0.29557 0.16116 -0.26754 0.0076676 -0.72954 -0.205 0.031034 -0.12506 -0.40988 -0.16439 0.55839 0.74308 -0.024677 0.14359 -0.19653 0.14183 0.079574 0.72305 -0.033608 -0.51703 -0.21231 -0.059088 0.0091273 -0.58946 0.087698 0.2479 -0.45208 -0.11061 0.058499 0.20697 0.44892 0.3896 0.64051 0.22829 0.20545 -0.19404 -0.03116 0.17947 0.34698 -0.084771 
bird -0.23863 0.45939 0.11201 0.12067 -0.25747 -0.51667 0.44756 -0.16459 0.39919 -0.19136 -0.25769 -0.21407 -0.19587 0.011885 0.42621 0.60812 0.018721 0.21953 -0.16529 -0.34369 0.92008 0.07805 -0.54683 -0.17023 0.55168 -0.083973 0.27503 -0.28546 0.23345 0.82736 0.34207 0.55203 -0.17303 -0.54317 -0.14294 -0.5043 0.4433 0.22601 0.27743 -0.44875 0.097334 -0.081849 -0.25958 0.58151 -0.27268 -0.27802 -0.16742 0.43735 0.62487 0.2857 0.68379 0.23285 0.62299 -0.50917 -0.30649 -0.075906 -0.34836 0.40238 -0.2097 0.054884 0.096245 -0.19849 0.7015 -0.2981 -0.038027 -0.56576 0.21885 0.02466 -0.42986 0.24143 0.47027 0.26491 -0.32484 0.93172 -0.50503 -0.38244 0.09522 0.15917 0.24761 -0.08489 -0.27299 0.27441 -0.066017 -0.066158 0.27037 0.14334 -0.48808 0.33652 0.1184 0.055944 0.55402 0.24408 -0.12842 -0.36057 0.11497 -0.20656 -0.20547 -0.13057 0.0046902 0.31807 
treatment 0.027809 0.13352 -0.55324 -0.0086489 0.57374 -0.51924 0.20466 -0.023124 -0.42107 0.28157 -0.71912 -0.0028306 0.072178 -0.15971 -0.20374 0.44547 -0.15657 -0.40757 -0.28592 -0.18265 0.39377 0.10625 0.042151 -0.082607 -0.26145 -0.36043 0.53247 0.15224 -0.045647 -0.30804 0.70965 0.033339 0.12088 -0.1795 -0.050482 -0.090099 -0.54052 0.21286 0.030882 0.063087 -0.0020647 -0.11068 -0.10958 0.62792 0.11348 0.057779 -0.10541 -0.20444 0.69987 0.065883 -0.41555 0.0086655 0.29074 0.25317 -0.30521 0.24443 -0.10869 -0.10417 -0.071803 -0.023873 0.60873 -0.33959 -0.20994 -0.32761 -0.69908 -0.037287 -0.69483 0.072901 -0.26731 -0.0099714 0.18757 -0.36136 -0.24185 0.25048 -0.35073 0.10173 -0.20196 0.37411 -0.0597 -0.14359 -0.25249 0.36125 0.048981 -0.15108 0.59825 -0.086992 -0.17608 0.54048 0.032197 0.019799 -0.26583 -0.69335 -0.054664 -0.12859 0.13323 -0.022398 0.0798 -0.52303 0.23215 0.72993 
country 0.34773 -0.065639 0.0054727 -0.13012 0.16618 -0.241 0.060408 0.24082 -0.02557 0.10201 -0.32816 -0.20926 -0.41321 0.33735 0.11622 0.26098 -0.053813 -0.18687 0.22632 -0.15899 0.30644 -0.1144 -0.36125 -0.20142 -0.21713 -0.23632 -0.2454 -0.173 -0.35484 -0.032414 0.099787 0.32447 -0.018639 -0.14476 0.011367 -0.075114 0.24884 -0.0016492 0.071785 0.13346 -0.48014 0.20667 0.31441 0.04649 -0.24981 -0.11776 0.38984 0.31849 0.35438 0.16128 -0.22351 0.092333 0.097118 0.0372 -0.63887 -0.088053 -0.20526 -0.13933 0.11567 0.32173 -0.05978 -0.066683 -0.04911 -0.053556 -0.12996 0.32927 -0.072614 0.38806 0.037159 -0.38152 0.11832 0.34043 0.20426 -0.026261 -0.42448 0.066829 -0.014697 -0.15866 0.3377 0.099343 -0.41798 0.29577 -0.33947 0.12057 0.31265 0.29818 -0.38871 0.26193 -0.10766 0.33856 0.49984 -0.025215 -0.11986 -0.075437 -0.12047 0.5514 -0.35666 -0.18349 0.26952 -0.015817 
science -0.23705 0.041514 0.25214 0.57822 0.23328 0.20681 -0.22482 -0.10256 -0.016891 -0.083382 -0.059814 -0.28964 -0.34471 -0.68417 0.37131 0.17189 -0.019268 -0.033289 0.34173 -0.15187 0.64635 0.23896 0.3495 -0.20166 -0.0035075 -0.31724 0.57228 -0.42213 -0.58176 -0.25949 0.0092596 0.49575 -0.40637 -0.39009 -0.27867 -0.092911 -0.11818 -0.089164 -0.34782 -0.32957 -0.13995 0.26998 0.19757 0.29765 0.36942 -0.18218 0.17871 -0.045768 0.29055 0.18004 -0.035014 -0.6246 0.497 0.080317 -0.68222 0.14541 -0.69077 -0.12109 -0.067931 0.27692 -0.24245 0.27092 -0.38994 0.32341 -0.093205 -0.36576 -0.53792 -0.44699 -0.59421 -0.18564 0.48693 0.55709 0.054959 -0.029539 -0.31804 -0.083736 0.10032 0.055324 0.42265 -0.44282 0.038183 0.22781 -0.19161 -0.66549 0.36846 -0.032671 0.27657 0.11128 -0.54281 0.37014 0.40715 0.15591 0.92356 0.29512 -0.19702 -0.23445 0.13867 -0.047936 0.53037 0.24918 
victory -0.16974 -1.1601 -0.088262 0.41304 0.37302 -0.41886 0.70795 0.20059 0.15331 -0.31451 0.017249 0.52782 0.025145 -0.25707 0.04878 -0.13435 -0.7449 -0.56689 0.41486 -0.17915 0.37776 -0.30626 -0.34333 -0.35605 -0.18074 -0.23787 0.088249 0.37893 -0.52649 0.045372 0.2889 -0.35476 0.45983 -0.2059 -0.4418 0.31184 -0.33481 0.10955 0.053546 0.27691 0.062707 0.2356 0.041287 0.57789 0.40595 -0.062667 0.23988 -0.35676 -0.17753 0.1152 -0.072508 -0.13546 -0.066551 -0.3983 0.1739 0.40319 -0.0094158 0.28524 0.026211 0.70676 0.49431 0.039522 -0.02435 -0.40952 -0.13822 0.48592 -0.19156 0.40789 0.20326 -1.1308 0.63498 0.14466 -0.41524 0.11229 -0.46314 -0.89042 0.02764 -0.03948 0.41306 0.15157 -0.14693 -0.19503 -0.12116 -0.21081 0.053373 -0.083471 -0.063402 -0.061444 -0.39631 -0.28174 -0.35303 0.76894 -0.069286 -0.31434 -0.14154 0.44144 -0.22913 -0.011265 -0.05791 0.47971 
association -0.39773 0.28459 -0.06853 -0.39682 0.18214 0.082657 -0.06121 0.012348 -0.27877 0.39865 -0.12699 -0.22985 -0.41001 -0.10682 0.2548 0.081304 -0.57634 -0.16175 -0.057179 -0.14296 0.17996 0.35933 0.01619 -0.019127 -0.31793 0.18904 -0.068576 0.38475 -0.20106 0.47485 0.041382 -0.10119 -0.038933 -0.46895 -0.27647 0.18193 0.24243 0.24019 -0.2573 0.27974 -0.54124 0.20853 0.55422 0.49593 -0.10904 0.1521 0.010575 0.17506 0.37904 0.048867 -0.17521 -0.027343 -0.083573 0.62561 -0.3907 0.23009 -0.30452 -0.28501 0.40079 -0.22014 0.46301 -0.29723 0.16429 0.38847 -0.043415 -0.051281 -0.44605 0.17507 -0.3845 -0.40185 -0.18023 0.39482 -0.066316 0.30829 0.18518 0.20029 0.54715 -0.27269 0.24228 -0.10756 -0.080633 0.15387 0.1137 0.33229 0.23556 -0.20693 -0.062131 0.090999 -0.085013 -0.31462 0.18962 0.069027 0.24084 -0.2799 -0.090857 0.20769 -0.3103 -0.1919 0.53639 0.18845 
reason 0.19409 -0.22726 -0.29161 -0.073377 0.20635 0.089499 0.19816 0.15036 -0.011735 0.23427 -0.20313 -0.63898 -0.26548 -0.04335 0.054086 -0.013908 -0.00074823 -0.29009 -0.19563 -0.38258 0.41937 0.22986 0.10993 -0.11177 -0.13708 -0.057266 0.15988 0.13489 -0.30762 -0.032283 0.4226 0.35158 -0.078763 -0.58936 -0.25864 0.082119 -0.16836 0.38854 -0.31017 -0.22956 -0.2202 0.0050564 0.10944 -0.2458 0.0047508 -0.11002 0.073437 0.0071906 0.034402 -0.0576 -0.15095 -0.42087 -0.25834 0.15983 -0.31109 -0.24705 -0.27388 -0.34687 0.064267 -0.27892 0.41146 -0.28571 -0.17129 -0.10177 0.048158 -0.6048 -0.065275 0.27688 0.10341 -0.40283 0.20482 0.25987 0.024349 0.24572 -0.28028 -0.45484 -0.33369 -0.12 0.65802 0.29517 -0.25488 -0.26327 -0.16382 0.089595 -0.056096 -0.13982 -0.53731 0.12434 -0.022638 0.61126 0.22851 -0.015274 0.28454 0.092228 -0.81795 -0.0074839 -0.29748 -0.24246 -0.029095 -0.032186 
marathon 0.13578 -0.34957 -0.69132 -0.27461 0.3268 -0.3454 0.27543 0.017097 0.55777 -0.17106 -0.27018 0.32659 -0.16531 -0.25198 -0.39051 -0.028693 0.086682 -0.52573 -0.061575 -0.13649 -0.04366 -0.13833 -0.053097 -0.83168 -0.24323 -0.23279 -0.067621 0.12748 -0.077974 0.1612 -0.02725 0.40277 0.81257 -0.39475 -0.44602 -0.37434 -0.14495 -0.18758 -0.82674 0.051709 0.079671 0.24275 0.50025 0.056336 -0.0053941 0.35262 0.4146 -0.13638 -0.1029 0.40944 0.63265 -0.17546 0.53382 -0.54813 -0.36749 0.17783 -0.37982 -0.30499 -0.28534 0.38017 0.71068 -0.11753 -0.16551 -0.27593 -0.061452 0.24539 -0.28472 0.053557 0.32248 -0.66965 0.49109 0.42626 -0.11046 0.31681 -0.47233 0.0093224 0.18079 0.11382 -0.13928 -0.21868 0.038961 0.21806 0.35872 -0.49627 0.0262 -0.0655 -0.276 -0.26812 -0.34144 -0.57278 -0.46551 -0.35079 0.47723 -0.58943 0.1788 0.31113 -0.50736 -0.074813 0.14857 0.176 
war -0.20962 0.11677 0.042433 -0.25781 0.59368 -0.27698 0.42273 0.17039 -0.15844 -0.12479 0.22455 0.19507 0.22703 0.17061 -0.019773 0.45173 -0.2184 -0.30288 0.38919 -0.49544 0.20098 -0.61376 -0.010817 -0.055371 -0.14878 -0.076502 -0.10421 0.0067949 -0.49204 -0.37681 -0.34824 0.054886 -0.00059879 -0.52804 0.47758 -0.29959 -0.064534 0.28285 -0.40468 0.082595 -0.21303 -0.035463 0.16338 0.047826 0.047128 -0.24051 0.88677 -0.021499 0.027109 0.012415 0.11017 0.29407 0.14969 -0.13094 -0.80508 -0.12705 -0.4939 0.456 0.23223 0.1654 0.28732 0.23851 0.13658 -0.11649 -0.57499 -0.14713 -0.58646 0.1739 -0.5367 -0.50389 0.6529 -0.29778 0.14235 -0.20215 -0.13506 -0.28299 -0.1423 0.26928 0.41545 0.57708 -0.2024 0.55218 -0.14302 -0.36939 -0.60928 -0.028767 -0.42052 0.38564 -0.32965 0.52533 0.37223 -0.14223 -0.15324 -0.12918 -0.18018 0.7319 -0.091092 -0.28945 0.79284 0.33638 
tiger -0.18853 0.32496 0.070519 0.056282 -0.069562 -0.65367 0.64262 -0.3357 0.53129 0.12318 -0.25456 -0.76375 0.029334 -0.24101 0.28753 1.1934 -0.013877 0.51946 -0.039277 0.06808 0.55982 0.30874 -0.51311 -0.28185 0.23089 -0.27744 0.010393 0.50113 -0.51931 0.19611 0.26768 0.49319 -0.36544 -0.38283 -0.35477 -0.35925 0.33539 0.433 0.071177 0.0049324 -0.2946 0.44536 -0.25462 0.51919 -0.53869 0.16429 -0.11874 0.35814 0.76155 -0.18054 0.70684 0.10957 0.50273 -0.26085 -0.21365 -0.16045 -0.27227 0.49972 -0.51323 -0.14558 0.45975 -0.18567 0.51306 -0.026377 0.2204 -0.35501 0.15919 0.21956 0.27749 0.25882 0.58262 -0.11056 -0.30278 0.13656 -0.22675 -0.51564 -0.12401 -0.045925 0.11078 -0.39635 -0.31396 0.51974 0.11956 0.12901 0.045336 0.19038 -0.81738 0.11811 -0.24675 0.54116 0.60593 0.61656 -0.19729 -0.11997 0.26208 0.09668 0.18794 0.25829 -0.38466 0.50933 
exhibit -0.86724 0.051238 0.44158 0.29394 -0.10567 0.077534 0.78618 -0.20112 0.40899 -0.011302 0.040359 -0.69878 0.022259 -0.044232 0.3016 0.28321 -0.11361 0.14245 -0.086294 -0.1687 0.014917 0.07528 0.039239 -0.075108 -0.10523 0.25958 -0.1263 -0.0052803 -0.0083671 0.47839 0.30168 0.078536 -0.46718 -0.061094 -0.18657 -0.37198 0.00054508 0.042085 0.080955 0.012018 -0.47202 0.5261 0.44903 0.447 -0.21839 0.31106 -0.23183 -0.11724 0.41305 -0.13265 0.57278 -0.058713 0.30006 -0.29795 -0.24089 0.22234 -0.034808 -0.23954 0.21479 -0.23712 0.93736 0.25989 0.44755 -0.28054 -0.61315 -0.40386 0.058804 -0.076125 -0.62194 -0.26658 0.48236 0.075342 0.18878 0.34601 -0.34111 0.036425 -0.3468 -0.19967 0.20579 -0.0054242 0.16614 0.21222 -0.09868 -0.33181 0.63648 0.1009 -0.44142 -0.13023 -0.26462 0.25287 0.27183 -0.030036 0.73965 0.3665 0.091397 0.14523 0.027 -0.061629 0.20547 0.45866 
virtuoso -0.60277 0.27638 -0.032757 0.054441 0.013902 0.50719 0.20633 -0.12942 0.37843 -0.092459 -0.57485 -0.15132 -0.16682 -0.17198 0.037532 0.41345 -0.56502 -0.13705 0.088964 0.12613 0.16976 0.066545 -0.2842 -0.018356 0.0082809 0.36464 0.32591 -0.13003 -0.39007 0.080292 0.73473 0.30109 0.21657 -0.0049613 -0.13652 -0.42855 0.74564 -0.39048 0.33955 -0.73518 0.11777 0.098403 0.66278 0.050773 0.34519 -0.14466 0.56406 0.24691 0.53764 0.069462 0.22779 -0.18747 0.5796 -0.093111 -0.38624 0.11831 -0.35674 0.079437 -0.38498 -0.20404 0.016638 -0.43615 -0.36712 0.065022 -0.3739 -0.72484 0.082324 0.21037 0.19628 -0.65226 -0.13533 0.1773 -0.14281 0.61211 -0.56454 -0.32274 0.19616 -0.30598 0.32031 0.6091 0.40718 -0.42966 -0.092156 -0.24253 0.71074 0.037597 -0.088031 -0.24571 -1.0591 -0.42343 -0.21904 0.40482 0.18231 0.29231 0.35192 0.49727 -0.18649 0.34885 -0.60546 0.39239 
calculation -0.29634 -0.16717 -0.14001 -0.093637 -0.19618 -0.011071 0.13832 0.07193 -0.38111 -0.093626 -0.32377 -0.25728 0.24418 -0.23608 -0.6155 0.020942 -0.81755 0.15137 9.5915e-05 -0.10821 0.75934 -0.26392 0.36816 -0.20169 0.18478 -0.10412 0.68005 -0.11186 -0.18715 0.063731 0.18029 0.53501 0.1234 -0.45645 -0.0047289 0.032731 0.11899 0.17603 0.098516 0.022285 -0.1056 0.37458 -0.01015 0.24172 0.12494 0.1157 -0.0067741 0.30851 0.13109 0.20143 0.13094 -0.24163 -0.15525 0.16214 -0.0049054 -0.25523 -0.62449 0.0040619 0.31636 0.17058 0.27013 -0.074284 -0.22533 0.29186 0.19224 0.21325 0.09084 -0.13324 0.19157 -0.97548 -0.030106 0.07183 0.29425 0.16482 0.10285 -0.31402 0.38168 0.0021605 0.2093 0.040182 -0.043411 0.10397 -0.17594 -0.55454 0.13003 -0.49098 -0.37712 0.41413 -0.026801 0.54567 0.33582 -0.24457 0.34545 0.089344 0.020201 -0.35856 0.049057 -0.23747 0.24218 0.15398 
announcement -0.30303 -0.24109 0.3351 0.021095 -0.26063 0.23118 0.57296 0.16756 -0.18532 -0.10768 -0.63633 -0.020538 0.00078626 -0.24226 -0.17779 -0.15046 -0.28622 0.1165 0.017297 -0.59427 0.67219 -0.08482 0.26758 0.10086 -0.079794 -0.36214 -0.062403 0.013566 -0.13764 0.070829 -0.098725 -0.27289 0.17109 -0.30631 -0.26409 0.28026 -0.41153 -0.33208 -0.1584 0.15898 0.10828 -0.085861 0.36797 0.12562 -0.23355 0.2207 0.47217 0.25987 0.5506 -0.42563 -0.10355 -0.12033 -0.070488 0.098954 -0.075857 0.035952 0.52993 -0.04721 0.38226 0.021968 0.78048 -0.068894 -0.12063 -0.037705 -0.0045239 -0.096877 -0.34539 0.31674 0.5682 -0.64196 0.20891 0.30014 0.01504 0.42604 -0.63175 -0.27879 -0.12345 0.36056 0.19703 0.24296 -0.25157 -0.23295 0.25841 0.053907 0.4385 -0.3236 -0.14094 0.18107 0.022412 0.38411 -0.27292 0.28747 0.19034 -0.44484 -0.3389 0.26569 0.12409 0.10594 0.45593 -0.36111 
personnel -0.21005 -0.24043 -0.15093 -0.26866 -0.10971 -0.25647 -0.23649 -0.47577 -0.012695 0.10923 -0.027072 -0.46201 -0.019351 -0.35978 0.28139 -0.085227 -0.18399 -0.20373 0.18653 -0.26875 0.30729 -0.25243 0.11055 0.14842 -0.25672 0.39701 0.088032 -0.3351 0.056603 -0.14347 -0.13551 -0.01227 0.56768 -0.32533 -0.17534 0.057888 0.52315 0.1701 0.65762 0.20992 0.089187 0.21152 -0.045328 -0.3932 -0.23256 -0.10519 0.28909 0.077698 0.84031 -0.50103 -0.78211 0.25488 0.40176 -0.17806 -0.33283 0.2938 0.0030075 0.40443 -0.009555 0.44026 0.67254 -0.39738 -0.39683 -0.2678 -0.30555 -0.016123 -0.49332 0.32404 -0.96691 -0.14626 0.37034 0.49306 0.28369 0.0037738 0.1001 0.012456 -0.4906 0.12559 0.12773 0.011261 -0.10635 0.26473 -0.10572 0.19823 -0.29544 -0.29361 -0.39365 0.5981 -0.016219 0.29106 0.36564 -0.22207 0.012443 0.01985 0.034795 0.017961 -0.24707 0.13057 0.56385 0.68757 
nation 0.42294 0.079213 -0.055566 -0.082338 0.12255 -0.16323 0.08298 0.1349 -0.093262 0.20492 -0.14294 -0.28589 -0.39541 0.45168 0.44803 0.29135 -0.30453 -0.15493 0.016932 -0.22024 0.20152 -0.090526 -0.36781 -0.33123 -0.50382 -0.41967 -0.43999 -0.038146 -0.6058 0.24817 0.056361 0.10801 -0.082225 -0.19853 -0.05248 -0.15598 0.051467 0.24699 -0.026871 0.28936 -0.34789 0.18869 0.18217 0.078306 -0.42643 0.11244 0.28571 0.55687 0.25199 0.48213 -0.44088 0.040015 0.098749 0.0048908 -0.37054 0.076616 0.056504 -0.20911 -0.079005 0.4215 -0.10803 -0.10071 -0.05266 0.057464 -0.20655 0.42173 0.09575 0.32869 -0.22825 -0.64989 0.24052 0.81326 -0.039903 -0.0077807 -0.46323 -0.21449 0.071795 -0.25184 0.076011 0.07909 -0.44959 0.37377 -0.44947 0.11622 0.26012 0.13961 -0.061837 0.26345 -0.19252 0.66143 0.34797 0.078 -0.10138 0.15195 -0.41647 0.36468 -0.053145 -0.23013 0.43776 0.14778 
Arafat -0.42597 0.36661 0.46634 -0.11705 0.73248 -0.26429 0.45106 -0.12241 -0.67011 0.11746 -1.0521 -0.68426 -0.57503 0.77675 -0.94422 0.411 -0.049334 -0.12776 -0.1799 0.57605 -0.28109 -0.61572 -0.90672 -0.24573 0.028567 -0.22026 0.34134 -0.22739 -0.19165 -0.40032 -0.058628 0.029768 0.50869 0.58541 -0.47339 0.22403 0.3361 0.0054155 -0.19204 0.6092 -0.45732 0.027752 0.10535 0.94551 -0.047745 -0.47144 0.53594 -0.37507 0.4729 -0.050971 -0.32587 0.070019 -0.086359 0.17813 -1.1848 -0.1993 -0.17992 0.48731 -0.85269 -0.1925 0.37802 -0.13204 -0.24972 -0.60931 -0.038281 -0.70426 -0.37858 0.31622 0.39007 -0.92488 0.63544 0.19016 -0.70048 0.022043 -0.024581 -0.087805 -0.1215 0.36257 0.47566 0.32696 -0.34862 0.0077462 0.42792 -0.4921 -0.61004 -0.094645 -0.64355 -0.0044381 -0.66289 -0.51663 -0.10545 0.53772 0.072376 0.058302 0.50259 0.59374 0.37142 -0.39463 0.19945 -0.33882 
basketball -0.36057 -0.22235 0.10265 0.067534 0.1296 0.41172 -0.064921 0.2801 0.072953 0.13802 0.14086 -0.40059 -0.75951 -0.28932 0.48927 0.72208 -0.12045 -0.45895 0.098115 -0.89253 -0.080338 -0.36081 -0.21448 -0.252 -0.43682 -0.31597 0.21971 0.54403 -0.43635 -0.07864 -0.39658 0.040619 0.85765 -0.0098914 -0.41081 -0.11033 -0.28803 -0.026839 -0.23703 0.39108 -0.20889 0.70229 0.047086 -0.50235 0.20432 0.10701 -0.081872 -0.25209 0.17549 0.61687 -0.41169 0.30036 0.9985 -0.40195 -0.31719 0.20497 0.15606 0.22157 0.036603 -0.080255 0.58115 -0.044154 -0.19538 0.5042 0.20912 -0.49271 -0.29154 0.33526 -0.34761 -1.0534 -0.22227 0.47813 0.093434 0.16889 -0.30936 0.015348 -0.013712 -0.28328 -0.08974 -0.22707 -0.00062408 0.026055 -0.48064 -0.26141 0.20645 0.45913 -0.53934 0.16208 -0.49214 -0.26605 0.20668 0.3304 0.65664 -0.11544 0.32674 -0.24583 -0.072458 -0.33741 -0.13672 0.23852 
life -0.38694 0.078497 -0.14648 -0.19958 0.49028 -0.24969 0.19043 0.20577 0.023319 0.12367 -0.23247 -0.27677 0.086568 0.25284 0.28308 0.48249 -0.50904 -0.36351 0.26809 0.11029 0.42535 0.31169 -0.085922 -0.11124 0.24198 -0.33898 0.26418 -0.18443 -0.58961 -0.38087 -0.02816 -0.050603 -0.066339 -0.68832 0.0083614 -0.13419 -0.040769 0.3035 -0.12987 -0.23246 -0.09135 0.22498 0.042842 0.21047 -0.25631 -0.22876 0.36846 -0.29761 0.63665 0.21089 -0.056983 0.10694 0.30527 -0.1639 -0.3264 0.2631 -0.39295 -0.33045 -0.39862 0.030251 0.19029 -0.14695 0.25049 -0.034747 -0.34695 0.33012 -0.16421 0.44007 -0.12999 -0.48832 0.21736 -0.0069516 0.14572 0.093846 -0.30882 -0.024307 0.13738 -0.15767 0.25948 0.39473 0.52345 0.026635 0.15425 -0.42078 0.15112 -0.095013 -0.097017 -0.059381 -0.076573 0.44054 0.35834 0.033697 0.43035 -0.010999 -0.0053218 0.01814 0.33356 -0.50728 -0.14187 -0.32276 
payment -0.60443 0.22553 -0.27809 0.23425 -0.12268 0.29761 0.043832 -0.54186 -0.56102 0.25543 -0.38944 0.059311 -0.11335 -0.23855 -0.52947 -0.14544 -0.58538 0.01101 0.21657 -0.31001 0.38742 -0.34698 0.47211 -0.41786 0.51171 -0.47803 0.30662 0.11603 -0.42499 -0.21872 0.21939 0.049813 0.22358 0.056815 -0.10738 0.51804 0.26543 0.75484 0.13156 0.12692 0.21805 -0.11702 0.39747 0.2626 -0.035442 0.4828 0.26776 0.32831 1.0573 -0.017775 -0.21703 0.03861 -0.2312 0.10576 -0.054183 0.1268 0.075356 -0.40391 0.16232 -0.23316 0.60165 -0.18788 -0.52042 -0.032073 -0.29176 0.63908 -0.36702 -0.34038 0.11035 -0.39271 0.1625 0.32561 0.47359 0.46118 0.17234 -0.32177 0.39263 0.078274 0.065349 0.24523 -0.5411 0.3179 0.26465 -0.10903 0.048325 -0.2335 -0.32976 0.2564 -0.062064 0.055426 0.25295 -0.36778 -0.33642 -0.18602 -0.21785 -0.018531 0.11351 -0.21006 -0.24384 -0.0022771 
atmosphere -0.21733 -0.077584 -0.25857 -0.12213 0.53626 -0.038779 0.32597 -0.087217 -0.24761 -0.29106 -0.11474 -0.29067 -0.20043 -0.17653 0.21995 -0.17836 -0.46395 0.20655 0.50835 0.068972 0.61691 -0.15094 -0.020334 0.18109 0.030137 -0.25024 0.70889 -0.14772 -0.27264 0.25931 0.28569 0.59626 0.33843 -0.91281 0.68904 -0.20918 0.38916 -0.44098 0.10221 -0.12575 -0.37442 0.59166 0.30897 -0.15734 -0.023792 -0.27586 0.34215 0.048242 0.080829 -0.31539 0.046075 -0.12951 0.67554 0.0066452 0.059721 0.28048 -0.60006 -0.2945 -0.053248 0.28642 -0.024625 0.16426 0.022268 -0.0092061 -0.61743 -0.27873 0.57684 0.3339 -0.063786 -0.99089 0.36659 0.21588 -0.038873 0.29556 -0.54462 0.31429 0.12474 0.30835 0.49267 -0.066951 -0.54438 -0.14604 0.41776 0.055235 0.38711 0.40911 -0.26793 -0.18776 0.060639 0.34908 -0.18005 0.37051 0.42751 0.42065 0.63903 -0.25638 0.33551 0.067403 -0.31504 0.14952 
children 0.058687 0.31765 -0.15106 -0.23276 0.24805 -0.66788 -0.15759 -0.20638 -0.23227 0.015119 -0.067235 -0.15772 -0.4142 0.0058044 0.5785 0.7864 0.20165 -0.26706 -0.089982 -0.050559 0.24324 -0.29808 -0.1312 -0.41655 0.13371 -0.38243 0.5104 -0.18921 -0.082184 -0.34933 0.0012769 0.70619 -0.2385 -0.34223 -0.21937 -0.12562 0.27398 0.2121 -0.10356 0.18612 -0.15853 0.17536 -0.15386 0.1222 -0.24476 0.29756 0.19309 -0.36454 1.0181 0.071965 -0.24519 -0.0034847 -0.069497 -0.31665 -0.38748 0.59658 -0.31859 -0.094228 -0.23601 0.10603 0.6072 0.23418 0.15734 -0.036792 0.55839 0.022159 -0.34505 0.34836 -0.44519 0.28585 0.29523 0.041025 0.549 0.28996 -0.39973 0.1241 -0.53711 -0.4333 0.081063 0.41062 -0.2269 0.035574 0.06995 -0.30608 0.18893 0.13655 -0.11737 0.082822 -0.16253 -0.022416 0.10857 -0.10465 0.30903 -0.00060925 -0.08034 -0.10456 0.01837 -0.28723 0.21978 0.14251 
potato -0.45358 -0.20242 -0.34871 -0.23353 -0.069618 -0.58169 0.0627 -0.12161 -0.047726 -0.16468 -0.11177 0.60846 -0.36919 -0.020978 0.23518 0.80244 -0.37188 -0.33541 0.71529 -0.62637 0.72298 -0.4336 -0.1216 -0.17396 0.086078 -0.79065 0.41101 0.26519 -0.59139 0.61813 -0.45907 1.1856 -0.077868 -0.23464 -0.18719 0.29424 -0.39026 0.041405 -0.17921 -0.29053 -0.31462 -0.1075 -0.2922 0.0025333 -0.63379 -0.24741 0.46202 0.43393 0.28554 -0.3148 0.087893 0.23756 -0.11979 -0.11742 -0.44989 0.070976 -0.054661 0.097914 -0.047404 -0.46026 0.14706 -0.56751 0.083172 -0.01063 0.32514 -0.89317 0.097824 -0.32146 0.028602 -0.39279 0.23181 -0.0010134 -0.49189 0.34794 -0.17823 -0.2712 0.48444 -0.56987 -0.04966 -0.16663 -0.32368 0.19887 -0.18054 -0.53593 0.64103 -0.4659 0.13427 -0.24923 -0.21329 -0.017403 0.43808 0.3961 -0.39646 0.32876 0.17638 -0.26435 0.25318 0.036224 -0.010257 0.40586 
dollar -0.51108 0.061591 0.092458 -0.035988 -0.08128 0.40685 -0.024536 0.082311 0.32729 -0.18042 -0.2538 0.5399 -0.043571 -0.60479 -0.42656 -0.20108 0.42381 -0.16823 0.24409 -0.21007 0.38552 -0.38022 0.27299 -0.14339 0.43413 -0.53279 -0.081957 0.52138 -0.14643 0.10076 0.29242 0.42413 -0.11051 -1.1185 -0.023653 0.14503 0.50532 0.11889 0.33099 0.053044 0.094185 0.38801 -0.073157 0.42658 -0.0019555 0.57775 0.54234 0.11617 0.37293 0.59089 0.2625 0.43764 0.4573 0.43553 -0.32958 0.38555 0.23209 -0.18359 -0.05059 0.21157 0.59602 0.40683 -0.13764 -0.25325 0.54331 -0.43111 0.065994 0.14703 -0.016432 -0.53519 0.027753 0.083421 -0.092375 -0.1006 -0.30443 -0.84677 0.37612 -0.058093 -0.19594 0.13198 -0.48624 -0.40417 -0.26146 0.5933 0.052924 -0.26031 -1.1492 0.93753 -0.28932 0.65302 0.82602 -0.45812 -0.16468 -0.31993 -0.11025 0.68032 0.19136 -0.46588 -0.32073 0.20486 
season -0.15263 -0.32449 -0.22427 -0.43268 -0.080305 0.44476 -0.0084074 0.21579 0.2717 -0.43177 0.049884 -0.063334 -0.070741 -0.34022 0.52537 0.073993 -0.10402 0.011292 0.19365 -0.64366 0.23829 -0.11346 -0.4169 -0.34866 -0.71772 -0.019102 0.33502 0.24659 -0.28513 0.56678 -0.21192 0.23546 0.084456 -0.71668 -0.50854 -0.19841 0.074876 0.40468 0.0085062 0.303 0.34623 0.11492 -0.090439 0.48092 -0.099271 0.052157 0.033696 -0.39185 0.22964 0.18186 0.0012845 0.54831 0.17013 -0.76389 -0.075439 -0.061413 -0.059997 -0.32709 0.27174 -0.098104 0.16877 -0.087804 -0.31143 -0.16809 -0.15372 0.22972 0.096789 0.57554 0.3126 -0.76713 0.55484 0.22667 -0.011926 0.13041 -0.24722 -0.23023 0.37145 0.024211 0.75678 0.40226 -0.28393 -0.31381 -0.30336 -0.45235 0.19485 0.049601 -0.48517 0.35077 -0.25245 -0.82601 -0.07345 0.13201 0.18398 -0.11247 -0.39012 -0.00869 -0.42698 0.049193 -0.24554 0.46263 
activity 0.023051 0.41965 0.022848 -0.023521 0.099411 0.17183 0.21227 -0.048498 -0.62228 0.41435 -0.37859 -0.43882 -0.45062 -0.073353 -0.067809 0.044461 -0.031365 -0.12633 0.15273 -0.31727 0.64247 0.39891 0.3093 0.42269 -0.029148 0.47789 0.36376 0.14043 0.037881 -0.076455 -0.45321 0.2543 -0.35299 -0.66142 0.063519 -0.40602 0.50958 -0.44371 0.38873 0.14194 -0.24947 0.38936 -0.15272 0.49004 0.051717 -0.28248 0.065667 0.082525 0.22379 0.36462 0.11165 -0.22345 0.03899 0.20271 -0.45006 0.027144 0.18731 -0.32433 -0.06795 0.01962 0.69794 -0.23482 -0.0066814 -0.26414 -0.32714 -0.024347 0.19285 0.12799 -0.16964 -0.87151 -0.011541 0.13503 0.28524 0.35419 -0.54996 -0.19422 0.42053 0.15912 -0.42874 0.04661 -0.2091 -0.30244 0.61827 -0.028357 0.51469 0.12718 -0.36572 0.82391 -0.17354 0.13997 0.4809 -0.20608 0.063681 -0.30712 0.056414 -0.32208 -0.022403 0.017022 0.097583 0.23175 
car -0.26606 0.20559 -0.44426 -0.58751 -0.059159 0.17256 0.33166 0.064814 0.25977 0.12291 0.489 -0.12564 -0.29647 0.14928 -0.22846 0.35818 0.083029 0.58352 -0.0019112 -0.1182 0.097352 -0.36886 0.2526 -0.037109 0.461 -0.38641 0.33048 0.096424 -0.79706 0.12391 0.46046 -0.074989 0.14729 -0.78316 -0.48193 0.33643 -0.047556 -0.069006 0.21205 0.060876 -0.56491 0.22581 -0.046172 0.058677 0.13452 -0.31206 -0.36386 -0.14841 0.67299 -0.28946 -0.033872 0.12451 0.31284 -0.26566 -0.60161 -0.30141 -0.11955 -0.88469 -0.1919 0.22624 0.22409 -0.43641 -0.4044 -0.1091 0.16355 0.20004 -0.41465 0.45904 0.22243 -0.17822 0.19575 -0.34949 0.24235 0.4664 -0.056736 -0.56395 -0.39051 -0.10203 -0.04007 0.047926 -0.016974 0.17663 -0.038718 0.14666 0.17491 -0.53353 -0.088045 -0.32768 -0.070727 -0.083269 0.83892 0.062634 0.32854 -0.39122 0.21963 0.071906 -0.38811 0.10388 0.00043244 0.31893 
valor -0.91535 -1.0214 -0.31213 -0.31469 0.53462 -0.048742 0.23767 -0.58877 -0.11789 -0.14048 -0.32545 -0.9714 -0.024731 -0.25242 -0.32199 -0.031311 -0.74974 -0.30548 -0.29857 -0.078436 -0.18144 -0.66242 -0.37906 -0.3221 0.11689 0.17684 -0.078056 -0.60913 -0.71364 -0.095987 0.26912 0.27155 0.5826 -0.32045 -0.013861 -0.27746 0.035919 0.20957 0.25648 0.10872 -0.048861 0.19649 0.36177 -0.034426 0.0061059 -0.28274 0.70288 -0.67097 0.32573 0.18323 -0.28014 -0.26939 0.75366 0.14681 -0.55123 0.16439 -0.52843 0.098679 -0.25416 0.28044 -0.0025351 0.26903 0.28116 -0.28743 -0.061887 -0.36962 -0.36606 -0.065513 -0.57261 -0.39198 0.33246 -0.20709 0.025527 0.0067022 -0.14644 -0.37605 -0.31867 -0.40209 0.038018 0.20349 -0.12622 0.053736 -0.22497 0.13979 -0.1251 0.32146 0.049567 0.34312 -0.156 0.088532 0.46422 -0.29769 0.19607 0.30722 -0.26668 0.32027 -0.072051 0.3456 0.19071 0.47404 
chord -0.058092 0.13873 -0.22391 -0.14007 -0.42551 -0.3866 0.13815 -0.15432 0.013894 -0.48843 -0.39557 0.2045 -0.59597 -0.26956 -0.045084 0.49713 -0.43326 -0.43134 0.19613 0.17402 -0.47241 -0.2243 -0.40777 -0.11804 0.29836 -0.13651 0.5614 -0.30788 0.17584 -0.81476 0.49514 0.2952 0.1901 -0.7589 0.0191 -0.12083 0.63536 -0.45265 0.11546 -0.63793 -0.099858 -0.13976 0.50105 -0.072905 -0.32108 -0.036216 0.10388 0.6928 0.056334 0.34163 -0.12933 -0.090073 0.065884 0.14023 -0.25075 -0.13333 -0.38301 -0.27876 -0.050985 -0.094687 -0.00095212 -0.45416 -0.60373 0.063256 -0.66213 -0.97412 -0.13379 0.55234 0.20531 -0.68658 0.28871 0.010494 -0.13013 0.68618 -0.59478 -0.66862 0.4187 0.40072 0.24754 0.63336 -0.038111 -0.14798 -0.11029 0.030832 0.80654 -0.26833 0.25235 -0.14475 -0.3287 0.2082 -0.30772 0.17151 0.56565 -0.22791 -0.053422 0.39309 -0.72599 -0.48413 -0.20891 -0.18618 
vodka -1.0535 -0.053945 -1.0297 0.19503 -0.010596 -0.61094 0.073834 -0.030411 -0.3373 0.02011 -0.44264 0.14119 -0.47266 0.60422 -0.012862 -0.10046 0.20896 -0.56976 -0.05153 -0.4012 0.84221 -0.52774 -0.47899 -0.43599 0.05675 -0.66969 0.49219 0.23896 -0.95057 1.1121 0.2122 0.65094 0.28865 -0.71912 0.011833 -0.14149 -0.13231 0.37243 0.28192 -0.19758 -0.3163 -0.0030769 0.3143 -0.64537 -0.25713 0.075582 -0.059349 -0.41813 -0.062104 -0.74535 -0.11094 0.23169 0.38791 0.34413 -0.34379 0.30019 -0.59465 -0.4313 0.27756 -0.10255 0.16852 -0.65375 -0.002971 -0.060557 0.28283 -0.54167 0.64171 0.20021 0.41801 -0.023184 -0.41304 -0.37923 -0.19743 0.25975 -0.40751 -0.30162 -0.12688 -0.11093 0.085875 0.56663 0.10368 -0.14976 0.069179 0.32009 0.49563 -0.0041736 -0.35593 -0.24857 -0.22808 -0.467 0.53048 0.54584 -0.059468 0.40292 0.63223 0.27274 0.034475 0.15655 -0.16409 0.2461 
effort 0.0057651 0.002714 0.08546 -0.098811 0.0046883 0.012793 0.39273 -0.15123 -0.11919 0.15099 -0.33336 -0.094998 -0.05477 -0.22492 0.47083 -0.34006 -0.74145 -0.41086 0.15462 -0.39051 -0.20915 -0.3115 0.24971 -0.14732 0.17383 -0.14937 -0.012813 0.33235 -0.2246 0.23909 0.25889 -0.045404 -0.19257 -0.16541 0.51076 -0.2253 -0.048455 -0.10468 -0.16429 -0.15333 -0.19383 0.31277 -0.084803 0.34123 0.18589 -0.051402 0.26918 0.41013 0.028953 -0.42642 -0.32364 -0.15201 0.05893 -0.45461 -0.17149 0.11822 -0.31538 -0.053755 -0.21932 0.033957 0.51205 -0.36209 -0.40602 0.044674 -0.23323 -0.0017578 -0.15144 0.45119 0.14306 -0.47404 0.45849 0.054844 -0.23031 0.22781 -0.35817 -0.26163 0.24956 -0.2601 0.15854 -0.1611 -0.2047 -0.032934 -0.07228 -0.05838 0.032447 0.249 -0.36474 0.66661 -0.26372 0.36766 0.13041 -0.21102 0.039736 -0.35295 -0.18711 0.52781 0.030492 0.30587 0.64665 0.11696 
glass -1.2487 0.49554 -0.14661 -0.039707 -0.39993 -0.32591 0.24253 -0.28749 0.12304 0.25744 0.035266 -0.30747 -0.53387 0.17436 0.056665 -0.02619 0.59385 -0.4148 -0.038763 0.11258 0.28141 -0.49345 -0.10506 -0.018475 -0.0050007 -0.34001 0.25418 -0.073834 -0.45512 0.92956 0.68466 0.44853 0.19781 -0.48499 0.32727 -0.075644 0.33919 -0.14805 0.093531 0.18329 -0.62338 -0.033748 -0.11308 -0.055146 -0.027434 0.029602 -0.34014 -0.37226 0.28492 -0.5039 0.014185 -0.16284 0.38981 -0.5603 -0.25731 -0.04597 -0.52543 -0.061056 0.3176 0.092434 0.38895 0.13052 -0.29152 -0.24409 -0.56494 -0.68347 0.090128 0.045261 -0.37657 -0.49051 0.015418 -0.07976 -0.65732 0.26644 0.035883 -0.33236 -0.035808 -0.34596 0.23785 -0.042524 -0.0063512 -0.010763 0.096926 0.054305 0.64748 -0.019194 -0.36806 -0.43811 -0.33617 0.21412 0.55508 -0.0038855 0.1646 0.37554 0.26649 0.0064089 0.53847 -0.63389 -0.11959 -0.17372 
prominence 0.023853 -0.32692 -0.21645 0.0098422 0.46058 0.17676 0.67013 0.18148 -0.29298 0.013733 -0.35359 -0.1726 -0.18629 -0.57624 -0.34147 0.28927 -0.0034114 0.018267 0.27066 -0.50906 0.10813 -0.34718 0.035236 -0.29687 -0.034424 0.20381 0.055809 0.2273 -0.55404 0.085829 -0.24505 -0.18893 -0.0017607 -0.18999 -0.41867 -0.041222 0.54234 -0.072926 0.26239 -0.21438 -0.2082 0.054891 0.15958 0.31024 -0.027866 -0.10298 0.47292 -0.1934 0.4343 0.47217 -0.11721 -0.35089 0.24863 0.17506 -0.13319 0.15854 -0.28514 0.41022 0.039539 0.1007 0.27006 -0.038756 0.11555 0.14055 0.23836 -0.46025 -0.71677 0.29504 -0.15007 -0.11426 0.068105 0.37475 -0.54397 -0.017407 -0.66048 -0.15751 0.35111 -0.40245 -0.13365 0.067695 0.54797 -0.31608 -0.057601 0.13529 0.53032 0.31443 -0.27293 0.1745 -0.26569 0.43653 0.23846 0.48365 0.15854 -0.22124 -0.018214 0.10698 -0.05421 0.14565 0.2107 -0.34916 
Mexico 0.18764 0.46302 -0.32789 -0.41069 0.38202 -0.4433 -0.19964 0.025 0.2557 0.3361 -0.33704 -0.030045 -0.62942 0.25268 0.23951 -0.39268 0.35067 0.086739 0.58211 -0.68006 0.86645 -0.20396 -0.37241 0.40573 -0.57345 -0.50087 -0.31876 -0.063541 -0.34769 0.085602 -0.056407 -0.23722 -0.14015 0.1296 -0.083081 -0.55329 0.30096 0.13641 0.34447 0.53329 -0.12602 -0.1187 0.40979 0.17897 -0.30018 -0.085994 -0.12741 -0.021194 0.38422 0.011634 0.73668 -0.1494 0.35676 -0.44381 -0.69346 0.30158 0.030698 -0.10399 -0.029314 0.26294 0.39253 -0.20834 -0.063524 -0.04261 0.49063 0.23685 0.27652 -0.10722 -0.50542 -0.54829 0.084212 0.06302 0.017709 0.64795 -0.56282 -0.34837 -0.24303 0.040711 0.41878 0.21875 0.20741 0.33592 -0.70462 0.26816 0.24738 -0.040169 -0.31991 0.68722 -0.6638 0.12456 -0.011557 -0.4967 -0.39876 -0.30911 -0.0084763 0.36672 -0.050339 0.33543 0.034837 0.10703 
CD -0.94125 0.18126 0.27567 -0.11436 -0.28188 0.66558 0.24322 0.42029 0.2228 0.71628 0.044323 0.01529 -0.52322 -0.36084 -0.10944 0.8953 -0.077399 -0.456 0.091051 -0.10919 0.30543 -0.68458 -0.046943 -0.30941 0.59767 -0.072638 0.025057 -0.34431 -0.49805 0.043827 0.26491 0.27574 -0.67665 -0.12923 -0.07227 0.41342 0.43551 -0.012694 0.42384 -0.24482 -0.061996 -0.46554 0.31394 -0.30513 -0.81975 0.34939 0.12821 -0.018546 0.61283 0.29401 0.31786 0.22119 0.30271 0.32173 -0.11003 0.29048 0.074833 -0.43462 0.23652 0.061479 0.67412 0.03456 -0.38261 0.0016748 -0.53068 -0.24489 0.23304 0.36214 0.067463 -0.54665 0.050619 -0.6488 0.43888 0.43883 -0.05694 0.023415 0.41487 -0.28479 0.5134 0.20427 -0.23074 0.39277 0.32874 -0.34514 0.34202 0.047326 -0.59279 0.24144 -0.45621 -0.23376 -0.047784 0.02282 0.32488 -0.042318 0.067613 0.30244 -0.17955 0.58661 -0.48763 0.15476 
paper -0.33744 0.043694 0.49801 -0.066714 -0.43215 -0.34228 0.16164 -0.15994 0.061265 0.15278 -0.055554 -0.086313 -0.36346 -0.42534 -0.4332 0.18872 -0.23571 -0.48966 0.061599 -0.20789 0.60186 -0.069602 0.34185 -0.68281 0.3671 -0.13872 0.26606 -0.18016 -0.38767 0.22843 0.1918 0.033451 0.10297 -0.33884 -0.11016 0.55635 0.091291 -0.057402 -0.2537 0.43359 -0.41421 -0.49652 -0.15617 0.30646 -0.14836 0.29459 0.11959 0.22241 0.18784 -0.24053 0.1525 0.0099071 0.34857 0.16651 -0.35175 0.36382 -0.47514 -0.24912 0.43543 -0.23217 0.020113 -0.21699 -0.15818 -0.077452 0.03118 -0.12603 0.4166 -0.28198 0.2453 -0.092768 0.4739 0.2224 -0.23533 -0.059058 -0.14893 0.034576 -0.083063 -0.2725 0.65561 -0.19772 0.19459 0.33721 0.0011851 -0.50776 0.036348 -0.25237 -0.17582 -0.17517 0.19386 0.36859 0.357 0.090908 0.24239 -0.30381 0.10708 0.12588 0.50609 -0.36806 -0.016846 0.27231 
avenue -0.6187 0.15715 -0.18224 -0.03354 -0.32532 -0.19797 0.067983 -0.10269 0.033148 0.54974 -0.44029 -0.50409 -0.46788 0.18086 0.35779 -0.94868 0.029649 -0.22525 0.27244 -0.57204 0.11501 -0.043104 0.093953 -0.17741 -0.34093 -0.27328 0.047055 0.41965 0.32 0.034495 0.45852 0.099279 0.20724 -0.10389 0.23069 0.36029 -0.14477 -0.332 -0.13389 0.086911 0.24764 0.38553 0.42064 0.28508 0.041512 -0.61011 -0.09369 0.258 0.39938 0.14016 -0.037406 -0.33187 -0.26886 -0.74195 -0.59715 -0.18519 -0.70885 -0.10663 -0.61172 -0.10513 0.31104 -0.16374 -0.10348 -0.36379 -0.50588 0.2672 -0.21445 0.39458 0.14952 -0.29268 0.35228 -0.17868 -0.58635 0.12744 -0.45707 -0.62075 -0.54913 -0.46597 0.34454 0.48273 -0.21399 0.059093 -0.12966 -0.069565 0.20393 0.13205 -0.48506 -0.4711 0.18026 0.031257 0.32858 -0.084512 0.097589 0.17289 -0.17087 0.32012 0.19411 -0.50505 0.47913 0.33232 
insurance -0.39107 0.50529 -0.68924 0.5042 -0.0051032 0.50947 -0.30642 0.29918 0.00178 0.28519 -0.60698 0.0051903 -0.24207 -0.14712 -0.26417 0.61319 -0.51653 -0.11421 0.32181 -0.24315 0.4616 -0.050467 0.020464 -0.23808 0.27079 -0.40107 0.07836 0.27566 -0.9956 0.16154 0.49958 -0.088628 0.044711 -0.33392 -0.068803 0.18606 0.28221 0.8733 0.14524 0.013962 -0.009691 0.24881 -0.057551 0.32733 0.10318 0.45704 0.2828 0.25186 0.79062 0.033219 0.14296 0.25628 -0.21943 0.07529 -0.11859 0.59078 0.015017 -0.58772 -0.37487 -0.013505 0.66825 -0.74889 -0.088263 -0.10751 0.085482 0.31658 -0.37343 0.14569 -0.29548 -0.25431 0.62834 0.12491 0.40423 0.12759 0.38008 -0.38156 -0.12158 -0.24908 -0.3747 0.15944 0.022133 0.23976 -0.32055 0.36454 -0.4482 -0.64208 0.07459 0.2874 -0.16533 0.77079 0.16105 -0.25171 -0.21946 -0.60482 0.20547 -0.093171 -0.39351 -0.69871 0.46863 0.099036 
gender -0.13461 0.23405 0.019287 0.40502 0.29388 -0.5718 -0.38775 -0.12172 0.038566 -0.25377 -0.41605 -0.58408 -0.34266 -0.66189 -0.20959 0.44119 -0.36172 -0.76439 0.2878 -0.41598 0.13101 -0.13654 0.41581 -0.25482 -0.45216 0.33496 0.89143 -0.33599 -0.31453 -0.42541 -0.074491 0.64399 -0.044916 -0.4144 -0.35664 -0.16482 0.41377 0.36756 -0.17546 0.5454 -0.043778 0.58672 -0.071204 -0.15357 0.24857 -0.29525 0.28993 0.19213 0.19629 0.67118 0.26559 -0.27304 -0.046795 0.34291 -0.30918 0.17059 -0.066202 -0.18369 -0.12638 -0.5244 0.52939 -0.42851 0.0069195 -0.1609 0.58382 -0.067926 -0.94563 -0.088588 -0.0068379 -0.80902 -0.047656 0.11024 0.25514 0.40788 -0.3665 -0.21524 -0.25734 -0.16531 0.043136 -0.26247 0.48595 0.89917 0.10165 0.43087 0.44424 -0.093469 -0.20841 -0.34308 -0.11977 0.44395 0.089262 0.18164 0.52679 -0.13607 -0.15894 -0.18563 -0.27132 -0.53531 0.1461 0.19176 
project -0.11581 -0.058146 0.35868 -0.041756 -0.26205 -0.018463 0.52887 0.00087291 0.1945 -0.29477 -0.09787 -0.26963 -0.46774 -0.12821 0.23954 -0.36501 -0.15828 -0.0536 -0.20729 -0.10935 0.36001 0.23341 0.46664 -0.21702 0.31072 -0.11662 -0.024368 0.17564 -0.15469 0.00039317 -0.095984 0.26952 0.19948 0.12297 -0.12453 0.13667 -0.13328 0.14868 -0.26277 0.030235 -0.13651 0.47512 0.35694 0.78142 -0.043765 0.010897 0.13685 0.41244 0.64895 -0.15363 -0.15904 -0.071509 0.26034 -0.030457 -0.077615 0.19409 -0.45018 -0.35448 0.11663 -0.03148 0.15152 0.068451 -0.2558 0.45926 -0.43764 0.11578 -0.32112 0.017417 -0.18878 -0.10729 0.32791 -0.044785 0.054732 0.54565 -0.15575 -0.32307 0.21571 0.17107 0.23858 0.0043611 -0.17304 -0.13202 0.022399 -0.14444 0.23137 0.10481 -0.66027 0.47508 -0.53627 0.042955 -0.12789 -0.25023 0.4994 0.20379 0.22859 0.093675 0.27224 -0.092711 0.86241 -0.072671 
maker -0.61702 0.093891 0.17981 -0.17326 0.1567 -0.11147 0.05067 -0.31714 0.057691 0.49397 0.056959 0.65258 -0.77079 0.28342 -0.16623 0.63679 -0.14761 0.073666 -0.34925 -0.43099 0.75149 -0.42282 0.22813 -0.035023 -0.063628 -0.36082 -0.25346 0.55866 -0.65197 0.84834 0.72174 0.17147 -0.081127 -0.085663 0.02609 0.33508 -0.21044 0.33069 -0.64583 0.53614 -0.15704 0.20743 -0.33625 -0.39629 -0.34879 0.3213 0.25299 0.031121 0.52788 -0.1912 -0.10431 -0.39221 0.94702 0.17246 -0.67461 0.2366 0.65697 -0.62282 0.45971 0.064758 -0.50362 0.13757 -0.70344 0.17071 0.10305 -0.24385 -0.030467 -0.17125 0.012305 0.10066 0.3733 0.11716 -0.49745 -0.26067 -0.23324 -0.79096 0.09899 -0.091557 -0.14825 0.62769 -0.090162 0.02323 0.498 -0.36323 0.58581 -0.97273 -0.33298 0.13501 -0.24095 -0.1656 0.7529 0.24644 0.8819 0.15866 -0.19279 0.29138 -0.40263 0.37577 0.32435 0.48484 
feline -0.25552 0.32608 -0.36565 -0.045131 -0.0026226 -0.34267 0.56526 -0.12039 0.22444 0.32295 0.097462 -0.37047 -0.24748 0.0078488 0.27908 0.7515 -0.60458 -0.10182 0.028446 -0.18037 0.18577 -0.010209 -0.41644 -0.35448 0.1163 0.14271 0.38524 0.23501 -0.3286 0.10262 0.50326 0.76481 0.055618 -0.1972 0.030648 -0.075746 -0.11052 0.51854 0.17135 0.086633 0.055587 0.081095 0.25702 0.23707 -0.091975 0.24976 -0.0012061 -0.008979 0.23223 0.13496 0.20467 -0.17189 0.18934 -0.28003 0.010497 0.024444 -0.38839 0.10779 -0.24185 -0.23558 0.30974 -0.29913 -0.19654 -0.13491 -0.13071 -0.36434 0.11517 0.24874 0.069123 0.35574 0.1223 -0.2159 0.0037865 0.29714 -0.50765 -0.45973 -0.075089 0.053206 -0.11899 -0.030167 -0.1091 0.37071 -0.35945 -0.43761 0.65811 0.45146 0.10009 0.14683 0.077529 0.17977 0.47156 -0.10936 0.032211 -0.34258 0.039717 0.023651 0.040342 -0.064548 -0.11845 0.17225 
departure -0.41317 -0.24314 -0.57393 0.36154 -0.24232 0.30665 0.31797 0.10811 -0.048764 -0.43608 -0.42439 -0.25387 0.54308 -0.066612 0.17355 -0.29752 -0.44731 0.14205 0.065204 -0.41019 0.43715 -0.38233 0.14327 0.24794 -0.13692 0.011837 0.31325 -0.29472 0.027555 -0.084756 -0.12327 -0.23569 0.40604 -0.13255 -0.348 0.099779 0.14929 0.19051 -0.035174 0.38602 0.16951 0.104 0.2905 0.42176 0.071595 -0.048474 -0.024698 -0.01495 0.57634 -0.31359 -0.33988 -0.28643 0.2522 -0.13096 0.014662 0.065236 0.23139 0.12186 0.28964 -0.4928 0.62889 -0.17818 -0.19301 -0.14963 -0.22388 -0.17707 -0.29245 0.42679 0.18128 -0.38925 0.15218 0.35744 -0.067962 0.48319 -0.47756 0.30423 -0.027579 0.50051 0.55484 0.33207 -0.30794 -0.28185 0.27936 -0.48115 0.49595 -0.53369 -0.28541 -0.080034 -0.21079 0.40293 -0.14858 0.36927 0.091559 -0.47491 0.14805 0.59112 -0.23329 0.39687 -0.055384 -0.42313 
flood -0.58331 0.42407 -0.22699 -0.24348 -0.36797 -0.15247 0.23676 -0.23869 0.37628 0.54253 -0.16782 0.15898 -0.77256 -0.33026 0.22626 0.070007 0.14841 0.33503 0.36976 0.01498 0.34896 -0.16551 0.068491 -0.19267 0.65803 -0.35076 -0.068025 0.11427 0.082275 0.34171 -0.22111 0.52945 0.43582 -0.22003 -0.089982 -0.30778 -0.15017 0.27755 0.14243 0.23334 -0.15287 -0.15312 -0.12884 0.51594 0.17494 -0.054646 0.13273 0.5569 0.93003 0.16012 -0.37731 -0.084039 0.68454 -0.0053955 0.0049848 -0.14438 -0.3048 0.047887 0.11421 0.3764 0.44923 0.74602 0.40798 -0.17548 -0.25071 0.36108 -0.3307 0.63826 0.20474 -0.14469 0.3216 0.025049 0.51545 -0.039242 -0.3371 -0.19236 -0.09338 0.091496 -0.040431 0.20396 -0.2846 -0.2989 -0.68772 0.21097 0.10001 0.24022 -0.2127 0.5884 0.029446 0.33642 -0.21497 0.043506 -0.14969 -0.67579 -0.18255 0.31461 0.58798 -0.51918 0.5134 0.27175 
crisis 0.52965 0.20243 -0.098942 -0.13239 -0.18726 0.23203 0.20558 -0.11408 0.096675 -0.24448 0.024476 0.37308 0.24797 -0.37393 -0.12233 0.39649 -0.1432 0.049017 0.49913 0.03694 0.39452 -0.57556 0.29807 -0.16778 -0.62039 -0.042865 0.46264 0.32434 -0.66257 0.25111 -0.075358 0.37901 -0.35726 -0.19244 0.068272 -0.42479 -0.079433 0.15313 0.41664 0.14738 -0.20221 -0.13553 -0.050428 0.43333 0.021278 0.37843 0.74351 0.61858 0.069603 -0.057336 -0.099973 -0.59924 0.00060833 0.16502 -0.31817 -0.019503 -0.59323 -0.33609 0.0054654 -0.063633 0.26182 0.086078 0.011137 -0.17108 -0.54825 0.29123 -0.21642 0.44622 -0.07982 -0.41203 0.22402 0.61424 0.29831 0.20123 -0.91024 -0.15856 0.13579 0.27343 0.2877 0.056388 -0.49799 -0.10904 -0.019197 0.0094122 0.15642 -0.15925 0.037757 0.038596 -0.41897 0.47412 0.87203 -0.18321 -0.42807 -0.34665 0.049574 0.7407 0.096445 -0.114 0.31821 0.20955 
physics -0.31316 -0.055186 0.42644 0.41559 0.26549 0.20923 -0.12091 -0.35942 -0.081013 -0.20872 0.094851 -0.052642 -0.35659 -0.78832 -0.14346 0.37871 0.29372 -0.13914 0.3193 -0.099819 0.76951 0.16142 0.2441 0.40102 0.11581 -0.28404 0.69473 -0.56683 -0.56574 -0.033226 0.13111 0.74159 0.077321 -0.035778 -0.27794 0.12163 -0.071114 -0.55782 -0.26484 -0.32153 -0.42184 0.25248 0.47562 0.46952 0.29655 -0.33735 0.27874 -0.19438 0.22892 0.60755 0.15685 -0.72223 0.65407 -0.33056 -0.64869 0.20736 -0.82921 -0.22883 -0.38767 0.39585 -0.56719 0.22676 -0.74142 0.17535 -0.3497 -0.34677 -0.68534 -0.58034 -0.36869 -0.49865 -0.039984 0.25229 0.26254 0.090812 -0.10714 -0.36472 -0.12894 0.04856 0.61034 -0.34881 0.2024 0.048446 -0.30697 -0.9036 0.58909 -0.36446 -0.0013731 0.18253 -0.70415 0.26259 0.345 0.32249 0.40409 0.14141 -0.29612 -0.46205 0.12496 -0.15515 0.087132 0.26004 
Jackson -0.51537 0.14192 -0.49425 -0.17047 0.16265 0.46248 0.37786 -0.0096957 0.24596 1.0276 0.027959 -0.47738 -0.58553 0.089423 -0.12181 0.51274 -0.36872 0.016118 0.050243 -0.42774 0.12721 -0.7513 -0.79136 -0.37414 0.093302 -0.12066 -1.2281e-05 0.15144 -0.16004 0.0249 0.28533 0.1495 0.05308 0.4325 -0.30339 -0.34976 -0.03595 0.0626 -0.28638 0.3448 0.21585 0.12163 -0.26049 -0.14175 0.3599 0.53587 0.43793 -0.44623 0.41455 0.34357 -0.0067074 -0.12505 0.14498 0.38601 -0.32886 -0.085174 0.094748 0.24962 -0.043721 0.10612 0.88554 -0.29919 0.12166 0.2965 -0.2218 0.21451 -0.39176 0.28702 -0.23204 -0.30366 0.35878 0.25475 0.34828 0.56443 -0.65752 0.60187 -0.017069 -0.0016704 0.52652 0.442 0.060584 -0.39547 0.044729 -0.017406 -0.18342 -0.20142 -0.0024005 0.10187 -0.35182 -0.096747 -0.27865 -0.14797 0.83131 0.4396 0.32373 0.16758 0.42103 0.2336 0.10035 0.11369 
senate 0.14623 0.16135 -0.11171 0.45371 0.81597 0.28928 0.14278 0.11928 0.035216 -0.074279 0.11281 0.17405 -0.21794 -0.39257 0.026295 -0.14826 0.014642 -0.82313 0.28953 -0.082146 0.47904 -0.61699 -0.21851 -0.26526 -0.11008 -0.14863 0.14816 0.012194 -0.37845 0.44618 0.11565 -0.091006 0.23047 -0.49493 -0.45215 0.10556 0.70319 -0.18615 -0.72232 0.45557 -0.4958 -0.20148 0.48987 0.36166 -0.05691 0.12652 0.50435 0.72074 0.060496 0.038143 0.068158 0.55113 -0.3037 -0.077957 -0.38551 0.39349 -0.12743 0.25137 -0.28464 0.50986 -0.066284 -0.35788 -0.10337 -0.82642 0.17398 0.18612 -0.40253 0.21598 -0.38392 -0.41974 0.27959 0.13087 -0.076079 1.2193 0.15139 -0.075256 -0.19621 0.15958 -0.212 0.20217 -0.33916 0.30815 -0.29478 -0.32346 -0.045532 -0.022888 -0.2155 -0.23715 -0.38909 0.60696 0.47666 0.17292 -0.054003 -0.3579 0.094362 -0.030895 0.14852 -0.81423 -0.027746 -0.088951 
jazz -0.96329 -0.022359 -0.066167 0.21314 0.22072 0.75516 -0.090499 0.51578 0.39288 0.25084 -0.091885 -0.13402 -0.18101 -0.23269 0.12158 0.86678 -0.139 -0.41413 -0.030395 0.067319 -0.14407 -0.31457 -0.44371 -0.30253 -0.036293 0.019394 0.14428 -0.010086 -0.50519 0.14741 -0.34032 0.53263 -0.23115 -0.15174 -0.21491 0.077958 0.70956 -0.46336 0.077981 -0.80824 -0.19847 -0.32028 0.97269 -0.33106 -0.33757 -0.34448 0.19404 0.08383 0.63576 0.80238 -0.2361 0.28289 0.41513 0.25692 -0.49948 0.14639 -0.52711 -0.12666 -0.25639 -0.0086381 0.54884 -0.39472 -0.16998 0.36047 -0.22869 -0.6908 -0.011336 0.58233 0.013076 -0.35499 0.11415 0.084891 -0.32233 0.74338 -0.60421 -0.26149 0.56518 -0.13685 0.57666 0.47028 0.31486 -0.11205 -0.33334 -0.39331 0.31598 0.60034 -0.14867 -0.36804 -1.2328 -0.49142 -0.41165 0.35879 0.16526 -0.023501 0.85405 0.022839 -0.14895 -0.083877 0.023213 0.53876 
fuck -0.41059 -0.010327 -0.26996 -0.07266 -0.013983 0.49593 0.099787 -0.17971 -0.20335 0.2777 -0.1706 -0.22857 -0.40256 -0.25463 0.062534 0.57059 -0.40586 -0.74159 0.014723 -0.049199 0.21424 0.16107 -0.51655 0.034621 0.031842 -0.16773 0.40332 -0.0046041 -0.36511 -0.14907 0.44388 1.0373 0.018342 -0.58583 -0.1535 0.037363 -0.73537 0.28353 0.055256 0.023155 -0.2235 -0.44747 -0.26154 0.51778 0.13503 -0.096865 0.51023 0.47475 -0.16964 -0.22948 0.07911 0.30726 0.14627 -0.26856 -0.38923 -0.43761 -0.71225 0.20151 0.02557 -0.38415 0.16165 0.084286 -0.062782 -0.37605 0.31055 -0.6518 -0.24583 -0.080864 0.011346 -0.19445 0.36114 -0.027323 0.18204 0.59472 -0.62035 -0.19188 0.024462 -0.0081133 0.53433 -0.10306 0.19583 0.3894 -0.096746 -0.24649 -0.26715 0.15759 0.091639 -0.16759 -0.16527 0.34645 0.50595 0.32897 0.32898 -0.31987 -0.077484 0.45703 -0.33031 -0.29208 -0.68592 0.079224 
noon -0.48242 -0.040461 -0.30258 -0.04762 0.05505 0.053629 0.10738 -0.52364 -0.057601 0.73658 0.27202 0.12566 -0.329 -0.019339 0.37672 -0.33719 0.59493 0.28596 0.1917 -0.57011 0.47708 -0.35231 -0.47309 -0.30886 0.01012 -0.45632 -0.0036411 -0.090711 0.32023 0.31892 -0.2027 0.044039 0.42641 -0.65969 -0.60432 0.12929 -0.11757 -0.32291 0.72868 0.090806 0.10152 0.022393 0.43092 -0.16762 -0.18414 -0.13285 0.26058 0.30363 0.035544 -0.11042 -0.1906 -0.042896 -0.14044 -0.25205 -0.90026 0.3214 -0.1305 -0.73078 0.13824 0.3004 0.96492 0.18238 -0.071127 -0.56782 0.033495 -0.17187 -0.2558 -0.30224 0.46956 -0.60712 0.26715 0.038347 -0.43614 0.3739 -0.64003 -0.0071091 -0.05762 0.4452 -0.15235 -0.15924 -0.30776 0.18402 0.25804 -0.26703 -0.17625 -0.095142 0.019564 -0.75598 0.014911 0.18298 -0.40289 0.44384 0.078133 -0.27536 -0.059699 0.095779 0.3663 0.029588 0.18204 -0.032002 
