437 200
clothes 0.27546 -0.048907 0.064058 0.28778 0.11067 0.10512 0.15208 0.40298 0.32729 -0.1323 -0.1762 0.15643 -0.24422 0.24771 -0.21765 0.1759 0.59066 -0.026606 0.49241 0.26615 -0.21917 0.39155 -0.20435 0.292 -0.46059 0.18629 -0.16397 0.40306 -0.23822 -0.089755 0.11256 -0.13188 0.28466 -0.32119 0.35354 -0.081915 -0.12174 -0.010786 -0.08965 -0.011374 -0.27384 0.14586 -0.28686 -0.11267 -0.60933 0.1229 -0.44726 0.2985 0.24104 -0.2124 -0.16741 -0.22343 0.14109 0.20386 0.16328 0.33395 -0.36194 -0.052331 0.37164 0.16378 0.24096 -0.18919 0.1822 -0.11041 -0.0085386 -0.21584 0.16632 -0.17096 -0.034575 -0.11067 0.060606 -0.30813 0.037119 0.36353 -0.54817 0.17005 0.23603 0.027785 -0.0054691 -0.19764 -0.068173 0.42246 0.2041 -0.015484 -0.15258 0.080268 -0.15113 0.059445 -0.15601 0.41106 0.011881 0.38392 -0.016086 -0.25386 0.012704 -0.16431 -0.45405 -0.89943 0.058599 -0.19723 -0.32221 0.17612 -0.13879 0.43458 -0.1719 0.1486 0.13816 0.014558 0.11039 -0.37142 -0.53571 -0.054623 -0.47339 -0.065656 -0.078206 0.019795 0.16814 -0.07879 0.028692 -0.4088 0.086377 0.56092 0.34 -0.3226 -0.38635 0.03189 0.35334 0.22853 0.094777 -0.086549 0.13386 0.64648 -0.26628 -0.17268 -0.033967 0.15008 -0.12718 0.62152 -0.12237 -0.24807 0.018641 -0.022187 0.10025 0.55272 0.18999 0.0093311 0.18951 -0.17305 0.079973 0.14792 -0.095572 0.042958 -0.039786 -0.39991 0.0043723 0.37519 -0.29628 0.23775 0.032072 0.39914 0.23997 -0.067296 -0.071774 -0.48462 -0.45137 0.0040164 -0.14192 -0.14419 0.2126 -0.15714 0.13461 -0.063188 -0.20592 0.10006 -0.2775 -0.23343 0.43997 -0.21919 -0.3358 0.14565 0.2405 -0.22954 0.010282 -0.12565 0.10163 -0.10457 -0.013612 -0.24676 0.30705 -0.16956 -0.4022 -0.039684 0.23904 0.066803 -0.39006 -0.055614 -0.092359 -0.013063 -0.14348 0.1215 
investigation 0.45157 -0.040594 0.61964 0.20807 0.1662 0.17628 0.29796 0.013935 0.10757 0.2959 0.17583 -0.39137 -0.24031 0.22315 -0.017173 0.21627 -0.031608 0.1084 0.62533 -0.048564 -0.39668 0.28386 0.42123 -0.11133 -0.024476 -0.082289 0.26549 0.42639 -0.173 -0.4068 0.058829 0.35589 0.34757 -0.10915 -0.21299 0.34272 0.013586 -0.33414 -0.13749 0.23967 0.2065 0.39211 -0.09837 0.22511 0.19438 -0.022613 0.2274 0.12814 0.55696 -0.3903 0.16798 0.31393 0.032177 -0.15224 -0.083565 0.11519 -0.13809 -0.49566 -0.12456 0.25052 0.24844 0.23195 -0.018945 0.54512 -0.19706 0.46927 0.34347 -0.31552 0.00053622 -0.20225 -0.49282 -0.069917 -0.29873 -0.066183 -0.013934 0.20571 0.54134 0.42083 0.078714 -0.058726 -0.027461 0.15642 0.17918 0.10992 -0.16691 0.42877 0.23355 0.18244 0.066638 -0.65953 0.0080457 -0.16474 0.033979 -0.078636 -0.037961 0.37891 -0.2203 0.19259 0.29465 0.092425 0.050566 0.074251 -0.33602 -0.15614 -0.10197 -0.029932 -0.09456 -0.45689 0.27438 -0.082948 -0.15739 0.4141 0.72569 -0.65686 0.026359 0.34157 -0.1717 -0.10569 0.11273 -0.64733 -0.12081 -0.055471 -0.44413 0.21202 -0.090921 -0.35495 -0.36726 0.42546 0.11093 -0.017758 -0.18169 -0.066244 -0.14472 0.39498 0.28516 0.0576 0.21722 0.35793 -0.49452 -3.4491e-05 -0.21443 -0.35651 0.073457 0.42532 0.11353 -0.13632 0.41374 -0.081187 -0.16876 -0.038615 0.31111 0.10478 0.06257 -0.11017 0.20306 0.19105 0.36769 0.23856 0.46085 0.20963 0.032082 -0.21024 -0.17754 -0.32693 -0.19948 0.23836 -0.22882 0.017538 0.063234 0.013231 0.27007 0.42834 -0.40264 0.1158 0.18573 -0.085852 0.11221 0.055157 0.054587 -0.024023 0.13883 0.046377 -0.389 -0.24791 0.10719 -0.30223 -0.27052 -0.32273 -0.18385 0.17222 0.016589 -0.18906 0.1311 -0.091854 0.31417 -0.25723 -0.0050216 -0.11996 0.3429 -0.14237 
serial -0.091788 0.0028765 -0.40581 -0.023237 -0.10174 -0.015261 0.52315 0.096083 0.28912 0.2608 0.0044187 -0.13734 0.3151 -0.21503 -0.098249 0.39288 0.19999 0.066256 0.48901 -0.082906 -0.14583 0.33982 -0.49823 0.33821 -0.3449 -0.027649 0.16974 0.15698 0.05448 -0.023537 -0.02888 0.12716 0.14646 -0.33437 -0.16306 -0.096516 0.51795 -0.017743 -0.28889 -0.10857 -0.06007 0.56255 -0.25352 0.14506 0.086933 -0.083576 -0.22519 0.13246 0.12439 -0.23604 -0.12068 0.089118 0.34559 -0.48715 -0.24562 0.11198 -0.03434 -0.44094 0.060804 0.30342 0.30885 -0.16623 -0.15585 0.05874 -0.36698 -0.37678 -0.20399 -0.11593 -0.33413 0.011863 -0.11455 -0.1416 -0.29148 0.36314 0.0899 0.2134 0.44442 -0.0082774 0.36648 0.24932 0.51241 -0.19679 0.30038 -0.26341 -0.19541 0.38024 -0.017883 -0.011125 0.012117 0.050823 0.38727 0.13307 -0.32495 -0.37232 -0.030119 0.02869 -0.25061 0.09982 -0.34939 0.63822 -0.39468 0.02539 -0.12796 -0.21543 0.15838 0.076578 -0.28265 -0.047767 0.33241 -0.33754 -0.25798 -0.0053915 -0.00021057 -0.11023 0.033209 0.068612 0.083165 0.071427 -0.57085 -0.16651 0.30742 -0.16613 0.26213 0.15663 -0.1718 -0.3652 -0.13203 0.26604 0.2669 0.38266 -0.24528 0.17035 0.4664 0.016009 0.097371 -0.044395 -0.061013 -0.0078458 -0.38161 -0.25976 0.53068 -0.53633 -0.36399 0.61726 0.35692 -0.15154 0.05242 0.31968 0.15963 -0.054173 -0.12743 -0.16411 0.069344 -0.26052 0.19137 -0.17398 -0.10615 0.22238 0.023953 0.2235 0.082636 -0.34308 0.09423 0.17875 0.05132 0.15255 -0.10287 0.01999 -0.18995 0.11664 0.04703 0.08996 -0.29396 0.36479 -0.090754 -0.35528 0.1556 0.19022 0.27253 0.18511 -0.020635 -0.14691 0.04585 -0.2036 0.16051 0.16154 -0.015677 0.23131 0.14046 0.16124 0.19379 -0.21224 0.089688 -0.078302 0.0066399 -0.25783 -0.13492 -0.6494 0.51579 -0.60401 
cash 0.12906 -0.028006 -0.083939 0.26344 0.21238 -0.19412 0.040617 0.0033031 0.35124 -0.18151 0.24928 -0.042453 -0.11853 0.1295 0.19003 -0.060283 -0.046129 0.11634 0.38376 0.093436 -0.20994 0.11936 0.17405 -0.39106 -0.17614 0.19424 0.17402 -0.033583 -0.40522 -0.019348 -0.19832 0.36068 -0.063527 -0.39289 0.011488 -0.11973 -0.20245 0.24747 0.38766 0.26659 0.27778 0.38689 -0.092329 -0.07158 0.22033 0.29566 -0.096355 0.16304 -0.26251 -0.43912 0.2678 0.018124 0.044372 -0.052448 0.073694 0.086845 0.57631 -0.15494 0.1426 0.2571 0.27453 0.081544 -0.018934 -0.0063401 -0.064788 0.31588 -0.49282 -0.21758 0.26714 -0.22416 -0.042121 -0.55114 0.29137 0.263 -0.23225 0.30517 -0.097903 -0.22513 -0.11702 -0.078049 0.1383 -0.20473 -0.20395 0.065363 -0.10705 -0.02451 -0.070152 0.25915 0.068798 0.025803 0.1325 0.0036143 0.11963 -0.63911 0.059933 -0.038847 -0.035905 -0.34078 0.29655 0.26443 0.33244 0.19457 -0.18609 -0.093711 -0.41382 -0.37875 -0.24421 0.16794 0.15627 0.22423 -0.17401 0.011839 -0.028978 -0.22087 -0.11918 -0.11946 0.47207 0.10831 -0.35254 -0.0050551 -0.016437 0.097192 0.6571 -0.54859 -0.0034 -0.12139 0.21377 0.32628 -0.043324 -0.29149 -0.11365 0.41518 0.19967 -0.62797 -0.303 -0.14089 -0.27465 0.64492 -0.15834 -0.15444 -0.0089276 -0.2006 0.016588 0.23455 0.43681 -0.27455 0.042408 0.27489 0.50192 -0.029865 -0.56768 0.0025744 -0.11709 -0.025028 0.271 0.0057476 -0.34182 0.5203 0.089452 -0.34184 0.1308 -0.20464 0.58277 0.12513 -0.34567 -0.53198 -0.27627 0.087154 -0.13601 0.33876 0.082794 0.023312 -0.16033 0.28365 -0.19031 -0.10699 0.40057 -0.20226 -0.086252 0.036953 -0.028882 0.05193 -0.33065 0.087096 -0.098097 0.045379 -0.31839 0.14913 -0.070625 0.085829 -0.24821 -0.15965 0.37294 -0.60795 -0.19083 -0.26943 0.042317 0.21974 -0.12607 -0.037437 
television 0.37151 -0.16496 0.15658 0.081334 -0.33342 0.37881 0.044668 0.24942 -0.019869 0.3263 -0.040631 0.060755 0.070527 0.28267 -0.10107 0.13639 0.16066 0.32175 0.12739 0.071277 -0.10668 0.08478 -0.07795 0.15722 -0.25918 -0.21816 -0.098534 -0.15707 -0.15347 -0.019768 -0.060137 -0.53307 0.45823 -0.059329 0.20442 -0.22738 0.2266 -0.21481 0.083373 0.1712 0.23714 0.095115 0.14475 -0.084697 0.1881 -0.028684 0.043262 0.089246 0.25135 -0.14014 -0.45467 0.089788 0.085688 0.0065116 -0.28728 0.56067 0.18829 0.20166 0.1461 0.21572 -0.066372 -0.11201 -0.22212 -0.15295 -0.050927 0.17599 -0.18545 -0.47913 -0.22809 0.048164 -0.084083 -0.21154 -0.030573 0.41404 -0.053386 -0.059447 0.078723 0.05022 0.47896 -0.052786 0.24202 -0.21129 0.37612 0.16451 -0.18943 0.26768 0.11044 -0.25028 -0.25343 0.097764 0.34288 0.311 -0.15185 -0.40881 -0.27473 -0.074752 -0.52715 0.31004 -0.14179 0.20221 -0.1519 -0.036287 -0.060173 -0.047513 0.2598 0.20056 0.013418 0.059825 -0.059347 0.13082 -0.016752 0.15085 0.25601 0.03088 0.24059 0.046475 0.22429 0.34079 0.0089084 -0.35209 0.083362 0.053508 -0.044505 -0.17205 -0.008074 0.38481 -0.28014 0.24771 -0.037794 0.028758 0.17066 0.47035 -0.11891 -0.058689 0.22257 -0.021681 -0.47808 -0.26496 -0.088216 -0.12732 0.072128 -0.0080788 -0.10883 0.1314 0.5664 0.35858 0.31253 0.024086 -0.11913 0.04171 -0.45526 -0.15487 0.16594 -0.06006 -0.10849 0.041736 -0.6034 0.010522 0.20646 0.38527 0.043333 -0.080228 -0.32282 -0.25739 -0.18265 0.054131 -0.29092 0.33784 0.19234 -0.094864 -0.12458 0.3189 -0.70883 0.10941 -0.013435 -0.44795 0.35773 0.37499 0.10921 -0.095461 0.070685 -0.35177 0.24722 0.090402 0.21308 -0.11304 0.28949 0.014246 0.070923 -0.25173 0.13787 0.34468 0.59574 0.26483 -0.046377 -0.14863 -0.19719 -0.47057 0.24311 -0.37574 
area 0.20765 -0.18725 0.024224 -0.19355 -0.18201 -0.042403 0.32169 -0.19696 0.28913 0.27478 0.028823 0.14233 -0.016038 -0.010375 0.059471 0.044208 0.16043 0.065939 -0.032467 0.42533 0.024137 -0.14563 -0.19065 -0.09745 -0.28851 0.27175 -0.49206 0.25197 -0.042779 0.3933 -0.19718 0.35901 0.066793 -0.083278 -0.060515 0.0094353 -0.091974 -0.01511 -0.1798 0.22953 -0.0056485 0.22467 0.16666 -0.016584 -0.031683 0.035733 0.23454 0.4052 -0.13351 -0.071583 0.090245 0.14619 0.10775 -0.16524 0.21982 0.20475 -0.15737 -0.10065 0.12156 0.73627 0.32408 0.18305 -0.28407 -0.022943 0.10807 0.15552 0.090866 0.019813 0.11185 0.32406 0.034469 -0.025527 0.022938 0.23312 0.017922 0.34317 0.14364 0.33194 0.26669 0.062236 0.15445 0.27158 0.16879 0.14932 -0.22069 0.30118 -0.14273 0.052882 0.37033 -0.14526 0.086073 0.09699 -0.22993 -0.26432 -0.14731 -0.1707 -0.045115 -0.2745 -0.29248 -0.21916 -0.18932 0.041216 -0.33103 -0.15894 -0.14351 0.074914 -0.23562 0.062685 0.13677 0.16812 0.21144 -0.19551 0.19649 -0.33269 0.011455 -0.016427 -0.0218 -0.25324 0.0046166 -0.44349 0.00055264 0.23772 0.01183 0.0043041 -0.15342 0.20584 -0.016349 -0.044121 0.14535 0.23061 0.083427 -0.10923 -0.18122 -0.10561 0.036087 0.0053862 -0.34019 0.18403 -0.1351 -0.010783 -0.20953 -0.0074114 0.0094851 -0.033109 0.10888 0.38966 0.25312 -0.52431 0.38765 0.45409 -0.050009 -0.13147 0.29027 -0.077262 0.072709 0.10202 0.24877 0.30823 -0.017625 0.061679 0.36785 -0.02473 0.21538 -0.14036 0.058473 0.057151 -0.18786 -0.0065922 0.11087 0.057611 -0.10301 -0.073121 -0.05078 -0.18477 0.36575 0.27039 0.10777 -0.41564 -0.27776 -0.044781 0.34803 0.075866 0.0010214 -0.30627 -0.050541 -0.30926 0.22417 -0.083109 -0.037861 0.24496 -0.097697 0.22574 0.1385 0.1048 -0.082992 -0.35034 -0.029259 -0.36097 0.3978 0.18524 
memorabilia 0.16706 -0.37281 0.13346 0.1672 0.4696 0.32396 -0.063244 -0.026666 0.30162 -0.77181 -0.53244 -0.16837 -0.31117 0.37171 -0.14331 -0.26634 0.34699 0.15409 0.30168 0.052212 -0.20933 0.76808 0.034702 0.042233 -0.30441 0.20243 0.049911 0.29988 -0.50677 -0.43015 0.028899 0.12793 -0.35795 0.20164 0.43074 -0.1514 0.29978 -0.042613 -0.31576 -0.41068 0.92566 0.10687 0.15973 0.042831 -0.23865 0.46902 -0.3614 0.14933 0.66587 0.15742 -0.080303 -0.1573 -0.14278 -0.32485 -0.11983 -0.13511 0.25377 -0.10228 0.072727 0.13373 0.24395 0.018538 -0.033604 0.2536 -0.073608 -0.26361 0.18945 -0.79664 -0.13345 0.64449 0.41473 0.044144 0.13928 0.67759 -0.26941 0.26282 0.59956 -0.44812 0.2238 0.28081 -0.25015 -0.17523 0.2167 -0.15335 0.048519 0.054562 -0.13405 0.078836 -0.18836 -0.11295 0.030143 0.45244 -0.10478 -0.16243 0.12821 -0.14116 -0.58619 -0.48428 0.36017 0.11974 0.20851 -0.19332 0.29713 0.1314 0.15836 -0.42298 -0.69152 0.017231 0.2255 0.30955 -0.77103 0.063384 -0.87669 0.04388 -0.15744 0.32451 0.10438 0.18827 -0.046013 -0.57778 0.22859 -0.32525 0.27077 -0.3214 0.042145 0.33375 0.045598 0.50783 -0.27459 0.096424 0.16633 0.68431 0.11526 0.28287 -0.11124 0.33321 -0.13452 0.27861 0.10833 -0.286 -0.0095112 -0.24937 -0.13902 0.093044 0.1951 0.28716 0.57806 0.41636 0.30458 0.12415 -0.34004 0.28014 0.31266 -0.22367 0.40751 -0.0049056 0.055877 0.34273 0.21469 0.25906 0.49708 -0.12749 -0.06451 0.031425 -0.19387 0.43935 -0.7193 0.36761 -0.26229 0.57011 0.077075 0.010853 -0.30529 0.39385 0.26928 -0.028479 0.44381 -0.3794 -0.28815 0.0091619 0.64308 0.14438 -0.3427 -0.15498 0.22658 0.045293 -0.1604 0.26062 0.088527 0.1591 -0.20124 0.31691 0.13819 0.36661 -0.25897 -0.21162 -0.11265 -0.040536 0.094004 -0.61778 
recognition -0.13366 0.087194 0.23771 0.31081 0.001154 0.18102 0.30616 0.061731 -0.0050232 0.14024 -0.16164 0.033985 0.0081336 -0.20248 -0.22574 0.060614 -0.34835 0.085989 0.38675 0.20198 -0.25318 0.19469 0.01999 -0.44965 0.051913 -0.17534 -0.19208 -0.17173 -0.091133 -0.2275 -0.49302 0.16606 0.28624 0.14139 -0.16203 -0.32471 0.17996 -0.14519 0.34144 -0.22172 -0.083909 0.52136 -0.056999 -0.23605 0.2202 -0.22545 0.32875 -0.16559 0.14651 0.0034884 -0.36775 0.16029 -0.11806 -0.041818 0.45404 -0.41573 0.029626 -0.074879 0.17207 0.30249 0.34165 0.0041017 -0.13801 -0.050418 0.26939 0.51407 -0.32665 -0.33331 -0.01327 0.067094 -0.11718 -0.025086 0.19686 -0.14709 -0.17446 0.33281 0.25919 -0.16323 0.38683 0.10119 -0.19177 0.10597 0.28496 -0.091512 -0.12445 -0.043025 -0.1902 -0.18328 -0.14366 -0.04091 -0.10687 0.11105 0.15349 -0.081015 -0.31317 -0.30755 -0.031861 0.062966 0.086705 0.086257 0.032199 0.19257 -0.64459 -0.045342 0.46501 0.074397 0.36174 0.35377 -0.0011298 0.27301 -0.16216 -0.1576 -0.10629 -0.053074 -0.079479 -0.27894 0.28174 0.067386 -0.06948 -0.14994 0.31725 0.26285 -0.1722 -0.25649 -0.11426 -0.10832 0.065048 0.53422 -0.17969 0.063254 0.084077 0.057842 -0.16113 -0.071108 0.040082 -0.017948 -0.31451 -0.15327 0.18688 -0.26592 0.16152 -0.10619 -0.057665 0.17144 0.19233 0.15961 0.52827 -0.51019 0.36169 0.18898 -0.41958 0.088346 -0.54849 -0.11664 0.03893 0.21847 0.18118 -0.15074 0.28024 -0.076423 0.18929 -0.21458 0.050003 0.05084 0.020753 -0.094292 -0.17675 -0.12566 0.065807 0.25199 0.33002 0.0010034 -0.22488 -0.17758 -0.18744 0.16708 0.42434 0.2058 -0.0027332 0.28869 -0.0078382 0.34625 -0.17266 0.50794 0.12476 0.27877 -0.00099197 -0.14735 -0.13433 -0.052934 0.4208 -0.25098 -0.010876 0.31232 -0.20651 -0.63971 -0.4762 0.1103 0.50994 0.055454 
tableware 0.024992 0.17749 -0.13957 0.066944 -0.031083 0.39988 0.070724 0.036771 0.25978 -0.16446 -0.27257 0.072641 0.25967 -0.058487 0.19197 -0.11166 0.59385 -0.062805 0.61083 0.26239 -0.15411 0.46715 -0.21614 -0.28665 -0.33837 -0.083685 0.12697 0.43783 -0.17121 0.12444 0.36983 0.018126 -0.3813 0.043071 0.057671 -0.24289 0.29053 0.43955 -0.41094 -0.14921 -0.33815 0.22884 0.19564 0.093423 0.1171 0.18158 -0.075606 -0.21044 0.24373 -0.010213 0.18358 -0.0016943 0.21955 -0.084035 -0.020017 -0.1793 0.089638 0.18612 0.02778 0.19194 -0.12658 0.017743 0.073115 -0.13502 0.1996 -0.14665 0.10464 -0.3705 -0.17162 0.088887 -0.3749 -0.31558 -0.53394 -0.030255 -0.17892 0.2305 0.2076 0.063925 -0.16023 0.14985 0.054561 -0.29503 -0.010875 0.10123 -0.026199 0.053211 0.0034688 0.28061 -0.21265 0.27261 -0.035423 0.24191 -0.052382 -0.21523 -0.18348 -0.44847 -0.23699 -0.50992 0.17067 -0.072242 0.12082 0.0089433 -0.22643 -0.23163 -0.40805 0.1371 -0.32193 0.0052609 0.090733 0.080857 -0.40039 0.0057202 -0.61104 -0.42603 -0.20612 0.16025 0.33525 -0.091698 -0.0084775 -0.22207 -0.35286 0.15252 0.20756 -0.14476 -0.14839 -0.15606 0.0069244 0.4186 0.0079053 -0.24488 -0.084065 0.45501 -0.17671 -0.21315 0.45263 0.023939 -0.95478 0.30391 0.1878 -0.12208 0.20238 -0.29395 0.26299 0.090915 0.037462 -0.18157 0.21805 -0.23738 0.56557 0.08127 -0.07878 0.44822 0.097908 -0.28506 -0.027686 -0.17269 -0.19309 0.4623 0.11179 0.25732 0.26089 -0.01781 0.1361 -0.33204 -0.0047051 -0.041984 0.009008 0.078592 -0.281 0.10863 -0.018532 0.20803 -0.024233 -0.033974 -0.14681 -0.096305 0.32659 0.061986 -0.21707 -0.10384 0.039775 -0.34044 -0.038258 -0.014692 -0.1523 -0.024978 0.0071246 -0.24345 0.12356 0.28048 -0.13211 -0.035854 0.020839 0.10312 -0.31105 -0.44515 -0.07588 -0.24024 0.014374 -0.43417 
cat 0.065762 0.074079 -0.20843 -0.38678 -0.24579 0.23426 0.31378 0.0099776 0.50399 0.13334 -0.13446 0.03642 0.21109 -0.15861 0.046849 0.1197 0.28676 -0.038447 -0.12556 0.16095 -0.44193 0.37593 -0.23759 0.17909 -0.038402 0.28379 -0.37371 0.42192 -0.031782 -0.36143 -0.004138 0.32819 0.61651 -0.29148 0.29759 -0.22099 0.27776 -0.165 -0.094466 0.33393 0.02058 0.054736 -0.21897 0.31279 0.086146 -0.20575 -0.29445 0.69352 0.57203 -0.55855 -0.078002 0.071964 0.27007 0.016136 0.28033 -0.20441 -0.011115 -0.25063 -0.15831 0.12613 -0.022116 0.0696 -0.13433 -0.32684 -0.19474 -0.16348 0.33106 -0.17615 -0.2581 0.041147 -0.45748 -0.19251 -0.39806 0.23324 -0.38783 -0.14364 0.1068 0.13558 0.15503 -0.33514 0.46887 -0.14976 -0.37589 -0.41474 -0.081405 0.26631 0.22659 0.36685 -0.44785 0.56438 0.10301 0.32916 0.16194 -0.39085 0.13756 0.28827 -0.35119 -0.2101 0.22913 0.19434 -0.088232 -0.019031 -0.22673 -0.17228 -0.10393 0.16956 0.2194 -0.27155 0.2087 -0.3348 -0.13491 -0.12634 -0.10528 -0.090378 0.29301 0.061676 6.2551e-05 0.020859 0.29979 -0.42037 -0.21256 0.391 0.15313 -0.10695 -0.16831 0.14811 0.59039 0.051721 -0.032916 0.20465 -0.20695 0.052362 -0.10625 -0.26866 0.38758 0.30343 0.0013123 0.13016 -0.30427 -0.1539 0.32236 -0.17581 -0.21527 -0.053342 -0.11048 -0.10545 -0.10866 -0.19367 0.45223 -0.029424 -0.33345 -0.08565 -0.22579 -0.3736 -0.012745 0.64516 -0.23126 -0.00045858 0.10728 0.016244 0.12148 -0.068163 -0.029443 -0.2674 -0.33298 -0.22847 0.16541 0.35014 -0.47911 -0.042085 -0.25152 0.02973 -0.050557 0.4313 -0.012115 0.29739 0.21694 0.14429 -0.27515 -0.46872 0.42665 -0.19887 -0.059337 -0.15422 -0.10651 0.065296 0.069481 0.23678 0.023502 0.071874 -0.14492 0.03908 -0.21457 0.18987 -0.74584 -0.29822 -0.03951 -0.39795 0.471 -0.089423 
record -0.30901 0.28208 0.0077107 -0.11154 -0.079758 0.13087 0.035969 -0.11135 -0.074768 -0.20631 -0.16128 0.37297 -0.05967 -0.021211 -0.52277 0.29042 0.22276 0.019124 0.1656 -0.22329 -0.11545 -0.15534 0.1924 0.12012 -0.35643 0.44755 -0.12746 -0.042231 -0.3913 -0.38197 -0.091406 -0.11915 0.15976 0.31752 -0.019601 -0.18216 -0.16352 -0.27887 0.355 0.23849 0.21328 -0.0098379 -0.22772 -0.01503 -0.2712 -0.22472 0.19934 0.18859 0.0061504 -0.043824 0.60855 0.36653 -0.37649 0.13163 0.0092893 0.051363 -0.0085956 -0.19188 0.43491 0.7749 -0.078277 -0.32521 -0.1677 0.020499 -0.24106 0.42257 0.030972 -0.50194 -0.083578 -0.1547 0.043788 -0.095074 -0.086724 0.47986 0.45262 0.13103 0.37172 -0.1791 0.2005 -0.3894 0.42008 0.060386 -0.35255 0.21913 0.22885 -0.0069813 0.44354 0.25666 0.044326 0.09704 0.20557 0.041861 0.75864 -0.13824 0.08139 -0.22134 -0.17724 -0.22779 0.064799 -0.24395 -0.023415 -0.26465 0.054409 -0.76021 -0.097412 0.15149 -0.12753 -0.051855 0.060756 0.13098 -0.27727 -0.026329 -0.3498 0.14986 -0.12004 0.38766 0.022455 0.021802 -0.063386 -0.3169 0.0010921 0.4593 -0.04338 -0.042918 0.23218 0.020078 -0.13557 0.34547 0.35373 -0.11273 0.14188 -0.16543 0.29447 0.066328 0.10841 0.03631 -0.32055 0.055159 0.5026 0.034054 -0.041912 -0.037692 0.19205 0.10899 -0.021975 0.099493 -0.27974 0.15175 0.20318 0.14958 -0.32495 0.072676 0.039734 -0.10735 0.094368 0.10063 -0.030692 0.20393 0.085603 -0.037626 0.37319 -0.17683 0.30689 0.45416 -0.19727 0.28565 -0.2382 0.062483 -0.010397 0.25466 -0.22575 0.26284 -0.24536 -0.31708 -0.12516 0.030391 0.005231 -0.023809 0.12218 0.44047 0.059633 -0.25244 -0.14958 -0.19927 0.32083 -0.22835 -0.1599 0.057769 -0.15442 0.14641 0.6697 -0.025256 0.0044564 0.13426 0.070379 0.19548 0.14522 -0.17165 -0.29932 -0.26565 
office 0.14564 -0.61609 0.12651 0.11938 -0.063756 0.012876 0.26458 0.27894 -0.12937 0.14891 0.20599 0.10874 -0.29564 -0.024216 -0.16265 0.13695 0.055579 -0.13735 0.22858 -0.16638 -0.014499 0.44821 0.096877 0.29628 0.090032 0.18674 0.1216 0.22685 -0.10682 0.22698 0.0162 0.2509 -0.035118 -0.28651 -0.079437 0.27182 -0.20529 -0.39108 0.30359 -0.14411 0.068708 0.11884 -0.30579 0.15856 -0.17217 -0.093098 0.036886 0.35327 0.1436 -0.10516 0.19158 0.15046 -0.21669 -0.22559 0.063834 0.093053 0.17167 -0.21174 0.13356 0.26795 0.18924 0.11432 0.04171 -0.12553 -0.35072 0.25829 0.56083 -0.49357 0.25006 0.29488 -0.52827 -0.17312 -0.055901 0.37381 0.0025434 0.43609 0.49609 0.12548 -0.023509 -0.26009 -0.0053866 -0.28214 0.38856 0.082666 -0.17058 0.35526 0.18446 -0.073862 -0.12529 -0.13675 0.26533 0.1727 0.149 -0.18136 -0.05657 -0.17864 -0.35187 0.20133 0.035737 -0.27912 -0.089337 -0.11448 -0.20666 -0.090251 -0.023707 0.047907 -0.32673 -0.049417 -0.18231 0.36174 -0.1491 -0.0039236 -0.20735 -0.38082 0.25907 0.40158 0.47225 0.11102 -0.051504 -0.08658 -0.34998 0.00059297 -0.089831 0.061913 0.18586 0.24754 0.030954 0.1397 -0.14533 -0.37246 0.061314 -0.20047 -0.35757 -0.23246 0.16777 -0.040952 -0.12012 0.13222 -0.24975 0.4259 -0.085926 0.24485 0.49286 0.32914 -0.047653 -0.040515 0.16653 -0.29008 0.050042 0.25266 -0.43019 0.045103 -0.39317 0.013845 0.037754 0.17193 0.16545 0.46316 0.20546 -0.059037 0.19716 0.0033496 0.026863 0.24962 0.0027292 -0.019869 0.10158 0.06049 0.028017 -0.34011 -0.19808 0.064339 -0.19003 0.045817 0.15504 -0.28545 0.074844 -0.1674 -0.07593 -0.0066327 0.17818 -0.20308 -0.18154 -0.20677 -0.14479 0.10154 0.18843 -0.13062 0.36227 0.43349 -0.13147 0.029614 0.33068 -0.32948 -0.31479 -0.042429 0.063792 -0.040765 0.46818 -0.11084 
moon -0.055407 -0.63786 0.25094 -0.57332 0.027028 0.39438 0.37637 0.0010635 -0.45619 0.14361 -0.05886 -0.29822 -0.48841 0.25289 -0.34393 0.084311 0.34319 0.42834 0.3215 0.19972 -0.35713 0.079231 1.0245 -0.59278 -0.30706 0.42158 -0.26199 -0.43677 0.041703 0.3007 0.19788 -0.20614 -0.27254 -0.18779 0.37441 -0.11688 -0.41074 0.12129 -0.39027 0.047716 0.28829 0.020447 -0.34693 0.15517 0.10864 0.31068 0.069227 -0.086364 0.077066 0.21789 0.13953 -0.52745 0.26497 0.20793 0.29727 -0.29222 -0.045446 0.19864 0.17278 0.28242 -0.47019 -0.5767 -0.29334 0.27378 -0.27522 -0.034974 0.043181 0.050893 -0.13793 0.044942 -0.56066 -0.10189 -0.18021 0.30977 0.2654 0.83451 0.22571 -0.076263 0.49472 -0.54157 0.28642 -0.17903 0.13203 -0.57738 -0.43768 0.10998 0.8939 0.35448 -0.012315 -0.13474 -0.072798 0.45882 0.26014 -0.54097 -0.11017 0.17429 -0.43728 -0.14205 0.31054 0.26937 -0.36839 0.34873 -0.11725 0.4328 -0.29692 -0.19742 0.11335 0.39541 -0.51756 0.11101 -0.17779 -0.18058 -0.60485 -0.62702 -0.43913 0.25788 0.21814 -0.045068 0.32515 -0.3425 -0.10629 -0.058418 -0.15949 0.45377 -0.50851 -0.13949 0.11149 0.39136 -0.079761 0.44312 -0.11071 -0.18299 -0.44456 0.1715 0.45029 0.1884 -0.053586 -0.20886 -0.025731 -0.25142 0.058099 -0.43291 -0.27649 0.20535 0.32726 0.22415 0.11327 -0.4984 0.072308 0.38292 -0.29515 -0.10667 0.24703 0.14175 0.041207 0.052722 -0.16674 0.0050832 -0.052533 -0.13887 0.10337 -0.67227 -0.10629 -0.39376 -0.14497 -0.22798 0.34002 0.30226 0.042735 -0.00788 0.0027895 0.3429 -0.27034 0.24932 0.42154 0.076586 0.23342 0.20054 -0.62709 0.29805 -0.059201 -0.25724 0.078107 -0.14692 0.030931 0.26704 -0.55782 -0.16449 0.057765 -0.044307 -0.4525 0.52343 -0.01649 0.12284 -0.034505 -0.19511 0.047773 -0.40507 0.14926 -0.64483 
combination -0.081783 0.056636 -0.12527 -0.076694 -0.28174 -0.24843 0.15882 0.11296 0.31615 0.14379 0.082731 0.12626 -0.021525 -0.32119 -0.20997 0.19884 0.34843 0.15051 0.47252 0.12904 0.0637 0.073773 -0.23829 -0.38872 0.14065 0.095018 -0.023374 0.057001 -0.13945 -0.12154 -0.50102 0.32704 -0.24488 -0.28756 0.065704 -0.14506 0.017367 -0.056445 -0.30094 0.34345 -0.073808 0.11934 0.13453 -0.22579 0.098009 -0.06616 0.086227 -0.26031 0.075288 -0.038485 0.42485 0.10722 0.15435 -0.062698 0.27585 -0.010256 0.45533 0.040711 -0.14803 0.1113 0.052445 -0.21961 -0.043393 0.3556 0.018702 0.28124 -0.1912 -0.047006 0.042695 0.29643 -0.23362 -0.015527 -0.084243 -0.043684 -0.29433 0.21405 0.28423 -0.11449 -0.072175 0.0099167 0.24873 0.13596 -0.025898 -0.25847 0.0073424 0.14103 -0.033903 0.26718 -0.20563 -0.17314 -0.04105 0.11961 0.042703 -0.14189 -0.26688 -0.29983 -0.095107 -0.13092 0.36419 -0.2569 0.154 0.080782 0.053653 -0.48217 -0.32607 0.017328 -0.15597 0.10831 0.065143 -0.082371 -0.16848 -0.13964 -0.26103 0.079973 0.23722 -0.05041 0.25554 -0.10391 -0.04066 -0.014872 0.016629 0.21584 -0.48081 0.077163 -0.03927 -0.059651 -0.10129 0.34116 0.046846 0.032804 0.096456 0.18279 0.087422 -0.10461 -0.24724 0.094461 -0.69445 -0.14958 -0.0049443 -0.20528 -0.23833 0.13183 0.099388 0.16078 0.098653 -0.25766 0.25848 0.17575 0.028297 0.21213 -0.20772 -0.37316 0.17937 -0.038346 -0.024868 0.084475 0.10698 0.012309 -0.4679 -0.11168 -0.043018 -0.010363 0.30722 -0.097365 -0.29541 -0.12252 -0.16137 0.12288 -0.31704 -0.058991 0.093089 0.44698 0.11835 0.37882 0.13815 0.13228 -0.051026 0.022899 -0.047304 0.048651 0.12746 0.20543 0.040121 -0.04721 0.052573 -0.2074 -0.091037 0.22761 -0.41166 -0.25264 0.05997 -0.15379 -0.065508 0.15171 -0.026295 -0.17895 -0.23426 0.18357 0.10765 -0.63119 
importance 0.37417 0.099882 -0.13348 -0.042097 -0.025188 -0.39914 0.081707 -0.118 -0.018415 0.20429 -0.27149 -0.21221 0.18329 -0.20463 -0.23047 0.072372 0.14344 -0.21188 0.26096 0.19152 0.19776 -0.23323 0.11228 -0.22137 -0.47907 -0.089769 0.082877 0.027031 -0.24623 -0.094293 -0.07367 0.32834 0.072565 -0.11584 0.057188 0.28527 0.14322 -0.024079 -0.070136 0.10186 0.26158 0.61802 0.068741 0.016911 0.042614 -0.41761 0.087609 -0.25107 0.28168 0.16092 -0.0010971 -0.093451 0.11665 -0.0078494 0.34195 -0.01863 -0.099145 0.09174 -0.029144 0.41972 0.095108 0.011263 -0.42317 0.43963 0.068375 0.45697 0.018672 -0.038521 0.068006 0.33521 -0.13055 0.36651 0.10443 0.20827 0.19678 0.4043 0.38499 0.043388 -0.33293 0.33327 -0.19444 0.071816 -0.013255 0.077186 0.067096 0.14136 -0.11781 0.027083 -0.060457 -0.041819 0.16631 -0.1109 0.17675 -0.012003 -0.4473 -0.12545 -0.096836 0.032432 0.086353 -0.1179 0.16501 -0.30692 -0.26096 0.0057559 -0.11145 0.18532 0.54554 0.0035394 -0.096538 0.27054 -0.40759 -0.064364 0.078995 -0.24574 0.21728 0.034071 -0.18089 -0.0053744 0.23461 -0.44134 0.23497 0.28349 -0.095297 0.36281 -0.0079485 0.2729 0.20441 -0.21496 -0.29464 0.0067077 0.18448 0.13865 -0.19685 -0.30367 -0.42209 -0.12776 -0.37944 -0.052139 0.34204 -0.0047344 0.21318 -0.013068 -0.14024 -0.13815 -0.1421 0.48525 0.5517 0.0019517 0.61461 0.075836 -0.34565 -0.1103 -0.080751 -0.15168 0.066546 0.24832 -0.18262 0.023411 0.32936 0.14876 0.25758 -0.084025 -0.15449 -0.0060287 0.026809 0.16492 -0.17468 0.34177 0.4679 0.19309 0.20893 0.038456 -0.11572 -0.30272 -0.068449 0.30446 0.66367 0.022162 -0.069115 0.27125 -0.23789 -0.044135 0.1459 0.32695 0.024885 0.23329 -0.24601 0.065427 -0.019043 -0.17833 -0.019312 -0.27657 0.21329 0.13987 -0.22228 -0.3978 -0.14332 0.42434 0.22801 -0.28715 
production 0.0090568 0.35884 -0.016547 0.24873 -0.253 0.075057 0.32689 0.094217 -0.21698 0.12295 0.25034 -0.018763 0.20823 0.020342 0.074457 0.16011 0.030913 -0.30177 0.26388 0.056905 -0.19007 0.22873 -0.048734 -0.43693 -0.24845 -0.015666 -0.056203 0.15152 -0.056773 0.070911 0.11938 -0.077668 -0.12509 -0.40506 -0.28934 0.0057101 -0.26988 0.11552 -0.25968 0.29993 0.6056 0.065053 -0.14173 -0.35434 0.40136 0.19188 -0.32877 -0.034688 0.45073 -0.1132 0.026096 0.075413 -0.053374 0.10064 -0.19437 0.066809 0.0061159 -0.014664 0.081428 0.35649 0.073462 -0.48095 0.094706 0.39544 0.13147 0.39693 0.024453 -0.20947 -0.22112 -0.29618 -0.33583 -0.1383 -0.2961 0.52621 -0.21792 -0.23905 0.083509 0.011373 -0.051498 -0.27347 0.059082 -0.013309 0.23269 -0.17664 -0.14219 -0.10096 0.34548 -0.30986 -0.2509 -0.40045 0.21619 0.45224 0.2836 -0.29345 -0.24074 -0.28606 -0.22125 -0.2876 0.057136 0.51046 -0.23489 -0.10639 0.34934 0.055681 0.28161 0.2451 -0.30072 -0.032954 0.2851 0.40231 0.25655 -0.27125 0.096765 -0.33454 0.34874 -0.42735 0.26594 0.21641 -0.19549 0.042673 0.33932 0.21388 -0.0055817 -0.31704 -0.12474 -0.066951 -0.41586 0.066728 0.08221 0.26621 -0.26389 -0.049551 0.17252 -0.15074 0.022019 0.25455 -1.1339 -0.19568 0.53249 0.077654 -0.12591 -0.27574 0.47603 0.16074 0.33422 0.019138 0.31828 -0.47222 0.34851 -0.055618 0.11598 -0.020097 0.092698 0.25275 -0.19038 0.28888 -0.23361 0.18697 0.047966 -0.04717 -0.323 0.0047374 -0.13577 -0.37398 -0.056133 -0.16459 -0.13941 0.23848 -0.14423 0.011657 0.19129 -0.047426 0.41474 0.1539 0.23847 0.073608 -0.082142 -0.19605 -0.26212 0.20551 -0.1501 -0.22825 0.0036516 -0.21638 0.42553 -0.24343 -0.24475 0.48832 -0.36166 0.15894 -0.2102 0.15392 0.33243 0.006069 0.23234 0.28689 -0.2542 -0.13359 -0.16196 -0.1033 
conclusion -0.13535 -0.091884 -0.043255 0.17595 -0.025882 -0.27996 0.044067 -0.28272 0.16592 0.040603 -0.13598 0.020234 -0.22105 0.082325 -0.19442 0.21422 0.08263 0.21672 0.46459 -0.26694 -0.28565 0.12348 0.24022 0.21234 -0.095886 0.17351 0.19568 -0.25501 -0.1569 -0.84575 -0.029862 -0.048029 -0.033737 -0.35164 0.22753 -0.15832 -0.10587 -0.082529 0.027252 0.38423 0.14594 -0.025636 -0.042165 0.07958 0.1336 -0.11897 -0.24017 -0.078118 -0.16007 0.060928 0.040089 0.36187 0.14383 -0.14037 -0.051736 -0.08866 -0.26804 -0.066115 -0.19641 -0.023054 0.14984 -0.15959 -0.30026 0.39883 0.057546 0.4652 0.16223 -0.31336 0.24173 -0.083986 -0.058117 -0.11757 -0.11747 0.090296 -0.46401 0.30809 0.38534 0.029712 -0.11851 0.13164 -0.067008 -0.17844 0.11782 -0.057648 -0.30162 0.29685 -0.19831 0.17012 0.19352 -0.38976 0.20121 -0.077752 0.37127 -0.255 -0.17175 0.0068296 -0.143 0.19589 0.60016 -0.054821 -0.16134 0.014516 -0.39385 -0.018348 -0.063938 0.081434 0.018416 0.18093 -0.179 -0.086469 -0.14086 0.22639 0.27134 -0.046997 0.42815 0.15 0.16134 0.040314 -0.094651 -0.4181 -0.04796 0.57449 -0.29496 0.41029 0.063591 -0.12983 0.14723 0.24377 0.19463 0.4925 -0.092044 0.24411 -0.3609 0.21132 -0.022166 0.28719 0.010091 -0.25798 -0.046927 -0.060336 -0.032334 -0.22403 0.13642 0.20252 0.13749 0.1849 0.13116 -0.1726 -0.2103 -0.2363 -0.068205 0.14595 -0.059473 -0.45923 -0.025991 0.043536 -0.038915 0.25532 0.3988 -0.093796 -0.013052 -0.23343 -0.073443 -0.13785 0.0064863 0.2398 -0.22145 -0.16537 0.16433 0.01028 0.10372 0.053784 0.046483 -0.23563 -0.091692 -0.019352 0.0025697 0.34551 -0.15398 0.29509 0.28993 -0.013457 -0.18588 0.15988 -0.21998 -0.24065 0.030319 -0.13234 -0.6661 0.095789 -0.11998 0.022765 0.072442 -0.19971 0.11795 -0.12487 0.20483 -0.14334 0.19219 -0.18653 
drought -0.25655 -0.11912 -0.22694 -0.04066 -0.42744 0.15239 0.29227 0.13972 0.14173 -0.07667 0.21779 0.18445 0.45838 -0.28739 -0.017829 0.04645 -0.22373 -0.26603 -0.29722 0.10187 -0.33039 -0.40638 0.11505 -0.29042 -0.73169 0.079778 -0.063542 -0.10825 -0.026762 -0.1487 -0.82885 -0.020228 -0.12652 -0.16724 -0.020311 -0.064951 -0.030813 0.20707 0.056584 0.13997 0.31525 0.62671 0.42773 -0.25227 -0.18323 -0.26654 -0.11335 -0.010911 0.44247 -0.42863 0.1733 0.35404 -0.49121 -0.090957 0.34248 0.07481 0.13884 -0.010333 0.12174 0.096939 -0.052606 -0.1241 -0.057298 0.19315 0.23595 0.29716 0.53176 -0.22413 -0.066897 -0.056846 -0.059314 0.15865 -0.0091226 0.41243 0.27954 0.067598 0.043659 -0.18164 0.19745 -0.30482 0.75219 0.2864 0.17043 -0.054299 -0.12147 -0.21143 -0.10913 0.23151 -0.20527 -0.38472 0.38225 -0.025472 0.37369 -0.22942 -0.066197 0.3542 0.091914 -0.008542 -0.015857 0.099389 0.1626 -0.36578 -0.21187 -0.26896 -0.41858 0.18294 -0.16317 0.45968 -0.054374 0.12478 -0.098073 -0.16035 -0.36324 -0.47698 -0.12622 0.29382 0.079376 0.15862 0.38852 -0.081763 -0.097876 0.81252 0.0053782 0.054395 -0.46899 -0.41087 -0.095761 0.84856 0.69937 0.51736 0.04122 0.11819 0.22436 0.28052 -0.21082 0.092452 -0.30068 0.042944 0.45501 -0.43173 0.26713 -0.1262 0.29706 0.15621 0.28771 0.18958 -0.15688 0.33298 0.63819 0.44556 -0.67372 -0.94725 0.025611 0.037815 0.32673 0.28763 -0.1043 -0.081199 0.015643 -0.13791 -0.37627 -0.6525 -0.27409 -0.069284 -0.44359 -0.1633 -0.018143 0.095919 0.068534 -0.38317 -0.47745 0.13878 -0.13999 0.42775 0.13432 -0.066308 -0.10766 -0.017626 -0.43053 0.16494 -0.019096 0.057859 -0.025598 0.056752 0.43132 0.047591 -0.033286 0.21672 -0.53356 -0.18302 0.25961 0.28004 0.0085645 -0.22847 0.47247 -0.3008 0.81143 -0.49323 0.070819 0.68957 
consumer -0.056116 -0.021944 0.21528 0.47725 -0.60703 -0.21092 0.50092 0.1448 0.36871 -0.14045 -0.084546 -0.043641 0.32527 -0.21027 0.48439 0.040395 0.34688 0.29054 0.040204 0.23386 -0.27417 0.39973 0.17671 -0.055527 -0.12015 0.005255 -0.20245 0.44806 0.25367 0.15081 -0.1469 -0.1322 -0.031165 -0.29521 0.25733 -0.1452 -0.16807 -0.15141 0.15389 0.21542 0.37978 -0.020244 -0.26548 -0.12526 0.048135 0.062273 0.49589 -0.022358 0.54428 -0.17348 0.43472 0.277 0.022623 -0.10378 0.067402 -0.089757 0.19473 -0.28672 0.24865 0.21306 -0.17338 -0.17618 -0.54769 0.32427 -0.32781 0.45462 0.024732 -0.10808 -0.26572 -0.20165 0.15906 0.10815 -0.048185 0.21516 -0.22476 0.15999 0.14009 0.25609 0.21784 -0.23841 0.2007 0.090677 0.22024 0.41318 -0.1626 -0.22658 -0.39897 0.14818 -0.2247 0.31188 -0.1693 0.32626 0.41199 -0.23484 -0.23324 0.28356 -0.66239 -0.31898 0.31899 -0.0027329 -0.085064 -0.21274 0.50108 0.20902 0.039436 -0.098121 -0.15745 -0.18469 0.086874 -0.13117 -0.2332 0.1303 -0.36246 -0.37662 -0.17313 0.40112 -0.18401 -0.093319 -0.39328 -0.40376 0.057877 0.3599 -0.09268 -0.19985 0.08348 0.091473 -0.177 -0.013494 0.033819 -0.25611 -0.39404 0.16825 -0.088178 -0.30186 0.13072 -0.2845 -1.3698 -0.082297 0.28317 0.03441 0.44584 -0.13205 0.40476 0.40168 0.47779 -0.034848 -0.12876 -0.041571 0.24404 0.027673 -0.14198 -0.45166 -0.30962 0.0029636 0.0021797 0.1305 0.25274 -0.028541 0.028616 -0.071187 0.19254 0.15604 -0.040382 0.037371 0.06167 0.18252 -0.17223 0.16025 0.06356 0.23353 0.55628 0.26077 0.013709 0.18263 -0.0018582 0.069647 0.2381 0.40049 -0.021055 -0.054301 -0.077156 -0.12952 -0.024924 0.39009 -0.13333 -0.031078 0.17606 -0.11027 -0.35107 -0.34532 0.062872 -0.23728 -0.057966 -0.087922 -0.096809 0.072083 -0.0017959 0.040048 -0.26921 -0.32793 
isolation -0.082118 -0.10623 -0.13986 0.50166 -0.23205 -0.13304 0.29944 0.075599 0.22361 0.55605 -0.41795 -0.39921 0.39591 0.020356 -0.20586 0.088819 -0.10707 -0.09558 -0.065673 0.19048 -0.078932 -0.14619 -0.029405 -0.22482 -0.23656 -0.068376 0.005556 -0.099306 -0.12251 0.17099 -0.48612 0.28409 -0.11501 -0.26054 0.48648 -0.10574 -0.36251 -0.10028 -0.20875 -0.025515 -0.18801 -0.072403 -0.39218 -0.1837 -0.071401 -0.27995 0.12274 0.11289 0.061192 0.27788 0.00062298 -0.28132 -0.096066 0.11279 0.3782 0.06144 -0.040222 -0.33437 0.35223 0.044259 -0.0076509 -0.052979 -0.33035 0.30111 -0.11388 0.2665 0.056799 -0.57692 -0.032006 -0.0081167 -0.40102 0.11392 -0.033782 -0.075868 -0.07383 -0.11733 0.077173 0.093848 -0.063688 -0.062924 -0.061219 -0.21483 0.21212 0.094024 -0.12358 0.10604 -0.15942 0.44853 0.041213 -0.29569 0.24128 0.11481 0.056243 -0.081157 -0.060443 -0.58353 0.019261 -0.31732 0.66788 0.057914 -0.44089 0.1362 -0.37892 -0.33481 -0.22504 0.021212 0.066543 0.12115 -0.16285 0.1966 -0.46418 0.0075956 0.1975 0.01855 0.29083 -0.051519 0.34231 -0.067262 -0.14338 -0.23741 0.17887 0.55074 0.16641 0.23231 -0.17642 -0.080954 -0.2302 -0.017482 0.059886 0.13597 0.059916 0.084563 -0.090116 0.1755 0.16857 0.29648 -0.17736 -0.15666 0.017027 -0.13967 0.036903 -0.46697 -0.10381 0.1598 -0.40195 -0.18715 0.31504 -0.43008 0.023053 0.20054 -0.3905 -0.3652 -0.0074607 0.014158 0.2134 0.34182 -0.14681 -0.2466 0.05049 -0.22787 -0.0072086 -0.079082 -0.054657 -0.09099 -0.07884 -0.33201 -0.066271 0.26486 0.25746 0.52079 0.13506 -0.033827 -0.31301 0.007659 0.14015 0.25977 -0.063314 0.0048376 0.040235 -0.07382 0.29589 0.26535 -0.22235 0.23773 -0.14045 -0.10083 0.15894 -0.23489 -0.31941 -0.12888 0.083199 -0.011406 0.15433 -0.2508 -0.037713 -0.25228 -0.074827 -0.16442 0.52532 -0.0040961 
food 0.26121 0.018707 -0.2271 0.042438 0.16204 -0.21866 0.65413 0.054648 0.039389 0.1607 0.036477 -0.060862 0.31283 0.18844 0.40651 0.36024 0.11536 -0.2251 0.24136 0.32729 -0.13792 -0.16902 -0.16578 -0.033614 -0.20838 0.062522 -0.14755 0.095505 -0.32681 -0.24349 -0.29779 -0.31704 -0.17032 -0.58681 -0.017209 0.12289 -0.22538 -0.012408 0.18948 0.38258 0.2338 0.23777 0.063152 0.31219 -0.25758 0.11262 -0.12064 0.036347 0.28355 -0.05706 0.18246 -0.25131 0.23158 -0.14683 0.37429 -0.015089 0.2979 -0.4439 0.25443 0.18841 -0.11717 0.16367 -0.27712 -0.091923 0.0097103 0.12892 0.36267 -0.087689 -0.054706 -0.46802 -0.2258 -0.13694 -0.18184 0.65023 -0.29203 0.07614 -0.21378 0.012602 0.15571 -0.39136 0.092291 0.31942 -0.044106 -0.2988 0.22007 -0.05547 -0.37894 -0.080333 -0.11014 0.06062 -0.044805 0.23063 0.26727 -0.22942 -0.15238 0.25475 -0.33223 -0.46305 0.21502 0.14695 -0.054566 0.083942 0.14687 -0.14096 -0.4465 0.25149 -0.14085 -0.18678 -0.047184 0.073159 -0.15913 -0.11699 -0.42451 -0.26731 -0.12712 -0.12312 0.14379 0.078098 0.27381 -0.23945 -0.098066 0.40871 0.25659 -0.1189 -0.44661 0.063156 0.077625 0.4251 0.073634 0.2407 -0.038176 0.4767 -0.17848 0.091652 0.14757 -0.15515 -0.55346 0.23011 0.44662 -0.075956 0.09148 -0.2907 0.48565 0.082432 0.34264 0.034146 -0.025629 -0.13856 -0.038412 0.049384 -0.27734 -0.44195 -0.16668 -0.023556 -0.052589 0.39357 0.1123 0.078304 0.19051 0.40394 0.06659 0.28907 0.31182 -0.26985 -0.14336 0.066688 -0.056896 0.47004 0.1822 -0.25427 -0.34003 -0.015737 -0.32069 0.21705 0.13487 0.17021 0.48412 0.11242 -0.35218 -0.066009 0.077814 0.16578 -0.34667 0.15387 -0.091553 0.28872 0.16189 -0.31239 -0.097579 -0.35205 -0.18129 -0.003067 -0.17273 -0.016191 -0.22128 -0.54678 -0.13716 -0.16668 -0.23109 -0.15171 
territory 0.14402 0.16481 -0.03641 0.2599 -0.20209 0.031139 0.4849 -0.11116 -0.32616 0.34501 0.33575 -0.27608 -0.0088033 0.06224 -0.21659 -0.15554 -0.24435 0.48455 -0.19579 0.30183 0.0048432 -0.17546 0.12222 -0.39022 -0.55354 0.46777 -0.12276 0.00023192 -0.21593 -0.06671 -0.13342 0.50885 0.18821 0.090899 0.56248 -0.17282 -0.0054331 0.079784 0.11452 -0.072828 0.42662 0.11366 -0.12318 0.049597 0.15788 -0.1861 0.18746 0.34923 0.24248 -0.35469 0.095687 0.11359 -0.37544 0.095551 0.23585 0.44118 0.34119 -0.25207 0.39271 0.098838 -0.13943 -0.33285 -0.78959 0.087993 -0.030385 0.45406 -0.3354 0.03995 0.50338 -0.078774 0.024762 0.051105 -0.15659 0.2195 -0.064505 -0.10682 -0.1766 0.32614 0.45519 -0.33248 0.28204 0.21832 -0.071636 0.2057 0.12278 -0.078727 -0.086639 -0.011984 -0.0098525 -0.016291 0.0070116 0.47528 -0.028834 0.094015 -0.098037 -0.70849 -0.45444 -0.12256 0.033622 -0.10551 -0.33701 -0.16779 -0.70277 0.031083 0.11465 -0.18418 -0.28618 0.098473 -0.26694 -0.055509 -0.12637 0.34891 0.23083 0.013775 -0.15653 0.11619 0.0066368 -0.020159 0.05805 -0.28761 0.03763 -0.146 -0.22147 0.34698 -0.45018 0.092537 -0.022341 -0.22301 -0.020933 0.28047 -0.11736 -0.40186 -0.035153 0.010652 0.12027 -0.068817 -0.27575 0.066099 -0.099987 -0.34841 -0.29545 0.087498 -0.18431 0.30652 -0.03997 0.26553 0.48722 -0.26057 0.27432 0.43385 -0.50718 0.23042 -0.14597 -0.10482 0.2088 0.307 0.0069656 0.065595 0.070018 -0.14051 -0.03048 -0.076333 0.063814 -0.67009 -0.36095 0.1544 0.089093 -0.20567 0.024994 0.21567 -0.19607 -0.049098 0.00046978 0.052216 0.29732 0.34129 0.15132 -0.59625 -0.35827 -0.28693 -0.10163 0.313 -0.32128 0.0042437 0.13542 0.29981 -0.052911 -0.39092 -0.052547 0.2401 -0.20663 -0.11085 -0.02595 -0.22952 -0.31692 -0.35057 0.41479 -0.50107 0.23158 -0.28223 
row -0.4107 -0.12841 0.26595 0.083685 0.008346 -0.080113 -0.28823 0.01182 0.28346 -0.10091 0.49729 -0.20737 -0.13405 -0.29418 0.033729 -0.14962 0.22898 0.10276 0.037107 0.26127 -0.060743 0.20698 -0.067722 -0.20742 -0.0017853 0.053973 -0.31386 0.5471 0.33445 0.087351 -0.059723 0.11546 -0.12784 0.032564 -0.041409 0.19899 0.17957 -0.11894 0.45452 0.59808 -0.073132 -0.052873 0.12466 0.28787 -0.11552 -0.23699 -0.49093 0.33277 0.39132 -0.11983 0.24207 0.33936 -0.30205 -0.39118 0.056887 -0.0066533 0.33521 0.13609 0.079983 0.28382 -0.42624 0.17715 -0.1015 0.43423 0.061561 0.030082 -0.0089523 -0.58717 -0.16368 -0.35447 -0.044106 -0.065744 0.0020887 0.29074 0.21591 -0.22564 0.22819 0.045499 -0.3032 0.05721 0.089381 -0.00080379 -0.026583 -0.19532 0.10619 0.21939 0.22782 0.30919 0.08324 -0.28176 -0.074867 0.56495 0.22492 -0.12264 -0.40923 -0.79916 -0.46968 0.012483 -0.4998 0.26722 -0.2769 -0.16332 -0.19924 -0.30623 -0.13773 0.046706 0.29011 0.23279 -0.15492 0.29239 -0.11761 0.35818 0.2752 -0.27105 0.088187 -0.068545 0.25799 0.2146 -0.10672 -0.36659 0.13074 0.48945 -0.35964 0.20355 -0.34949 -0.097909 -0.030985 0.24732 0.50488 0.41425 0.095538 0.022299 -0.066656 0.040076 -0.10519 -0.075878 0.084999 -0.084477 0.024047 -0.11875 -0.035726 -0.2353 0.0070254 -0.30692 0.14516 0.27752 0.10048 -0.075668 0.19505 0.058065 -0.21665 0.094907 0.16899 -0.27226 0.17607 -0.17637 -0.097873 -0.15759 0.17684 0.056346 -0.056008 -0.12406 0.29643 0.14089 -0.058899 0.12483 0.00028403 0.054414 -0.45111 0.1642 -0.1732 -0.35119 -0.50387 -0.13268 -0.13302 -0.19048 -0.023821 -0.2168 0.37735 -0.076831 0.20685 -0.31827 0.057548 0.083789 0.0040486 0.098257 -0.51595 -0.11522 -0.20209 0.33885 0.097695 -0.017427 0.069303 -0.24182 -0.19338 0.11996 0.0095596 -0.27966 0.51969 -0.12609 
lawyer -0.19033 0.066083 0.40755 -0.089933 0.46422 -0.089291 0.86738 -0.50612 0.034393 0.033295 0.11038 -0.35307 -0.23947 -0.016911 -0.3196 0.34288 0.203 0.27971 0.090162 0.0044362 -0.3436 0.43905 -0.41736 0.35449 0.057816 0.14874 -0.070423 0.20581 -0.24431 -0.041258 -0.17614 0.0022732 -0.28186 -0.13701 0.35952 -0.0066692 -0.48694 -0.28485 0.224 -0.20899 0.02778 0.37496 0.29016 -0.043543 -0.099794 0.20725 -0.39148 0.26055 0.3447 -0.16577 0.047403 -0.093597 -0.26602 0.37473 -0.14686 -0.061636 -0.48544 -0.17811 -0.063495 0.13812 0.15169 -0.22989 0.33222 0.2145 -0.313 0.40961 0.39012 -0.26958 0.09722 0.29423 -0.19156 0.014231 0.33764 0.08626 -0.022407 0.19639 0.58032 0.060293 0.32765 -0.094713 0.16112 0.094202 0.012588 0.040081 0.059219 0.3848 -0.12372 0.21693 -0.52836 -0.433 0.45072 0.1072 0.10933 -0.22188 -0.1105 0.15811 -0.2418 -0.18303 -0.031248 -0.12092 -0.29967 -0.38609 -0.15749 -0.10683 0.30737 0.26475 0.15027 -0.13906 0.27022 -0.34568 -0.20438 0.047137 0.34844 -0.12732 0.59844 0.50543 -0.14849 0.21715 -0.39623 -0.4978 0.071577 -0.038673 -0.14668 -0.3072 -0.20303 0.35566 -0.60732 0.41066 0.01458 -0.31328 0.25226 -0.31465 -0.29004 0.018063 0.10453 -0.46356 0.14281 0.11829 -0.44446 0.17695 -0.16627 -0.022034 0.15314 0.39603 -0.029335 0.052995 0.19093 -0.059279 -0.014016 -0.32437 -0.35753 0.047597 0.0094671 -0.60097 -0.061241 0.10857 -0.17559 0.24756 0.22913 -0.23058 -0.13372 -0.12906 -0.024847 -0.10954 -0.18657 0.29742 -0.093171 -0.18924 0.01708 -0.083748 -0.10748 0.24762 -0.56148 0.21474 0.074222 0.096658 -0.030113 -0.07567 0.09971 -0.47991 0.062733 0.070217 0.11163 0.041562 -0.085602 -0.17608 0.30857 0.3355 0.34661 0.17264 0.23156 -0.36373 0.22807 0.074151 -0.30403 0.1305 0.30366 0.063396 0.03525 -0.29203 
implement -0.045059 0.031508 0.28721 0.16168 -0.26621 -0.30894 0.1609 -0.11241 0.049981 0.31772 0.10284 0.1087 -0.057891 -0.14104 -0.083879 -0.0021609 0.08335 -0.16886 0.22988 -0.028271 -0.40126 0.17862 -0.3388 -0.15673 -0.089611 0.042733 0.30781 0.15949 -0.21942 0.075517 -0.06766 0.065808 0.13312 -0.018472 -0.14829 -0.21745 0.029471 -0.10098 -0.2915 0.048837 0.38176 0.43444 0.055685 -0.21283 0.11964 0.080909 0.091795 -0.019272 -0.17386 0.24096 0.25151 0.61788 0.07222 0.22382 0.16276 -0.52268 0.037528 -0.12262 0.066611 0.34986 0.36664 0.042167 -0.31769 0.18864 -0.15758 0.61666 -0.13742 -0.069845 0.37684 0.17832 -0.32155 -0.20929 -0.070382 0.013876 0.0087075 -0.16645 -0.036943 0.21428 -0.19593 0.046971 0.12556 -0.26284 0.27819 0.37798 -0.29786 0.030512 -0.27347 -0.51824 -0.069131 -0.43855 0.12487 0.072723 0.35814 -0.25428 0.23213 -0.26397 0.068088 -0.057165 0.36932 -0.23604 -0.38993 -0.019752 -0.34266 -0.22858 -0.33714 0.48234 0.096637 0.12291 -0.47036 0.12685 -0.52542 0.086302 0.34715 -0.26806 0.16752 -0.041784 0.46987 -0.053281 -0.054641 -0.027439 -0.2107 0.19438 -0.28094 -0.32475 -0.24916 -0.1367 -0.49616 0.43605 0.11212 -0.33575 -0.28734 -0.068752 0.074164 -0.24441 0.044368 -0.018544 -0.53644 0.22736 0.4078 0.093778 0.11002 -0.16666 0.23221 0.1747 0.052956 0.0023464 -0.046982 -0.20433 0.11365 0.092329 -0.18324 -0.41899 -0.15222 -0.40686 -0.16738 0.28795 0.10119 -0.13525 0.40056 0.14652 -0.11455 0.063768 -0.14123 -0.10859 0.12723 -0.13309 -0.17545 -0.37702 -0.043822 0.027048 0.068648 0.18018 0.092268 0.23263 -0.21092 0.43349 0.052877 0.32049 0.1372 0.01898 -0.31102 0.03927 0.10932 -0.23193 -0.15619 0.20498 0.10944 -0.36487 -0.077702 -0.096152 -0.089038 -0.046355 0.09623 0.1534 -0.16352 -0.23214 0.20096 0.19796 0.23872 0.13165 
deployment -0.017469 0.25108 0.65617 0.50236 -0.18462 -0.043511 0.46817 0.29073 -0.26734 0.22769 -0.42721 -0.26671 0.18661 -0.35442 -0.34705 0.050897 0.25054 0.2504 0.19815 0.13931 0.14162 0.20923 0.027265 -0.26924 -0.23058 0.47229 -0.17814 -0.10262 -0.51387 0.076834 0.051584 0.18968 0.14308 0.040336 0.05286 -0.21604 -0.21433 -0.11132 0.12239 -0.38945 0.66868 0.40765 0.026732 -0.34481 0.19717 -0.0166 0.10734 -0.15956 -0.29909 0.1852 -0.032104 0.058841 -0.066172 0.025593 0.16194 -0.45556 -0.054715 -0.22545 -0.13813 -0.037823 0.00042097 0.075739 -0.23911 0.4818 0.14887 0.44721 -0.3105 0.014944 0.090042 -0.020106 -0.40348 -0.061347 -0.15799 0.125 0.42702 0.42345 0.10511 0.10038 0.012673 -0.1246 0.31789 0.089317 0.015807 0.14575 -0.40997 0.15693 -0.08712 -0.28969 0.34663 -0.87303 -0.27087 0.0032612 0.38958 0.068825 -0.1493 -0.20395 -0.14603 0.18525 0.40774 -0.1176 -0.26025 -0.14051 -0.040967 0.048494 0.14138 0.058087 -0.11169 0.9271 -0.10608 0.074684 -0.20042 -0.49706 0.05741 -0.72176 -0.26992 -0.27448 0.32165 -0.024665 -0.39631 -0.027279 -0.19867 -0.025183 -0.25509 -0.24743 -0.25297 -0.3652 -0.41748 0.63967 0.026696 0.44064 0.070613 0.32721 -0.43281 -0.32989 0.14785 -0.29938 -0.33276 0.24446 0.051602 0.11645 0.015082 0.025188 0.31833 0.059294 0.084772 0.25219 -0.0034164 -0.15305 -0.11594 0.59318 -0.22659 -0.33218 0.0023216 -0.077026 0.643 0.041113 0.1857 -0.12253 0.15674 -0.010167 0.018963 0.13556 -0.22977 -0.1722 -0.033467 -0.18459 -0.11028 -0.41047 0.017657 0.050736 0.13575 -0.18131 -0.03778 -0.063868 -0.093848 0.17 -0.12316 0.21226 0.20577 -0.10908 -0.054344 0.20164 0.30565 -0.24827 -0.28102 -0.15546 -0.072076 0.080922 -0.20933 0.092168 -0.062735 -0.12383 0.43466 -0.032053 -0.39628 -0.3105 -0.17247 -0.23757 0.12628 -0.38511 
month 0.10452 0.067864 0.36135 0.1817 0.29789 0.10929 0.21626 0.23631 0.086442 0.016509 0.16528 0.079926 -0.29566 -0.20337 0.24058 -0.19521 0.14562 0.13712 -0.0034547 -0.17657 -0.4059 -0.043655 0.079042 0.12448 -0.11314 0.17781 0.060847 0.051982 0.11099 0.12467 -0.010021 0.1376 0.22375 -0.32946 0.029267 0.019021 -0.19916 0.0026412 0.32438 0.33317 0.14088 0.08747 -0.099336 0.03345 -0.093409 0.18737 0.21964 0.14872 0.29252 -0.061524 0.17921 0.19208 -0.094818 -0.029418 -0.23776 -0.014887 -0.0073307 0.13387 0.20979 0.36085 -0.060661 0.26923 -0.066445 0.22452 -0.098961 0.14306 -0.10786 -0.23335 0.083575 -0.17437 -0.1103 0.021852 0.11255 -0.10439 -0.19902 -0.25582 0.090231 0.23064 0.17301 0.064905 0.1568 0.1888 0.33655 0.15154 0.12125 0.147 0.012696 -0.23109 -0.11892 -0.034008 0.12857 0.14402 0.74612 0.10226 0.033287 -0.25149 -0.41986 -0.17761 0.11084 0.1444 -0.045462 -0.30726 -0.071232 -0.26641 -0.10592 0.23144 -0.26024 0.42718 -0.22821 0.12312 -0.1652 -0.041797 0.059498 -0.1506 -0.011899 -0.12842 0.097881 0.12796 0.057175 -0.68814 0.26804 0.01708 -0.19609 -0.076866 -0.25859 0.33541 0.039356 0.12641 0.026088 0.16224 0.014603 0.23259 0.076946 -0.028824 -0.047146 -0.26956 -0.072714 0.061109 -0.14653 -0.017047 -0.038711 0.020941 0.229 0.30798 0.24027 -0.016407 -0.23274 -0.14163 0.18678 0.30799 -0.021022 -0.083661 0.11995 0.024966 0.042403 -0.22799 0.13112 0.11069 0.28287 0.01309 -0.036417 0.01882 -0.057227 -0.02152 0.062761 0.034466 -0.35818 -0.056158 -0.38872 0.090372 -0.23848 -0.29956 0.064627 -0.254 0.18531 0.095495 0.21263 -0.079599 0.058545 0.12521 -0.26927 -0.1503 -0.21986 0.48299 0.25861 -0.34268 -0.20937 0.054452 -0.11928 0.26561 0.084954 0.11952 0.065501 -0.39585 -0.27042 -0.11372 0.12179 -0.10422 0.12156 -0.33106 
substance 0.2056 0.28735 -0.015878 0.018597 -0.14216 -0.10631 -0.31561 0.3008 -0.12314 0.04931 0.015744 -0.32251 -0.15083 -0.18459 -0.4817 0.29625 0.13697 -0.1238 0.68121 -0.19772 0.32856 0.090803 0.16095 -0.45793 0.15057 0.19697 -0.037753 -0.038008 -0.35213 -0.027461 -0.22213 0.25913 -0.25716 -0.22387 0.18937 0.39172 -0.046268 0.17302 -0.21529 -0.0044794 0.63636 0.57517 0.11186 -0.20928 -0.13944 -0.39167 0.19299 0.070383 0.35307 0.124 0.13841 0.0721 0.22747 0.14089 0.014687 0.25108 0.16438 -0.18888 0.026768 0.027557 0.2374 0.14586 -0.11215 0.47495 -0.2703 -0.25458 0.20366 -0.18991 -0.36362 0.38731 -0.23597 0.032489 -0.13498 0.27046 -0.13128 0.46491 0.35385 0.34507 0.03984 -0.15572 -0.075754 -0.35346 0.26819 -0.33812 0.19862 -0.098442 -0.19456 0.047699 -0.33319 0.040409 0.076062 0.2428 -0.15185 -0.37685 0.024306 0.29869 -0.40456 -0.47402 0.3988 0.20121 0.022228 -0.051436 0.070902 -0.20378 -0.34919 0.39136 0.029321 -0.074103 0.27524 0.063263 -0.066148 -0.031493 0.23944 0.36102 0.07357 0.19294 0.10354 -0.394 -0.15811 -0.32827 0.18883 0.42427 0.22472 0.32329 -0.10574 -0.045269 0.11248 0.44352 0.1427 -0.099992 0.098775 -0.021132 -0.30001 0.15018 0.051818 0.01556 0.084893 -0.41244 -0.035861 0.16356 -0.14831 -0.097222 0.30092 0.37817 -0.21692 0.16092 0.31046 -0.24991 0.033075 0.19059 -0.11883 0.13067 0.022728 -0.2407 0.31186 0.25612 -0.1649 0.12338 0.50367 -0.010506 -0.23912 -0.17108 -0.15156 -0.45852 0.014983 -0.21572 -0.15137 0.42082 -0.20683 -0.059668 -0.266 -0.20595 -0.097232 0.26078 -0.045618 0.053857 0.39694 0.20265 -0.19388 -0.10957 0.092122 0.012648 -0.1502 -0.034681 -0.19793 -0.11307 0.21187 0.3258 -0.39238 -0.39227 -0.28049 -0.017839 -0.19745 -0.25645 -0.03169 -0.47846 0.12534 0.3076 0.21591 -0.61953 
world 0.0078623 -0.13336 -0.22218 0.0040226 0.22522 0.34028 0.11299 -0.34265 0.077538 -0.42028 -0.17314 -0.037908 0.19076 0.094072 -0.10853 0.12691 0.054744 -0.15891 0.13738 -0.12836 -0.22702 -0.2697 -0.076657 -0.12478 -0.26739 -0.040295 -0.24996 -0.1317 0.191 0.15996 -0.36266 -0.25942 0.13839 0.17645 0.27253 -0.10806 -0.18793 0.02683 -0.27315 0.25452 -0.16824 0.21102 -0.06976 0.44418 -0.28371 -0.006386 0.11224 -0.065257 0.074402 -0.28116 0.062356 0.17773 0.033145 -0.0058232 -0.05701 0.068527 0.25192 -0.32826 -0.031847 0.42595 -0.21411 -0.34734 -0.24806 0.058828 -0.2223 0.17351 0.19066 -0.034245 -0.04586 0.15268 0.096824 0.12038 -0.1337 0.21098 -0.027897 -0.04403 0.41307 0.014246 0.040033 -0.080295 0.28783 0.035916 -0.26865 -0.19442 -0.32798 0.28033 0.26346 0.19725 0.070061 0.034838 0.20432 0.30262 0.43654 -0.21165 -0.06172 -0.38913 -0.12964 -0.24642 -0.21659 -0.14749 -0.30392 -0.14081 0.33336 -0.34045 -0.30542 0.26802 0.20638 0.19888 -0.1129 -0.21035 -0.23142 -0.02746 -0.16037 -0.037547 -0.027329 0.027304 0.19812 -0.09796 -0.10355 -0.39794 0.40091 0.16929 0.32695 -0.011323 -0.25527 -0.048356 -0.18379 -0.13383 -0.11814 0.2507 0.034566 0.027183 -0.42491 -0.059178 0.10309 0.27143 -0.59791 -0.1409 0.41489 0.2413 0.38938 -0.074708 0.20616 0.13888 0.037048 -0.1559 0.14601 0.010001 0.1805 -0.038484 -0.22216 -0.054683 -0.26882 -0.4091 -0.15894 0.22101 0.09855 0.26588 0.18959 -0.16814 -0.11358 -0.0407 0.1251 -0.10294 -0.097608 0.072027 -0.049538 -0.2653 -0.10446 0.049267 0.46288 0.4233 0.10565 -0.32499 0.32867 0.075676 0.21652 -0.077365 -0.048539 0.10905 -0.20721 0.16686 0.0067956 -0.06369 0.0071475 0.10768 0.0009922 -0.027616 -0.48188 0.073846 0.1075 0.42076 0.15238 0.11599 -0.11896 -0.34631 0.0013541 0.16005 -0.043562 -0.33403 
rooster 0.32784 -0.23794 0.083773 -0.71781 -0.074002 0.18358 -0.17214 -0.098067 0.20664 -0.016288 0.23395 -0.27618 -0.094853 0.10477 -0.3888 0.16526 0.17819 0.30284 0.45714 -0.24236 0.18827 0.35888 -0.22126 0.3484 -0.073105 0.33402 -0.062363 0.081017 -0.27586 0.11178 0.0042456 0.28141 0.21991 -0.48103 0.36861 -0.32932 -0.13517 -0.17059 -0.22151 0.12862 0.35478 0.15454 0.0027651 0.1898 -0.12301 -0.093048 -0.39978 0.43968 0.14386 -0.37169 -0.083281 -0.074169 0.51313 0.25216 0.079241 -0.369 0.054898 -0.011875 -0.019274 0.18223 -0.40949 -0.29553 0.16936 -0.42455 0.26356 -0.36797 0.36696 -0.27785 0.11016 0.23775 -0.48475 0.12674 -0.29901 -0.038337 -0.11443 0.16367 -0.15104 -0.34903 0.30304 -0.045227 0.14228 -0.055132 -0.020643 -0.061837 0.035074 0.35102 0.098979 0.47744 -0.35769 0.11649 0.0057228 0.17689 -0.085191 -0.53872 0.074158 0.35595 -0.24265 -0.23862 0.14551 -0.093165 -0.30689 -0.13592 -0.18862 -0.34409 0.15365 -0.22812 -0.042709 0.0066605 -0.034537 -0.16423 -0.15629 -0.18885 -0.12758 -0.21618 0.056945 0.28271 0.035458 0.28418 -0.19408 -0.52143 0.037741 0.23135 0.14726 0.06441 -0.1826 -0.022212 0.59992 0.074351 0.41595 0.13201 -0.32492 -0.19018 -0.17314 -0.22516 0.17082 0.078551 0.28767 0.36238 0.20952 -0.15255 0.067385 -0.083089 0.23905 -0.13159 -0.35891 -0.019051 0.33687 0.028038 0.2065 0.26063 -0.045185 -0.44802 -0.033523 0.010638 -0.16719 0.44224 -0.13465 0.33068 -0.12594 0.051852 -0.031825 0.08351 -0.071605 -0.35188 -0.38154 -0.29949 -0.023863 0.44573 -0.095508 0.15948 -0.14335 -0.043485 -0.054549 -0.38985 0.47469 0.02668 0.45106 0.31867 -0.40536 -0.44654 0.055025 -0.56666 0.025491 0.058754 0.18329 -0.19544 0.029529 0.012415 -0.23558 0.34666 -0.30345 0.13116 -0.056285 0.47415 -0.20293 -0.28202 -0.22134 -0.71885 0.27253 -0.2364 
preparation 0.0063647 -0.018678 0.25349 0.0089441 -0.039821 -0.086739 -0.10199 0.11377 -0.17195 0.024311 0.14336 -0.068099 -0.32351 0.0843 -0.41823 0.23482 0.024251 0.041453 0.57454 0.021314 0.07332 0.27113 0.20706 -0.21237 -0.058573 0.035778 0.016479 0.31809 -0.16004 -0.016663 -0.1217 -0.042241 -0.29423 -0.21976 -0.13871 0.0014238 -0.0041644 -0.045992 -0.2913 0.016123 0.008996 0.32722 0.51028 -0.19823 -0.091878 0.17879 0.14165 -0.20164 -0.054171 0.070874 0.3966 0.32081 0.21141 0.021332 0.27472 -0.10908 -0.3221 -0.27081 0.032338 0.085024 -0.078456 -0.29276 0.26069 0.44987 0.19869 0.20884 -0.19601 -0.11589 -0.042587 0.089529 -0.49702 0.25856 -0.040608 0.14721 -0.10191 -0.0098852 0.23089 0.18697 -0.3817 -0.14342 0.26196 -0.072601 0.10533 0.14776 0.1536 0.25404 -0.45639 -0.23031 -0.039859 -0.27269 -0.05429 0.18125 0.52095 0.026072 0.0023053 -0.18217 -0.086535 0.078594 0.5059 0.10012 -0.2255 -0.13478 0.1136 -0.28694 0.15253 -0.078313 0.1437 0.10186 -0.24177 -0.053714 -0.090028 -0.1245 0.13424 -0.22113 0.11443 -0.25856 -0.18663 0.19728 0.16912 -0.30341 0.038469 0.197 -0.14802 -0.28561 -0.34624 0.1891 0.21213 0.43251 0.16016 0.27455 0.018943 0.29028 -0.29887 0.10304 0.19972 -0.051873 -0.19153 0.086354 0.13735 -0.082295 -0.19851 -0.087632 0.25912 0.30846 0.079152 0.35279 0.48332 -0.20717 0.068672 0.17496 -0.36637 -0.17202 0.46043 -0.17967 0.3258 -0.16019 0.06188 -0.30316 0.1925 0.24632 -0.035748 0.098914 0.12259 0.0046731 -0.3298 0.069572 -0.033476 0.00010457 -0.10333 -0.077203 -0.058478 0.28692 -0.07644 -0.086741 -0.088738 0.11962 0.17527 -0.097537 -0.21123 0.02839 -0.23735 -0.21156 -0.20819 0.082047 0.29351 -0.088883 0.15042 -0.12331 0.052386 -0.24228 -0.16299 -0.12537 0.20926 0.099089 -0.048309 -0.3186 0.025408 0.067692 0.21186 -0.19776 
Harvard -0.26696 -0.49704 0.040204 -0.078533 0.26206 0.21381 0.24054 -0.13281 0.3267 0.41774 -0.092104 0.010716 -0.42862 -0.34805 -0.33279 0.44622 0.16868 0.45771 -0.018198 0.10955 -0.023811 0.47885 -0.41104 -0.098499 0.18105 -0.15117 -0.015314 0.08576 -0.28289 0.3559 0.17595 -0.17693 -0.065778 -0.38704 0.28688 0.2076 -0.22159 -0.046943 -0.23665 0.1827 0.04978 0.70854 0.20131 0.042279 0.49765 -0.2173 0.069426 0.14589 0.1192 0.070338 -0.32917 -0.15099 -0.19322 -0.053544 0.66138 -0.035173 -0.2336 -0.61067 -0.21289 0.33361 -0.0045208 -0.20578 0.068344 -0.41121 0.043647 0.15941 -0.094837 -0.16546 -0.15974 -0.14052 -0.14444 0.0046605 -0.076695 -0.2644 0.17351 -0.15483 0.28298 0.0040298 -0.089921 -0.042137 -0.25096 -0.39418 0.098085 -0.11387 0.02218 0.081336 -0.022468 0.37336 -0.23513 0.13577 0.68969 0.046333 0.46062 -0.26671 -0.81702 0.31143 -0.31279 0.1681 0.14522 -0.10442 -0.0052896 -0.39037 0.73621 -0.17326 -0.43712 0.50355 0.70437 0.11812 -0.065329 0.26982 -0.12011 0.3162 -0.2935 -0.041687 0.13749 0.55372 -0.083794 0.13376 -0.014146 -0.24795 -0.27932 0.30945 -0.099607 -0.14214 0.27195 -0.23993 -0.53765 0.39603 -0.027385 -0.044425 0.50755 0.16861 0.13134 0.23215 0.093227 -0.13341 -0.3232 0.21711 0.00072146 -0.49074 -0.09407 -0.23914 -0.089689 0.62486 -0.099527 0.025733 0.082984 -0.37348 -0.64252 -0.59301 0.006748 -0.15748 -0.45552 -0.67825 0.052015 -0.021846 -0.011546 0.11312 0.026215 -0.53486 0.50165 -0.25984 0.04629 0.11595 0.38981 -0.13429 -0.050036 0.090006 -0.083814 0.33459 0.083814 -0.030119 0.4916 0.22653 0.23394 0.18802 0.3884 0.037248 0.50418 -0.20171 -0.027191 -0.020335 -0.35101 0.16767 0.29554 -0.18161 -0.16694 0.16974 0.0099596 0.44595 0.14998 0.49802 0.38939 0.075699 -0.32858 -0.018221 0.13207 0.028393 0.23738 -0.45172 
brother 0.19969 0.06501 0.49709 -0.37201 -0.052802 0.016459 0.49893 -0.30443 0.24643 -0.29042 -0.082404 -0.076924 -0.24809 0.0081581 -0.43202 0.040709 0.19585 0.17773 0.074371 0.29228 -0.1109 0.0035292 -0.41679 0.53512 0.0053066 0.1697 -0.32877 0.32541 -0.40691 0.20333 -0.098244 -0.27816 -0.16724 0.047083 0.082132 -0.25638 0.097225 -0.22707 0.1676 0.016845 0.16868 0.37677 -0.07508 0.21068 -0.21232 -0.012803 -0.4806 0.31768 0.51837 0.20499 -0.28516 -0.48869 0.14565 0.19931 0.50205 0.12927 -0.057443 -0.018928 -0.23317 -0.11808 0.061101 0.077187 0.12407 0.36782 -0.30639 0.069608 -0.10326 -0.61971 0.32028 0.3834 -0.27902 0.10373 0.16611 -0.13872 -0.37944 -0.49695 0.13087 -0.30601 0.083287 0.13333 0.43161 0.19519 -0.038341 -0.052386 -0.090809 -0.025481 0.087812 0.43102 0.19954 0.14317 0.33633 0.31598 0.367 -0.33271 0.072004 -0.27564 -0.24085 0.085698 -0.048455 -0.16377 -0.38811 -0.51742 -0.13891 -0.26028 0.16256 -0.3179 0.27754 0.24647 0.15693 0.30777 -0.14003 0.098181 -0.1525 -0.30811 0.49915 0.073875 0.30697 0.37533 -0.3411 -0.40893 0.22269 -0.071954 -0.13296 0.090098 -0.20689 0.063575 0.14705 0.32363 -0.080471 0.13607 0.29938 -0.14118 0.23607 0.16364 -0.094352 0.047114 0.32893 0.081301 -0.10922 0.042987 -0.041511 -0.010171 0.28353 0.16239 0.27044 0.113 -0.095347 -0.17521 -0.077676 -0.12765 0.15501 -0.28802 -0.43772 -0.19523 0.18525 0.15776 -0.1252 0.38711 0.42745 -0.22129 0.16034 -0.26516 0.1036 0.10965 0.038549 -0.17014 -0.0067424 0.27948 0.11674 0.08208 0.019443 0.33847 0.096856 0.35696 0.11561 -0.26227 0.33277 -0.14451 0.082312 -0.3953 0.06309 -0.34235 0.33172 -0.26023 -0.20708 -0.28061 -0.30997 0.013451 0.17276 0.17302 -0.35618 -0.041818 0.34393 0.046532 0.17837 0.058692 -0.39301 -0.043559 0.28031 -0.52968 
day 0.029292 -0.15867 0.16752 -0.042392 0.091268 0.10528 0.31985 0.088201 0.13224 -0.078755 0.036396 0.10042 -0.39913 0.17165 -0.049691 -0.21982 0.12071 -0.22962 0.29969 -0.16761 -0.28837 0.055357 -0.046519 0.23699 -0.14093 -0.028078 0.10074 -0.028022 -0.12374 0.10632 0.10976 -0.042784 0.17114 -0.060143 0.41078 -0.0062267 -0.43886 -0.019142 -0.068353 0.49622 0.082265 0.18993 -0.10879 0.096018 -0.12972 -0.18205 0.2619 0.43259 0.059939 -0.1241 0.078169 0.044254 -0.1043 -0.13693 -0.14314 0.27742 -0.24334 0.15911 0.16642 0.24135 -0.057088 0.094692 0.085751 0.11516 0.098104 0.097144 -0.026157 0.020991 0.31662 -0.14228 -0.35681 -0.02752 -0.03361 0.044651 -0.16987 -0.074546 -0.021145 -0.010211 -0.065788 -0.11269 0.38526 0.40262 -0.034956 0.018093 -0.014153 0.13992 0.026255 -0.15385 -0.20587 -0.12167 0.18162 0.1827 0.35614 0.0055451 -0.088981 -0.40346 -0.2351 -0.088333 0.12884 0.052176 -0.11741 -0.13468 0.18337 -0.02148 0.034406 0.15111 0.0097478 0.1415 -0.0057331 -0.10179 -0.18852 0.12826 -0.11202 -0.058324 -0.15319 -0.19122 -0.0040508 0.05613 0.042138 -0.45272 -0.021426 0.26437 -0.033073 0.099083 -0.12959 0.079636 0.22397 0.2064 0.064263 0.1572 0.20708 0.22534 -0.38145 -0.079171 0.032299 0.0025902 0.13939 0.019839 -0.13614 0.14233 -0.12387 0.067197 0.37749 0.19769 0.033042 0.25035 -0.035078 -0.20416 0.24435 0.14279 -0.25946 -0.21131 0.12666 -0.13572 -0.012023 -0.16535 0.071103 0.31027 0.014122 -0.13643 0.070205 -0.0081992 0.1361 -0.059344 -0.22596 -0.11914 -0.52032 0.061686 -0.10019 -0.041316 -0.040229 -0.068054 -0.056757 -0.1615 0.13834 -0.022247 -0.027087 0.15407 -0.13668 -0.010892 -0.11869 -0.24227 -0.055771 0.11431 0.25442 -0.038253 -0.020415 -0.039553 -0.24715 -0.079601 -0.048867 0.021874 0.065834 -0.21672 -0.43292 0.010399 -0.1164 0.059968 0.33976 -0.46994 
mouth 0.30359 0.3692 -0.086751 0.054003 -0.051079 0.35103 -0.055768 0.021546 -0.12849 0.016924 -0.16945 0.039117 -0.36181 -0.23787 -0.044732 0.050152 0.12066 0.19801 0.082951 0.57402 0.11906 -0.0026273 -0.37077 0.18546 -0.082303 0.097462 0.077281 0.49361 -0.16247 -0.34591 -0.17471 0.32382 0.11469 -0.38253 -0.025937 -0.17547 0.00055138 0.39211 -0.23797 0.36401 0.17663 0.71546 -0.53885 -0.055763 0.25837 -0.11687 -0.60044 0.53807 0.60519 -0.036816 0.45763 0.20525 0.10613 -0.091972 0.41775 0.20399 -0.16347 0.20802 0.5701 0.10849 0.40529 -0.21979 -0.22755 -0.043143 0.2969 0.11643 0.044219 0.13889 0.11918 0.10523 -0.2525 0.080943 -0.57822 0.30116 -0.78505 0.24745 0.082198 -0.32082 0.0093871 -0.08657 0.077722 -0.4201 -0.025884 -0.18163 0.10873 0.42195 0.22096 0.46644 0.075224 0.071549 0.4415 0.31852 0.037562 -0.72229 -0.2002 0.25858 -0.08384 -0.30763 0.12778 0.22398 -0.18443 -0.22558 -0.058947 -0.37111 -0.055209 -0.10882 0.50789 0.25403 0.20088 0.015554 -0.072817 -0.041196 -0.13182 0.058033 -0.11002 0.073588 -0.11742 0.090235 0.24172 -0.26311 0.48021 0.52755 -0.030665 -0.080129 0.34082 -0.0987 0.23156 0.013704 0.074989 0.16318 0.10446 0.19918 -0.05207 -0.012962 0.34554 0.42524 0.24138 0.018538 -0.3665 -0.038505 -0.16205 0.46252 0.14901 0.19354 0.18336 -0.24013 -0.074785 0.0055421 0.18055 0.24879 -0.5322 -0.088757 -0.022202 -0.15889 0.15052 0.15768 -0.20319 0.22086 0.057348 -0.31918 -0.061931 0.4409 -0.1102 -0.46308 0.007206 -0.1532 0.031987 0.2072 -0.24715 -0.2534 0.012958 0.38456 -0.38023 0.032162 0.304 0.25354 0.16168 -0.0041147 -0.065535 -0.37973 0.45886 0.055651 0.48691 0.25254 0.027972 -0.15292 -0.091446 -0.22945 -0.10323 0.58073 0.11521 0.23767 0.22521 0.16077 -0.34501 -0.1216 -0.080741 -0.13433 0.13693 0.01086 
magician -0.00030537 0.12155 0.30098 -0.17498 0.28847 0.063288 0.56532 -0.026987 0.46413 -0.42724 0.077022 0.17792 0.12701 0.011199 -0.6103 -0.3367 0.30804 0.17262 0.51441 0.12678 -0.23167 0.49355 -0.30155 -0.048529 -0.19401 0.069063 -0.18451 -0.00032392 0.090992 -0.076533 -0.33801 -0.41491 -0.061812 -0.25971 0.29153 -0.452 0.44623 -0.060506 -0.44983 -0.19295 0.13607 0.049334 -0.030047 0.13783 0.21478 -0.38371 -0.22187 0.21629 0.61514 -0.059888 -0.017448 -0.24238 0.10944 0.10871 -0.10799 -0.10881 0.12562 -0.086609 -0.21617 0.25931 -0.11561 -0.16998 0.20013 -0.47928 -0.021031 -0.19802 0.059634 -0.73405 0.097072 0.38292 -0.15875 0.20582 -0.27724 0.27805 -0.24823 0.0938 0.097581 -0.33102 0.30051 0.075221 0.46231 -0.020502 -0.37365 -0.21392 -0.17498 0.74835 0.25379 0.053584 -0.33793 0.21751 0.54262 -0.13962 0.25343 -0.44229 0.068721 -0.10922 -0.40502 -0.06264 0.35479 0.01878 -0.018106 -0.021771 -0.22244 0.075898 0.63122 0.0010676 0.31607 0.13849 0.59132 -0.40533 0.097886 0.056572 -0.37513 0.013021 0.20716 0.17598 0.06485 0.46956 -0.19793 -0.45861 0.10983 -0.072044 0.52228 0.017045 -0.18596 0.2009 0.067426 0.15512 -0.048706 -0.093026 0.12548 -0.0067008 -0.048109 0.60011 0.071534 0.36942 -0.63942 -0.16318 -0.32523 -0.18378 0.16774 0.19093 -0.11409 0.21482 -0.2897 0.14281 -0.033207 0.17756 0.3049 0.039995 -0.047444 0.17247 0.36564 -0.35203 0.026505 0.52305 -0.38685 0.1136 -0.17158 0.052235 -0.064385 -0.073303 0.093103 0.12596 -0.18254 -0.21078 -0.30494 0.269 0.071162 -0.13856 0.018952 -0.18843 -0.19124 -0.014581 -0.082268 0.0059244 0.57612 0.13214 -0.37929 -0.030619 0.009987 -0.43218 0.054548 -0.45861 0.07414 0.46729 0.18899 0.1066 0.19035 0.29489 0.10669 0.21342 0.26612 0.025704 -0.38559 -0.12195 -0.4975 -0.11969 0.27131 -0.39643 
stroke 0.034245 -0.13582 0.039719 0.48586 -0.2688 -0.075263 0.35198 0.40023 0.4518 0.27816 0.51566 0.22884 -0.15891 0.083054 -0.45238 -0.40828 0.25353 -0.21946 -0.045445 0.33746 -0.18031 0.076221 -0.35729 0.30619 0.0023429 0.43902 0.39049 0.12262 -0.54925 -0.18682 -0.68186 -0.095238 0.29343 -0.21295 0.11196 0.14793 -0.34758 -0.038626 -0.19696 0.475 0.02184 -0.12161 -0.26187 0.22078 0.38068 -0.35289 0.20817 0.32928 0.51801 -0.18672 0.1419 0.075081 -0.054183 0.3537 0.18535 -0.14625 0.33959 0.1978 -0.17484 0.19569 0.25726 -0.65155 -0.38655 -0.28709 0.27373 0.12149 0.38027 -0.077597 0.090122 0.3641 -0.00808 0.10908 -0.28892 0.35424 0.11441 -0.025264 0.06792 0.28822 -0.29462 -0.52532 0.55163 -0.012777 -0.15634 -0.16281 -0.22426 0.37139 -0.43506 0.42116 -0.26717 0.43309 0.12949 0.32376 -0.14476 -0.89107 -0.35663 -0.13672 0.56388 0.14821 0.10407 0.22395 -0.29792 -0.20145 0.067027 -0.35694 -0.15455 0.19258 0.15128 0.2221 -0.10166 0.25021 -0.17134 -0.034937 -0.26751 -0.20079 0.036628 -0.023717 -0.1273 0.036781 -0.15875 -0.16246 0.33176 0.57711 0.36616 0.079937 0.18126 -0.24566 0.056714 0.51773 -0.010399 0.43117 0.26302 -0.12038 0.037372 0.64968 -0.10934 -0.17058 0.099468 -0.40497 0.32573 -0.074797 -0.2034 0.022915 0.2033 0.28238 -0.14052 0.17594 0.12986 0.012708 0.15041 0.48353 -0.074381 -0.24004 0.26946 -0.033841 -0.046538 0.081879 -0.12338 0.15059 0.34889 -0.49155 0.13676 -0.067859 -0.050329 0.37872 0.089423 -0.35479 -0.37333 0.25374 -0.18007 -0.042303 0.29846 0.12628 0.070863 0.30427 0.74703 -0.30521 -0.063184 0.22014 0.37735 -0.40068 -0.17214 0.017797 0.40402 0.53404 -0.054382 -0.24645 0.51284 0.06042 -0.31084 -0.071989 0.088167 -0.25856 -0.27061 0.078173 0.2161 -0.26299 -0.0035519 -0.20419 0.59048 -0.42204 
drug 0.23082 -0.13688 0.27935 0.23301 -0.27421 -0.09612 0.39438 0.40699 0.38862 0.26744 0.47163 -0.61333 0.16129 0.11833 -0.057431 0.37385 -0.021027 -0.10164 0.32428 -0.2788 0.27045 -0.024976 -0.4042 -0.25457 0.34906 0.58042 0.29609 -0.1261 -0.55388 0.28549 0.052344 0.2359 0.1083 -0.37875 -0.13868 0.47554 -0.018577 0.4323 0.012632 0.22051 0.27179 0.27758 0.13191 0.21486 -0.079007 -0.15265 0.13648 0.010404 0.16414 -0.10202 0.10276 0.0041258 0.077444 0.079472 -0.23291 -0.18567 0.40323 -0.41531 0.11411 0.30714 0.36347 -0.26546 -0.01049 0.89696 -0.53048 0.15968 -0.25988 -0.51797 0.10799 0.15724 0.11946 -0.21874 0.2795 0.083581 0.064624 0.22859 0.071117 0.039649 0.14556 -0.014066 0.45758 -0.30163 -0.26659 -0.27192 -0.047993 -0.19185 -0.028154 0.14475 0.073784 -0.12738 0.2409 0.5387 -0.062829 -0.29245 0.19164 0.39569 -0.18187 -0.43532 0.16862 -0.072358 0.024657 -0.21016 0.33836 -0.47916 -0.45109 0.3488 -0.13381 0.11664 0.31055 0.14978 -0.22413 0.075797 0.00029462 0.30265 -0.27856 0.19393 0.29614 -0.26708 -0.3043 0.07438 0.30288 0.16497 0.10857 0.30636 0.27288 0.28273 -0.13249 0.41967 -0.049062 0.40788 0.18835 0.23363 0.21154 0.17472 0.039041 -0.0088043 0.14745 -0.15687 -0.11998 -0.18355 0.25746 -0.33831 0.29219 0.058931 0.025835 -0.029041 0.51292 -0.11862 0.15265 0.080062 -0.3395 -0.38359 -0.20099 -0.036572 0.5696 0.62717 -0.021196 0.20129 0.027982 -0.31581 -0.028038 0.25938 0.037572 -0.27901 -0.093828 0.17986 -0.36011 0.018018 -0.54538 0.34308 -0.12325 -0.011081 -0.16889 0.58842 0.27563 -0.083742 0.45173 -0.014981 0.15972 0.13214 0.44543 0.088251 0.057728 -0.33484 -0.22223 -0.0076243 -0.08957 -0.17552 -0.10262 -0.074899 -0.37067 -0.096896 -0.36016 0.068208 -0.13275 -0.496 -0.088521 -0.20857 0.46508 -0.46286 
game -0.18192 -0.058709 0.20903 0.054109 -0.2302 0.21113 0.11014 -0.17874 0.01916 -0.18336 -0.010994 0.23993 0.10654 0.18089 -0.37483 0.088764 0.25566 0.12577 -0.15183 0.26728 0.032711 0.30879 0.13663 -0.30881 -0.41119 0.1843 -0.22754 0.14783 -0.10266 -0.13405 0.17103 -0.35281 -0.024429 -0.0031887 0.21258 0.36633 0.35149 -0.35448 -0.40595 0.1304 0.3948 0.24127 0.2445 0.11467 0.089252 -0.1468 -0.081125 0.061737 0.63468 -0.30968 0.42767 0.54302 -0.22075 0.11135 -0.046732 0.39647 0.10385 0.078418 -0.25878 0.059417 -0.053421 0.15543 -0.058174 -0.063565 0.38735 0.65869 -0.065113 -0.38348 0.095503 0.076941 -0.097249 -0.1624 0.082811 0.062419 -0.19473 0.5148 0.2058 -0.26268 0.062597 -0.036566 0.41271 0.23569 -0.19016 -0.075468 -0.38365 0.11669 0.21214 -0.087678 -0.35823 0.19438 -0.20383 -0.002932 0.31959 -0.054367 -0.0075347 -0.052469 -0.30397 -0.044686 -0.26878 0.077487 -0.14498 0.058261 0.048757 -0.046739 0.061767 -0.08087 0.0023516 0.6725 0.16687 0.26392 -0.22298 0.16096 0.044977 0.2309 -0.47489 0.019114 -0.1421 0.066625 -0.028088 -0.61414 -0.16085 0.29571 -0.044115 -0.23078 -0.16169 0.062126 0.093022 0.12291 0.63752 -0.097246 -0.036575 0.36218 -0.1831 0.36643 -0.17224 0.1597 -0.12147 0.15321 0.31242 -0.1523 0.36979 0.15507 -0.1892 0.068251 -0.0021648 0.29431 0.25255 -0.040778 0.22611 0.10051 -0.36606 -0.34902 0.15106 -0.19543 0.1126 0.30737 -0.24528 0.17616 -0.20574 -0.068995 0.10427 -0.01986 0.097447 0.10766 -0.049443 -0.18325 -0.10811 -0.15504 -0.10995 -0.17044 0.32488 0.0061193 -0.076899 -0.0091806 0.32345 -0.062251 -0.086165 -0.18993 -0.11719 -0.12678 -0.032796 -0.60413 -0.069787 0.02893 -0.00086371 -0.25648 0.23812 0.13188 -0.10595 0.21107 0.087574 -0.080028 -0.040597 -0.46183 -0.21653 -0.078202 -0.0039532 -0.25054 0.55681 -0.23138 
phone 0.16158 -0.43882 0.16249 0.03853 -0.33146 0.085762 0.69209 0.051879 -0.078087 0.29313 -0.0044753 -0.3162 -0.18919 0.329 -0.39404 -0.17222 0.22914 0.041282 0.21044 0.38189 -0.12858 0.74773 -0.12287 0.19272 -0.23751 0.39787 -0.15604 0.25899 -0.41939 0.27127 0.015128 0.16135 0.29983 0.12884 -0.25163 -0.39225 -0.016387 0.3757 0.37586 -0.017996 -0.074745 0.30206 0.12341 0.10349 -0.2932 -0.16589 -0.016939 0.060708 0.28319 -0.18929 -0.23331 0.082603 0.0067062 -0.15298 -0.21577 -0.18171 -0.16979 0.011314 -0.2372 -0.085906 0.054369 0.33797 -0.39009 0.051849 -0.028493 0.38111 -0.33776 -0.46234 -0.41902 -0.1176 -0.084518 -0.2684 -0.38266 0.22937 0.11045 0.34261 -0.13439 -0.28836 0.39932 0.27793 0.39332 -0.0011383 0.2743 0.42903 -0.040365 0.4359 0.45897 0.14408 -0.093246 0.24032 -0.025539 -0.042094 -0.046677 0.12509 -0.32836 -0.10587 -0.3748 -0.10713 0.038624 0.33804 -0.448 -0.017632 -0.17919 -0.1024 -0.35072 0.13145 -0.22302 0.056937 -0.15008 -0.10185 -0.3949 -0.25225 -0.25807 -0.26566 -0.35067 -0.0045928 0.11713 -0.13167 -0.28354 -0.77441 0.37822 0.33053 -0.17625 -0.36157 0.1385 -0.033907 -0.11424 -0.037462 -0.45097 0.25865 0.41709 -0.048938 -0.20207 -0.47027 0.33653 -0.079471 -0.093831 -0.22595 -0.27699 -0.049609 0.040642 -0.28235 0.41208 0.25181 0.17368 -0.2398 -0.2222 0.18591 0.024755 -0.29816 -0.26887 -0.19929 -0.21149 -0.14232 -0.32307 -0.22597 -0.29935 0.34437 0.4266 0.20108 0.048639 0.09627 -0.10779 -0.4453 -0.052166 -0.12756 -0.046236 -0.013992 -0.17861 -0.19699 -0.012422 0.34284 -0.3555 0.45937 -0.0076695 -0.39765 0.30215 0.23308 0.090716 -0.06027 0.69245 -0.15426 0.096061 0.052009 0.043003 -0.038485 0.29674 0.13447 0.31769 0.13191 0.011745 0.19451 0.1816 -0.13916 -0.27616 -0.15454 -0.011414 0.14366 0.055537 -0.51053 
FBI 0.19296 -0.46971 -0.036094 -0.46748 0.035564 -0.017341 0.30808 0.15595 0.15829 0.12771 -0.11246 -0.33434 0.43672 0.041858 -0.21199 0.039578 0.4122 -0.24832 0.41815 -0.1331 -0.23922 0.51224 -0.13627 -0.072324 0.03904 0.3956 0.17872 0.30101 -0.20388 0.015671 0.057037 0.63731 0.1326 -0.0019245 0.17577 0.27837 -0.039536 -0.058301 0.2698 -0.33055 0.14297 0.43256 0.15988 0.27007 0.29806 -0.084478 0.094278 0.30032 0.48515 -0.37778 0.10501 -0.056726 -0.090216 0.12707 -0.18708 -0.16111 -0.5178 -0.32494 -0.082535 0.3917 0.56034 0.12994 -0.035731 0.18007 -0.5675 0.25947 -0.16503 -0.46328 0.4431 0.2767 -0.14862 0.090511 -0.35999 0.56865 0.022055 0.31135 0.73474 0.77951 0.33068 0.11876 0.27577 -0.023792 0.41516 0.32655 -0.12045 -0.2112 0.16371 0.24902 0.2693 -0.31536 0.42508 -0.26136 -0.14859 -0.36688 -0.23177 0.47097 -0.62167 0.34042 0.26318 0.26298 0.25642 0.21003 0.13033 -0.15105 -0.050671 -0.072699 -0.23826 -0.3836 -0.18573 0.024368 -0.20345 0.22204 0.15437 -0.48005 -0.10927 0.34676 0.55225 0.278 0.19144 -0.52088 -0.060699 -0.33532 -0.29424 -0.22955 -0.020929 -0.11772 -0.30172 0.21912 0.079978 -0.17793 0.30778 -0.11255 -0.016496 0.55654 0.18957 0.2344 0.32945 0.25276 -0.55368 -0.077483 -0.078682 -0.375 0.19719 0.55271 0.11039 -0.0025829 0.24928 0.024368 0.049941 -0.13371 0.10492 -0.31552 0.12495 0.020826 0.14527 0.032207 0.083753 0.51288 0.66128 -0.25179 -0.012009 -0.28491 -0.062149 0.1617 -0.0061692 0.23464 0.10144 0.24387 -0.26144 -0.26208 0.56985 0.14964 -0.17017 0.016364 0.33588 0.04874 0.11337 -0.23772 0.16265 -0.3475 0.076695 -0.28692 -0.36689 -0.34137 0.29005 -0.071553 -0.16048 -0.1253 0.31001 0.27951 -0.17524 0.17569 0.049889 0.18198 -0.18096 -0.037388 0.10534 -0.11106 0.23263 -0.069977 
keyboard 0.57341 0.12349 0.0021586 -0.071077 -0.22266 0.42373 0.65249 -0.030915 0.2273 -0.039067 -0.47668 -0.15383 0.074488 -0.22484 -0.71805 -0.16222 0.36921 0.047683 0.48309 0.62729 0.24597 0.40371 -0.094359 -0.18884 0.079523 0.032854 -0.31209 0.33275 -0.29691 -0.31022 0.3075 0.22038 -0.089197 0.16243 -0.097784 -0.61703 0.37255 0.54248 -0.50483 -0.50142 -0.47061 0.17049 -0.40049 -0.076412 0.2933 -0.32415 -0.25305 0.39661 0.2835 -0.38771 0.27355 0.23132 0.35677 -0.053542 0.20064 -0.39348 -0.15377 0.15414 -0.19881 0.16846 0.31336 -0.16795 -0.24152 -0.23922 0.15877 -0.045095 -0.25808 -0.43643 -0.18785 -0.1865 -0.35543 -0.0075356 -0.3771 -0.19049 -0.35953 0.41798 0.036093 -0.12601 -0.23395 0.19316 0.21862 0.60482 0.22077 0.41255 0.10806 0.098447 0.42398 0.40987 -0.64785 0.69067 0.053186 -0.1392 0.0037077 -0.07379 -0.34359 -0.36972 0.00070517 -0.11891 0.60446 0.062125 -0.32276 -0.3894 -0.013722 -0.63919 -0.24271 0.17863 0.22822 0.12106 0.39893 -0.20004 -0.2301 -0.60616 -0.39805 -0.29291 -0.62662 0.024719 0.066516 -0.33325 -0.14724 -0.43162 -0.25893 -0.052124 0.22005 -0.034031 0.027219 0.41439 0.22533 0.2805 -0.20256 0.13552 -0.36813 -0.67289 -0.30317 -0.081428 0.050389 0.37948 -0.63994 -0.080737 0.32414 -0.33443 -0.13652 -0.2761 0.3115 0.27338 0.40083 -0.38064 0.075846 0.027515 0.11068 -0.027709 -0.43246 -0.049761 -0.19155 -0.30696 0.059517 0.25319 -0.23967 0.20291 -0.10419 0.26924 0.14985 0.2017 -0.23693 -0.41966 0.27388 -0.66283 -0.084834 0.075199 -0.25192 0.077674 0.24524 0.09281 0.13285 0.23366 0.4534 -0.28513 0.16106 0.41068 -0.052798 -0.070802 0.21079 -0.24822 0.31283 0.26445 0.066337 -0.038997 0.53504 0.1236 -0.11982 0.7904 0.04665 -0.04037 0.047958 0.13015 -0.50586 0.2094 -0.0893 -0.2473 0.38532 -0.69458 
kind -0.013899 -0.21155 -0.18069 -0.136 -0.11423 -0.11442 0.41126 0.05667 0.26966 -0.13196 -0.061377 -0.050211 0.053154 -0.22425 -0.57568 -0.10874 0.10759 -0.035731 0.54747 0.29946 -0.056269 0.25604 -0.039965 -0.18882 -0.13571 0.075002 -0.029771 -0.16043 0.078357 -0.067845 -0.23154 -0.033341 0.056288 -0.050593 0.13871 -0.15108 -0.062254 -0.20062 -0.3745 0.24687 0.021253 0.16955 0.033388 -0.19046 -0.16943 -0.030751 -0.025773 0.069777 0.107 0.16835 0.16976 0.11621 0.39249 -0.023047 0.063574 0.18131 0.019155 -0.043819 0.16253 0.14119 0.13955 0.056873 -0.31404 0.19024 -0.020816 0.14207 -0.022173 0.030238 0.030408 -0.073606 -0.27514 -0.16394 0.1592 0.072565 -0.35382 0.18857 0.49643 0.028659 -0.16284 0.14453 0.10406 -0.084016 0.014156 -0.10906 0.01613 0.28702 -0.13467 0.13621 -0.074365 0.10165 0.22166 0.26222 0.078906 -0.2828 -0.16379 -0.18745 -0.27227 0.00039383 0.24067 0.02365 -0.1912 0.018786 -0.10053 -0.15602 -0.077527 -0.00070309 0.029797 0.13828 0.22445 -0.083212 -0.080578 -0.23298 -0.12115 0.22182 0.28038 -0.021801 0.16681 -0.03597 0.084884 -0.38917 0.0022557 0.16922 -0.079388 0.076493 -0.0019556 -0.03148 0.12845 0.32478 0.1883 0.032284 -0.043151 -0.15555 0.076589 0.045174 0.15969 0.32001 -0.30433 -0.12404 -0.082637 -0.11277 0.11934 0.097746 0.024586 0.04802 -0.08825 -0.10897 0.0059871 -0.10347 0.20488 0.062952 -0.15683 -0.19921 -0.080089 -0.096898 -0.0052413 0.25106 -0.18295 -0.11551 0.00028754 -0.13677 0.19843 -0.077883 -0.085028 -0.27811 -0.07103 -0.16477 -0.12135 -0.078256 -0.17262 -0.062519 0.14888 -0.066797 -0.091174 -0.2115 0.056981 0.11842 0.28361 -0.14867 -0.23468 -0.25776 0.042083 -0.12225 -0.20476 0.17693 -0.040751 0.2899 -0.08184 0.12254 -0.047495 -0.24779 0.1773 0.1096 -0.041473 0.12653 -0.17646 -0.22638 -0.086487 -0.13071 0.10623 -0.19388 
animal 0.079731 0.26546 -0.19049 -0.40199 -0.064135 0.043922 0.3089 -0.024793 0.13759 0.24586 0.12685 -0.10602 0.30528 0.095301 0.54647 0.085733 -0.18429 0.038881 0.33938 -0.099697 -0.32969 0.4267 -0.31232 -0.055752 -0.18297 0.20364 0.20253 -0.089442 0.085839 -0.33046 -0.24679 0.035929 0.45161 -0.41622 -0.1083 0.027107 -0.0005607 -0.11565 -0.11455 0.30154 0.34494 0.35411 -0.19645 -0.11238 0.015055 0.10406 -0.11456 0.20026 0.24885 -0.43578 -0.0076158 -0.063507 0.30078 -0.15398 0.07448 -0.4428 -0.20093 -0.50744 -0.0016387 0.26295 -0.07268 0.13649 -0.37265 0.15527 -0.23752 -0.1358 0.4829 -0.078032 -0.096488 0.021523 -0.28697 0.1272 0.00039893 0.577 -0.20881 0.043999 0.071871 0.28278 0.24291 -0.26546 0.14899 0.068571 0.23408 -0.20955 -0.032765 0.2004 0.1261 0.40008 -0.39805 -0.031839 -0.20429 -0.070751 0.2197 -0.29199 0.20161 0.48412 -0.22381 -0.4364 0.20797 0.33718 -0.35281 0.026334 -0.10147 -0.06797 -0.035706 0.05184 0.37522 -0.29187 0.069234 0.1326 0.14504 0.11663 -0.18577 0.22691 -0.086576 0.21995 -0.2312 0.079325 0.011887 -0.80631 -0.14938 0.33032 0.27435 0.12337 -0.36876 0.01124 0.20026 0.1127 0.039528 0.041537 -0.032631 0.14246 -0.072711 -0.13941 0.29626 0.065162 -0.13919 -0.018715 -0.037374 -0.035777 0.27752 -0.099051 0.2701 0.16324 -0.32407 0.03695 0.00017685 -0.47645 0.26085 0.079032 -0.38493 -0.33011 0.099218 0.0088381 0.18636 1.0874 -0.14052 0.32135 -0.41237 0.085861 0.282 0.10495 0.21003 -0.63668 -0.25019 -0.20245 -0.10391 0.2474 -0.33018 0.27481 0.2154 -0.18796 0.072261 0.49372 -0.028717 0.29629 0.19147 0.043967 -0.32695 -0.37056 0.43116 -0.22425 -0.020423 -0.016307 -0.10775 0.11065 -0.27446 0.11094 0.20813 -0.32393 0.042199 0.14842 -0.031996 0.3455 -0.22812 -0.37142 -0.098078 -0.23322 0.14586 -0.29671 
queen 0.29215 -0.10604 0.17723 0.14641 0.32065 0.50548 0.3165 -0.079686 -0.036355 -0.1659 0.015238 -0.23193 -0.21895 0.07914 -0.60485 0.19167 0.17846 0.1238 0.34644 0.40306 -0.25973 0.079561 0.039133 -0.51317 -0.24635 0.29978 0.16439 0.35244 -0.38838 -0.22461 -0.23102 -0.13043 0.58562 -0.64005 0.41942 0.19763 0.33493 -0.14889 -0.018147 -0.23047 0.27719 0.45292 0.037866 0.37581 -0.30611 0.017943 -0.36752 -0.024258 0.56425 0.025809 0.048317 -0.34481 0.13167 0.11919 0.046433 0.25635 0.19696 0.04093 -0.16384 0.44712 -0.51506 0.064956 0.27293 -0.27224 0.060063 -0.015033 0.20371 -0.27256 -0.37272 0.17673 -0.2236 0.081242 0.014998 -0.15541 0.22121 -0.34459 0.58194 -0.4607 0.3927 0.12121 0.19052 -0.51154 -0.19731 -0.65602 -0.020802 0.61329 0.11382 0.5235 -0.19966 -0.013614 0.24176 0.85267 0.36732 -0.22407 -0.31572 -0.30292 0.022957 -0.47314 -0.078879 0.29224 -0.16329 0.43978 0.38527 0.22867 0.37334 0.37645 0.013553 0.3126 -0.17223 -0.15438 -0.042073 0.013175 -0.23051 -0.020053 0.16925 0.10593 -0.10042 -0.3731 0.41302 -0.18538 0.56431 -0.21584 0.52738 0.29571 0.049442 0.15344 0.17541 0.3531 -0.11196 -0.0030918 -0.023914 0.072289 -0.10903 -0.24856 -0.089086 0.57382 -0.73013 0.44394 0.058307 0.13165 -0.21595 0.045536 0.21997 -0.11074 -0.25287 -0.1589 -0.59193 0.23838 0.00065234 0.23408 -0.17848 0.038189 -0.15835 -0.28224 0.16679 0.10642 -0.1799 -0.092123 -0.060328 -0.31441 0.14902 -0.019685 -0.26955 0.12408 -0.44261 -0.021627 -0.13477 0.20249 0.38547 -0.42597 0.69006 -0.22321 0.018196 -0.23536 -0.20751 -0.01909 0.31741 -0.17774 0.040045 -0.30807 0.47261 0.062604 -0.19345 0.14994 0.19235 -0.27556 -0.29138 0.014329 0.025531 0.41045 -0.33252 -0.099551 0.010869 0.21948 -0.24041 0.22549 0.27623 -0.71539 0.59523 -0.57168 
organism 0.16056 0.5015 -0.1264 -0.22979 0.006194 0.28488 0.40076 0.044468 -0.11136 -0.0033896 -0.204 -0.25022 0.25309 0.016079 0.15901 0.46458 -0.34005 -0.072586 0.68835 0.299 -0.064768 0.15573 0.050706 -0.59782 -0.084736 -0.0076213 -0.13372 -0.01272 -0.1471 -0.13561 -0.48044 0.60954 0.12969 -0.61875 0.12747 -0.38211 -0.45428 0.38329 -0.82956 -0.042439 0.10292 0.39558 0.032981 -0.18501 -0.12262 -0.31992 -0.39518 -0.040603 0.085503 0.086997 0.34197 -0.26439 0.40167 -0.44571 0.20216 -0.19403 -0.33737 0.29556 -0.1463 0.21101 0.40916 0.19918 -0.49016 0.24069 0.10087 -0.095529 0.27853 -0.094962 0.31288 0.21749 -0.35024 -0.16527 -0.17285 0.062246 -0.39869 0.24391 0.27037 0.11186 0.0080905 -0.29754 0.039664 0.021344 0.26282 -0.3805 -0.30633 0.21325 -0.13759 0.51485 -0.18687 0.0037341 0.2926 0.13126 0.19853 -0.16713 0.12224 0.33303 -0.20802 -0.32599 0.26544 0.23754 -0.36631 -0.1342 -0.022269 -0.12044 -0.27363 0.09179 0.34312 0.073404 -0.19533 -0.1669 -0.28352 -0.3417 -0.27586 0.31187 0.067434 0.20875 0.01655 -0.11923 -0.071077 -1.0821 -0.10903 0.3864 0.17028 0.31722 0.063749 -0.0029498 0.34843 0.52197 0.36859 -0.11373 0.19879 0.090491 0.19634 0.22295 0.14178 0.25586 -0.46333 -0.048598 0.18391 0.063414 0.036154 -0.266 -0.11357 0.22521 0.01874 0.15556 0.65109 -0.24055 0.19407 -0.040166 0.024319 -0.43826 -0.046957 0.23732 0.12727 0.53521 -0.26839 0.10964 0.1024 0.11357 0.15493 -0.2719 -0.12667 -0.32408 0.072764 -0.0032477 0.24015 -0.093946 0.095502 0.31538 -0.022172 -0.13539 0.088749 0.22075 0.15713 0.34141 0.47392 0.095809 -0.35258 -0.085767 -0.051482 0.06685 -0.099909 0.063551 0.15143 -0.12227 -2.8944e-05 -0.24507 -0.027238 -0.3592 0.52635 -0.040435 -0.14925 -0.30357 0.21823 -0.29922 -0.17587 0.024865 0.28102 -0.19962 
president -0.15222 -0.027827 0.2012 0.22328 0.087408 -0.14588 0.29988 -0.33966 -0.10921 -0.18397 0.34068 0.11131 -0.036336 -0.24776 -0.13707 0.17222 0.040628 -0.22143 -0.32799 -0.07963 0.018601 0.13037 0.46492 0.0015761 0.0091885 0.040543 0.10061 0.19732 -0.42666 0.066805 -0.19656 0.066886 0.076103 -0.11396 -0.092172 -0.087496 -0.11187 -0.064508 0.12953 0.0088343 0.034717 0.20861 -0.1477 0.021823 0.013476 -0.19168 0.14776 0.11365 0.26272 0.17726 0.052585 -0.036399 -0.17967 0.1846 0.40958 -0.05626 -0.065319 -0.07113 -0.22799 0.15048 -0.03323 -0.035256 -0.021803 -0.44333 -0.13943 0.37963 0.25182 -0.0064668 0.28133 0.071133 -0.40865 -0.21289 0.37627 0.14682 -0.19529 -0.06618 0.43087 0.21098 0.0399 0.0015792 -0.001008 -0.022754 0.25031 -0.13829 -0.35289 0.1118 0.0011426 0.13916 -0.31775 -0.48412 0.37123 0.49585 0.057073 -0.073711 0.13657 -0.14509 -0.73318 0.00073899 0.19084 -0.14361 -0.2997 -0.35274 0.092055 0.17999 -0.14023 0.077401 -0.023892 0.55474 0.10922 0.45992 -0.29872 -0.083206 0.26858 -0.27362 0.4385 0.09462 0.24379 0.16678 -0.41779 -0.30967 0.014673 -0.1197 -0.0951 -0.025255 -0.033096 0.261 -0.24046 0.27381 -0.57755 -0.1499 -0.17102 -0.022406 -0.20023 -0.17075 0.083897 0.010898 -0.058659 0.13672 0.14893 -0.16881 0.186 -0.020534 0.21394 0.22063 0.18191 0.14796 0.08539 0.024083 0.0030073 0.018392 -0.27289 -0.21235 -0.5157 -0.42109 -0.055441 0.16948 -0.049446 -0.014787 0.40308 -0.1343 0.087947 -0.18238 -0.28269 0.0042132 -0.39677 -0.23578 -0.24456 0.044622 0.33276 0.045862 -0.18337 -0.28024 0.011372 -0.14399 0.20455 -0.11902 0.34788 0.32065 0.16053 -0.58004 -0.60492 -0.09054 -0.27657 0.092049 -0.21178 -0.15073 0.15776 0.087242 0.056119 0.16696 0.28849 0.16485 0.27245 0.40082 -0.26872 0.08021 -0.0070104 0.18771 0.041379 -0.099162 
cell 0.33755 -0.30971 -0.020618 0.053088 -0.11527 0.066692 0.45769 0.39425 -0.088657 0.6404 -0.069627 0.052492 0.10722 0.28561 0.012564 0.045068 -0.075411 -0.008197 0.083529 0.17899 -0.024921 0.35534 -0.47043 -0.1745 -0.057444 0.57268 0.086073 0.031226 -0.090104 0.53785 -0.28967 0.38309 0.2549 0.18681 -0.20843 -0.29439 -0.2435 0.45939 0.22441 -0.10244 0.16244 0.21009 0.24141 -0.17941 -0.11733 -0.14425 -0.26606 0.06976 0.37096 -0.27677 0.18904 0.069393 0.23048 -0.17293 0.12098 -0.14699 -0.2455 0.041991 -0.58055 -0.1244 0.2182 -0.16333 -0.7743 0.15898 -0.21799 -0.13581 -0.33389 -0.29185 0.021449 -0.24647 -0.51911 -0.227 -0.34628 0.37825 -0.075494 0.31391 0.17591 -0.3888 0.24691 0.12059 0.23578 0.026341 0.48286 0.13841 -0.1258 -0.094506 0.62964 0.44603 -0.10034 -0.0045478 -0.056006 0.15071 -0.016372 -0.077566 -0.4568 -0.0053815 -0.28247 -0.70683 -0.092313 0.70039 -0.59767 -0.10835 0.16637 -0.0052153 -0.33603 0.28656 0.056388 0.097993 -0.38217 -0.056688 -0.47168 -0.24521 -0.061632 0.011776 -0.07391 0.10186 0.29229 -0.5264 -0.43116 -0.98516 0.35868 0.60064 -0.087625 -0.21543 0.30379 0.15025 -0.18238 0.18384 0.012322 0.1123 0.45784 -0.04864 0.10777 -0.27441 0.46287 -0.22974 0.3183 -0.18665 0.0069198 0.068841 -0.29798 -0.41513 0.3005 0.20257 -0.041389 -0.083987 0.0047499 -0.20139 -0.11579 -0.24334 0.11575 -0.30384 -0.39389 0.022014 -0.15516 0.076648 -0.21915 0.16404 0.082156 0.044684 0.4597 0.046785 -0.046039 -0.47236 -0.19622 -0.027188 0.093239 0.22079 -0.40946 0.28851 0.50722 0.14431 -0.13597 0.44617 -0.055366 -0.40928 0.42167 0.19447 0.17884 -0.17313 0.41052 -0.079325 0.04701 0.080041 0.43514 -0.36278 0.31455 -0.14149 0.17734 0.047714 -0.088339 0.10106 0.051188 0.12303 -0.046448 -0.31617 -0.46554 0.22994 -0.013416 -0.57309 
egg -0.09813 0.26134 0.23861 -0.35189 0.068301 -0.19985 0.22612 -0.23829 -0.16152 0.29368 -0.28957 -0.37067 -0.29788 -0.16275 0.061003 -0.15417 -0.14849 -0.12794 0.96633 0.073972 0.0001203 0.45652 -0.12211 -0.45032 -0.5195 0.15105 0.22348 0.30139 -0.28201 -0.15152 -0.117 0.18666 -0.36479 -0.4596 0.3137 -0.76584 -0.11243 0.28383 -0.45288 0.11996 0.34109 0.26998 -0.29032 0.14497 -0.0030609 0.0070285 -0.62706 0.1481 0.12821 -0.26795 0.27539 0.14715 0.41579 0.04048 -0.019831 -0.69181 0.057945 0.10992 0.27352 0.33476 -0.28048 -0.28583 -0.10521 -0.53845 0.19984 -0.43847 0.42491 0.032212 -0.023515 -0.073131 -0.5539 -0.43432 -0.40248 -0.15253 -0.38076 0.079525 0.083755 0.25311 -0.19046 -0.34027 0.086255 -0.13885 0.001521 0.1694 -0.0085637 0.097757 0.10077 0.46896 -0.34194 0.46162 0.15795 0.40756 0.45668 -0.62982 -0.65213 0.18932 -0.14333 -0.75682 -0.59153 0.50427 -0.43854 0.34918 0.17101 -0.070536 -0.1997 0.44831 0.30868 0.4014 -0.09507 -0.25598 0.029962 -0.024724 0.013764 0.059359 -0.34881 0.18639 -0.30978 0.16476 0.52324 -0.44511 -0.48864 0.48518 0.11248 -0.23455 -0.2582 -0.18262 0.24028 0.53879 0.039896 0.24608 0.099364 0.17827 0.53314 -0.24396 0.70137 0.26773 -0.09156 0.0015882 0.1121 -0.28027 -0.070505 -0.52217 0.12607 0.32324 -0.063524 -0.029663 0.33383 -0.045316 0.37058 -0.25854 0.10192 -0.42863 0.49371 0.051777 -0.18036 0.35475 0.16714 0.22478 -0.41048 -0.10448 0.40405 0.027084 0.30809 0.34546 0.066482 0.10323 0.34895 0.52059 -0.0075372 0.27709 0.057563 0.12797 0.0024789 -0.17212 0.022203 -0.11134 0.5898 -0.19638 -0.41179 -0.32208 0.2958 -0.42389 -0.025471 0.14914 -0.28086 -0.51986 -0.38449 -0.30365 -0.093895 -0.025615 -0.090118 -0.20015 0.34145 -0.69498 -0.090315 0.0020145 -0.50788 -0.26323 0.02646 -0.31303 
sun -0.14594 0.039374 0.054538 -0.35851 -0.14528 0.27306 -0.031724 0.41967 0.24915 -0.060747 -0.26138 0.12667 -0.29797 0.1114 -0.12654 0.096529 0.018236 0.24466 0.22167 0.25286 -0.32062 0.24666 0.55867 0.025801 -0.46347 0.32552 0.14883 -0.20864 0.21739 0.34081 -0.11843 0.047061 -0.28165 -0.22473 0.40538 -0.051405 -0.17271 0.4604 -0.1855 0.14062 -0.24705 0.14653 -0.15085 0.13884 -0.08094 -0.015172 0.12795 0.51818 -0.047195 0.38269 0.35037 -0.25464 -0.045432 -0.18045 0.15023 -0.2058 -0.04131 0.38537 -0.10946 -0.088055 0.10341 0.032643 -0.41064 -0.060856 -0.073137 0.26448 0.28751 -0.019661 0.09056 -0.045131 -0.57196 -0.078931 -0.83084 -0.026409 -0.15104 0.38365 -0.30267 -0.0099909 -0.1123 -0.57444 0.24648 -0.090831 -0.050911 -0.77885 -0.39903 -0.05455 0.55752 0.54289 0.0040416 -0.24036 -0.14778 -0.06204 0.023338 -0.3716 0.094941 0.014632 -0.091119 -0.53492 0.27226 -0.41569 -0.28265 -0.10098 0.095013 0.043201 0.070488 -0.43675 0.61415 0.19317 -0.15383 -0.24202 0.036417 -0.10236 -0.32467 -0.42909 -0.083183 0.102 0.29263 -0.15534 0.10834 -0.36024 0.22115 0.52459 -0.13205 0.21463 -0.29867 0.13524 0.048234 0.30357 0.20003 0.17268 0.28258 0.010649 -0.81523 0.33265 0.25963 -0.19724 -0.20518 -0.051753 0.23861 0.28336 -0.34348 -0.030718 0.039989 0.45154 0.20886 0.32393 0.34845 -0.11371 0.3099 0.46355 -0.35949 0.18922 -0.15377 0.33918 -0.24889 0.14567 -0.56018 -0.033227 0.16535 0.26342 -0.090117 -0.039282 -0.071748 -0.082159 -0.55645 -0.27884 -0.097051 0.20729 0.12624 -0.58285 0.07762 0.20394 -0.32523 -0.0058183 0.26095 -0.17759 0.52676 0.24007 -0.56287 -0.052072 -0.19786 -0.34895 -0.12082 0.39525 0.50456 -0.17105 -0.030662 -0.28557 -0.44088 -0.24633 -0.4216 0.20049 -0.17524 0.22884 0.038248 -0.47749 -0.14823 -0.62553 0.4374 -0.23099 
canyon 0.18496 -0.13106 -0.27158 -0.18883 -0.46779 0.24952 0.08578 -0.26796 0.33676 -0.2087 0.34444 0.11576 -0.038887 -0.26215 -0.28745 0.14358 0.025624 0.53966 0.31355 0.086443 -0.45763 0.18542 0.28761 -0.10497 -0.31764 0.27809 -0.21188 -0.26383 -0.046497 0.33404 0.07456 -0.21419 -0.39971 0.019605 -0.03598 0.044226 0.139 0.51247 -0.56468 0.06946 0.33201 -0.163 -0.2239 0.22887 -0.035787 0.18151 0.055053 0.5676 -0.29227 0.29034 -0.21483 -0.23129 0.49597 0.23399 -0.13024 0.15057 -0.34118 0.29169 0.20778 0.53762 -0.3063 0.053312 -0.18257 -0.15782 -0.1925 0.17103 0.51953 0.07149 0.24341 0.11843 0.16031 -0.0059835 -0.51534 0.53653 0.22157 -0.041491 -0.39314 -0.14032 -0.066344 -0.15645 0.30027 0.093798 0.41656 0.12224 -0.40193 0.19541 0.69084 0.46927 -0.18838 -0.28611 0.42463 0.021832 -0.020004 -0.15447 -0.025409 0.1578 -0.099202 -0.61519 0.28867 -0.25646 0.074696 0.22882 -0.44091 0.29 0.061549 -0.51232 0.073636 0.07023 -0.2233 -0.20692 -0.29218 -0.23368 -0.56679 -0.091454 0.041192 0.34498 0.27608 -0.33382 -0.1636 -0.64065 -0.020304 0.17979 -0.040596 0.22419 0.41853 -0.55288 -0.30386 0.31152 0.37804 0.37615 0.18242 -0.04299 -0.12997 0.11944 -0.14861 0.34082 -0.57009 0.36232 -0.2446 0.29437 -0.16466 0.11788 -0.049266 0.33322 0.38656 0.12213 0.087601 -0.43126 0.62897 0.55951 -0.64611 0.024133 0.1914 0.049414 0.39378 0.10649 0.61335 0.31368 -0.019031 -0.16909 0.028785 -0.79693 0.19462 -0.45088 -0.10256 0.15158 0.21064 0.10621 0.23839 0.32219 0.32033 -0.030789 -0.30272 -0.079564 0.21194 0.16981 0.24504 -0.3161 -0.42599 -0.31552 0.48559 -0.11904 -0.10119 -0.21396 0.1524 -0.075938 0.14268 0.035794 -0.37319 0.5047 0.090513 0.43221 0.025454 0.14993 -0.072462 -0.44457 0.11945 -0.68186 0.74323 0.20798 
star -0.023172 -0.087694 0.28887 -0.066087 0.012118 0.15125 0.42498 -0.036075 -0.030919 -0.25426 0.012574 -0.16833 -0.14837 0.093746 -0.44339 0.12561 -0.11258 0.19919 0.38117 0.26979 -0.19307 -0.30973 0.19463 0.099525 -0.32487 0.096803 -0.099922 -0.1064 -0.024427 0.20723 -0.31131 -0.093864 0.23308 -0.057592 0.45058 0.26353 0.22129 -0.15191 0.22811 0.28979 0.21163 0.067711 0.08176 0.15739 0.21397 -0.21389 -0.019554 0.34522 0.60432 -0.10582 -0.16599 -0.17297 -0.27956 0.24611 0.04722 0.15235 0.23974 0.22508 -0.27048 0.36351 -0.059812 -0.1906 0.20461 -0.18893 -0.39876 -0.073694 0.0091351 -0.61844 -0.19528 0.57508 0.07943 0.017583 -0.031481 0.060488 -0.099892 0.44067 0.16157 -0.20835 0.089816 0.46858 0.038379 -0.19499 0.16491 -0.37059 0.042171 0.12041 0.24251 -0.050275 0.035436 -0.38251 0.089686 0.14352 0.037024 0.092994 0.18292 0.16928 -0.31069 -0.15426 -0.19757 -0.028368 -0.1804 -0.00074014 -0.35291 -0.13217 0.40661 -0.20199 0.16117 0.22509 0.19225 -0.022248 -0.043303 -0.12464 -0.14921 0.20353 0.010915 0.23717 -0.055398 0.34839 0.096053 -0.23204 0.16606 -0.19526 0.31145 -0.15198 -0.2409 -0.15334 -0.075068 0.47074 0.13618 0.18518 0.26267 0.024706 -0.095744 0.75668 0.16853 -0.19443 -0.50017 0.038014 0.037234 0.18357 -0.29496 -0.10614 -0.22771 0.31395 0.13665 -0.0056842 0.23316 -0.03317 0.005293 -0.074549 -0.38452 0.27527 -0.11538 -0.32496 -0.1115 0.16451 -0.51637 -0.20678 0.21084 0.10214 -0.084823 -0.15064 -0.02568 -0.016895 -0.22339 -0.03792 -0.059999 0.45557 -0.16406 -0.34063 -0.058921 0.011118 -0.22721 0.18071 0.1517 -0.061907 0.39388 0.15688 -0.16569 -0.088406 -0.090413 -0.20689 0.13562 0.12696 0.23439 -0.022943 -0.18498 0.53451 -0.34947 -0.13921 -0.030854 -0.15749 0.22778 0.61877 -0.17199 -0.12587 -0.24471 -0.59419 0.31015 -0.43739 
law -0.27361 -0.28509 0.34578 0.087226 0.31308 0.005263 0.49034 -0.33504 -0.26847 -0.016577 0.26068 -0.09146 -0.063498 -0.12393 -0.35731 0.41983 0.074209 0.019037 0.12868 -0.15542 -0.52813 0.38099 -0.47326 -0.044034 -0.040097 0.19009 0.37425 0.37118 0.093474 0.34057 -0.063946 0.027692 0.10465 -0.36457 0.20384 -0.2321 0.25794 -0.16589 0.069543 -0.1645 0.084562 0.79466 -0.06861 -0.35437 0.26696 0.2508 0.018293 0.025788 0.085992 0.011561 0.088928 0.51317 -0.060415 -0.060429 0.266 -0.045726 -0.21445 0.0059057 0.3378 0.38833 0.25379 0.091914 -0.57438 0.23589 -0.25209 0.3135 0.053571 -0.53782 -0.035293 0.15534 -0.032409 0.21126 0.036188 -0.33301 -0.40968 -0.29016 0.16652 0.34887 0.25065 -0.34096 -0.039289 0.065567 0.0027854 -0.19757 0.017091 0.017046 -0.16314 -0.14077 -0.18409 -0.26102 0.24875 -0.26388 -0.35953 -0.15032 -0.36481 0.44849 -0.43314 0.17353 0.16595 -0.41143 -0.38091 -0.19414 -0.20299 0.12307 -0.28163 0.44943 -0.060906 -0.076636 -0.28761 -0.059859 0.08995 -0.078085 0.2334 -0.023758 0.27563 0.48395 0.18664 -0.11177 -0.080713 -0.30127 -0.044857 0.62514 -0.011835 0.07015 0.0030965 -0.075226 -0.86595 0.17228 0.062074 -0.16838 0.25647 -0.2722 0.076739 0.17321 0.16673 -0.25343 0.046216 0.33993 0.05843 0.15515 0.18692 -0.089544 0.35016 0.057715 -0.33374 -0.0039638 0.50908 0.11385 0.10774 0.18506 -0.40538 0.050168 -0.22525 -0.49678 0.33868 0.13769 0.048167 0.18814 0.33666 -0.12416 0.11576 -0.10135 0.12781 -0.014102 -0.15953 0.23221 0.011261 0.005518 0.16592 0.24045 0.026092 -0.0038167 0.05744 -0.010099 0.038511 0.16763 0.21805 0.29402 0.032653 -0.029109 -0.25524 -0.037642 -0.18647 -0.1579 -0.33034 0.15938 0.097693 -0.19153 0.44055 -0.24298 0.015566 0.040216 0.46149 0.28579 -0.35103 -0.017821 -0.10603 -0.11405 0.42696 -0.28776 
cucumber -0.084719 0.27974 -0.029347 -0.040977 0.2317 -0.1033 0.05578 -0.022997 -0.066709 -0.11096 -0.3019 -0.0068877 0.051762 0.0088021 0.093538 0.028855 0.3165 -0.070577 0.79362 0.16988 -0.26346 0.37412 -0.48363 -0.34284 -0.39967 0.03376 0.041984 0.3335 -0.18449 -0.10243 -0.41077 0.012662 -0.50444 -0.71831 0.49033 -0.45306 0.037122 0.46624 -0.29415 0.2244 -0.30777 0.77512 -0.26034 0.22086 -0.25226 -0.28996 -0.31734 0.66557 0.49051 0.13026 0.32488 0.071338 0.24811 0.24821 0.13051 -0.30837 0.10813 0.52446 -0.34524 0.058269 -0.18558 -0.38717 -0.27348 -0.41683 0.35655 -0.20853 0.19501 0.026156 0.14905 0.47387 -0.82448 -0.39778 -0.5629 0.16843 -0.34307 -0.23869 -0.34981 -0.20392 -0.073185 -0.0043583 0.25694 -0.36044 -0.066359 -0.12498 0.1605 0.18625 -0.34386 0.50115 -0.36305 0.18211 0.0014086 0.22781 0.31208 -0.074582 0.20894 0.22832 -0.4754 -0.62269 -0.20201 -0.21777 -0.28367 0.21729 -0.16847 -0.31681 -0.25965 -0.020938 0.34668 0.055976 0.45124 -0.20656 -0.17727 -0.33539 -0.42516 -0.15098 -0.063514 0.080766 0.25226 0.4116 0.48844 -0.41029 -0.15871 0.2566 0.32564 0.15329 -0.10455 -0.22026 -0.18508 0.79004 0.35657 0.11382 0.11273 0.20472 0.38375 -0.13286 0.51149 0.33386 -0.49211 -0.11851 0.10255 -0.0045126 0.00060519 -0.012055 0.074847 -0.075597 0.045988 0.040112 -0.32933 -0.097952 0.20531 0.33161 0.086166 -0.48673 0.0056246 0.27149 -0.047358 0.39178 -0.22283 0.28856 -0.077542 0.048228 -0.35199 0.30399 0.43117 -0.19606 -0.25496 0.032894 0.22952 -0.0014358 0.033278 0.13052 -0.31528 0.010351 -0.12296 -0.33238 -0.11254 -0.021733 0.58214 0.094968 -0.61352 -0.1035 0.27957 0.06781 -0.10239 -0.0071827 -0.21822 -0.12138 -0.34509 -0.29098 -0.0065929 0.17792 -0.70082 0.054852 -0.059478 0.040036 -0.50743 -0.35044 0.0391 -0.50563 0.15396 -0.53035 
information 0.050999 0.033865 0.14758 0.38344 -0.23255 0.020781 0.34767 -0.20824 0.17501 -0.035309 0.04084 -0.34516 0.0037591 0.19811 -0.19827 0.20389 0.12909 0.30803 0.30971 0.27844 0.038632 0.4292 0.12414 -0.26128 0.21479 0.18962 0.29294 0.11613 -0.087926 0.050766 -0.29754 0.61566 -0.46358 0.077651 0.087167 0.28518 -0.18642 -0.14335 -0.18816 0.094417 0.01166 0.13858 0.026783 0.035064 0.086341 0.077482 -0.014071 -0.30963 -0.025927 -0.046563 0.13178 0.47886 -0.17882 -0.19718 0.060199 -0.051307 -0.36382 -0.62282 0.098658 0.62726 0.51861 0.38034 -0.34046 0.4756 -0.19585 0.26574 -0.037215 -0.14359 0.085117 -0.014909 0.023396 -0.20783 -0.086177 0.66689 -0.25761 0.13869 -0.082136 -0.13123 0.25502 0.19443 0.28589 0.13117 0.019643 -0.0013028 -0.44002 0.11214 -0.19732 0.087399 0.10325 0.072387 0.45194 -0.017088 -0.26076 -0.050234 -0.19913 -0.055554 -0.15199 -0.098405 0.21488 0.16843 -0.30252 0.07315 -0.36997 -0.15945 0.021241 -0.28224 -0.28919 -0.0095046 -0.34996 -0.010074 -0.40955 0.32041 0.096426 -0.21763 -0.23538 -0.058407 0.17676 -0.064073 -0.12363 -0.12861 -0.23944 0.051319 0.18023 0.28537 -0.089347 -0.082814 -0.014425 0.10047 -0.54536 -0.045424 0.18891 0.01828 -0.023603 -0.16694 0.09577 -0.10582 -0.16907 0.39928 -0.04731 -0.2905 -0.079933 -0.41565 0.33719 0.076539 -0.052654 -0.032223 -0.088977 0.038373 0.41653 0.043125 0.33641 -0.12652 0.39719 -0.15303 0.05991 -0.02433 -0.15368 0.46709 0.51866 -0.0045359 0.1486 -0.022902 -0.15242 0.017554 0.099983 -0.25972 0.036771 0.42513 0.25287 -0.24503 0.31906 0.39356 -0.4727 -0.01743 -0.34318 0.53321 0.59725 0.35057 -0.033457 0.02081 -0.23222 -0.060734 -0.30875 0.12932 0.10919 -0.52261 0.36731 -0.12211 -0.03126 -0.080037 0.24211 -0.20887 0.18648 0.12448 -0.077337 -0.35516 0.14958 0.47903 0.30589 -0.56608 
precedent -0.022518 -0.0095668 0.054714 -0.18024 0.29715 0.029287 0.18331 -0.34366 -0.15516 -0.1378 -0.10379 0.037922 -0.14812 -0.17384 -0.66624 0.15721 -0.12536 0.19121 0.27692 -0.32782 -0.6179 0.23165 0.099751 -0.086796 -0.29398 0.1337 0.3249 -0.30263 -0.091398 -0.085928 -0.2699 -0.10779 -0.18522 -0.049147 0.31595 -0.061332 -0.0019454 0.0022921 -0.20844 -0.10054 0.017785 0.66903 -0.28185 -0.34989 -0.09471 0.28058 -0.057472 -0.17936 -0.17045 -0.25667 0.14615 0.43015 -0.20648 -0.052719 0.13839 -0.39277 -0.026918 0.12405 0.23567 0.064836 -0.24871 -0.2106 -0.51554 0.74113 -0.31872 0.31953 0.049343 -0.35262 0.015865 -0.19337 -0.10066 -0.27111 0.071025 0.18925 -0.084477 0.025734 0.66691 0.19126 -0.07983 0.056881 0.040216 0.30049 0.092669 -0.20509 -0.017478 0.080768 -0.3483 -0.03693 0.28969 -0.070509 0.27139 0.17359 0.028648 -0.13865 -0.05505 -0.4093 -0.21949 -0.35903 0.1432 0.024301 -0.49955 -0.37335 -0.23196 -0.1502 -0.17933 -0.17978 -0.24094 0.26574 -0.26688 -0.046763 -0.23399 0.077827 0.24847 0.24612 0.35675 0.36243 0.18642 -0.099809 -0.072924 -0.27325 -0.16913 0.45861 -0.1946 0.084015 -0.24346 0.41429 -0.12923 0.25789 0.27141 -0.44051 -0.27367 -0.061205 -0.02241 0.016678 -0.0055354 0.27852 -0.36788 0.070895 -0.22902 -0.43258 -0.044917 0.078838 0.16831 -0.059345 0.010664 -0.041574 0.27132 0.071743 0.2021 0.2423 -0.14938 -0.15649 -0.2401 -0.18879 -0.017565 0.067643 0.0020059 -0.3198 0.23704 -0.10803 0.2509 -0.042711 -0.059886 -0.025509 0.04346 0.22583 -0.28551 -0.17467 -0.033267 0.28173 -0.11798 -0.089776 -0.35686 -0.07884 0.062879 -0.03928 0.31251 0.094633 -0.13226 0.21083 -0.06438 0.16971 -0.3749 0.22552 -0.24249 0.0099119 0.034794 0.006147 -0.25492 -0.02553 0.55301 -0.16087 0.18337 0.24209 -0.044914 -0.1836 -0.29585 -0.19493 0.34374 0.0067355 
sea 0.11861 0.21111 -0.014319 0.216 0.078527 0.081648 -0.10207 -0.32014 0.20014 -0.10251 -0.20906 -0.2573 0.5357 -0.0135 -0.010826 0.39004 0.11953 0.16765 0.099156 0.076569 -0.25719 0.097207 0.39925 -0.11599 -0.23526 0.3375 -0.16433 0.21237 -0.015277 0.092511 -0.31086 0.48863 0.26708 -0.22599 0.35055 -0.087745 -0.39788 0.34002 -0.3009 0.15574 0.090792 0.28779 -0.27344 0.13125 0.20579 0.36943 0.16576 0.52255 -0.08707 0.30388 0.24006 -0.055657 0.14875 -0.037173 0.39073 -0.28335 -0.10834 0.23997 0.14568 0.063958 0.027171 -0.1294 -0.33668 0.040852 0.21138 0.17362 0.21511 -0.057344 -0.24659 0.20363 -0.32493 -0.032505 -0.76874 0.40632 -0.016315 -0.21053 -0.22485 -0.059293 -0.27205 -0.58796 0.12691 -0.023442 0.081714 -0.13663 -0.30562 0.19521 0.035268 0.40977 -0.18126 -0.072289 0.26395 -0.12512 0.1888 -0.25468 0.2072 0.14293 -0.57906 -0.20487 -0.18435 -0.018528 -0.37597 -0.044424 -0.33671 -0.10893 0.013243 -0.13828 0.11455 0.50247 -0.13547 0.44175 0.121 -0.20615 -0.47166 -0.21098 -0.40326 0.11468 0.43354 -0.13419 -0.13533 -0.49043 0.47366 0.51796 0.18867 0.43564 -0.46025 -0.38923 0.1032 0.32911 0.037987 0.43679 0.27182 0.14144 0.032594 0.25083 0.0057466 0.21286 -0.39521 0.20071 0.13683 0.20791 -0.27081 0.023479 0.070082 0.12645 0.21524 0.31737 -0.019418 -0.12581 -0.17113 0.2487 -0.37567 -0.13255 0.047748 0.076415 0.10635 0.21421 0.0923 0.055971 -0.092295 -0.24293 0.21243 -0.25653 0.21311 -0.49436 -0.30274 0.14621 -0.068895 0.20569 0.10411 -0.11822 0.12983 0.2474 0.041178 -0.062442 -0.065264 -0.024333 -0.37281 -0.42114 -0.62458 -0.28164 0.34915 -0.22341 0.36486 -0.11956 0.19279 0.15436 -0.14563 -0.067266 -0.22659 0.17504 -0.42822 0.14091 -0.37949 -0.04519 -0.11321 -0.46934 0.13003 -0.88458 -0.23013 -0.091561 
