437 100
clothes 0.640489 -0.329326 0.027062 0.486449 0.01637 -0.384564 -0.34199 0.054426 0.237969 0.533902 -0.731648 -0.259595 0.302906 -0.314721 -0.487737 -0.188023 0.602816 0.389116 0.212389 -0.061857 0.844007 -0.709003 -0.942194 0.008861 -0.065793 -0.445401 -0.312519 0.766042 0.061167 -0.092899 0.606473 0.051468 -0.115213 -0.252928 -0.159118 -0.490988 -0.504732 -0.895454 0.722021 -0.069754 -0.363774 -0.927556 0.496788 -0.083316 0.138479 0.840991 0.058918 -0.153997 -0.00815 0.575319 0.063074 0.581192 -0.589 0.193549 -0.295904 -0.406064 -0.39882 -0.637555 -0.189156 -0.006556 0.456725 -0.638239 -0.113996 -0.430589 -0.05426 -0.320731 0.568872 0.791213 -0.197728 -0.435197 -0.703153 0.374031 -0.500884 -0.180401 0.741337 0.840978 0.450785 -0.157464 0.031707 0.420032 -0.064321 -0.871409 -0.346531 0.305365 0.61851 -0.079611 -0.145631 0.21009 -0.596481 -0.632612 0.038981 0.331121 0.095156 -0.073062 -0.009248 -0.665024 0.825917 -0.284618 0.622182 0.608599
investigation -0.492539 0.05827 -0.686723 -0.335561 0.473419 0.146284 -0.214737 0.597251 0.278883 -0.088721 0.113949 0.042638 -0.649414 0.745167 -0.302933 -0.109457 -0.686184 0.514854 -0.026131 -1.061844 -0.14288 0.481072 1.049953 0.822483 0.700429 0.126046 0.603357 1.063619 -0.172622 0.268776 -0.621379 0.733237 -0.47329 0.088409 0.030758 -0.66562 0.320793 -1.005812 -0.678737 -0.350217 0.466021 0.702756 -0.603144 1.193735 0.190498 0.208913 0.731665 -0.392871 -0.481861 -0.250159 -0.385321 -0.687851 -0.428133 -0.094107 0.470816 0.175116 -0.181973 0.234761 -0.284038 -0.221282 0.657426 -0.488859 0.37267 0.397602 -0.232394 0.449854 1.315958 0.255633 0.383099 -0.224658 -0.225022 0.753319 -0.074618 0.471125 -0.169222 0.087954 0.653558 1.702404 0.588908 0.055671 -0.325117 -1.114049 -0.404069 0.156635 -0.063925 0.12716 -0.371534 0.232519 -1.191145 0.976837 -0.121533 0.822366 -0.144721 -0.032039 -0.155738 0.478895 -0.139331 -0.58325 0.466251 0.089954
serial -0.462507 0.176475 -0.135167 0.801903 -0.169647 0.126216 -0.653029 -0.100294 -0.224756 0.161229 0.350541 0.587662 -0.503736 -0.099128 -0.382518 0.021051 0.04065 0.478333 -0.059119 -1.240367 0.08343 0.928513 -0.356941 0.184841 -0.298523 -0.20921 0.185236 0.568757 -0.49111 -0.311218 0.754146 -0.089104 -0.109471 0.454648 0.787445 0.343783 0.102687 -0.205718 0.196246 -0.318733 -0.250138 0.559351 -0.197355 0.545932 0.101253 0.254254 -0.66498 -0.484629 0.527155 0.401154 0.300754 -0.429949 -0.045765 0.083431 0.096821 0.867603 -0.369679 0.670483 -0.647048 0.579682 -0.265793 0.000966 0.972531 0.317721 -0.444008 -0.390836 0.233603 0.558236 -0.418876 -0.208185 -0.310768 -0.02827 0.166239 0.622163 -0.423302 -0.150865 0.382698 0.529361 -0.235405 0.391042 -0.116546 -0.239048 -0.322492 -0.581375 -0.979755 -0.09714 0.726126 -0.544022 -0.269545 -0.676345 0.531115 -0.041392 0.730256 -0.245822 0.412731 -0.149809 0.784768 -0.697577 -0.308362 0.032007
cash 0.472202 0.537469 0.464439 -0.052997 -0.00468 0.443605 -0.633387 0.417191 0.290882 -0.728605 0.609577 -0.032088 0.773979 -0.237434 -0.320551 -0.187144 -0.895494 0.69158 -0.763286 -0.120413 -0.290116 -0.785505 0.182511 0.773676 0.347594 -0.318089 -0.005448 0.465409 0.233946 0.62898 0.085397 0.066269 0.346409 -0.213104 0.193879 -0.055197 0.178698 -0.404283 0.75659 0.27073 0.985802 -0.26067 -0.332258 0.087583 0.839464 -0.565613 -0.440042 -0.697749 -1.116335 -0.049486 1.036884 0.807047 0.938725 -0.249358 0.181433 -0.333292 0.503602 0.068476 -0.25965 -0.001169 0.405838 -0.25949 0.500213 -0.801932 0.356496 -0.04763 0.18594 0.29687 0.831528 0.657702 -0.060655 1.657869 -0.173841 0.398231 0.102053 0.585883 -0.071144 0.486269 0.007701 0.912617 -0.45945 -0.641967 -0.689933 -0.509957 0.366786 -0.771767 -0.132705 0.326224 -1.27923 -0.584048 -0.705927 -0.41979 -0.662741 0.482049 -0.207911 -0.705026 0.323857 0.383927 0.512041 1.185913
television 0.23972 0.922051 -0.355588 -0.418122 0.479917 -0.364699 -1.125202 0.0979 0.522662 0.089105 -0.542934 0.004634 -0.092109 0.036287 -0.766696 0.244531 -0.603227 -0.373768 0.373571 -0.154768 0.25665 0.439688 0.20421 0.44888 -0.524416 -0.055993 -0.771027 0.169126 -0.925124 0.109163 -0.173012 -0.008041 0.285272 -0.498295 -0.003814 -0.213375 -0.065807 -0.292773 0.652431 -0.05558 -0.989479 0.060912 -0.720205 0.137766 1.084778 0.510474 -0.586402 -0.868032 0.271873 -0.141661 -0.467022 -0.25093 0.277616 0.274045 0.268735 0.477215 0.577821 -1.347997 -1.185996 -0.86842 -0.381424 0.114052 -0.851812 -0.468164 0.103957 -0.064769 0.965621 1.409104 0.651506 -0.043428 -0.587548 0.279572 -0.926362 -0.194009 -0.475712 0.122696 0.47284 0.855777 0.262366 -0.377887 -0.408024 -0.379403 0.325467 -0.452897 -0.814965 0.142595 0.509251 0.086232 -0.906649 -0.423605 0.334193 -0.641533 -0.015302 0.398403 -0.427993 0.571974 -0.428627 -0.5959 -1.246154 0.318993
area 0.145657 -0.256469 0.164809 -0.532966 0.136408 0.836286 -0.49114 0.71389 -0.50201 -0.318611 0.108 0.211176 -0.103506 0.377661 -0.315095 0.663244 -0.530495 0.266295 0.653727 -0.139268 -0.027635 -0.066721 -0.701715 0.278032 0.305192 -0.09887 -0.437257 -0.315166 0.151456 0.606889 0.092234 1.077806 0.495263 -0.538111 -0.568907 -0.748119 0.847528 -1.526212 0.58074 -0.230493 -0.742597 -0.456815 -0.462959 0.417593 0.413027 -0.017228 -0.133486 0.522386 -0.017022 -0.57295 0.446882 -0.008356 -0.046723 -0.055884 -0.329405 0.368808 -0.493197 0.744071 -0.891431 -1.599634 -0.112366 -0.839968 -0.5091 -0.035653 -0.341325 0.503601 1.435289 0.477321 -0.557385 0.244968 -0.028996 0.888187 0.184845 0.636702 -0.016675 -0.437407 0.1097 0.416386 0.327637 -0.147698 0.118232 -0.38643 -0.637753 -0.923933 0.172723 -1.124123 0.077114 -0.244379 0.024645 0.761443 0.230574 -0.390429 -0.259474 0.680687 -0.306717 0.293009 0.276583 -0.172627 0.290556 0.808371
memorabilia 0.492088 -0.039592 -0.077964 0.641856 0.12707 -0.027907 -0.041762 -0.193236 -0.112684 0.306146 -0.38628 -1.012916 0.592934 -0.494105 -0.046066 0.158149 0.02614 -0.122255 -0.145769 -0.1608 0.654739 0.069184 -0.020598 0.366413 0.106361 -0.648137 0.49983 0.512649 -0.950226 -0.054452 0.039403 0.160315 0.064511 0.599175 0.105471 0.249268 -0.608027 0.677756 0.310215 -0.519028 -0.435371 -0.008861 -0.07329 -0.109735 1.08995 0.517181 0.303182 -0.251978 0.237145 -0.61761 -0.237326 0.359604 -0.191341 0.341315 -0.001147 0.094763 0.024739 0.22439 -0.071663 0.568208 1.182762 -1.1126 0.085017 -0.194431 -0.523358 -0.467421 -0.052018 0.222035 -0.38044 -0.593687 -0.304608 -0.592487 0.115287 -0.008607 -0.146823 0.294819 0.469755 0.351346 0.422728 -0.008069 -0.742956 -0.367646 -0.938158 -0.472882 -0.19705 -0.327361 0.874966 -0.09641 -0.336818 0.219036 -0.379849 -0.883995 -0.281225 0.012229 0.63578 -0.384239 -0.307568 -1.205788 -0.039384 0.233711
recognition -0.135333 0.257958 -0.192652 -0.543076 0.735089 0.156151 0.064054 -0.626136 -0.463827 -0.137942 -0.358561 0.434471 -0.72574 -1.120078 -0.630436 0.454706 -0.216054 -0.368198 0.580779 0.062649 -0.98382 -0.062399 0.405092 0.265985 -0.145261 -0.36677 0.865797 -0.503815 0.420384 0.144447 -0.041615 -0.269204 0.439798 0.256246 -0.707919 -0.080042 0.147515 -0.823251 0.052589 -0.379702 0.505199 -0.425201 -0.525572 0.066996 0.379598 -0.010376 -0.460019 -0.545048 0.391501 -0.765641 -0.075747 -0.05241 -0.918736 0.006324 -0.121297 -0.721889 0.779567 -0.263594 -0.464192 0.008053 -0.24066 -0.372228 -0.226461 -0.413978 0.079382 0.03611 0.464208 0.081329 0.200303 -0.18014 0.107962 0.522152 -0.233015 -0.007105 0.043427 0.255601 -0.702455 -0.403833 0.16705 -0.530512 -0.540466 -0.314302 0.330089 0.067068 -0.313632 0.216757 0.097797 -0.180462 -0.71061 -0.197575 -0.570121 -0.338048 0.02592 0.716592 -0.13805 0.50541 0.415974 0.349176 -0.231465 0.452642
tableware -0.164381 -0.136251 0.1056 0.098342 -0.252814 -0.07193 0.37911 0.103749 0.023964 -0.09412 0.0578 -0.304686 -0.202735 -0.155839 -0.065771 0.142147 0.048188 -0.261112 -0.112278 0.129649 0.102332 -0.053779 -0.012374 -0.141237 -0.07835 0.057851 0.349514 0.097922 -0.16262 0.07595 0.025276 -0.188271 -0.119536 -0.10879 -0.040749 -0.097069 -0.07667 0.200401 -0.252022 -0.02137 0.222375 0.407007 -0.132802 -0.198704 0.069652 -0.104651 0.213407 0.210106 0.001413 0.089133 -0.005486 0.209232 0.103845 0.06646 0.141566 0.102462 -0.051439 -0.012023 0.076284 0.27964 0.195584 0.14929 0.100239 0.012715 0.092798 -0.091236 -0.216085 0.069236 -0.025483 -0.425684 0.058921 0.097439 0.134541 -0.351569 -0.028051 0.18388 -0.002241 -0.434534 -0.196625 0.005713 0.013591 -0.154705 0.108697 -0.191865 0.082367 0.191582 -0.006611 -0.238448 0.174899 -0.306844 -0.21118 -0.137532 0.316055 -0.224107 0.03739 -0.105583 -0.22946 0.155111 -0.090712 0.105977
cat 0.689785 -0.270934 0.792812 0.449939 -0.457748 0.180561 -0.645562 0.168358 0.325313 0.624261 0.320676 -0.153071 -0.478382 -0.202463 0.114869 -0.155441 0.00696 0.798438 -0.014037 0.139792 0.44946 0.206472 0.088787 0.242254 -0.098851 -0.317814 -0.104088 0.784458 0.08391 0.028795 -0.193427 0.320208 0.045736 -0.019689 0.176836 0.344423 0.07593 -0.267756 -0.457167 -0.585357 -1.173991 -0.839672 0.178081 -0.736263 0.347159 0.188394 0.316986 -0.621425 0.636662 0.487873 0.937703 0.8084 0.330167 0.167937 -0.381027 0.41528 -0.061407 0.051481 0.35688 0.001995 0.565025 -0.132003 0.17901 -0.64339 0.07076 -0.539 -0.022558 0.320974 -0.371426 0.378583 -0.065161 0.105147 -0.05737 -0.465299 -0.271141 0.324032 0.533714 0.25233 0.338943 -0.110985 -0.381595 -0.158725 -0.482129 -0.136505 0.179781 -0.036839 0.453698 0.20273 -0.909722 -0.519537 -0.281265 -0.024494 -0.070655 -0.292138 -0.14872 -0.204585 0.27618 0.099217 0.038104 0.025441
record 0.32745 0.533188 0.290834 -0.152289 0.777925 1.076623 -0.462354 -0.054127 0.039924 -0.064682 0.285846 0.513717 -0.229425 0.346793 -1.212 -0.115885 0.081006 0.244694 -0.457688 -0.566698 0.130298 0.36637 -0.293925 1.942279 -0.346005 -0.484871 -0.38223 -0.110701 -0.023788 -0.276332 -0.729744 -0.334912 -0.44442 0.301408 0.126705 -0.228897 -0.501156 -0.358996 -0.004257 0.160285 0.008652 -0.025097 -0.196524 -0.013631 0.766931 -0.154212 -0.808695 -0.346404 0.463059 0.073632 -0.172439 0.012288 0.959194 0.060513 0.462528 -0.048604 0.276804 0.281127 -0.897978 -0.79843 0.21003 -0.206301 -1.097006 0.267227 0.408544 -0.464072 1.166642 -0.375819 -0.057793 -0.407114 0.158785 1.638826 -0.536315 -0.157486 -0.336851 0.006033 0.385504 -0.247639 -0.278902 -0.183015 -0.369891 -0.631709 0.178998 0.170822 -0.446987 0.049821 -0.209179 -0.65227 -0.78351 -0.488073 0.740357 0.554515 0.382212 0.192042 -0.491304 0.040929 0.259037 -0.179786 0.892223 0.084494
office 0.302114 -0.224325 -0.121842 -0.008432 1.45055 0.441919 -0.722128 0.632984 0.397743 -0.803192 -0.088104 0.215157 0.29634 -0.276545 -0.035555 -0.162197 -0.987761 -0.021555 -0.219428 -0.133996 -0.213842 -0.275635 0.054748 1.130422 -0.487823 0.352941 -0.135622 -0.077002 -0.298761 0.099762 0.044544 0.813257 -0.135005 -0.82649 -0.050274 -0.189335 -0.023392 -0.870168 0.038689 -0.431379 0.780672 -0.214147 -0.706682 1.300053 -0.28664 -0.388173 0.070611 -0.257682 0.580506 -0.650613 0.000564 -0.424912 -0.111162 0.057618 0.057683 0.589058 -1.081227 -0.12745 -1.080688 -0.455449 0.368633 -0.640663 -0.886802 0.506744 0.404879 0.559086 1.106455 0.92341 0.196563 -0.296608 -0.169057 0.822871 -0.107213 -0.204094 0.605258 0.639789 0.833149 -0.166 0.172469 -0.420967 -0.021675 -0.412697 0.147335 -0.224583 -0.234851 -0.604354 -0.27399 0.617182 -0.225541 0.172016 -0.427477 0.616675 0.047893 0.367074 -0.507635 0.122399 0.317297 -0.104489 0.261391 0.729097
moon 0.558873 -0.205542 -0.132515 -0.129784 -0.911836 0.097453 -0.479034 0.146173 -0.339771 0.204004 0.270251 -0.749289 -0.045738 0.576379 -0.366383 0.204817 0.252794 0.482666 0.437083 -0.527038 -0.35328 0.607365 -0.798491 -0.200907 -0.003009 0.023074 0.192124 -0.648182 0.053148 -0.908602 0.707625 -0.203068 0.68222 0.358503 -0.367506 -0.095757 -0.533064 -1.254124 0.167834 -0.298171 -0.363358 -0.570682 0.080274 0.089362 -0.184074 0.173586 -0.064005 -0.160022 -0.665592 -0.302496 0.448229 0.129415 -0.096415 0.661406 -0.579876 -0.388077 0.278141 0.454692 -0.092235 0.529553 0.22236 1.073641 0.081003 -0.17467 -0.314841 1.061697 0.206631 0.251678 -0.575535 -0.241757 -0.093469 0.202603 0.209141 -0.794166 0.572058 0.873049 0.407268 0.478338 0.522204 0.336365 0.623461 0.145845 -0.025366 -0.226731 -0.188101 -0.517894 -0.246662 -0.155625 -0.701147 0.415929 0.052988 0.212159 0.388885 0.444302 -0.229682 0.301578 0.623255 -0.985937 -0.301403 -0.017808
combination 0.16355 0.497589 -0.037218 0.097052 -0.175428 0.146037 -0.014998 0.393265 0.141768 -0.326419 0.055746 0.289555 0.063047 0.055153 -0.215427 0.482266 0.311712 0.19929 -0.386324 0.090632 -0.000388 -0.271474 -0.167774 0.158141 -0.210165 -0.37081 0.111188 0.144398 0.041556 0.217916 -0.214546 0.035069 -0.412329 0.505754 0.246089 0.349479 -0.464567 -0.691775 -0.015735 0.217381 -0.239421 -0.725406 -0.524737 0.122751 0.103475 -0.120578 -0.244005 0.071548 0.250742 -0.459288 0.305558 -0.069957 -0.383263 -0.03237 0.379434 -0.554132 0.420249 0.099397 -0.166266 0.595924 -0.260122 -0.570095 0.1559 -0.463475 0.26729 0.440935 0.078803 0.22331 0.021785 -0.587302 -0.158193 0.605033 -0.29071 0.365879 -0.219647 -0.712117 -0.453217 0.196585 0.053544 0.63831 -0.537808 -0.113573 -0.538371 -0.058645 -0.317105 -0.21284 0.420399 0.657436 -0.187001 -0.088801 0.254472 0.154314 0.077316 -0.205277 -0.166691 -0.193516 0.328034 -0.666972 0.628107 0.387683
importance -0.19372 0.233436 0.596913 -0.162218 -0.065076 -0.248174 -0.167892 0.325855 -0.335001 0.238838 0.57846 0.549544 -0.568871 -0.273969 0.257398 0.533552 -0.296786 -0.201229 0.827919 -0.233113 -0.702342 -0.232021 -0.24756 0.600397 -0.327793 0.018031 0.289262 0.357885 0.080578 0.327657 0.23679 -0.047857 0.687869 0.84137 -1.024993 -0.599157 -0.459165 0.020549 0.472059 0.005631 -0.277047 0.439038 -0.248157 0.505376 -0.027647 -0.210654 -0.738382 0.009142 -0.533281 0.016707 0.024548 -0.53237 -0.41611 -0.381195 0.175535 -0.194206 -0.009094 0.141336 0.17225 -0.338803 0.084871 -0.694442 0.237643 -0.279697 0.533254 0.035402 0.283363 -0.147708 0.302009 -0.445644 -0.360924 0.6587 -0.538125 0.354651 0.106528 -0.10815 -0.004958 -0.07016 -0.099535 -0.412855 -0.14112 0.158128 -0.781867 0.130912 -0.170335 0.642456 -0.389459 0.438256 -0.105465 0.32493 0.382091 -0.361581 0.508178 -0.121318 -0.425907 0.895397 0.727542 0.460115 -0.039085 0.778887
production 0.656033 0.218431 0.811932 -0.082339 -0.171451 0.668849 -0.753098 0.719043 0.358981 -0.718919 -0.197936 -0.684607 -0.185344 0.4927 -1.057114 -0.110984 -0.275307 0.358727 -0.002697 -0.567624 0.509078 -0.196669 -0.727206 0.340271 0.013235 0.442153 0.449855 0.3134 -0.29263 0.089506 0.04199 0.104091 -0.423155 0.090139 -0.401275 -0.386838 0.403591 -0.732026 0.931044 -0.316438 0.358401 -0.05366 -0.31412 0.674433 0.105177 0.668939 -0.132566 0.409038 0.095426 0.545507 -0.155256 -0.229267 -0.315603 0.077069 0.420625 0.191181 0.400155 -0.251146 -1.466991 0.400097 -0.645426 -0.664658 -0.038257 -0.83906 0.868823 0.584247 0.387279 0.513484 -0.024335 -0.340286 -0.095785 1.209354 -0.539752 -0.028806 -0.781317 0.312666 0.941047 0.184445 -0.813836 -0.754926 0.022061 -0.370551 -0.213806 0.347923 -0.608051 -0.734404 0.070733 -0.026098 -0.970871 0.062867 0.592764 -1.013531 0.579218 0.497774 -0.3996 -0.541141 -0.070493 -0.444023 0.460125 0.359476
conclusion 0.225919 0.76842 0.225193 -0.00357 -0.416823 0.080661 0.202089 -0.109777 -0.444949 -0.286947 0.536476 0.573451 -0.659666 0.54052 -0.458277 0.16135 0.159702 -0.019836 -0.356618 -0.369379 -0.676816 -0.261885 0.012021 0.341298 0.204969 -0.352223 0.033191 -0.20138 0.325485 -0.461925 0.172115 0.178543 -0.264865 0.350171 -0.220292 0.01505 -0.116485 0.020997 -0.157401 -0.795046 0.452212 -0.369893 0.156144 0.05635 0.32789 0.417306 0.327104 -0.603384 0.061718 -0.982089 -0.563869 -0.682982 -0.769022 0.154333 -0.475124 -0.502144 0.316889 0.200291 -0.179152 -0.639055 0.039744 -0.33425 0.07769 0.102992 0.167478 0.566431 0.857377 -0.217788 -0.01626 0.250994 -0.0954 0.453495 0.044787 -0.039474 -0.109712 -0.687572 0.103237 -0.107879 0.365446 0.306416 -0.367256 -0.005133 -0.040068 0.745425 0.213409 -0.032313 0.515733 0.04081 -0.127835 0.69967 0.259546 0.38612 0.265173 0.081777 -0.290534 0.274612 0.011851 -0.49581 -0.105162 -0.493507
drought 0.09607 -0.036814 -0.139243 -0.165707 0.228445 0.60888 0.569291 -0.058655 -0.226895 -0.383579 0.298313 0.172586 -0.21068 0.017538 -0.520478 -0.132745 0.242343 0.435739 0.723433 0.231043 0.060233 0.017354 0.441624 1.018761 0.213238 -1.20224 0.428996 -0.349584 0.850797 -0.680245 -0.372739 -0.613454 0.078874 0.325596 -0.657842 0.456229 0.007513 -0.389787 -0.090257 -0.010296 -0.304433 -0.698967 -0.457896 -0.343246 0.097591 0.112409 -0.129442 0.621682 0.409656 0.099366 0.018036 -0.276325 0.236478 -0.077425 0.525929 0.239476 0.239387 0.870599 -0.035776 -0.267372 -0.313496 -0.691175 0.44721 -0.394666 0.427375 0.294854 0.118366 -0.520095 0.260362 0.050581 -0.156631 0.490709 0.448358 -0.007438 0.172055 -0.529368 0.188959 -0.112359 0.378591 0.022871 0.544057 0.099252 -0.877494 -0.325826 -0.741053 0.224296 0.307681 0.067262 0.189482 0.23886 0.192777 0.388105 0.773219 -0.104928 -0.031296 -0.157749 0.081242 -0.512602 0.976885 -0.031142
consumer -0.04582 -0.156422 0.47814 0.271259 -0.064396 0.001688 -0.072072 0.065709 -0.095478 0.169879 -0.229218 0.574146 -0.287868 0.040803 -1.22212 0.186667 0.242174 -0.010539 0.564622 0.063232 -0.25948 -0.382302 -0.561074 0.021366 -0.944108 -0.639831 0.791033 0.835491 -0.785459 0.082211 0.175225 -0.646107 -1.024747 -0.130478 -0.290236 -0.300907 0.797795 -1.063271 -0.289406 0.296899 0.396738 -0.024607 -0.125547 0.241127 0.613284 -0.443417 -0.312882 -0.11919 -0.222537 -0.34484 0.034571 -0.342562 0.917361 0.506527 0.414709 -0.395439 -0.338815 0.953538 -1.037488 0.499716 0.380264 -0.779581 -0.705413 -0.801953 0.398312 -0.822079 0.462102 0.524573 0.174485 0.310937 -0.060421 0.569806 -1.08468 -0.602973 -0.896705 -0.423015 0.159049 0.08105 -0.668062 -0.727671 0.269179 -0.356506 -0.412508 -0.603862 0.242677 0.009403 -0.898272 0.988313 -0.056909 -0.886622 0.339856 -0.65318 0.449434 -0.235107 -0.448454 0.239775 0.012459 -0.290336 0.580282 0.90003
isolation 0.241276 0.658861 0.208085 0.03588 0.30173 -0.126318 0.498678 0.072271 -0.242546 -0.689814 0.066585 -0.082039 -0.280264 -0.490595 -0.77487 0.148348 -0.386645 -0.324696 1.05165 0.352217 -0.411233 -0.199103 0.183904 -0.160852 -0.074237 -0.957292 0.653924 -0.724108 0.231522 -0.04364 0.283983 -0.100883 1.070355 -0.023433 -0.182312 -0.113196 -0.349897 -0.418435 -0.297353 -0.107733 -0.012424 -0.42116 -0.555376 -0.193821 -0.200733 -0.02307 -0.41889 0.423412 0.097079 -0.594924 0.097495 -0.18138 -0.144243 -0.297427 0.02284 -0.210103 -0.016353 0.303973 -0.215094 0.583835 -0.603158 0.039764 0.292935 -0.409397 0.173568 0.496769 0.30281 0.0336 -0.211911 -0.05523 0.35547 -0.379889 -0.27853 0.05377 -0.009007 0.154766 -0.083488 0.206415 0.610583 -0.468959 0.285258 0.182744 -0.392007 -0.265976 -0.078415 -0.095302 0.011772 0.110949 -0.909129 -0.096584 -0.086097 0.437351 -0.403824 0.088828 -0.223786 0.260746 -0.036639 -0.143793 0.079616 -0.147736
food 0.992695 -0.063553 1.068777 0.105485 0.016436 0.686434 -0.306556 0.101165 0.115778 0.491212 -0.141551 -0.220783 0.112539 -0.105152 -0.526408 -0.054595 0.123752 0.510269 1.415051 -0.03354 0.134109 -0.674808 -0.739985 0.620479 -0.363402 -0.144252 0.320164 0.277589 -0.209548 0.760723 0.252706 -0.472512 -0.798607 -0.266687 -1.065834 -0.746496 0.136366 -0.891957 0.725084 -0.630744 -0.303185 -0.734308 0.006753 0.038624 0.404605 -0.301072 -0.311381 0.43075 0.344271 0.824943 0.950964 0.322821 0.200237 0.207022 0.134642 -0.360021 -0.309752 -0.21297 -0.888882 -0.333974 0.127168 -1.229832 -0.802292 -1.729628 0.462849 -0.407327 0.632403 0.35996 0.207293 0.309185 -0.432951 0.676635 -0.599425 -0.629139 -0.362303 -0.113531 0.613428 0.027545 0.202283 -0.683676 0.219113 0.030033 -0.919354 -0.455341 -0.342352 -0.571516 -0.904373 0.382658 -1.596717 -0.062094 -0.310698 -0.260242 0.395935 -0.504964 -0.561442 -0.986937 0.722513 -0.582048 0.752843 1.025386
territory -0.07055 -0.261399 -0.002844 -0.337992 -1.488153 0.612692 0.28293 0.095371 0.216876 -0.507031 0.381691 -0.256213 0.248561 0.392388 0.256524 0.40822 -0.710009 -0.470843 0.096495 -0.424295 -0.326277 -0.259462 0.096389 0.306877 -0.125346 0.087494 -0.187666 -0.167858 0.309027 -0.986147 -0.584992 -0.177052 0.764098 -0.109696 -0.18454 -0.386685 0.79436 -0.623387 0.113074 0.033216 -0.218763 -0.198426 -0.901645 -0.222581 0.10245 -0.128062 -0.884005 -0.794334 -0.080125 -0.576078 0.24527 -0.157749 -0.019447 0.28916 -0.029478 -0.43276 -0.045457 -0.32539 -0.845827 -0.658469 -0.438343 0.304933 0.030868 -0.322888 0.130244 0.045888 0.887645 0.253622 0.096033 0.181757 0.694256 0.552299 -0.098576 -0.530514 -0.103778 0.551582 -0.307009 0.662218 0.343297 -0.369678 0.11905 -0.448765 -0.526036 -0.480822 -0.190139 -0.104798 -0.447446 -0.165075 0.286625 -0.136828 0.068992 -0.11484 0.233441 0.767065 -0.800466 0.454707 0.107289 -0.905636 -0.087997 0.684484
row 0.341115 -0.291309 0.248777 0.54279 0.468966 -0.629376 -0.426268 0.418879 -0.033324 -0.475951 0.644306 0.801519 0.135827 -0.256472 0.149058 0.5462 -0.474587 0.277548 -0.197117 -0.787152 0.003507 -0.088399 0.434928 1.086539 0.278868 -0.307044 -0.109422 0.050767 0.152448 -0.236195 0.066195 0.59499 0.395925 0.00741 0.465018 -0.092571 -0.149118 -0.816499 -0.271096 -0.172061 -0.145664 -0.580537 -0.250488 0.603998 -0.125853 -0.536553 -0.042467 -0.05695 1.181257 -0.498813 -0.294081 -0.56588 0.522616 0.145881 0.282614 1.202813 -0.023493 0.497418 -0.218942 -0.320706 -0.701849 0.400274 -0.501317 -0.102894 0.170004 0.49788 0.197906 0.474162 0.140196 -0.517068 0.450814 0.448965 -0.417087 -0.285289 -0.146497 0.456682 0.157052 0.397431 0.486825 0.173859 0.553243 -0.009419 -0.061338 0.002086 -1.078599 0.483886 -0.115045 0.054403 -0.685561 0.074221 0.531106 0.071073 0.217453 0.340062 -0.853845 -0.080693 0.165634 -0.506419 0.260535 0.458599
lawyer -0.38158 0.357309 -0.261632 0.042047 0.558839 -0.250581 -0.871509 -0.403859 0.443838 0.45229 -0.071272 0.317167 -0.020892 -0.593842 -0.286685 -0.456283 -0.806967 -0.129677 -0.127484 -0.645396 0.320121 0.671517 1.023205 0.095178 -0.137243 1.141387 0.170815 0.491514 -0.263733 0.679637 -0.483409 0.978577 -0.366011 -0.436416 0.683469 0.341051 -0.054365 -0.318413 -0.514188 -1.041247 0.118471 -0.181378 -0.16119 0.471591 0.186552 -0.093389 0.133116 0.176829 0.546177 -0.724954 -0.349773 -0.123645 -0.896343 -0.312144 0.444324 -0.417231 -0.460298 -0.540712 -0.828179 -0.451744 0.994261 -0.583848 0.137967 0.303374 0.334383 -0.081353 0.438923 0.534478 -0.439905 0.191561 -0.334546 0.87779 0.000486 0.159898 -0.226092 0.037107 0.358321 -0.090082 0.605761 -0.636495 -0.676288 -0.114575 0.383512 0.259613 0.775162 -0.234374 -0.007884 0.197043 0.298631 -0.706851 -0.544709 0.240159 -0.121665 0.547591 -0.882201 0.067923 0.183963 -0.170337 0.899517 -0.092333
implement 0.02682 -0.037691 -0.36919 -0.051096 0.209345 0.104557 -0.102654 0.005043 0.223931 0.006118 0.407082 -0.034552 0.529064 0.164995 -0.171713 -0.174167 -0.122046 -0.031965 0.315279 0.034738 -0.840616 -0.263195 -0.306053 -0.211877 0.507264 -0.560427 0.314512 -0.182811 0.360321 0.101968 -0.042236 -0.603643 0.049788 0.123313 -0.336751 -0.023522 -0.800037 -0.63076 0.16491 0.015662 0.234459 0.136174 0.181633 0.705297 -0.211342 0.407256 -0.226782 0.374622 -0.671147 -0.433211 -0.150768 -0.331346 0.023979 -0.025112 0.018721 -0.035724 -0.028467 0.017173 -0.738107 1.017356 0.143815 -0.089837 0.325234 0.176266 0.482786 0.559309 0.204598 -0.110902 0.45919 0.068387 -0.820263 1.030693 -0.344339 0.184164 0.005441 -0.103606 -0.876571 0.134303 0.029728 -0.617931 -0.207848 -0.223144 -0.429172 0.008271 0.75357 0.314812 0.252206 -0.38496 -0.078232 0.17415 0.038296 0.118149 -0.272268 0.191159 0.213907 0.036358 0.257233 -0.273045 0.083269 0.035546
deployment -0.339261 0.039796 -0.129008 -0.723789 -0.1822 0.083802 -0.285701 -0.153673 -0.093203 -0.967234 0.493356 0.135085 0.249284 -0.012579 -0.681749 -0.112288 -0.073619 -0.096935 0.128388 -0.117734 -0.276474 0.184071 -0.222974 0.139142 0.202428 0.286937 0.162849 -0.046255 -0.155186 -0.033198 0.682942 0.255668 0.390563 0.22859 -0.50246 -0.011979 -0.676627 -0.590898 0.273292 0.222958 0.89866 -0.036228 -0.221148 0.375385 -0.194375 -0.182421 -0.142116 -0.086262 -0.30494 -0.012043 -0.291029 -0.891071 -0.241631 0.085687 0.193588 -0.250937 0.149755 0.335454 -1.019804 0.567369 -0.219678 0.083849 0.933203 -0.328908 0.198639 0.502858 0.211103 0.147437 0.063052 0.237196 0.006625 0.788866 0.65104 0.274412 0.074103 0.553074 -0.043349 0.261474 0.697371 0.466472 -0.02665 -0.198878 0.193253 -0.047735 -0.196994 -0.399011 -0.189557 -0.550887 -0.389546 0.416089 0.51681 -0.387759 0.264894 0.023507 -0.175995 -0.570091 0.187942 -0.096789 0.001637 0.417909
month -0.094222 0.71796 0.182106 -0.327587 0.470617 0.124588 -0.835512 -0.01767 0.203842 -0.620006 0.102876 0.090241 0.392689 0.530713 -0.431669 -0.069854 -0.044011 0.664096 -0.100561 -0.682325 -0.262947 -0.018317 0.16287 1.547408 0.28825 0.265053 0.127086 -0.156633 -0.380127 0.194636 -0.322022 0.557757 -0.568895 -0.22448 -0.216915 -0.266242 0.20308 -0.958851 -0.271445 -0.032943 0.294573 -1.036674 0.246544 0.575968 0.208817 -0.069263 -0.211379 -0.536087 0.253704 -0.35091 -0.398219 -0.112503 0.735035 -0.116841 -0.090353 -0.054645 -0.033413 0.268193 -0.991724 -0.332795 0.033395 -0.574638 -1.318239 -0.516449 0.330195 0.055824 1.023556 0.572465 0.361291 0.424891 0.417549 1.212942 -0.775888 -0.53849 0.071927 0.541918 0.315222 0.445749 0.562704 -0.190203 0.083096 0.528481 -0.270235 0.046627 -0.886547 -0.608479 -0.360335 0.168645 -0.298161 0.525297 0.721591 0.005759 -0.240423 0.304207 -0.602818 -0.621665 -0.277524 -0.307145 0.119037 0.153497
substance 0.02508 0.581248 0.197371 -0.214382 -0.672517 0.293925 -0.192821 0.398836 0.172616 0.669502 -0.854838 0.007978 -0.363785 0.124361 0.350767 -0.216607 -0.493429 0.573316 0.478055 0.017073 0.079975 -0.79555 0.552068 -0.231534 0.037883 -0.501676 0.412772 0.359173 0.435017 -0.275229 -0.172691 0.186167 0.207907 0.355294 -0.309483 -0.449014 -0.411471 -0.671496 -0.652927 -0.029819 -0.179161 -0.726583 0.031854 0.291094 0.432079 0.06025 0.171304 -0.334826 0.07173 -0.292029 1.109332 0.035709 -0.285377 0.111 0.383981 -0.568644 -0.049166 -0.648897 0.07005 0.331421 -0.410609 -0.267066 0.008132 -0.760684 -0.399975 -0.216304 0.674787 -0.016769 0.014121 -1.095715 0.654871 0.079865 -0.242312 0.679303 -0.363494 0.322887 -0.032212 0.031418 0.132974 -0.314018 0.026178 -0.248019 0.143983 -0.454756 0.527782 0.277693 0.258999 1.261433 -0.496249 0.428308 -0.738671 0.15883 0.720724 -0.018079 0.319313 0.77299 0.452053 -0.532974 0.278294 0.194225
world 0.315709 0.172505 0.310911 0.104051 0.735918 0.147363 -1.556771 0.382461 -0.247353 -0.67581 -0.118794 0.327586 -0.092539 -0.244521 -0.876322 0.02126 -0.669291 -0.328213 0.953305 -0.352897 -0.8607 -0.072324 -0.545766 0.990776 -0.584067 0.332837 0.520376 -1.032028 -0.238073 -0.9422 0.273185 -0.476692 -0.083761 0.804916 0.022152 -0.254777 -0.359326 -1.256009 0.586444 -0.487189 -0.354943 -0.232385 -0.257128 -0.368575 0.746786 -0.138859 -0.415593 -0.142609 -0.114554 -0.283999 -0.16941 -0.046947 0.206213 0.238549 0.570577 -0.12537 -0.011681 0.416234 0.05073 -0.899012 0.786453 -1.26394 -1.939215 -0.640917 0.451689 -0.128946 0.842859 0.531469 -0.398507 -0.019091 0.07053 1.142513 -0.976501 -0.470847 -0.563775 -0.272185 0.176067 0.198103 0.09744 -0.223906 -0.573483 -0.232739 0.123195 -0.454767 0.143909 0.152453 0.057808 -0.453975 -1.191914 -0.458524 0.954002 0.080545 1.014132 0.426256 -0.599732 -0.025592 0.620656 -0.581001 0.458391 0.309943
rooster 0.29205 -0.097217 0.100933 -0.009316 -0.28976 -0.067059 0.026544 -0.094394 0.162469 0.274345 0.352809 -0.125776 0.129889 -0.077217 0.089163 0.073161 0.188678 -0.259991 -0.121304 0.449526 -0.257444 0.005033 -0.419778 -0.177802 0.089877 -0.027581 -0.018283 0.268056 0.123473 -0.236625 0.112628 0.021694 -0.27016 -0.136335 -0.102496 0.111302 0.089194 0.065331 -0.207386 -0.192832 0.114553 0.123866 0.114063 -0.275186 -0.206748 0.148065 0.047822 -0.025057 0.175499 -0.037669 0.16866 0.063299 -0.009722 0.019293 -0.122894 0.02099 -0.023996 -0.198518 -0.040393 0.261511 0.018748 0.253051 0.314079 0.049687 -0.047572 -0.000318 -0.425025 -0.027409 -0.071077 -0.114962 -0.305533 0.097896 0.301753 -0.291642 0.029356 -0.058239 0.300033 -0.409232 -0.275322 0.16325 -0.223712 -0.229446 0.060084 0.083736 0.403889 0.300312 0.300679 0.004625 0.009659 -0.010898 -0.059078 0.07086 0.111693 -0.291889 -0.056071 -0.011045 0.108239 -0.009317 0.026375 -0.348125
preparation 0.132052 0.405638 0.07061 -0.39679 0.180557 0.36666 0.022519 0.299299 0.090501 0.008344 -0.373699 0.132304 -0.14565 -0.429598 0.025423 0.082482 -0.001604 0.325704 1.116242 -0.213025 -0.275877 -0.627694 0.339731 0.511304 -0.053338 -0.32869 0.203012 -0.196367 0.176197 0.007363 -0.019557 0.121078 -0.277753 -0.222581 -0.589345 -0.686851 -0.689227 -0.177681 0.555395 0.144581 -0.25036 -0.424465 -0.03353 0.043734 -0.092593 -0.034117 0.166257 0.045612 0.341154 0.218848 0.062815 -0.363995 -0.199109 -0.462345 -0.338122 -0.714042 -0.261256 0.173206 -0.8789 0.207187 -0.239751 -0.255366 0.558816 -0.460493 0.373089 0.142258 0.282703 -0.193294 0.303493 -0.229833 -0.539675 0.936018 0.180606 0.113108 0.439953 0.049603 0.618224 0.215344 0.032705 0.31108 -0.290969 -0.029876 0.196233 -0.315731 -0.593926 0.286137 0.282335 0.151226 -0.710859 0.19324 -0.303334 0.498135 -0.197716 -0.750392 0.008006 -0.541063 -0.032111 -0.492551 0.057064 0.451358
Harvard 0.569427 0.040064 -0.406441 0.590955 1.225656 -0.639696 -0.571844 -0.049435 -0.440728 0.171603 -0.592961 0.446422 -0.004453 -0.075198 -0.015642 -0.309065 0.800245 0.139484 0.4463 0.345421 0.572709 0.116854 0.553685 0.332277 -0.042635 0.22905 0.825939 0.321448 0.354727 -0.059476 0.028962 0.246926 -0.180443 0.337101 0.295899 0.083616 -1.22141 0.082977 -0.712637 -0.159513 0.708385 -0.081353 -0.472601 0.486519 0.045195 -0.052434 -0.556239 0.060767 -0.013703 -0.393129 0.400042 0.51257 -0.449267 0.362442 -0.125912 -0.274903 -0.842418 0.244383 0.671023 0.268888 0.238161 -0.085871 -0.417972 -0.384024 0.313411 0.076688 0.518525 0.284078 -0.554445 -0.346858 0.506996 0.152311 -0.076082 0.625414 0.040757 -0.261604 -0.019645 -0.063671 0.534855 -0.641618 -0.238334 0.414363 -0.741267 0.179849 0.438035 -0.545895 -0.682957 0.045429 0.276152 0.018324 0.843306 0.412488 -0.985456 0.904605 0.558737 0.53102 0.135273 0.282441 -0.459616 -0.337697
brother 0.287535 0.155579 -0.093988 0.066496 0.434568 -0.84184 -1.099346 0.1662 1.035216 0.087885 0.646883 0.266793 0.410698 0.218429 -0.511554 -0.664095 0.380796 0.208296 -0.257628 0.108122 -0.303016 0.388045 0.64284 0.458875 0.188555 0.677797 -0.462025 0.120601 -0.489096 -0.136748 -0.107701 0.498111 0.163345 -0.557704 0.416569 0.893833 -0.255907 -0.898136 0.303265 -0.573708 -0.963113 -0.873873 -0.216643 -0.064622 0.728276 0.147361 0.115509 -0.155397 0.252088 -0.307946 0.146502 -0.111768 -0.519665 -0.194497 -0.262227 -0.300392 -0.097741 -0.336468 0.361108 -0.549852 0.816584 -0.505219 0.32821 -0.110998 0.362881 -0.285857 0.560768 0.523492 -0.244561 -0.041835 -0.105855 -0.04064 0.077375 0.369291 -0.121636 0.597716 0.467867 -0.472593 0.785353 0.085183 0.505585 -0.057868 0.311602 -0.050901 0.056695 0.135409 -0.020291 -0.130097 0.128925 -0.085148 0.645455 -0.369958 -0.089456 0.107545 -1.025979 -0.307111 0.474723 0.145906 0.55572 -0.292789
day 0.364505 0.469145 0.425658 -0.345854 0.500787 -0.062082 -1.066926 0.49841 0.500317 -0.0613 0.197194 0.43293 0.335546 0.298471 -0.23081 -0.337063 -0.122429 0.623781 0.144492 -0.311551 -0.010115 0.030768 -0.208595 0.989425 -0.259072 0.22152 -0.144991 -0.767197 0.309039 -0.462694 0.582952 0.558382 -0.438869 -0.240082 -0.507764 -0.354873 -0.224076 -0.683403 0.15092 -0.045401 0.029477 -1.200296 -0.018359 0.11363 0.559312 0.343485 -0.232346 -0.131929 0.348942 -0.018474 -0.287218 0.175903 0.448885 0.258559 -0.229044 -0.370015 0.046093 0.588235 -0.612634 -0.995139 -0.153735 -0.524599 -1.315556 -0.78269 -0.194305 0.713941 1.319952 0.349025 0.039078 0.421943 -0.410195 1.466435 -0.503729 0.209709 0.482929 0.310596 0.92176 0.343836 0.419094 0.518626 -0.03139 -0.09065 -0.104746 0.013208 -0.654096 -0.553961 -0.047971 0.189194 -0.537158 0.352055 0.580598 -0.001012 -0.389931 0.158676 -1.255316 -0.485364 0.224323 -0.432977 0.49337 -0.091823
mouth 1.130815 0.046307 -0.233755 -0.481689 -0.136423 0.887238 -0.406759 0.888261 0.601035 -0.237695 -0.005206 0.65994 -0.233998 0.262388 -0.11546 -0.8657 0.089738 -0.062038 -0.339015 0.168677 -0.421467 -0.295954 0.404629 0.322409 0.099384 -0.799171 -0.396048 0.43654 0.678155 0.242848 0.407646 0.633804 0.501415 -0.130468 0.392179 0.549743 -0.240936 -0.402655 -0.207916 -0.168679 -0.208618 -0.848653 -0.363779 -0.647914 -0.494471 0.193964 0.31299 0.070432 0.431456 0.626703 -0.118987 1.237716 -0.590287 0.050266 -0.310656 -0.218886 -0.099876 0.143132 0.355129 -0.257046 0.032756 -0.468321 0.266207 -0.413483 -0.183823 0.595107 0.226099 -0.06556 0.166093 0.500155 0.640416 0.614641 -0.564775 -0.114432 -0.011896 -0.103533 0.338098 -0.020455 0.22916 0.002463 0.009205 -1.159939 -0.150439 0.196589 -0.205733 0.416006 -0.206584 -0.056857 -0.678473 -0.09995 -0.065749 -0.299696 -0.381909 0.110494 -0.350205 0.366719 0.471807 0.083989 0.047421 0.239352
magician -0.250207 0.151919 -0.247623 0.473501 -0.060861 -0.361665 -0.182387 -0.385299 -0.109009 0.299273 0.093232 -0.044909 0.042605 -0.260915 0.14553 0.054672 -0.016347 -0.042458 -0.080225 -0.10528 0.069595 0.282091 0.31827 -0.533673 -0.44141 0.145789 0.31003 -0.332427 -0.237087 -0.315566 -0.192732 0.378637 0.076016 0.322933 0.096626 0.260474 -0.239239 0.163449 -0.036862 0.240482 -0.126659 0.185598 -0.189519 0.006205 0.326197 0.141768 0.15701 0.165064 0.237184 -0.05888 0.337252 -0.517262 0.01513 -0.067041 0.033148 -0.069673 -0.224917 -0.088529 0.388303 0.314139 -0.104442 -0.242175 0.015397 0.647248 -0.279047 -0.02692 0.551557 -0.0787 -0.163797 0.004674 -0.205125 0.128926 -0.014972 -0.405904 -0.002053 -0.111483 -0.437539 0.093928 0.003552 -0.041064 -0.086841 0.135704 0.345576 0.000379 0.117857 0.146258 0.169838 -0.197219 0.323416 -0.141524 -0.194271 0.082607 0.019744 -0.031577 0.132708 -0.036017 0.032489 0.101574 0.553361 -0.209587
stroke 0.067926 0.453683 0.884472 -0.083397 0.061131 -0.000563 -0.286838 0.600096 0.050228 0.727661 0.014201 -0.126236 0.746404 0.407864 0.095072 -0.235192 0.472405 0.879823 -0.000484 -0.148073 -0.39124 0.289774 0.65527 0.324035 -0.066441 -0.79018 0.701703 -0.731429 0.341977 -0.106168 0.048659 0.035537 -0.154116 -0.533986 -0.332715 0.283511 0.020787 -0.474391 -0.508448 0.252778 -0.637164 -0.610097 -0.123093 -0.304804 0.0312 0.436307 0.067237 0.222844 0.196374 -0.274507 0.385135 0.012416 -0.514438 -0.04366 0.54975 -0.180717 0.11037 0.483068 0.423401 0.221864 -0.29031 -0.411587 -0.149275 -0.631246 -0.069615 0.782283 0.687833 -0.226639 -0.719869 0.150064 0.68749 0.500041 -0.358199 0.166253 0.261088 -0.752484 0.645788 0.19805 -0.036123 0.261689 0.358097 0.304386 -0.368474 -0.744867 -0.919119 0.392207 -0.516112 0.144237 -0.064441 -0.052702 0.623894 -0.108794 -0.763164 -0.03451 -0.193178 -0.182292 0.366575 0.455386 0.595061 -0.24878
drug 0.264483 0.331116 -0.948891 0.527389 -0.284836 0.81286 -0.62654 -0.086349 0.786556 -0.198316 -0.440267 -0.216271 0.157591 0.557381 0.010142 -0.435659 -0.264429 1.256592 -0.26804 -0.42255 0.066175 -0.489683 -0.222928 0.848956 -0.083131 -0.043911 1.365291 -0.117588 -0.060163 0.555689 -0.024092 0.712663 -0.989556 0.039691 0.052927 0.196577 -0.0518 -1.067655 -0.149821 -0.316501 -0.51152 0.123843 -0.066752 0.159797 0.396686 0.632766 0.085226 -0.428769 0.713536 0.039249 0.342199 0.016774 -0.678066 0.044705 1.291286 -0.26231 -0.173298 -0.618461 -0.041898 0.528915 0.946893 -0.607593 0.121955 -1.438203 -0.164285 -0.686262 1.401553 0.778551 -0.069875 -0.389927 -0.10909 0.511572 -0.130686 -0.505262 -0.731532 -0.26925 -0.148026 0.963912 0.271398 0.590548 -0.117999 0.163993 -1.059331 -0.824887 0.273047 -0.844462 0.260129 0.215696 -1.088169 0.401032 -0.596096 0.232228 0.212297 -0.638039 0.193721 -0.040882 0.682728 -0.320418 0.766562 0.609508
game 0.368531 -0.378589 -0.008005 -0.09578 0.899195 0.338287 -1.429515 0.455411 -0.207064 0.480704 0.009736 1.063577 -0.416859 0.56801 -0.290486 0.624759 -0.061079 0.505783 -0.086108 -0.802847 0.664311 -0.695436 0.666602 1.249818 -0.626656 -0.295343 0.261263 -0.209913 0.367177 -0.778835 -0.498646 1.242562 0.316934 0.618052 -0.156319 -0.056815 -0.712335 -0.834225 0.568087 0.360405 -0.484977 -0.967875 -0.088767 -0.251529 0.801897 -0.072373 0.114805 0.319868 0.108409 -0.658896 0.23962 0.18031 0.709298 0.162141 -0.051513 0.048581 0.662583 0.574693 -0.862788 -1.273468 -0.253523 -0.153902 -0.847521 -0.478834 -0.02317 0.393943 1.807477 -0.168278 0.089777 0.076068 0.123966 1.380514 -1.109216 -0.425861 -0.366479 -0.414155 0.130788 0.425345 -0.403292 0.528173 0.120581 -0.023751 0.154868 -0.089064 -0.01272 0.554363 0.522463 0.344131 -0.633251 -0.335696 0.426737 -0.318717 0.184944 0.795125 -0.18136 -0.005115 -0.197305 -0.911943 0.65042 -0.266927
phone 0.828737 0.679293 -0.143623 -0.261259 0.301038 0.140312 -1.005839 0.012004 0.174449 -0.172292 -0.44572 1.140765 0.269638 0.134908 -1.056156 0.056618 -0.675016 -0.100867 -0.052658 0.29789 0.028972 -0.693024 0.429924 0.313597 -0.438589 -0.343821 -0.631013 0.0558 -0.363433 -0.032302 0.772782 0.741273 -1.025588 0.003318 0.545369 0.939918 0.604921 -0.569791 0.116768 -1.200765 0.040109 -0.806304 0.120862 0.314097 -0.389862 -0.790332 0.321111 -0.502159 0.462727 -0.240357 -0.504766 -0.308598 -0.594558 0.367502 0.414665 0.57572 -0.159818 -0.603524 -0.764523 -0.59041 0.184904 -0.273089 -0.755639 -0.402091 -0.38152 0.586824 0.834014 0.834223 1.259782 0.31871 -0.160985 1.081578 -0.116015 0.253638 -0.586885 -0.049947 -0.531009 -0.260741 0.093399 0.844376 -0.300663 -0.945005 0.933217 -0.690567 -0.359444 0.343395 -0.472071 -0.315138 -1.317975 -0.377051 0.146398 -0.721917 -0.138981 -0.579534 -0.167624 -0.147507 -0.039522 -0.405935 -0.474028 0.752979
FBI -0.289419 -0.757249 -0.759417 -0.069788 0.864543 0.401092 -0.103191 0.216552 0.115807 0.175886 -0.577814 0.543161 -0.61034 0.586879 -0.580425 -0.059576 -0.45926 -0.150374 0.670822 -0.636651 0.20504 1.042025 0.251913 0.554154 -0.129755 0.065486 0.456622 0.445342 -0.590869 0.345835 -0.470363 0.70932 -0.6906 -0.490973 0.223612 -0.082595 -0.396629 -0.391725 0.15601 -0.676514 -0.019558 0.376413 -0.463637 1.290156 0.116359 -0.233209 0.362009 -0.350197 -0.620095 -0.363687 -0.24053 -0.192637 0.022397 -0.510303 0.350817 0.585419 -0.591297 0.343027 -0.591068 -0.290923 0.95617 -0.42739 0.549474 0.543458 -0.301269 0.124808 0.496464 -0.014375 0.683146 -0.155206 -0.026089 0.096923 0.241956 0.092447 0.699787 0.272864 0.361706 0.903488 0.825451 0.108057 -0.138107 -0.258338 0.092667 -0.606521 -0.154429 -0.435305 0.044798 -0.278274 -0.364913 0.083258 -0.556269 0.349351 -0.095961 0.202247 0.500914 0.109603 0.711513 -0.834455 -0.263011 0.198905
keyboard 0.411731 0.313108 -0.278376 -0.158699 -0.533492 0.380225 -0.484682 -0.488169 -0.087322 0.340352 0.238245 -0.212006 -0.409846 -0.436579 -0.348976 0.293396 -0.13041 -0.191482 0.055607 0.489233 0.488682 -0.089881 0.072972 0.184738 -1.141458 -1.14958 0.204851 -0.412505 -0.04991 -0.546779 0.128419 0.504337 0.041719 0.668823 -0.053993 0.611084 -0.12205 0.232093 -0.417326 -0.391236 -0.371746 -0.080072 -0.909732 -0.034688 -0.032847 0.62824 0.290286 0.452974 -0.614907 -0.387747 0.897652 0.159447 -0.01386 -0.013044 -0.152961 0.051542 -0.070857 0.223622 0.340236 0.300858 -0.078889 0.413073 0.102369 0.153743 -0.40759 0.219547 0.05705 0.271269 -0.08044 -0.428887 -0.002609 0.042649 -0.084643 -0.314365 -0.465594 0.235873 -0.980821 -0.154462 0.390924 0.064406 -0.364727 -0.413962 -0.063299 -0.010491 -0.627351 0.458245 0.185443 -0.37777 -0.478139 -0.351705 -0.032778 0.346466 0.117619 0.17021 0.100984 -0.228686 0.295925 -0.255055 0.411805 0.025154
kind -0.085644 0.772757 0.295195 -0.062244 -0.035755 0.245165 -0.569501 0.861481 0.102915 -0.112258 0.043968 0.417044 -0.336877 0.068422 0.505464 0.248106 -0.178577 -0.132332 0.106149 -0.05008 -0.247967 -0.041549 0.047473 0.484263 -0.580121 -0.13176 -0.165547 0.239201 0.210551 -0.282414 0.130494 0.153591 -0.111394 0.297827 -0.066993 -0.277393 -0.682111 -0.901743 0.082983 -0.135664 -0.469061 -0.419803 -0.159836 -0.51813 0.310022 0.286528 -0.457638 -0.152291 0.239735 -0.381716 0.445124 -0.216533 -0.223255 -0.158199 -0.29441 -0.200685 -0.171159 -0.060898 -0.353468 -0.055503 -0.287448 -0.962728 -0.730658 -0.583193 0.111028 0.107247 0.897038 0.366734 -0.081862 -0.037822 -0.390506 0.704298 -0.804118 0.232616 -0.019738 -0.398449 -0.190996 0.603674 0.366354 0.403016 -0.656893 -0.211405 -0.025509 0.209591 0.458038 0.104192 0.335726 0.391253 -0.534739 -0.002492 0.368335 -0.235971 -0.4721 0.160288 -0.581108 -0.278348 0.839817 -0.418422 0.078274 0.448268
animal 0.413489 -0.260667 0.251583 -0.435356 0.360483 0.242289 -0.335287 0.193647 0.264254 0.780513 -0.770802 -0.260013 -0.074727 0.01859 -0.345164 -0.052156 -0.240748 0.724523 0.388913 -0.507474 0.114858 -0.028213 -0.00452 0.076713 -0.062057 -0.602834 0.220521 0.270439 0.147048 -0.054153 -0.38833 -0.059694 -0.463533 0.672345 0.036484 -0.704498 0.004901 -1.08913 -0.966111 -0.667536 -0.787336 -0.235161 0.350861 -0.885964 0.48818 0.318305 0.419464 0.05396 0.021104 0.005086 0.907373 0.254135 -0.045613 0.415779 0.04145 -0.413682 -0.23753 0.154528 -0.093599 0.250997 0.639827 -0.090854 -0.384129 -0.69326 -0.109723 -0.360608 1.043687 0.574925 -1.1653 0.023819 -0.289059 0.264755 0.032665 0.312353 -0.218186 0.238219 -0.080923 0.347479 0.036383 -0.64817 -0.014395 -0.202498 -0.646058 -0.193833 0.849144 -0.084781 0.299437 -0.225223 -1.023789 -0.159762 -0.603878 0.330303 0.314965 0.176144 -0.401709 0.202556 0.493852 0.045334 0.238397 0.409459
queen 0.609396 0.140303 1.044142 -0.10794 0.406226 0.005812 -0.488929 0.185202 -0.040328 0.190776 0.804718 -0.614746 -0.270452 -0.135033 0.227096 -0.419557 -0.525082 -0.201707 0.188891 -0.752653 -0.115024 0.227765 0.405584 0.81136 0.398814 -0.147903 0.272646 -0.119427 0.337814 -0.528594 -0.234153 0.073026 1.091234 0.373491 -0.389603 0.071257 -0.015756 0.025228 -0.02445 -0.280936 -0.633848 -0.159071 -0.671347 -0.324317 0.495116 0.453389 -0.198466 -0.335721 0.518171 -0.11346 0.191205 -0.032196 -0.412603 -0.039483 -0.246296 0.656672 0.152528 -0.084739 0.664737 0.009525 0.04948 -0.471942 0.428651 -0.27171 0.179925 0.035236 -0.589058 0.049282 -0.743118 -0.08353 -1.08195 -0.149954 -0.146157 -0.132421 -0.290009 -0.083278 0.563536 -0.558761 -0.068077 -0.312512 -0.106132 -0.442281 -0.190519 -0.079243 -0.309425 0.208144 0.511315 0.116996 0.043303 -0.434699 0.22028 0.12171 0.061768 -0.507371 -0.254592 -0.354871 -0.323113 -0.379877 -0.249416 -0.226059
organism 0.575232 0.029436 -0.421778 -0.378229 -0.513313 0.132863 0.002577 0.062911 -0.224264 -0.814467 0.319826 0.449699 -0.411619 -0.420169 -0.096322 0.50585 -0.173035 -0.21879 0.001362 0.242028 -0.108528 -0.19916 -0.487798 -0.054813 0.070315 0.086801 -0.325787 -0.09459 0.209883 -0.186352 -0.186134 -0.020103 0.211369 0.175724 -0.029577 -0.319881 0.127192 -0.300634 -0.05818 -0.555006 -0.574885 0.189325 -0.119515 -0.126711 -0.269799 0.411168 -0.286683 0.321635 -0.375714 0.066356 0.301657 -0.248277 0.260543 -0.343493 -0.266707 0.245113 -0.306272 -0.102639 0.576905 0.215856 -0.046919 0.114992 0.425707 -0.185708 0.09904 0.37208 -0.088961 0.223723 -0.55008 0.363983 0.0827 -0.080646 0.048685 -0.112288 0.020413 0.224917 -0.418196 -0.108715 0.588685 0.083526 -0.154282 -0.178765 0.034924 -0.075981 0.510691 0.214853 -0.075765 0.150732 0.272731 -0.074978 -0.242683 0.157889 -0.080762 0.162264 0.395887 0.097662 0.6787 -0.111191 -0.212924 0.2084
president -0.568279 -0.000754 0.180463 0.19866 1.309056 -0.315598 -0.781534 0.539385 0.855995 -0.840678 0.022402 -0.368001 0.149307 -0.239501 -0.090609 -0.965928 -0.725486 0.012491 0.571678 0.096609 -0.49853 0.477344 0.401168 0.840209 -1.255042 1.046893 -0.064194 -0.406374 -0.500581 0.034304 -0.739599 -0.398344 0.311303 -0.313107 0.002347 0.470866 -0.688801 -0.903102 -0.29359 0.451551 0.314935 -0.426246 -0.089636 1.039169 0.261466 -0.243419 -0.369883 -0.036603 0.111156 -0.266621 0.163362 -0.119029 -0.922539 0.000643 0.508456 -0.306516 -0.156949 -0.285085 -0.127268 -0.359565 0.503664 -0.761578 -1.051091 0.156091 1.125151 0.532357 1.335365 0.913413 0.556604 0.158117 0.016806 1.004947 -1.024608 -0.002615 -0.122056 0.522549 -0.005351 0.249699 0.330038 -0.621306 -0.770612 0.72886 0.161655 0.105702 0.646062 -0.235053 -0.352295 0.482196 0.319066 0.367304 0.637959 0.0466 0.080883 0.387486 -1.39508 -0.49931 0.597143 -0.297982 -0.40986 0.243136
cell 0.659443 0.929532 -0.437824 -0.489692 -0.396808 0.510229 -0.968799 0.356904 0.221336 -0.550375 -0.709478 0.37075 0.687702 0.224495 -0.645091 0.032666 -0.243173 0.553602 -0.205479 -0.253078 -0.284962 -0.425989 0.066366 -0.367174 -0.156289 -0.131891 -0.273829 -0.283628 -0.019709 0.488648 0.47999 0.427059 -0.621057 -0.002374 0.84803 0.250132 0.320993 -0.374525 -0.139817 -0.312536 0.03199 -0.628478 -0.673518 0.579118 -0.052825 0.328374 0.313104 0.158841 0.108096 -0.419709 0.02212 -0.201822 -0.74798 0.631026 0.656146 0.37756 -0.830357 -0.439265 -0.238903 0.250269 -0.04285 0.22878 -0.082195 -0.981817 -0.456616 0.307051 0.876316 0.639127 -0.451887 0.198381 -0.039546 0.316188 0.520765 0.498769 -0.873551 -0.184507 0.116467 -0.032036 -0.05938 0.295148 -0.071713 -0.780957 0.537679 -0.517678 -0.368023 0.348817 -0.359759 0.015469 -1.398356 0.174858 0.020494 -0.418678 0.28763 -0.289074 -0.145164 0.311895 0.732657 -0.289356 -0.124623 0.450475
egg 0.908729 -0.128973 0.812058 0.206096 0.432676 0.462345 -0.71462 -0.203776 -0.663059 0.407278 -0.395286 -0.218523 -0.397984 0.131975 -0.572442 0.072345 0.047339 0.44261 0.0065 -0.210958 0.218584 -0.038277 0.110712 0.019259 -0.023208 -0.006392 0.169063 0.031242 0.012905 0.151203 0.947911 -0.062081 0.575744 0.516452 0.162938 -0.077418 0.34174 1.001464 0.426433 -0.328775 -0.010961 -0.664243 0.159687 -0.752476 0.156078 -0.175033 0.583682 -0.319738 0.041822 -0.146914 0.250253 1.105946 -0.489551 -0.435759 0.517681 -0.126454 -0.259254 0.794043 -0.101619 0.419364 -0.104963 0.535502 -0.032632 -1.084084 -0.42797 0.230528 0.044258 -0.397623 -0.454018 0.683133 -0.221092 0.360081 0.327119 0.044938 -0.424402 0.054684 -0.229583 0.012649 0.182122 -0.661032 0.047703 -0.637456 0.24759 0.315964 0.145172 0.333594 0.065114 -0.079219 -1.151465 -1.119727 -0.889777 0.129189 -0.018126 -0.014261 -0.588331 -0.784506 0.075255 -0.41578 -0.173201 0.127484
sun 1.360456 0.064464 0.249707 -0.325806 -0.279985 0.56407 0.215613 -0.032804 0.259782 0.072907 0.391975 -0.036202 -0.136504 0.210517 -0.105818 -0.168756 0.957698 0.777936 0.55043 -0.316769 -0.30975 0.512729 -0.678365 0.467158 -0.349059 -0.36757 -0.551416 -0.576694 0.523957 -0.509636 0.388466 -0.484815 0.736365 -0.236454 -0.553649 -0.405301 0.026439 -0.904273 0.032314 0.222458 -0.508912 -0.180391 -0.016264 -0.121039 0.439355 0.184436 0.107775 0.172937 -0.328568 0.134112 -0.358221 0.694959 0.327611 0.607849 -0.527495 -0.383836 0.26987 -0.026787 0.623617 -0.500005 -1.094438 -0.474378 -0.382581 -0.801265 0.05955 0.588326 -0.266511 -0.253962 0.461344 -0.22281 -0.592229 0.536398 0.217696 0.448107 0.449822 0.807636 0.795842 0.041756 0.408481 -0.120188 0.119226 -0.636986 0.039065 -0.371845 -0.605623 0.454958 -0.486344 0.386651 -0.666119 0.038171 0.221752 -0.004767 0.329042 0.357292 -0.099039 0.448173 0.513077 -0.481698 0.29676 0.685005
canyon 0.264578 -0.429411 -0.24346 -0.284632 -0.314004 -0.031629 0.066584 -0.217251 -0.168377 -0.195835 -0.096238 -0.021142 -0.251163 0.110345 0.125874 0.289585 0.008693 -0.148801 -0.054129 0.280204 0.057771 0.149822 -0.412251 -0.177133 0.10219 -0.285535 -0.394581 -0.351803 0.205729 -0.093865 -0.260276 0.584447 0.354099 -0.192665 -0.242675 -0.230772 0.586634 0.129205 -0.167007 -0.012662 -0.310291 -0.042451 -0.415702 -0.10819 -0.483846 -0.254816 0.294009 -0.023783 0.164868 -0.197404 0.146906 0.049177 0.108911 0.086269 -0.112372 0.298552 -0.464072 0.418831 -0.01504 -0.33288 -0.299551 -0.017908 -0.035171 0.162149 -0.421617 0.540365 0.210702 -0.151185 -0.836156 -0.075371 -0.146296 -0.29669 0.400611 0.108458 0.235567 0.118807 -0.486971 0.128847 -0.063615 -0.22566 -0.335926 -0.585572 -0.481003 -0.10109 -0.331796 -0.006449 0.207801 0.235207 0.195212 0.079808 -0.274423 0.014494 0.214974 0.228821 0.012946 0.30309 0.008027 -0.411058 -0.278606 0.377684
star 0.633901 0.831772 -0.184642 0.373406 1.039551 0.334405 -1.7148 -0.731968 0.102093 0.170021 0.238225 0.637036 -0.03577 0.11378 0.01383 -0.562772 0.181148 -0.016551 0.464067 -0.77901 0.969423 0.384846 -0.168354 0.436655 -0.791219 0.26158 0.380533 0.556442 -0.471985 -0.403168 -0.280796 0.450641 0.79544 -0.250581 0.183862 0.84843 -0.109014 -0.373157 0.570717 -0.037132 -1.12368 0.439423 0.348379 0.003818 1.073128 0.305346 0.217906 -0.249938 0.226999 0.306998 0.314969 0.006034 0.083938 -0.076664 -0.311389 0.127718 0.85175 -0.676919 -0.003729 -1.138897 -0.011471 -1.113762 0.044358 -0.153328 0.346379 -0.585443 0.296492 0.309854 -0.251588 -0.205192 -0.59149 0.084444 -0.744015 -0.0086 -0.516329 0.098811 0.422898 0.108968 0.154301 -0.400884 -0.432884 -0.244988 0.060929 -0.159386 -0.87717 0.252574 0.168937 0.323639 -0.369583 -0.558821 0.664058 -0.166016 0.575132 0.730197 -0.110261 0.260475 -0.056117 -0.482502 0.652644 -0.004136
law 0.224946 0.679216 -1.511196 0.233252 0.504725 0.119591 -0.19877 -0.660113 0.69546 -0.218864 -0.664841 -0.051016 -0.652644 -0.040698 0.107187 -0.116768 -0.600835 0.475034 0.429114 0.497607 -0.036377 0.386678 0.4576 1.244239 0.076655 0.045959 0.775284 -0.254882 0.250121 0.204661 -0.393639 -0.768784 -0.530618 -0.047659 -0.245857 0.009128 -0.646051 -1.337486 -0.651632 -0.302977 0.439478 -0.11989 -0.172211 0.312459 0.595982 0.162288 -0.080722 0.599541 -0.105849 -1.040549 -0.458514 -0.001813 0.04597 -0.05302 0.55301 -0.355947 -1.1941 -0.285443 -0.403699 -0.139837 0.342696 -0.439809 -1.218885 0.332809 -0.033185 -0.003831 1.242017 0.332807 0.078175 -0.350606 -0.335377 1.342352 -0.63076 0.885023 -0.355092 -0.194494 -0.62041 0.212819 0.229075 -0.830242 -0.221541 -1.036609 -0.358804 0.108042 0.621774 -0.244346 -0.293629 0.0859 0.122785 0.455822 0.12269 0.330758 -0.075543 0.421569 -0.113946 0.765158 0.57851 0.100534 0.903071 0.367237
cucumber 0.017522 0.138063 0.523885 -0.077232 -0.17647 0.533544 0.026621 -0.276422 0.195419 0.039405 0.205867 -0.835642 -0.271646 0.01092 -0.206867 0.108405 -0.102853 -0.078824 -0.389762 0.277099 0.125079 0.480137 -0.270832 -0.263046 0.036024 -0.362199 -0.106206 0.03774 0.4932 0.166168 -0.072001 -0.209955 -0.209319 0.350161 0.128954 0.183683 0.360802 0.279987 -0.133565 -0.136635 -0.368638 -0.460085 0.093412 -0.343256 -0.144106 0.192453 0.287989 -0.071734 0.003109 -0.093853 0.584576 -0.011964 -0.255453 0.253784 0.086191 0.201068 0.212308 0.211602 0.548469 0.224364 -0.276139 -0.109147 0.181211 -0.007876 0.044674 0.317462 -0.670506 -0.097207 -0.316321 -0.208639 0.134205 -0.202594 0.137991 0.087025 0.232983 -0.31643 -0.04291 0.037084 0.259839 -0.118703 -0.180581 -0.161473 -0.01722 0.237879 -0.29825 -0.37215 0.205025 -0.045106 -0.199632 -0.115366 0.000829 0.289166 0.257752 -0.065491 0.057867 -0.249873 -0.032064 0.155862 0.10107 -0.234017
information -0.263054 0.557598 0.476241 -1.09808 0.50527 0.187547 -0.032223 0.50395 0.701792 0.612734 0.11731 0.921571 0.821732 -0.177496 -0.502339 0.387549 -1.12833 0.506679 0.79488 -0.283253 -0.345282 -0.610972 0.250562 0.401442 -0.595441 0.009108 0.116855 0.247756 0.00902 0.296419 0.720751 0.507605 -0.611235 0.647507 -0.083566 -0.100904 -0.437941 -0.880146 -0.026621 -0.934651 0.999986 0.438773 -1.33575 1.076902 0.776886 -0.606294 -0.238944 -0.21135 -1.147737 -0.64727 0.450047 -0.096342 -0.048319 -0.114679 -0.107537 -0.75968 -0.79942 0.272518 -0.92908 -0.758719 0.619284 -0.58626 -0.947807 0.170969 -0.717583 0.305614 0.591541 0.714976 0.835231 0.38991 -0.022938 1.172638 -0.852318 1.329509 -0.365358 -0.141358 -0.123618 0.551177 0.174112 0.62411 -0.500333 -0.281288 -0.145336 -0.81723 -0.008745 -0.354429 -0.702591 0.315188 -0.661593 -0.292091 -0.4032 0.174657 -0.023097 -0.400154 -0.016373 0.240023 0.159412 -0.818617 0.620511 1.005222
precedent -0.351246 0.667408 -0.635432 0.137817 0.033234 0.463158 0.788972 -0.210608 0.368668 -0.261646 -0.399666 0.462085 -0.427641 -0.064442 0.196906 0.346501 -0.425108 0.384787 -0.010877 -0.377798 0.096426 -0.017913 0.080472 -0.09475 0.226366 -0.723564 -0.336823 0.16212 0.195569 -0.314881 -0.483469 -0.856838 -0.020187 0.330218 0.162439 -0.890301 -0.539604 -1.152669 -0.253956 -0.459815 -0.235914 -0.831203 0.915281 -0.369545 -0.126383 -0.231068 0.308992 0.858438 0.239925 -0.517907 -0.109629 0.204145 0.118709 -0.014876 -0.337044 -1.080622 -0.195081 -0.204153 -0.016194 -0.444041 -0.635058 -0.713205 -0.115548 0.064982 0.032613 0.433002 -0.312912 -0.370351 -0.125583 -0.052294 -0.311776 0.139695 -0.362797 -0.153317 0.013549 -0.101271 0.12331 0.287833 -0.05621 -0.227383 -0.332999 -0.692253 -0.664415 0.020177 -0.536057 0.529991 -0.308528 0.552965 0.077966 -0.114838 -0.307086 0.436143 0.786125 0.028821 -0.176642 -0.001056 0.450864 -0.978204 -0.248529 -0.119609
sea 0.598103 0.303318 0.645982 0.06409 -0.818545 1.130968 0.019196 -0.568138 -0.879021 -0.336264 -0.076956 -0.74255 -0.397685 0.854981 -0.75973 0.013636 0.264823 0.295811 0.235819 -0.48822 0.412092 0.679852 -1.184807 0.173363 0.191057 -0.538359 -0.321823 -0.729756 0.502619 0.233765 0.220474 -0.097251 0.81485 0.255814 -0.078174 -0.146132 0.458408 -0.985434 -0.517789 -0.243201 -0.892768 -1.108838 -0.407496 -0.020676 0.399292 0.118122 -0.085925 -0.076771 -0.510711 -0.266595 0.516519 0.188155 -0.137822 0.451093 -0.265112 0.157024 -0.098678 0.510981 0.17378 -0.332237 -0.198572 0.09344 -0.282282 -0.351628 0.041911 0.40237 -0.206251 -0.010543 -0.404282 -0.306144 -0.247536 -0.177476 -0.537466 -0.233064 -0.117923 -0.050996 0.49511 0.406536 0.415617 -0.6665 -0.186273 -0.473743 -0.744578 -0.053453 -0.815559 -0.568286 -0.588944 -0.282706 -0.609718 0.023506 0.95789 0.632412 0.724281 0.028213 -1.181754 -0.084044 0.635599 -0.833659 0.583525 0.126825
butter 1.027038 0.043147 0.121717 0.236105 -0.097601 0.465832 -0.149506 -0.055794 0.033222 0.256304 0.0824 -0.764212 0.149771 -0.27495 0.272613 -0.099917 -0.177616 0.150111 0.412404 -0.567911 0.382972 -0.099588 0.457231 -0.492755 -0.348552 -0.295914 -0.386664 0.08573 1.027197 -0.195744 1.278 -0.169618 -0.436691 0.921074 0.697177 0.35805 0.205469 -0.892909 0.927974 0.080078 0.399285 -0.500621 -0.226706 0.145253 -0.480277 -0.371482 0.195791 0.26851 0.667955 -0.342592 0.342934 0.214212 0.016818 0.14011 -0.35494 0.201006 0.251453 0.001859 0.229301 -0.584818 -0.17671 -0.035905 0.132784 -1.102812 -0.181364 -0.075278 -0.279083 -0.390052 0.664681 -0.896899 0.387009 -0.19316 0.045829 -0.161527 -0.218731 0.233473 -0.096475 0.174415 -0.121439 -0.067475 0.007072 -0.264783 -0.219518 -0.215869 0.215295 0.2722 0.179613 0.144017 -0.660292 0.347864 -0.141108 -0.302861 0.657436 -0.360127 0.100269 -0.515437 -0.095603 -0.698112 0.341972 0.183917
reservation 0.700868 0.520686 -0.203641 -0.650576 -0.176196 0.587513 -0.083156 -0.159099 -0.033166 -0.576028 -0.144332 0.075193 -0.662137 -0.486487 -0.04185 0.052497 -0.090522 -0.214591 -0.432614 0.639051 0.053386 -0.423297 0.246645 0.619551 -0.03043 -0.308782 -0.532814 -0.433948 -0.034415 -0.585825 0.21335 0.324083 0.10962 0.084311 -0.704028 0.484025 0.716039 0.148248 0.017141 -0.365407 -0.062375 -0.097026 -0.101879 -0.081912 0.026655 -0.422812 0.044837 -0.009271 -0.018027 -0.676549 -0.284537 -0.13768 -0.383196 -0.162015 0.373298 0.369562 -0.674547 0.144892 -0.061056 -0.002862 -0.25418 0.303302 0.140274 0.181003 0.148784 0.149562 -0.233452 0.290883 0.424616 0.111279 -0.01665 0.421761 0.164898 0.270992 -0.470433 -0.468868 -0.403739 -0.299157 0.289072 -0.003988 -0.522005 -1.157284 -0.477412 -0.707503 -1.163886 0.309079 -0.444431 -0.781624 0.113788 -0.000918 0.186389 -0.387326 -0.411868 -0.060883 -0.306244 -0.012704 -0.36479 -0.482681 -0.290212 0.511674
archive 0.21592 0.222915 -0.050682 -1.085424 0.608406 -0.294797 0.139889 0.090939 -0.220412 -0.253161 -0.373342 -0.673481 -0.099737 -0.318355 -0.708376 0.5146 0.113941 -0.071991 0.029535 -0.212468 0.112503 0.089047 -0.118662 -0.111763 0.142103 -0.098759 -0.29263 0.399911 -0.451875 0.018717 0.072236 0.219958 0.504381 0.107923 0.011094 -0.588848 0.488204 -0.225796 0.252194 -0.552401 0.180655 0.954917 -0.783376 -0.12946 0.485543 0.05234 0.2757 -0.447458 -0.443463 0.101949 0.546752 0.196551 -0.363463 0.362862 -0.755429 -0.094832 0.312183 -0.363541 -0.347738 0.112442 -0.231244 -0.074079 -0.102862 0.083357 0.133969 0.376127 0.617626 0.65788 -0.15423 -0.446038 -0.17451 0.088843 0.368783 0.054657 -0.368661 -0.403531 -0.019309 -0.313108 -0.027583 -0.464299 -0.578301 -0.565692 0.381882 -0.247962 -0.837718 0.469546 0.00261 0.065849 -0.280065 -0.146896 -0.419762 0.426187 0.515252 -0.194992 0.433013 0.297272 -0.478605 -0.319809 -0.053598 0.721296
clinic 0.720561 0.200224 0.114704 -0.535672 0.561959 0.163145 -0.767446 -0.305657 -0.033422 -0.000793 -0.441688 0.101393 0.006794 0.030133 -0.432248 -0.151136 -0.056867 -0.1525 0.666025 0.132759 -0.069973 -0.288155 0.452467 0.205553 0.021186 -0.470594 0.354814 0.156402 -0.134609 0.022783 -0.04272 1.165687 -0.114425 0.121283 -0.113778 0.155186 0.233102 -0.062945 -0.618383 -0.604854 -0.296881 -0.055575 -0.125132 -0.237577 -0.465765 -0.348689 0.051601 0.094546 0.014754 -0.093291 0.276665 0.190271 -0.143834 0.194019 0.21213 0.43393 -1.177629 -0.014875 -0.014942 0.089754 0.559169 -0.128202 -0.158727 -0.109012 0.139963 0.114634 0.975175 0.183353 -0.448881 0.489409 -0.351229 0.651387 0.132178 0.039091 0.086694 -0.126452 0.466249 -0.533111 0.063768 -0.130325 0.151347 0.063037 -0.823542 -0.808558 -0.168782 -0.191445 -0.006217 0.112884 -0.611996 0.15779 -0.296441 0.109206 -0.685237 -0.457181 0.249881 -0.19963 -0.083617 0.30694 -0.029006 -0.726121
term 0.288109 1.418064 -0.440902 -0.045779 -0.112244 -0.195544 -0.748679 -0.235802 0.622954 -1.108538 0.807971 0.424478 0.281434 -0.059921 -0.285294 -0.661592 -1.405611 0.717886 0.102907 -0.315992 -0.504555 0.534375 -0.224915 1.485447 -0.63944 0.085101 -0.26401 -0.573781 0.500277 0.089982 -0.431625 -0.116861 -0.157972 -0.165195 0.398466 0.0698 -0.691689 -0.276408 0.061975 0.320657 -0.191921 -1.31507 -0.545982 0.755173 -0.14866 0.35785 -0.597796 0.250401 -0.034234 -0.094567 0.27115 -0.071587 0.520541 -0.373531 0.362028 -0.187307 -0.861038 -0.095684 -0.765447 0.323575 -0.593284 0.093331 0.116705 -0.500365 0.853647 0.358751 0.605901 0.019973 0.109287 -0.174976 -0.104901 1.139156 -0.599269 0.091921 0.603722 0.102788 0.515595 -0.346802 0.011192 0.340056 0.009041 -0.145699 -0.316713 0.153255 -0.428928 0.132412 0.551381 0.59826 0.205677 0.266235 -0.25137 0.772177 -0.008914 0.095772 -0.868375 0.060586 0.597877 0.237399 1.05867 0.269092
space 0.738905 0.305045 -0.330732 -0.446222 0.327238 -0.168584 -0.534303 0.482228 0.067351 -0.814725 0.236715 -0.581642 -0.0221 -0.092144 -0.736214 1.142029 -0.922266 -0.537728 -0.011496 0.1349 0.246496 0.238128 -0.641518 0.409437 -0.850956 0.136339 0.246441 -0.663491 -0.620436 0.028538 0.245665 0.314375 0.666228 -0.331913 -0.382183 0.136588 -0.768334 -1.168832 0.376344 0.055893 -0.078525 -0.530274 -1.105736 0.45789 -0.113107 0.685689 -0.091827 0.44251 -0.472316 -0.132205 0.0831 0.034686 -0.28858 0.018674 -0.61739 -0.072433 -0.006568 -0.354576 -0.434693 0.043775 0.258502 0.431419 -0.007405 -1.054121 -0.204355 0.607825 0.544855 1.228306 -0.405727 -0.68535 0.056005 0.644745 -0.253585 -0.882704 0.197205 0.604519 0.775184 0.776946 0.418554 -0.292196 -0.254218 -0.322312 -0.301081 -0.632128 0.535596 -1.070006 -0.334054 0.398419 -1.682847 0.528489 0.188313 0.176045 -0.437502 0.698979 -0.157162 0.553165 -0.089853 -1.263693 -0.028254 0.199177
bird 0.368483 0.32889 -0.266584 -0.488517 -0.62465 1.19512 -0.418609 0.36858 0.115968 0.545041 -0.336581 0.361869 -0.643636 -0.049553 -0.369953 0.130364 -0.054683 0.224095 0.13631 -0.085499 0.34281 0.396692 0.174645 0.293942 0.114957 -0.682728 -0.056166 -0.242431 0.116156 -0.818395 0.270512 0.311412 0.149927 0.43748 -0.227176 -0.229295 0.256639 -0.711742 -0.631952 -0.515434 -1.0279 -0.297332 -0.01339 -0.629137 -0.387646 0.289244 0.171015 -0.609249 -0.035555 0.361431 0.557108 0.243936 -0.559106 0.222423 -0.083108 -0.494932 -0.126145 0.252088 -0.252343 0.309935 -0.026098 0.441325 0.534977 -0.403052 -0.023223 -0.130389 0.88995 0.386705 -0.826433 0.436169 0.104655 0.016211 0.109842 -0.500855 0.267324 -0.159605 0.117444 0.503596 0.014907 -0.677005 -0.299629 -0.135632 0.051176 0.15011 -1.188531 -0.372524 -0.180371 -0.280728 -0.599543 -0.20706 -0.002157 0.035083 0.260519 0.318526 -0.210222 0.127276 0.666113 -0.175515 0.076268 0.192124
treatment 0.577597 0.555112 -0.066268 -0.407921 0.312825 0.183124 -0.304083 -0.432235 0.35847 0.010645 -0.440484 0.358397 0.353082 -0.030488 -0.169706 -0.702683 -0.56582 0.401256 0.43209 -0.290452 0.313133 -0.978785 0.666573 0.484685 -0.293862 -0.325172 1.034714 -0.917784 0.521422 0.314639 0.126075 0.594297 -0.104395 0.016497 -0.24653 -0.061755 -0.025172 -0.926626 -0.267292 -0.282443 -0.125196 -0.439436 -0.483654 -0.029965 -0.199112 -0.190983 0.14977 0.232868 -0.663832 0.417274 0.380239 -0.482709 -0.963771 -0.206095 0.281735 -0.108573 0.098855 -0.474848 -0.525757 0.419598 -0.474799 -0.196906 0.106618 -1.224224 0.586283 0.379006 1.172037 0.423452 -0.674547 0.126206 -0.253299 1.263628 -0.122222 0.771041 -0.001285 -0.095833 0.077048 0.124073 0.886856 0.246569 0.43018 0.246897 -1.022887 -0.648093 0.190531 -0.659512 -0.216978 0.850685 -1.175088 0.033196 -0.343649 0.587032 -0.679524 -0.740657 0.167529 -0.12059 0.439115 0.083744 0.946922 -0.024484
country -0.04298 0.009563 0.155431 -0.109203 0.446732 0.470254 -0.772254 0.510602 0.373983 -1.161089 0.098385 0.004954 0.00647 -0.209494 -0.398702 -0.259961 -0.905688 0.238078 0.784743 0.067141 -0.949879 -0.026075 -0.234493 0.935942 -0.031727 0.17565 0.31974 -0.428584 -0.300518 -0.373225 0.115882 -0.67511 0.68224 -0.170558 0.006293 -0.548424 0.233821 -1.396947 0.528602 -0.366944 0.031905 -0.422576 -0.177606 -0.204922 0.426043 0.230676 -0.713472 -0.110314 0.281242 -0.380309 -0.288057 -0.216029 0.05111 0.073051 0.448834 -0.075486 -0.61668 0.267243 -0.462364 -0.903702 -0.099155 -0.80868 -1.101474 -0.413507 0.330679 0.017562 1.515688 0.423379 -0.368583 0.89037 -0.248776 1.035939 -0.84579 -0.151535 -0.391776 -0.090858 -0.105596 0.555635 1.030717 -0.730347 -0.124646 -0.174911 -0.321125 -0.17976 -0.158705 -0.347912 -0.348997 -0.025261 -0.703141 0.15932 0.771874 -0.077495 0.429154 0.267261 -1.249772 -0.226536 0.80065 -0.126637 0.197909 0.561913
science 0.262875 1.163593 0.073394 0.470048 0.093404 -0.385167 -0.327324 0.44261 -0.309626 0.429305 -0.653009 0.197516 -0.870124 -0.146674 0.246262 0.291502 -0.209536 0.530662 0.554972 -0.139 0.34612 -0.042906 0.322876 -0.038276 -0.766516 -0.63826 0.253483 -0.316413 0.270486 -0.335555 0.164576 0.098293 0.339502 -0.007165 0.005883 -0.41486 -1.727266 -0.313902 -0.009664 -0.117884 0.001034 0.03847 -0.626421 0.591255 0.340182 0.417372 -0.28152 0.442074 -0.759972 -0.271765 0.169902 -0.226748 -0.715948 -0.055363 -0.178331 0.25313 -0.881277 -0.173074 -0.181441 -0.09554 0.147597 0.119599 -0.547859 -0.425414 -0.126615 0.138107 0.406763 0.324345 -0.674451 -0.58916 -0.593846 0.475948 -0.396279 0.238737 -1.12494 -0.257821 0.231167 0.589464 -0.237476 -1.197483 -0.635716 -0.023862 -0.026288 0.292959 0.378464 -0.305924 -0.400921 0.069497 -1.426737 0.036906 1.142531 0.049352 -0.14426 -0.119842 -0.112102 0.273128 -0.238551 -0.081541 0.033352 0.08721
victory -0.523337 -0.731656 0.269435 -0.705889 1.341229 -0.256563 -1.09188 -0.011219 -0.541668 0.463372 0.610898 0.418443 -0.360404 0.227991 0.150265 0.615975 0.238315 0.203063 -0.268797 -0.630452 -0.856655 -0.152642 0.626031 1.32497 0.178537 0.508052 0.630777 -0.461503 1.005634 -0.549161 -0.603139 0.400655 0.716894 -0.175298 -0.18296 -0.001577 -0.117315 -0.181178 0.276832 0.709875 0.004411 -1.183438 -0.475816 -0.287051 0.334261 -0.627413 -0.617896 -0.185815 1.342961 -0.61103 0.016073 -0.062882 0.415841 0.490789 0.225904 0.127708 0.800297 0.223712 -0.735825 -0.43252 -0.546928 0.675441 -1.342297 0.059892 0.510487 0.365849 0.845811 -0.663295 -0.325226 0.002887 -0.033823 1.953527 -0.979107 -0.136785 0.582502 -0.410668 -0.652343 -0.31942 0.473203 0.635721 0.421441 0.104783 -0.193387 0.185929 -0.468559 0.812518 -0.104369 -0.276985 0.526936 -0.782618 -0.090738 0.613753 0.357055 0.786526 -0.898556 0.810921 0.066584 -0.481922 0.040432 -0.144844
association 0.303144 0.26589 0.058591 0.22564 0.597677 0.079805 -0.395687 0.361077 0.425529 -0.236189 0.239095 0.431266 -0.480654 -0.484195 -0.676126 0.216272 -0.345786 0.244483 0.059368 -0.102798 0.044302 0.424986 -0.04093 0.511433 -0.647042 0.145974 0.529938 0.621383 -0.453285 0.3136 -0.220692 0.265524 -0.197026 0.371527 0.038295 -0.228048 0.543645 -0.170299 -0.080073 -0.324369 -0.092282 -0.540571 0.49174 0.412841 1.105903 0.199596 0.371508 0.188371 -0.226282 -0.012354 -0.218987 0.020434 -0.572629 -0.277142 0.950937 0.031807 -0.501646 0.228534 -0.209241 -0.001613 0.171958 -0.597983 0.005839 -0.070972 -0.159214 -0.012984 0.062158 0.256871 -0.563765 0.245144 -0.153795 0.756671 0.304062 -0.22884 -0.381106 -0.450879 0.256254 0.159055 0.021205 -0.866142 -0.093122 0.002862 -0.173578 0.110536 0.821939 -0.498062 0.548286 0.210892 -0.331373 0.287392 -0.360439 0.036706 0.360317 -0.407328 -0.373469 -0.145747 -0.154624 0.382999 -0.134919 -0.158624
reason -0.417481 0.666265 0.531245 -0.148603 -0.219525 0.208894 -0.52125 0.220242 0.309067 0.492904 -0.43308 0.696153 -0.61287 -0.406729 0.639508 0.340262 -0.762858 0.316473 -0.178662 -0.424896 -0.683838 -0.097589 0.205944 0.487864 -1.065368 0.393168 -0.022526 -0.038351 -0.31914 0.373004 0.196345 0.209566 -0.281377 -0.432681 -0.300564 0.231952 -0.237915 -0.630541 0.848446 -0.041654 0.083227 -0.480805 0.141486 -0.279786 0.584499 0.043828 -0.080501 0.073376 0.334711 -0.717741 0.022858 -0.600693 -0.61977 -0.345724 -1.00231 -0.86977 -0.265772 -0.11767 0.299408 -0.523132 -0.090324 -0.52365 0.022997 -0.400838 0.129511 -0.251724 0.61055 -0.381226 0.039496 0.267751 0.03378 0.853888 -0.623585 -0.092495 -0.001115 -1.099928 0.070415 0.480586 -0.322459 0.242031 -0.218027 -0.689192 -0.414102 -0.061222 0.042676 -0.289263 -0.128763 0.426409 -0.348689 0.507761 -0.054866 -0.404932 -0.236148 -0.252804 -0.552269 0.382182 0.879767 -0.355135 0.505273 0.231647
marathon 0.636498 0.450645 -0.439057 -0.216536 -0.040384 -0.323441 -0.830114 0.228985 -0.114203 0.199565 0.13154 -0.58956 0.485437 0.276516 -0.304464 -0.098743 -0.368254 -0.012833 -0.112925 -0.373452 -0.265925 0.509687 -0.646234 0.978078 -0.737518 -0.144953 0.739515 -0.967075 0.35978 -0.220851 0.00646 0.652354 -0.304662 -0.150802 -0.272193 -0.461829 -0.225359 1.034381 0.077148 0.162571 -0.292288 0.089974 -0.123853 -0.227803 0.431907 0.164987 0.03777 -0.308115 0.048239 0.222656 -0.261563 -0.139976 -0.079891 0.064645 0.642158 0.494926 -0.293157 0.738583 0.060017 0.103505 -0.115909 0.209413 -0.45617 -0.068393 -0.176061 0.659905 0.6992 -0.134867 -0.557846 -0.22428 -0.461276 0.747768 0.866681 -0.400334 0.558372 0.217856 0.573071 0.165437 -0.222231 0.417535 0.426792 -0.169609 0.363727 -0.229324 -0.393039 0.013613 1.174972 -0.170491 -0.428159 -0.183785 0.251954 0.342711 0.039452 0.161538 -0.845303 0.042006 -0.268831 -0.320619 0.266291 -0.80933
war 0.24438 0.185155 -0.627119 -0.170427 -0.480435 0.088781 -0.380643 0.167347 0.320691 -0.700296 0.273845 -0.301766 -0.446648 -0.031786 -0.23109 -0.675415 -0.604818 -0.170388 0.237127 -0.548311 -0.723203 0.772591 0.738121 0.948488 0.06127 0.175405 0.483724 -0.556445 0.814151 -0.257806 -0.181984 0.224617 0.163798 -0.534663 0.963625 -0.354265 -0.658801 -1.578362 -0.316793 0.170338 -0.166052 -0.710051 -0.778554 0.06827 0.599701 -0.608664 -0.492119 0.05065 0.294114 -0.948503 -0.600487 -0.565792 0.03997 0.234618 0.924958 0.263055 -0.330278 0.441924 -0.849743 -0.816604 -0.55147 0.241709 -0.071276 -0.760756 0.675023 -0.727105 0.992923 -0.143647 0.040058 0.568746 -0.452861 0.123832 -0.553514 -0.353889 -0.047591 0.340695 0.123371 1.377815 1.592472 0.439241 -0.418102 0.492746 0.279983 0.441183 0.161949 -0.349436 0.047752 -0.237136 -1.212217 0.4078 0.625078 -0.427411 0.556644 0.140243 -0.76135 0.067581 1.281523 -0.339931 -0.536404 0.665218
tiger 0.291813 -0.073915 0.230955 -0.556187 -0.069228 0.163951 -0.542207 0.173666 -0.567561 0.240266 -0.400602 -0.351112 -0.03341 0.124664 -0.051144 0.107626 -0.541335 0.183654 0.165889 -0.4143 -0.306592 0.445642 -0.171142 -0.229682 0.353259 -0.512346 0.589053 -0.276859 -0.113757 -0.238341 0.293894 0.432138 0.246557 -0.069396 0.146375 -0.120631 0.958603 0.107758 0.054342 -0.300691 -0.562678 -0.297779 -0.033105 -0.520494 -0.850808 -0.115815 0.016538 -0.091994 -0.417474 -0.165151 0.507607 0.553681 -0.391437 0.094988 0.547526 -0.241438 -0.370063 0.571013 0.051997 0.433008 0.031389 0.278156 0.086626 -0.682745 -0.157878 -0.450633 0.178651 -0.546622 -1.32345 -0.061575 0.295302 0.209547 -0.064569 0.292679 0.217964 -0.428679 -0.295439 0.143354 -0.280256 -0.445457 -0.198689 -0.10015 -0.485388 -0.637064 -0.693247 0.089011 -0.447264 -0.546706 -0.398345 -0.247299 -0.297575 -0.393026 -0.231239 0.059307 0.147359 -0.119093 0.507923 -0.385989 -0.211481 0.125047
exhibit 0.50837 -0.027417 -0.047153 -0.30476 0.245998 -0.408151 -0.232187 0.161623 -0.417538 0.224398 -0.024916 -0.682244 0.062765 -0.514462 -0.121797 0.131945 0.033912 -0.60666 -0.6168 -0.390715 0.186979 -0.108188 -0.221315 0.365714 0.035992 -0.624754 0.40533 0.039484 -0.377127 -0.223427 0.635263 0.196397 0.387851 0.197238 0.005357 -0.284835 0.118412 -0.158271 0.149294 -0.372849 -0.202364 0.431231 -0.106867 0.268795 -0.049605 0.566763 0.085908 -0.073837 -0.936824 0.021735 0.149385 0.29191 -0.951891 0.360437 -0.533149 -0.051088 0.435922 0.385837 -0.079045 0.583274 -0.076874 0.282957 0.059417 -0.45913 0.008758 0.731931 0.577803 0.429138 -0.656402 -0.080015 -0.113711 0.483839 -0.154746 0.409541 -0.10928 -0.112322 0.584533 0.253279 0.249422 -0.069065 -0.250455 -0.192901 -0.195287 0.391529 -0.468975 -0.133106 0.257806 0.114851 0.134714 -0.049615 0.397426 0.033936 0.27734 0.258395 0.143243 0.114109 0.2787 -0.788281 -0.415843 0.257875
virtuoso 0.193074 0.051977 0.071042 0.124384 0.259436 -0.360658 -0.079265 0.008461 -0.563501 0.465445 0.381139 -0.236148 0.269711 -0.266257 -0.226382 -0.010176 -0.013865 -0.050052 -0.087531 -0.253884 -0.168335 0.395176 0.110411 -0.303201 -0.074432 -0.534979 0.020429 0.349446 -0.269889 0.090182 -0.02998 -0.040112 -0.16762 0.461295 0.013714 -0.109044 -0.157503 0.392351 -0.275362 0.24456 -0.065382 0.45709 -0.243208 -0.148948 0.460731 -0.457765 0.09328 0.103248 -0.020465 0.23278 0.081083 -0.045525 0.122498 0.009708 0.056966 -0.007644 0.31851 -0.009641 -0.254299 0.493529 -0.058493 -0.315378 0.181609 -0.125213 -0.405242 0.720397 -0.091321 0.269602 -0.368252 -0.353699 -0.088104 -0.084991 0.18307 0.09041 0.001821 0.152827 0.568185 0.141577 -0.300531 -0.097346 -0.288957 -0.109893 0.226207 -0.647151 -0.330175 0.454152 0.01131 -0.000645 0.401026 -0.170979 -0.032547 -0.017348 0.218618 -0.151365 0.100206 0.29623 -0.041925 0.340681 -0.197975 0.643144
calculation -0.212717 0.512692 0.239384 -0.422584 -0.706921 0.16075 0.512205 0.625376 -0.311705 0.180276 0.014298 0.718891 -0.835019 -0.73609 -0.085729 0.067607 -0.170803 0.297825 -0.240633 -0.270982 -0.443399 -0.346935 0.386639 -0.107146 0.506812 -0.304764 -0.082202 0.056394 0.400534 0.209829 -0.323365 0.08952 0.212791 0.017777 0.352001 -0.439851 -0.519217 -0.372543 0.522023 -0.03812 -0.481329 0.112455 -0.571339 0.2004 0.177236 -0.260306 -0.569627 -0.366796 -0.245131 -0.133331 0.225047 -0.050218 -0.118352 -0.524042 0.375168 -0.293486 -0.197899 0.253572 -0.439976 0.375395 0.067803 0.231632 0.223258 0.090719 0.059471 0.023394 -0.235963 0.014731 -0.412429 0.147875 0.188482 0.44709 0.339329 0.246049 -0.666127 -0.258588 -0.280473 0.251283 0.49936 0.155135 -0.593052 0.065195 0.436302 0.247295 0.125361 -0.276058 0.376048 0.08483 -0.009851 -0.321868 -0.160454 -0.072895 -0.251448 0.038815 0.225438 0.208496 -0.336748 -0.072796 -0.108886 -0.044297
announcement -0.265092 0.173032 0.615647 -0.466444 0.246349 -0.43217 -0.254284 0.289655 0.011059 -0.259059 0.7838 -0.00759 -0.320914 0.433969 -0.174745 -0.235623 -0.203243 0.602238 -0.4316 -0.506859 -0.588256 0.140309 0.577894 0.681548 -0.119464 0.16872 -0.104494 0.698988 -0.316747 -0.400705 0.2768 -0.162718 -0.056269 -0.181896 -0.683465 0.051108 0.102859 -0.401113 0.141701 0.078426 0.838565 -0.295945 0.561221 0.749974 -0.348145 0.207546 0.006846 -1.040362 0.130299 -0.562296 -0.51658 -0.382032 -0.529525 -0.149616 0.289191 -0.504114 0.822504 -0.190483 -0.964961 -0.200475 0.26017 -0.623627 -0.649047 -0.162916 0.122539 0.629329 0.466637 0.037307 0.505574 0.46177 -0.37585 0.951504 0.005403 0.469598 -0.352179 -0.038389 0.849806 0.356408 0.686477 0.073621 -0.506749 -0.10375 -0.041168 0.264226 -0.361568 0.13253 -0.545684 1.102568 0.241189 0.294729 0.268698 0.043046 -0.018232 -0.25899 -0.360397 0.034345 -0.926764 -0.559605 -0.140146 0.21466
personnel -0.754992 -0.365583 0.02536 0.601074 0.080126 0.397067 -0.293096 -0.401165 -0.230831 0.271083 -0.475605 -0.589486 0.134558 0.118695 -0.738957 -0.284809 -0.405716 0.003974 0.623809 -0.011854 0.117714 0.012196 0.174352 -0.004465 0.058738 -0.077755 0.154877 -0.108856 -0.228086 0.338895 -0.002639 -0.244936 0.108897 0.757924 -0.799176 0.355446 -0.521107 -0.519878 -0.27603 -0.243704 0.671586 -0.131488 -0.484881 -0.055525 1.102689 0.16847 0.298454 1.166468 -0.224483 -0.014036 -0.038424 -1.070243 -0.15949 0.293383 0.009543 0.163798 -0.049337 0.348576 -1.133656 -0.475351 0.148728 -0.179913 0.142242 0.803418 -0.118758 -0.03883 0.400494 1.286704 0.260726 0.35875 -0.402979 0.730354 0.251619 0.559757 0.033067 0.154364 -0.215796 0.584656 0.754199 -0.328355 0.271046 0.111585 -0.132421 -0.577603 -0.10895 -1.010447 -0.557581 -0.878169 -0.392281 0.266768 0.275083 -0.018398 -0.464928 0.080339 0.110737 0.06706 0.430892 -0.191706 0.358493 0.654761
nation 0.044626 -0.233896 0.016385 -0.394363 0.572168 0.011326 -1.133669 0.411157 0.305252 -1.006648 0.244055 0.132895 -0.428514 0.077267 -0.381975 -0.262104 -0.828247 0.396973 0.701559 0.479356 -1.205913 0.300618 -0.091962 0.848303 -0.457107 0.35551 0.250691 -0.21314 -0.05295 -0.449645 -0.092822 -0.855387 0.195646 0.114985 -0.383938 -0.286218 0.321561 -0.422626 0.426048 -0.131464 -0.142828 -0.204227 -0.48466 -0.628008 0.187669 0.167285 -0.617356 0.162381 0.236605 -0.228123 0.028221 -0.139674 0.205563 0.288063 0.407656 -0.197162 -0.705648 0.41177 -0.234981 -1.021971 -0.004623 -0.285353 -0.987282 -0.736944 0.502833 -0.077826 0.985603 0.458864 -0.467054 0.973715 -0.133302 1.03912 -0.628787 -0.105697 -0.569882 -0.504831 -0.411075 0.380276 0.699343 -0.794205 -0.501449 -0.078023 -0.344264 -0.351796 0.070408 -0.133379 -0.167315 0.035809 -0.344957 0.174335 0.819164 -0.075664 0.294739 -0.277515 -0.92164 0.13852 0.690723 0.001359 0.016269 0.582345
Arafat -0.320075 0.050157 0.389684 -0.326026 -0.295355 -0.006442 0.399088 -0.01344 0.26844 -0.035919 0.240258 -0.009606 0.607731 0.70784 0.098378 -0.496233 0.721541 0.409809 -0.014245 -0.26408 -0.725209 0.138777 -0.157906 -0.401559 0.006461 -0.013205 0.032949 -0.544574 0.329981 0.421784 -0.18938 0.362125 -0.020333 -0.734609 0.213705 -0.742686 0.399935 0.21963 0.136463 0.271879 -1.042638 0.066251 -0.403818 -0.184037 0.009377 -0.158868 0.444546 -0.230838 -0.097397 -0.151643 0.475942 -0.141111 0.258448 0.372386 -0.518522 -0.411309 -0.423536 -0.36871 0.16552 -0.154058 0.02831 0.31384 0.089498 0.002873 -0.216417 0.761196 0.229094 0.077636 -0.398432 -0.559364 0.212434 -0.38324 0.174891 -0.144486 -0.191733 0.693812 0.194151 -0.701943 0.199541 -0.288213 0.453711 0.639002 0.422057 0.590853 -0.049862 0.168737 0.281043 -0.056728 0.909266 0.290336 0.211448 -0.150042 0.646734 -0.332785 -0.233615 -0.402205 0.294312 0.833055 0.48897 -0.23396
basketball -0.242473 -0.213956 -0.817975 0.991779 0.54399 -0.486238 -0.592745 -0.45846 -0.027592 0.308712 -0.432992 -0.083188 -0.789075 0.004224 -0.200453 0.321693 -0.10539 -0.165826 0.440567 -0.174213 1.050012 0.194525 0.174848 1.101554 -0.940114 0.076695 1.070762 -0.430108 0.099135 -0.52667 -0.309842 0.887784 1.07958 0.588641 -0.378891 0.386676 -1.332964 0.403208 0.639129 -0.018613 -0.112593 0.185804 -0.800117 0.188774 0.761365 0.885721 -0.009451 -0.150142 0.476786 0.450914 0.043766 0.019085 -0.523213 0.338247 0.360979 -0.141594 -0.142145 -0.050866 0.528209 -0.67183 0.1667 -0.311196 -0.626232 0.05321 -0.156433 -0.270697 0.850491 0.095442 0.290691 -0.505533 -0.719612 0.393179 -0.309913 -0.225994 -0.531378 0.015794 -0.375715 -0.084471 0.402997 -0.303511 -0.43248 -0.139647 -0.406472 0.333463 -0.442816 -0.320179 0.406358 -0.131326 -0.174364 -0.171447 0.482183 0.064884 -0.1134 0.143438 0.273529 0.354714 -0.506498 -0.295493 0.79431 -0.63651
life 0.494444 1.027325 0.026612 -0.624737 -0.119889 0.027717 -1.284788 0.09086 0.324175 -0.324238 0.745687 0.691603 0.309959 -0.119764 -0.928022 0.167382 -0.3827 0.70791 0.862132 0.000629 -0.282577 0.407052 -0.102815 0.003236 -0.153299 0.626844 -0.432008 -0.228282 0.599941 0.282589 0.538713 0.192782 -0.01268 0.721214 0.272005 -0.537969 -0.488884 -1.213284 -0.022578 -0.282497 -0.727871 -1.138161 -1.11011 -0.170578 0.583296 0.924303 -0.901586 -0.042093 0.063546 -0.932031 -0.177442 -0.782528 0.027738 -0.53222 0.140968 -0.563577 -0.621127 -0.196741 -0.311052 -0.937916 -0.059202 -0.543685 -0.101879 -0.406866 0.338498 -0.26783 1.04639 1.004364 -0.527434 0.071545 -0.786959 0.287487 -0.820186 0.194696 0.285626 -0.038223 0.751415 0.472478 0.340621 -0.180683 -0.074033 -0.229182 -0.407493 0.237181 0.077718 0.316506 0.164934 0.273751 -1.09869 -0.183718 0.519497 0.685397 -0.259874 0.409346 -1.286951 0.432104 0.808481 0.335848 0.920284 0.668245
payment 0.710783 0.659891 -0.036269 -0.093502 0.363562 0.49503 -0.261578 -0.246294 0.308445 -0.332343 0.909408 0.304752 -0.255482 0.002052 -0.511905 -0.264487 0.009953 0.729496 -0.439275 -0.160329 -0.071296 -0.268606 0.442339 0.655911 0.131947 -0.515344 0.317463 0.041651 -0.679883 -0.112888 0.159577 0.004286 -0.547179 0.795267 -0.326525 0.571653 -0.160007 -0.412842 0.034247 -0.03132 0.631445 -0.630808 -0.018692 0.177215 0.564267 -0.422139 0.041017 0.443566 -0.323043 -0.193419 0.214717 -0.034074 0.786516 -0.487851 0.002358 -0.408684 0.20667 -0.278941 -0.832933 0.371714 -0.351776 -0.142164 0.080621 -0.331258 0.310329 0.464028 -0.396094 0.340314 0.861521 0.098988 -0.363108 0.834905 -0.339861 0.492392 -0.508101 0.747862 0.021695 -0.266631 0.048155 0.736608 -0.321367 -0.596352 -0.430775 -0.361019 -0.491992 -0.120649 0.144227 0.317741 -0.513765 -0.153748 -0.641218 0.03058 -0.565992 -0.872419 -0.056836 -0.514288 0.286486 -0.403915 0.042709 0.655339
atmosphere 0.809751 0.191937 0.585584 -0.035242 0.25157 -0.044029 0.166916 0.848606 -0.065565 -0.710416 0.236052 0.295605 -0.523025 0.462111 -0.427969 0.536783 0.177433 0.482322 0.317408 0.380382 -0.039609 -0.582709 -0.69988 0.325592 0.307321 0.135345 -0.134552 -0.030956 0.318159 0.048659 0.212468 0.08078 0.535062 0.440214 0.008621 -0.887296 -0.115984 -0.779665 -0.232016 -0.034835 -0.467135 -0.308617 0.228934 -0.332811 0.501482 0.114686 0.123297 0.107384 0.017956 -0.239875 0.717777 0.388314 0.242349 0.167411 0.249589 -0.735437 -0.016036 0.232468 0.718572 -0.095197 0.043812 -0.179263 -0.073917 -0.716474 0.120454 0.581169 -0.05743 -0.077376 0.187254 -0.444227 -0.296281 0.070743 0.184433 0.279139 -0.179925 -0.003495 0.297803 0.438461 0.623479 0.375906 -0.61976 0.162225 -0.142184 0.466761 0.872614 -0.413668 0.57043 0.791278 -0.773495 0.245729 -0.044525 0.401961 0.556598 0.221752 -0.496623 -0.016378 -0.042967 -0.798872 -0.5478 0.341119
children -0.24083 -0.138144 -0.285874 -0.006686 0.899306 -0.595983 -1.010388 0.074753 0.457662 0.69407 -0.363496 1.145033 0.580563 0.67605 -0.859796 0.522211 -0.490081 0.424616 0.689157 0.257901 0.280567 -0.503237 0.141455 0.640238 0.604895 -0.060246 0.201223 0.160672 -0.149409 0.120504 0.770313 -0.054143 0.424703 -0.068472 -0.604017 0.040124 0.413366 -1.807446 0.155543 -0.839974 -0.785395 -0.589379 -0.497868 -0.101202 0.44318 0.724361 -0.171683 -0.25954 -0.66153 0.214929 0.333874 0.447272 0.103013 -0.017957 -0.356737 -0.136989 -0.560192 -0.640509 0.121653 -1.013065 -0.322229 0.052124 -0.378162 -0.687298 0.119997 -0.751012 1.400272 0.73563 -0.565443 0.423024 -0.783712 0.668453 -0.961871 0.97882 0.262567 0.282623 0.624339 0.320499 0.988081 -0.326959 0.725743 0.091358 -1.16596 0.071734 0.016521 -0.97389 -0.14095 0.247557 -0.967315 -0.041942 0.941969 -0.308434 -0.363476 -0.409779 -0.547186 -0.338219 1.440284 0.508739 0.376102 -0.295074
potato 0.066267 0.359634 -0.210568 0.26564 -0.723197 0.130455 -0.332387 0.4083 -0.351239 0.175354 -0.077769 -0.153028 0.294461 -0.042709 -0.499835 -0.136535 -0.229057 -0.345623 0.078151 0.418994 0.165308 -0.476144 0.165141 -0.348609 -0.309447 -0.58204 0.313181 0.249717 -0.019155 -1.178975 0.33787 0.129813 0.419246 0.436016 -0.013654 0.161133 0.305776 -0.036152 0.426088 0.371731 0.445166 -1.350642 -0.306067 0.631092 -0.007078 0.120035 0.185305 -0.093537 0.016793 0.11904 0.572033 0.112724 -0.21385 0.291383 0.20614 -0.660058 -0.117031 0.169776 0.225567 0.10988 -0.100341 -0.136473 0.327489 -0.455966 -0.321389 -0.106944 -0.210068 -0.436733 0.227836 -0.193322 0.245529 -0.006378 0.067485 -0.818496 0.243607 0.555065 -0.538145 -0.188448 0.112312 0.598142 -0.129717 -0.665484 0.400997 -0.125954 -0.30451 0.088894 0.053935 0.114987 0.074289 -0.198524 0.337512 -0.509087 0.670533 -0.334691 -0.181883 -0.124523 -0.37489 -0.782921 0.069251 0.360388
dollar 0.068938 0.727503 0.588857 -0.001784 -0.898475 0.328291 -0.301539 -0.177514 0.180554 0.299426 0.448101 -0.69793 -0.052488 0.408418 -0.734433 -0.644178 -0.386423 0.103425 -0.759824 -0.521321 -0.160643 0.99685 -0.62242 1.021581 -0.756314 -0.491475 0.588251 -0.479834 0.114687 0.193131 0.056497 0.07694 -0.091267 -0.56894 -0.669226 0.415145 0.583833 -0.161793 0.062019 0.707773 0.022562 -0.11165 -0.348562 0.007594 0.313856 0.497567 -0.192527 -0.030567 -0.564082 0.03779 -0.555674 0.073302 1.697409 -0.051023 0.891684 -0.120258 0.229429 1.245947 -0.444574 -0.77118 0.376963 -0.821438 -0.484824 -0.961393 0.007253 -1.686535 -0.241903 -0.56362 0.292684 0.382598 -0.145672 1.135045 -0.245177 -0.421294 -0.430982 0.194579 -0.640413 0.243811 -0.004028 -0.183002 -0.582934 -0.243221 -0.188434 -0.315612 -0.32812 -0.191947 -0.524468 0.922231 0.746963 -0.987936 0.678334 -0.568612 -0.05944 0.852569 -0.26309 -0.491098 0.086049 -0.487722 0.793346 1.049022
season 0.065722 -0.764608 0.192911 -0.176942 1.325876 0.554614 -0.825886 0.528083 -0.018474 -0.171208 0.340025 0.543006 -0.468235 -0.017376 -0.304819 0.134968 0.034196 0.83682 -0.06813 -0.268506 0.925885 -0.359923 0.721936 1.957836 -0.276016 -0.498175 -0.092093 -0.336233 -0.023722 -1.10649 -0.917982 0.709573 0.305193 0.236715 -0.014727 0.200396 -0.89658 -0.938196 0.573416 0.80223 -0.46577 -1.066841 0.324439 0.213678 1.036481 0.600295 -0.326272 0.03778 0.302117 0.110215 -0.048704 0.32284 1.017969 -0.159672 -0.190483 -0.13391 0.905038 0.728757 -0.953104 -0.857817 -0.603516 -0.557022 -0.083808 -0.287959 0.509144 -0.011338 1.756246 -0.680639 0.446323 0.118548 0.094891 1.397729 -0.769154 -0.816095 0.254868 -0.174123 0.433816 0.180814 -0.194011 0.613455 0.133278 0.105335 -0.471089 0.246324 -0.191473 0.035613 0.602078 0.057812 -0.258237 0.18319 0.661845 0.019789 0.093915 0.591198 -0.221664 -0.349476 -0.479495 -0.582888 0.985818 -0.379505
activity 0.080397 0.98345 0.237965 -0.149808 -0.383624 0.457911 -0.209535 0.560551 0.523958 -0.645798 -0.398735 0.312613 -0.030158 0.002418 -0.453978 0.156944 -0.301922 0.263698 0.295192 -0.221826 -0.265306 0.193953 -0.580371 -0.141539 -0.537 -0.859771 0.898754 0.46631 -0.103097 0.145313 0.096251 0.650016 -0.871566 0.062309 -0.284173 -0.652545 0.783072 -0.845732 -0.355837 0.507705 0.14062 -0.091231 -0.519796 0.614197 0.403937 0.637863 -0.169943 -0.142034 0.091307 -0.765326 -0.149127 -0.647019 0.333129 0.207036 0.477733 -0.019018 -0.215043 1.056099 -0.555624 0.368177 -0.708448 0.090164 0.160872 -0.489766 -0.612265 -0.31067 1.129883 0.203589 -0.151032 -0.281705 0.27528 0.377099 -0.740676 0.831254 -0.637877 -0.22062 0.313944 1.099298 0.218637 -0.22075 0.348878 -0.051269 -0.48675 -0.390654 -0.088775 -0.340031 0.206609 0.701181 -0.455561 0.365991 0.452838 -0.525941 0.05038 0.137494 -0.223204 -0.299728 -0.30759 -0.545754 0.512479 0.442507
car 0.554128 -0.345771 -0.259812 -0.036388 -0.229033 -0.319451 -1.229391 0.690101 0.445696 -0.10512 -0.041291 -0.350195 0.539833 -0.265717 -0.973882 -0.025216 0.049352 0.69304 -0.05897 0.344658 -0.008495 -0.222658 -0.99856 0.206057 0.175893 0.033574 0.219187 0.552722 -0.552891 -0.334067 0.061414 1.026969 -0.901287 -0.313865 -0.314773 0.082682 0.798126 -1.612296 0.485464 -0.246061 -0.142154 -1.023885 -0.026579 0.121267 0.794462 0.574696 0.500623 0.057209 0.694741 -0.377117 -0.211957 -0.677058 0.253757 0.335351 -0.694367 0.265742 -0.098755 -0.154398 0.089461 -0.195783 0.8415 -1.349748 -0.505117 0.394277 0.19091 -0.296202 0.514615 1.15318 -0.056573 -0.573673 0.196758 1.67517 -0.420159 0.165485 0.059155 0.168519 0.087851 0.451635 -0.188041 0.849683 0.143219 -1.042597 -0.190086 -1.703914 -0.396125 0.097101 -0.401846 -0.504866 -0.836526 -0.182357 0.60002 -0.519524 -0.638631 0.544593 0.434012 -0.508794 0.555669 -0.692779 0.188248 0.613773
valor -0.09142 -0.10179 -0.134134 0.004634 -0.201059 0.099875 0.32212 -0.131165 -0.348719 -0.140123 0.218164 0.131332 -0.202816 -0.538352 0.206009 0.310151 -0.034328 0.158587 0.010017 -0.330809 0.142738 -0.325288 0.028787 0.120435 -0.035731 -0.008923 0.472604 -0.171981 0.159483 0.073728 0.215001 -0.229225 0.204037 0.09484 0.079456 -0.321 -0.496887 0.066817 0.02443 0.290707 -0.301994 0.337785 -0.018877 -0.351961 0.219935 0.280431 -0.079122 0.181693 0.15846 -0.030395 -0.039746 0.09511 -0.031714 0.06133 -0.314652 -0.3503 0.059024 0.180608 -0.16378 0.488555 -0.388679 0.68604 0.366083 -0.390148 0.241488 -0.469454 -0.356447 0.107985 -0.048124 0.033683 -0.353597 -0.199316 0.170277 -0.254266 -0.090219 0.301549 0.325249 0.128531 -0.137501 0.335766 -0.111924 0.196381 0.230731 0.08504 -0.151117 0.213719 0.053863 -0.417814 -0.111063 -0.359384 -0.080066 -0.07837 -0.092037 -0.204478 0.211744 -0.140267 0.363695 0.114215 0.176055 0.271063
chord -0.374061 -0.12178 -0.357535 -0.032551 0.223798 -0.257034 0.278835 0.130061 -0.070364 0.195209 0.425003 -0.140015 0.013439 -0.061797 0.063141 0.109381 0.657441 0.306979 -0.887354 0.178859 0.141482 0.076827 -0.054484 0.290423 -0.047211 -1.055731 -0.098959 -0.662319 0.095278 -0.201688 0.1943 -0.423852 -0.031284 0.789623 0.204018 0.08436 0.197381 -0.435052 -0.746073 -0.060348 -0.595417 -0.924723 0.920489 -0.448933 -0.162689 0.292629 0.203809 0.142758 0.162658 -0.397793 -0.511307 0.117302 -0.805998 -0.027057 0.546431 0.006499 0.612655 0.281606 0.04139 0.379703 -0.236003 -0.745054 0.348807 0.455336 -0.337387 0.6673 -0.137481 0.147362 -0.054371 -0.077191 -0.372948 0.275795 0.427335 0.340641 0.159099 -0.464549 -0.307787 -0.030307 0.162381 0.014983 -0.557531 0.053992 -0.824728 -0.274325 -0.262209 0.251078 0.725752 0.044465 0.246919 -0.277241 0.586494 0.281252 0.219816 -0.190802 0.224606 -0.434012 0.041376 -0.236723 -0.237054 -0.131344
vodka 0.549672 0.161368 0.249909 0.061644 0.221096 0.319651 0.362772 -0.055753 -0.172595 -0.030377 -0.258202 -0.568997 0.215227 -0.17602 -0.341572 -0.323475 0.258497 0.117415 -0.132108 0.311996 0.371839 -0.082882 -0.642901 -0.315834 0.3543 -0.538797 -0.174895 -0.059269 0.137316 0.42261 0.032964 -0.246918 -0.200724 0.276395 -0.106844 -0.056015 0.155923 -0.183278 -0.322013 -0.149905 0.065303 -0.657088 -0.070657 -0.146522 -0.173089 -0.015367 0.41265 -0.056336 0.361235 0.339925 0.432236 -0.093765 0.225067 0.132084 -0.019982 -0.21326 0.286637 -0.008686 0.406781 0.595921 0.539547 -0.307609 0.022592 -0.228842 -0.085899 0.07115 -0.539166 0.122878 -0.256539 -0.224973 0.11675 -0.249028 0.115141 -0.01343 0.035291 0.640519 -0.123934 -0.295343 -0.208624 0.185758 0.143429 -0.399824 0.05735 0.180444 0.095589 0.231819 -0.092873 0.253624 -0.411948 -0.207129 -0.319625 0.404978 0.012146 -0.110038 -0.040367 -0.448723 0.286929 -0.167953 0.121409 0.327888
effort -0.295295 0.012941 0.109862 -0.483997 0.776874 -0.187877 -0.712986 0.381504 -0.322899 0.216597 0.804715 -0.34368 0.172637 0.691114 -0.398778 0.307085 -0.114749 -0.176237 -0.308654 0.374411 -0.72473 0.601431 -0.059445 0.745331 -0.393345 0.024624 0.228883 0.128509 0.349592 0.681118 -0.174394 -0.173255 0.06546 -0.466128 -0.449547 -0.140676 -0.64649 -1.234447 0.175266 0.469074 -0.045986 0.155229 -0.226649 -0.170187 0.632274 -0.026355 0.099469 0.005202 0.102157 -0.058112 0.011293 -0.540429 -0.029422 -0.400882 0.63032 -0.120773 0.135667 0.129308 -1.003469 -0.046081 0.036943 -0.370871 0.142321 -0.578835 -0.038705 0.517559 0.835134 -0.212019 -0.224361 0.304459 -0.852499 1.516075 -0.248566 -0.198328 -0.247729 -0.868813 -0.587641 1.060118 0.635904 0.038943 -0.052798 -0.084632 -0.410398 0.04132 0.777592 0.168778 -0.29133 -0.334024 -0.627227 0.340831 0.526754 0.467994 -0.41101 0.178766 -0.296896 0.086339 0.288472 -0.019289 -0.237351 0.515571
glass 1.035611 0.133507 -0.021232 0.496424 0.766998 0.267859 -0.336128 0.60948 0.198878 -0.519876 -0.673376 -0.417027 -0.141601 0.049155 -0.359702 -0.017071 -0.152759 -0.036499 -0.52337 -0.168811 0.642843 0.325521 -0.352585 -0.4367 0.174355 -0.42117 -0.70624 0.706627 -0.138925 0.463871 0.235731 -0.248733 -0.300211 0.457737 -0.093995 -0.011034 0.271 -0.348996 -0.056895 -0.665176 0.490538 -0.625484 -0.239037 0.162491 -0.829385 0.306342 0.862989 0.550267 0.471066 -0.123177 0.234351 0.621558 0.197443 0.466408 -0.324719 0.184336 0.356856 0.420046 0.263252 -0.178341 -0.205513 -0.635638 -0.402669 -0.023046 0.008584 0.804453 -0.388834 0.629046 -0.33926 -0.808321 0.587412 0.446439 -0.36272 -0.310901 0.359822 -0.126471 0.51592 -0.226029 0.048908 -0.385664 -1.004963 -1.512768 -0.498133 -0.126208 -0.480792 0.455373 -0.709172 0.650244 -0.682082 -0.1427 -0.594674 0.11367 0.185759 0.478966 -0.574597 -0.507356 1.033564 -0.950268 0.4524 0.98865
prominence 0.66244 -0.093857 -0.152191 0.37244 0.092149 -0.507757 -0.120382 0.09128 -0.78688 0.463384 0.922791 0.11226 0.218521 -0.220445 -0.11506 0.50837 0.491263 -0.084525 0.715552 -0.639171 -0.747422 0.355082 -0.021976 0.955181 -0.079122 -0.148705 0.567428 -0.6356 -0.043746 0.254866 0.358094 -0.049331 0.595051 0.179998 -0.40017 -0.425728 0.451798 -0.502865 -0.27625 0.096988 0.424279 0.396643 -0.3175 0.105837 1.10853 -0.223433 -0.244184 -0.469559 -0.236874 -0.012311 -0.612264 -0.189078 0.399409 -0.032113 -0.033522 -0.156216 0.2876 -0.370508 -0.034946 0.539871 -0.484543 -0.677673 -0.491403 -0.285881 -0.275059 0.190606 -0.114141 0.215875 0.447626 -0.702975 -0.011917 -0.013673 0.104222 -0.185669 -0.651604 -0.042945 0.540519 -0.394653 0.164147 -0.068428 0.233511 0.396699 0.53867 -0.138396 -0.292959 0.517253 -0.190722 0.23251 0.288877 0.03022 0.073352 -0.167376 -0.338455 0.87693 0.262744 0.36569 0.634858 -0.045249 -0.138611 0.21084
Mexico 0.353109 -0.695287 -0.451525 -0.360619 0.302934 1.362202 -0.880439 0.336666 0.29016 -0.698701 -0.351835 0.084753 0.094375 -0.089253 0.170337 -0.603928 -0.498191 0.526557 0.623677 0.339827 -0.318734 -0.261629 0.101343 0.664503 0.114832 0.554185 0.164001 -0.959711 0.1976 -0.134435 -0.465478 -0.053216 -0.017971 -0.195444 -0.076384 0.596375 0.379085 -0.667383 0.397532 0.372823 -0.738552 0.031637 -0.411525 0.500363 -0.256003 0.27416 -0.582596 -0.800179 1.031274 0.21502 -0.372137 0.484775 -0.320113 0.095482 1.040616 -0.182444 -0.266069 0.185127 -0.185338 -0.269382 0.286253 -1.024275 -0.841324 -0.519924 -0.249629 -0.27629 1.320632 -0.329234 -0.403618 0.353196 -0.304785 -0.128735 0.125899 0.192103 -0.435051 0.254111 -0.115475 0.604114 0.700449 0.034395 -0.154922 -0.217232 -0.250668 -0.009089 -0.230044 -1.274268 -0.076213 -0.206353 -0.166249 0.669506 0.098155 -0.257121 -0.072107 0.215873 0.055584 0.109186 -0.087715 -0.385997 0.854691 0.061806
CD 0.662223 0.441851 -0.057471 -0.089952 -0.359695 0.524983 -0.33433 -0.108568 -0.003527 0.068535 -0.314253 0.646554 0.325921 -0.228279 -0.636649 -0.167522 0.473286 0.295745 0.040721 -0.753643 0.712374 0.033263 0.293938 0.258155 -0.95003 -0.627213 0.059486 0.519573 -0.102875 -0.418299 -0.025785 -0.253743 -0.288713 0.424572 -0.015647 0.814871 -0.128256 -0.688615 0.05647 -0.073192 -0.326314 0.395044 0.044773 0.707513 -0.057686 0.599465 0.14529 -0.578258 -0.714792 0.218176 0.131781 0.103402 0.397272 0.195422 -0.224425 -0.105972 0.467754 0.415766 -0.858651 0.410601 0.051589 -0.090122 0.100915 0.091402 -0.401054 -0.678472 0.102453 -0.134522 -0.123795 0.095894 0.193001 0.411064 -0.296178 -0.539084 -0.34921 0.501815 0.340993 -0.417705 -0.103735 0.073587 -0.342542 -0.432353 0.416074 -0.282476 -0.672769 0.538849 0.255784 -0.007606 -0.034559 -0.521888 -0.245411 -0.290902 0.075804 -0.028007 0.527736 -0.278407 0.130447 -0.52916 0.418153 -0.198361
paper 0.225358 0.655259 -0.05713 -0.343591 0.076089 -0.193434 -0.74566 0.912384 0.206306 0.463591 -0.679602 -0.487543 -0.363626 -0.206615 0.165904 0.446956 -0.808899 0.352688 -0.413729 0.100133 -0.086718 0.257449 0.218017 0.594642 -0.609799 -0.386022 -0.105209 0.253504 -0.065355 -0.121738 -0.013547 0.208443 -0.344652 -0.409624 0.118224 -0.415294 0.27456 -0.265402 0.240309 -0.335768 0.494273 -1.654694 -0.249369 0.6636 -0.323902 0.463156 -0.010262 -0.595479 -0.714788 0.160694 0.262498 0.862724 0.061749 -0.293052 0.09749 -0.06759 -1.033373 -0.268453 -0.553847 -0.139084 0.385421 -0.150657 -0.691041 -0.73775 -0.14548 -0.228783 -0.233546 0.347981 0.198025 -0.70718 0.002471 0.945262 -0.734759 -0.545617 0.095597 0.031839 0.499228 0.08057 -0.420499 -0.7806 -0.348503 -0.816235 -0.040253 0.083985 -0.102107 0.124679 -0.323257 0.553734 -0.827216 0.142619 -0.111335 0.207572 -0.467614 -0.379657 -0.38878 0.920971 -0.058224 0.077816 -0.11597 1.187893
avenue 0.246591 0.144759 -0.159185 -0.296887 0.188636 0.058722 0.18267 0.165725 -0.4456 -0.279426 0.596976 -0.147881 0.296666 -0.243039 0.173531 -0.033516 -0.324411 -0.317033 -0.314066 -0.307245 -0.320439 -0.297086 -0.08616 0.227937 0.33825 -0.257148 -0.066187 -0.731011 -0.333154 0.06748 -0.132338 0.544856 0.291168 0.190538 0.169288 -0.276767 0.277822 0.481586 -0.470624 0.302114 -0.164183 0.176214 -0.291051 -0.220661 0.383302 -0.024775 0.456792 0.706384 0.2046 -0.562065 -0.267337 -0.400179 0.02342 -0.246842 -0.616909 -0.168593 -0.119743 0.129619 0.004152 0.138496 -0.491504 -0.021552 0.367892 0.099541 -0.321575 0.617065 -0.185689 -0.036063 -0.878092 0.449712 -0.224372 0.012933 0.107985 -0.201489 -0.224526 0.065029 0.008661 0.390691 -0.074714 0.271083 -0.2185 -0.128318 -0.295268 0.033251 -0.394549 -0.107519 0.327602 -0.326013 0.198463 0.500242 -0.212519 0.058195 0.238435 -0.262896 -0.097 0.356835 0.295878 -0.052713 -0.307675 0.632419
insurance 0.795631 -0.076299 -0.259194 -0.42345 -0.018801 0.216548 -0.570388 -0.094277 0.613791 0.146308 0.383466 0.001001 0.012417 -0.027897 -1.163258 0.104509 -0.082518 0.84317 0.135934 0.321401 0.187087 0.117056 0.248647 0.494099 -1.257587 -0.550624 0.365627 0.355944 -1.242739 0.29779 -0.926552 -0.297422 -0.666917 0.189894 -0.617384 0.412387 0.541287 -0.62016 -0.118003 0.070916 0.080971 0.059233 0.000544 0.065975 0.503564 -0.348777 -0.494689 0.366102 -0.038004 -0.398205 0.192673 -0.500085 1.241289 -0.659205 0.363398 -0.116161 -1.315573 -0.969494 -0.56568 -0.041708 0.179202 -0.677471 -0.735939 -0.122584 0.805431 -0.410513 0.464831 0.358512 0.264533 0.936246 -0.422615 1.322318 -0.788674 0.437344 -0.680186 -0.050978 0.132727 -0.350284 0.199786 0.084322 0.604799 -0.675457 -0.844258 -0.26886 0.791402 -0.054077 0.331186 0.14679 -0.361375 -0.070531 -0.324264 0.391347 -1.330982 -0.825879 -0.031675 0.318885 0.599225 0.17725 0.469093 0.865463
gender 0.137126 0.787428 -0.25701 0.76768 -0.763681 0.192196 -0.692158 0.307122 -0.282161 0.708203 -0.246434 0.659598 -0.743989 -0.447959 0.123689 0.230187 -0.743627 0.355047 0.616506 -0.087088 -0.696783 -0.889873 0.143807 0.350559 0.195207 -0.676692 1.40584 0.329934 0.970111 0.018926 0.111717 0.97862 0.227709 0.798193 0.248196 0.372374 -0.25512 0.037368 -0.238013 -0.298676 -0.244667 -0.003265 0.000364 0.574454 0.463547 0.261514 0.035827 -0.240863 -0.299687 -0.401158 -0.185294 0.509057 -0.538101 -0.584769 0.048524 0.739069 -0.823334 -0.242994 0.857147 0.557749 -0.45218 -0.024551 -0.343253 -0.034593 0.282619 -0.662204 -0.687159 0.162897 0.57679 -1.051633 -0.872989 0.701547 -0.704349 -0.004106 -0.375242 0.889403 -0.429738 0.306199 0.157654 -0.390691 -0.371779 -0.723728 -0.887781 0.318961 -0.092614 0.224935 0.727308 -0.649434 -1.267513 0.208671 0.352935 -0.646625 0.15738 -0.398175 0.072464 0.36811 0.475565 0.708574 0.098899 -0.522809
project 0.204055 0.288314 0.551438 -1.079459 0.407719 0.072553 -0.868442 0.23799 0.18699 -0.540262 -0.007616 -0.282514 0.186732 0.383021 -0.14618 0.158162 -0.445112 -0.26887 -0.089063 -0.745644 0.115412 0.864407 -0.206592 0.809612 -0.073097 0.553648 0.305594 -0.28574 0.142965 0.049018 -0.333542 0.119218 0.002342 -0.345622 -0.115883 -0.124332 -0.367624 -1.19108 -0.000489 -0.378472 0.463162 -0.131338 -0.360922 0.684473 -0.142433 0.599866 -0.450854 0.174341 -0.737797 -0.114299 0.403714 -0.619678 0.094541 -0.048717 -0.283114 0.21962 -0.017449 0.163576 -1.159043 0.043707 0.384902 -0.643113 -0.290468 -0.268011 0.125507 0.198372 0.218905 0.374022 -0.774818 -0.305282 -0.643843 1.218145 -0.165627 0.533777 -0.926741 -0.69477 0.314584 0.253826 -0.359166 -0.188365 -0.397332 -0.320416 -0.902617 0.283946 0.575411 -0.059728 -0.053164 -0.574322 -0.812269 0.961476 0.616583 -0.224194 0.012545 -0.021819 -0.005532 -0.102431 -0.217882 -0.38632 -0.23424 0.169569
maker -0.439674 0.332959 -0.005632 -0.504631 0.030757 0.355732 -1.671404 0.181707 -0.421718 0.201569 -0.68962 -0.597672 -0.294539 0.170538 -0.89042 0.080383 0.479193 0.3828 -0.322154 -0.280469 0.258959 0.039249 -0.254579 -0.035564 -0.675946 0.130223 0.646111 0.297669 -0.514531 -0.059806 -0.225163 0.21916 -1.322486 0.178213 -0.521708 0.582826 0.676414 0.274337 0.609609 -0.497096 -0.073653 -1.03453 0.052797 -0.550197 -0.567425 -0.717256 0.203367 0.324561 0.722148 -0.195942 0.016267 -0.14904 -0.41048 0.301991 0.292716 -0.057902 0.478924 -0.722038 -0.260761 -0.015219 1.540416 -0.126744 -0.950016 -1.000023 0.128102 -0.398608 -0.494017 1.076474 -0.110496 -0.365151 0.523449 0.849002 0.259664 -1.067139 -0.728285 0.094789 -0.265476 -0.1894 -0.927951 0.315099 -0.025576 -0.377739 -0.076405 -0.325832 -0.19212 0.255302 -0.494586 0.083716 -0.897885 -1.042227 0.540903 -0.455775 0.371105 0.489555 0.161975 0.071001 -0.6714 -0.79447 0.288813 0.765005
feline -0.17931 0.109963 0.086083 -0.279432 -0.105586 -0.133252 0.005191 -0.505714 0.007289 -0.046746 0.221904 0.034696 -0.260615 -0.267425 -0.244568 -0.025793 0.078909 0.040986 -0.188388 0.336742 -0.389278 0.387953 -0.122816 0.14206 -0.072739 -0.218102 0.137361 0.245495 -0.111505 -0.161838 -0.383468 -0.020626 -0.075059 0.028561 -0.246589 0.079935 -0.003166 0.009723 -0.377381 -0.355128 -0.030098 0.081177 -0.164332 -0.112523 -0.101565 0.247358 0.18315 -0.143006 0.12934 0.362455 0.363313 -0.171093 -0.244206 0.034612 -0.353558 0.193729 0.057021 -0.107562 0.206053 0.055895 -0.376438 0.170821 0.265206 0.138277 -0.049227 0.112625 -0.068769 0.154176 -0.324968 0.036719 -0.025311 0.034725 0.326832 -0.302612 0.103 -0.053263 -0.174717 -0.30902 0.157314 -0.209182 -0.271239 -0.222187 0.047514 0.154466 0.049435 0.272185 0.11709 0.191246 0.246172 -0.076031 0.187831 0.396897 0.273905 -0.329695 0.187592 0.160311 -0.109039 0.257235 0.18792 -0.204731
