437 100
clothes -0.012644 0.09484 0.014735 0.076694 -0.27766 0.065688 -0.060537 -0.09111 -0.011517 0.46811 -0.061237 -0.17786 0.19814 -0.1259 -0.58546 0.57259 0.37662 0.089151 0.19943 0.23913 -0.21723 -0.12174 -0.41703 -0.068471 0.0025001 0.43533 -0.13854 0.029108 0.17663 -0.187 0.25437 -0.046726 0.1183 0.13405 0.10294 -0.0099623 -0.40083 -0.0082615 -0.080994 0.1523 0.15886 -0.056239 -0.14932 -0.2472 0.035779 0.38749 -0.0016975 0.034144 -0.10621 0.53694 -0.22894 -0.4209 -0.24037 -0.27004 0.2028 -0.049521 -0.60498 -0.07305 -0.0030838 -0.11716 0.16818 -0.011476 0.28391 -0.071183 0.24209 -0.23027 -0.031139 -0.10902 -0.062615 0.31256 0.14024 0.20505 -0.082825 -0.050893 0.08915 0.1851 0.29652 -0.02287 0.091585 -0.20565 0.21638 -0.037068 -0.061553 0.086014 -0.087183 0.25814 0.52985 -0.39054 0.028335 0.014806 0.060349 0.035527 -0.10455 0.57568 -0.013241 0.32517 0.22572 0.11319 0.322 0.32193 
investigation 0.37524 0.19166 0.36151 0.3222 0.0084375 -0.40487 -0.42271 -0.11289 -0.1498 -0.35401 -0.12382 -0.13879 -0.19399 0.0049891 -0.10455 -0.22168 -0.067374 -0.33685 -0.27012 -0.06325 -0.23926 0.4931 -0.027988 0.19603 -0.11715 -0.13213 -0.16623 0.052852 0.15995 -0.18335 0.091285 -0.13208 0.014433 0.012257 -0.30903 -0.063895 0.10622 -0.44101 -0.23427 0.091607 0.083077 0.38035 -0.011423 0.17605 -0.24798 -0.17875 -0.25877 -0.016409 -0.069661 0.25832 0.11699 0.41045 -0.32346 -0.37335 0.071834 0.081501 0.32258 -0.048132 -0.25823 0.20949 -0.36953 0.43835 0.42645 0.05241 0.37377 0.49558 0.14332 0.43129 -0.42002 0.13472 0.30132 -0.011857 -0.33829 0.13396 -0.19554 0.38589 -0.03091 -0.34202 -0.066628 -0.42827 -0.51963 0.11699 -0.066155 0.038817 -0.08225 -0.16172 -0.27798 -0.18939 0.20381 -0.29774 0.0518 -0.13414 -0.13522 0.35821 -0.0986 -0.012636 -0.051746 -0.21394 -0.011849 0.03806 
serial 0.19355 0.039136 0.19921 0.23664 -0.14343 -0.41473 0.087914 -0.027537 -0.00071168 0.36523 0.33791 -0.12158 0.020605 0.07299 -0.42374 -0.16235 0.083916 0.061374 -0.20024 0.16331 0.21415 0.098937 0.29513 0.28616 -0.13559 0.25013 -0.10472 -0.38374 0.31211 0.023149 -0.01682 -0.032112 0.24745 0.34984 0.13762 0.03195 -0.2889 -0.046927 -0.18309 0.02588 0.33644 -0.03342 0.073894 0.088146 0.041349 -0.4427 -0.19762 -0.22687 -0.49316 0.062432 -0.14387 0.093003 -0.21367 -0.042048 -0.32044 -0.31624 -0.071943 -0.064967 -0.044236 0.60353 -0.4226 0.38988 0.31087 -0.19621 0.21059 0.401 -0.0065767 0.42148 -0.10289 0.31071 0.03259 0.1742 -0.12233 -0.37919 -0.2012 0.3637 0.17651 0.11206 0.068705 -0.16165 0.0091009 0.24817 -0.23665 -0.11671 -0.028112 0.34934 -0.16745 -0.092131 0.14239 -0.06922 -0.36199 -0.4391 0.12019 0.052318 0.25582 0.21153 -0.06701 -0.32689 0.1207 0.014155 
cash -0.027428 0.13038 0.55562 0.015632 -0.13286 -0.20131 -0.025029 -0.010792 -0.50831 0.04793 0.14767 -0.015776 -0.0111 0.097077 0.042567 0.34289 0.19143 -0.21498 0.043119 0.24817 -0.21725 0.5147 0.083665 -0.055385 -0.22911 -0.018836 0.11046 0.056931 0.21607 -0.1386 -0.092118 0.29109 0.3122 -0.04631 -0.16358 0.017322 -0.10813 0.041317 -0.077081 0.15012 0.04133 -0.18899 -0.44514 0.0014909 0.12678 0.21742 -0.051968 0.068188 -0.20081 0.2644 0.17098 -0.28708 0.03154 0.48522 0.53032 -0.081469 0.17918 -0.081249 0.20003 -0.34019 -0.13823 -0.22066 0.19793 -0.16797 0.20217 -0.54172 0.38262 0.092724 0.0039702 0.18394 0.024839 -0.021022 -0.43699 -0.050618 0.18085 -0.063778 0.23263 -0.018702 -0.23167 0.42819 0.064638 0.28917 0.36091 0.070664 -0.37585 -0.057578 0.30961 -0.15305 0.18608 -0.087138 0.035437 0.21285 0.10176 0.15105 -0.12588 -0.17879 0.28853 -0.38511 0.034 -0.10291 
television 0.25147 -0.020367 -0.080045 0.20104 -0.022839 -0.33079 0.14027 -0.13798 -0.22157 0.3164 0.1093 -0.51829 0.014047 -0.036436 -0.55125 0.11105 -0.073669 0.13627 -0.20071 -0.022114 -0.067487 -0.14511 0.10487 0.27704 -0.15199 0.166 0.15792 0.098941 0.17645 0.097341 -0.39522 -0.27894 0.089102 0.28915 0.46388 -0.12829 0.083488 -0.24611 0.12841 -0.36328 0.083709 -0.095846 0.052991 0.14387 0.013394 0.022827 0.36437 0.28208 -0.26035 -0.2699 0.055838 0.2487 0.25963 -0.18196 -0.039736 0.070812 0.32847 0.043955 0.3837 0.22596 -0.084818 -0.27776 -0.26731 -0.040498 0.44112 -0.13851 0.59091 -0.075268 -0.13547 -0.28058 0.16553 0.19086 -0.055431 -0.10327 0.11731 0.081958 0.097107 0.050072 0.13868 -0.15051 0.31825 0.15248 -0.28634 0.25665 0.48243 0.16114 -0.042244 -0.1995 -0.010707 -0.25772 0.2065 -0.44338 -0.058612 0.28657 0.38099 0.33054 -0.1495 -0.37131 0.58954 0.05668 
area 0.013224 0.14798 0.12229 -0.19611 -0.20928 -0.17085 -0.061378 0.030887 -0.10406 0.090752 -0.057301 0.069385 -0.3471 0.034453 0.19393 0.16198 -0.043142 -0.24725 -0.083149 -0.25592 0.0076089 0.089421 0.079699 -0.078061 -0.22139 0.19966 -0.089731 0.17698 0.18133 0.14141 0.061526 -0.35306 0.11659 -0.094003 -0.16714 -0.13977 0.083174 -0.054728 -0.10968 -0.086688 0.07532 -0.06915 -0.21558 -0.069435 0.22774 -0.0036359 0.077789 -0.045669 -0.025302 0.05482 -0.17675 -0.11105 -0.30688 -0.043772 0.02671 -0.070946 0.11377 0.15085 -0.205 0.16293 -0.20665 -0.25115 -0.20002 -0.32228 0.14426 -0.031894 0.043265 0.13284 -0.14974 -0.11416 -0.27335 0.092743 0.0036665 0.37391 -0.25939 0.21762 -0.077267 -0.053503 -0.015163 -0.13188 0.26729 -0.13047 -0.16411 0.29847 -0.20321 0.045702 0.023349 -0.21315 0.21817 0.24576 -0.15764 -0.33976 0.070044 0.059257 0.19158 -0.15641 -0.03082 -0.077134 -0.20281 0.41062 
memorabilia -0.086468 -0.24073 0.19247 -0.11184 -0.33744 0.14182 0.077627 -0.10817 -0.72999 0.34905 0.099774 -0.016307 0.0072926 0.23855 -0.70414 0.35585 -0.30473 -0.29751 0.04021 0.18346 -0.36501 0.032467 -0.67829 -0.055456 -0.032301 0.32425 0.18164 -0.11053 0.097199 -0.22372 -0.17259 -0.29296 0.47735 -0.17644 0.44679 0.53233 -0.42109 0.10296 -0.3804 -0.034438 0.058347 -0.17197 -0.26404 0.3278 -0.061218 0.18751 -0.13446 0.3361 -0.24547 0.53128 0.35406 0.055114 -0.37653 -0.10059 0.048232 -0.06918 -0.26141 -0.5373 -0.046608 0.032929 -0.049624 -0.1124 0.27681 -0.1233 0.56636 0.058014 -0.17853 0.13593 -0.227 0.44868 0.12101 0.0042933 -0.12506 -0.026425 -0.22271 0.14993 0.4773 -0.20458 0.16535 -0.27031 0.19332 -0.20131 0.18652 0.52549 0.28432 -0.024704 0.15033 -0.13688 -0.13363 -0.23695 -0.12608 -0.2777 -0.044573 -0.1615 -0.32389 0.11792 0.15604 -0.062622 0.38118 0.28217 
recognition -0.14884 0.2093 -0.11625 -0.087251 -0.31705 0.091247 0.19215 0.21906 0.16405 -0.07008 -0.1121 -0.25335 -0.16351 0.091555 0.33126 0.11169 0.20731 -0.15133 0.034819 0.1511 -0.042314 -0.072124 0.04733 0.14782 -0.053633 0.071314 0.1347 0.12887 0.18941 -0.056507 -0.27414 0.025591 -0.17065 0.32804 -0.30004 0.5278 0.059158 0.14105 0.018573 0.033835 -0.093924 -0.29195 -0.30136 0.0045309 -0.063794 -0.0038472 -0.10264 0.24471 -0.0079425 0.17309 -0.042846 -0.031589 0.14829 0.20254 0.30893 -0.4154 0.43443 0.12082 0.050805 0.030332 0.06896 0.049666 0.11941 -0.073762 -0.11465 -0.093688 0.18233 0.31525 -0.25551 0.28508 -0.1322 -0.14467 0.21697 -0.033977 -0.014643 -0.02295 0.21238 0.20728 0.10463 -0.40866 0.15926 -0.24955 0.0013397 -0.037216 0.27526 0.18029 0.0024559 -0.12585 0.27429 -0.19604 0.25839 -0.036354 -0.042673 -0.245 0.067809 -0.10857 0.14814 0.017497 0.3153 0.34861 
tableware 0.024436 -0.29596 0.32385 -0.05934 -0.025177 -0.13279 0.12303 0.18594 -0.1698 0.26873 -0.03613 0.043696 0.0025491 -0.2024 -0.027588 0.46157 0.15209 -0.070154 0.12693 0.19521 -0.25154 0.019946 -0.1385 0.13151 0.029208 0.38892 0.12282 0.10857 0.1635 -0.13954 -0.075977 -0.055684 -0.10247 0.36982 -0.17422 -0.071347 -0.086549 0.11263 -0.28128 -0.052181 -0.095677 -0.1053 -0.07916 0.33937 0.25683 -0.015979 0.16295 0.0807 -0.21489 0.6925 0.30124 0.27882 0.0080954 0.051026 -0.1344 0.25526 -0.32205 -0.33968 -0.14174 -0.23015 0.0018257 -0.13679 0.2813 -0.22438 -0.09644 -0.2899 -0.0019192 -0.15873 -0.26339 0.11729 0.11483 0.072591 -0.24348 0.12249 -0.049745 0.30349 0.056857 0.012331 -0.031939 0.0013855 0.16414 0.0092907 0.24062 0.25602 -0.16976 0.11476 0.33282 -0.38494 0.3272 -0.19497 -0.056624 0.010376 0.26049 0.23542 0.014975 0.023983 0.12493 -0.26645 0.13534 0.20187 
cat 0.069632 0.14228 0.14681 -0.34103 -0.051634 -0.048983 -0.027001 -0.10856 0.27698 0.38952 -0.12402 -0.1997 -0.1623 -0.083635 -0.53968 0.11768 0.35915 0.2888 0.081697 0.22737 -0.15474 0.09368 -0.073034 0.011869 -0.1208 0.33821 0.093119 0.029586 0.068737 0.18157 0.25481 -0.23501 0.29757 0.16838 -0.23783 0.0048293 -0.20325 0.17809 -0.235 0.24747 0.075043 -0.066119 -0.25969 -0.004115 0.13708 0.22134 0.1946 0.1853 -0.11543 0.39134 -0.12091 -0.18602 -0.0034437 -0.12265 -0.093641 0.0021085 -0.23873 0.12184 -0.048391 -0.16889 -0.082968 -0.04429 -0.2457 -0.096513 0.19744 0.04154 0.35782 -0.0023778 0.3118 0.38654 0.096465 0.21897 0.0045473 0.099197 -0.0083582 0.14074 -0.038027 -0.065041 -0.037796 0.082531 -0.17134 -0.26181 -0.1308 0.14677 -0.24939 0.26121 -0.048701 -0.23469 -0.24121 0.38098 -0.10285 -0.00027926 0.16884 0.085833 0.38672 0.49849 -0.073184 -0.17247 0.015635 0.21548 
record -0.04471 -0.24289 0.14986 0.0075718 -0.0097582 -0.29173 0.20365 0.10219 -0.049496 -0.039512 -0.12804 -0.24822 0.32976 0.043736 -0.090257 -0.32255 0.16887 -0.098588 0.088555 0.050498 -0.19089 0.16544 -0.41427 -0.20601 0.088763 0.12991 -0.094605 0.3852 0.092467 0.18469 -0.25706 0.097682 0.18915 -0.27902 0.013779 0.061105 0.22728 0.24583 -0.2671 0.12738 -0.026593 -0.086749 -0.10696 -0.11915 -0.063129 -0.35486 -0.28873 0.22651 0.037545 0.08217 0.03883 0.19812 -0.10487 0.021707 -0.16814 -0.15758 0.35331 0.36839 0.21379 -0.22927 -0.25529 0.038016 0.19975 -0.021732 0.24302 0.1329 -0.42495 0.060564 0.23885 0.033596 0.19138 0.084625 0.024956 -0.17795 -0.15389 0.35487 0.27136 0.034952 -0.23196 0.06709 0.14896 -0.34096 0.22221 -0.076473 0.16833 0.18713 -0.044138 0.23745 0.27764 0.16041 -0.037138 -0.21637 0.26981 0.075968 0.17495 -0.2173 0.013702 -0.12938 0.28935 0.23672 
office 0.057502 -0.10939 -0.030259 0.062069 0.051779 -0.18643 -0.20891 -0.22613 0.054374 -0.16535 -0.004186 0.28748 0.28103 0.18683 0.21576 0.34235 -0.030047 -0.19973 -0.11504 -0.083318 -0.25381 -0.020593 -0.16337 0.13255 -0.055297 -0.049873 0.17199 -0.012425 0.036596 -0.01784 -0.0078555 0.052483 0.36605 -0.0074851 -0.18492 0.2152 0.15481 -0.31625 -0.15664 -0.073317 -0.026957 -0.24344 -0.023598 -0.04771 -0.10549 0.089138 -0.071426 0.21398 -0.047943 0.39116 -0.18287 0.16537 -0.061916 0.02158 -0.095539 -0.11645 0.15184 0.092583 -0.25261 -0.0084175 0.022284 -0.14114 0.0049377 -0.080852 0.26785 0.092759 0.14873 0.26444 -0.20032 0.34906 0.44281 0.22265 -0.44864 0.22742 0.12288 0.38075 -0.061186 0.020865 0.15838 0.13321 0.13794 0.091708 -0.31919 0.20399 0.0024174 -0.022027 -0.081644 -0.098491 0.27928 -0.032605 0.28959 -0.6349 -0.029461 0.22281 0.1625 -0.08921 -0.28314 0.044312 -0.076638 0.21695 
moon -0.44516 -0.36742 0.35508 -0.26033 0.26515 -0.1701 -0.07085 0.17433 0.0039087 0.11234 0.10079 -0.41022 -0.40583 -0.13624 -0.18833 0.57219 0.054666 -0.40198 0.20918 -0.14714 -0.1704 -0.342 0.25059 0.86675 -0.045713 0.53945 0.0039158 0.049612 0.71799 0.1847 -0.21796 -0.021524 -0.023139 0.3316 0.086607 -0.25663 0.14757 -0.30871 0.12031 0.49105 -0.065558 -0.06444 0.291 -0.09879 0.23902 -0.17074 -0.19434 0.2307 -0.2649 0.22118 -0.093425 0.18095 0.32048 -0.0072134 0.67856 0.87877 0.23384 0.13601 0.46779 0.13483 -0.29191 -0.043125 -0.16986 -0.019003 -0.056846 0.38812 -0.31908 -0.34883 -0.039484 0.064775 -0.066833 0.18153 -0.57169 -0.081416 -0.86265 0.37515 -0.051083 0.4711 0.43363 -0.45797 -0.11719 -0.10096 -0.11915 -0.16427 -0.34079 -0.027155 0.34894 -0.45397 -0.052403 -0.019144 0.21067 0.2122 0.17008 -0.31308 0.14443 -0.00093651 -0.22635 0.38901 -0.0078758 0.26608 
combination -0.16851 0.012929 0.076213 -0.18563 -0.28951 -0.22127 0.14511 0.0095819 -0.12332 0.090176 0.24715 -0.11954 -0.16501 -0.22454 0.092488 -0.11452 0.19043 -0.21212 0.28403 0.19183 -0.29426 0.11836 0.20043 -0.17271 -0.33173 -0.032668 0.090518 0.16206 -0.017532 -0.15882 -0.031258 -0.081552 -0.14287 0.3646 -0.064378 0.060533 -0.013177 0.079336 -0.19778 0.10487 -0.056043 0.048312 -0.10076 0.065668 0.15194 0.12587 -0.17287 0.21988 -0.31949 0.20665 0.16015 0.10938 0.019176 -0.028411 -0.10626 0.22904 0.26992 0.0093364 -0.069312 0.064001 -0.03038 0.1674 0.31013 -0.17104 -0.037805 -0.10533 0.050873 0.044978 -0.093701 -0.083298 0.12489 -0.25044 0.09322 0.16831 0.21081 -0.0053819 0.042543 0.21765 -0.14393 -0.17936 0.11432 -0.1765 0.0048029 -0.11798 -0.039373 0.20746 0.096839 -0.1291 0.20773 -0.0050427 -0.06997 0.1165 0.28922 0.1293 -0.12799 0.025839 -0.043901 -0.056049 0.13728 0.12948 
importance -0.14801 0.17864 -0.062628 0.11953 -0.13873 0.05147 0.18 0.35372 0.13979 -0.025587 0.023022 -0.31475 -0.096878 -0.10367 0.0058702 0.011964 -0.14054 -0.1515 -0.29476 -0.070928 0.10194 -0.14564 -0.062139 -0.04918 -0.24472 -0.020831 0.059212 0.44315 0.14281 0.028526 -0.45856 -0.17215 -0.1094 0.3891 -0.045457 0.48341 0.16419 0.0037486 0.17483 0.070469 0.021889 -0.15817 -0.24521 -0.029281 -0.073964 -0.0051843 -0.10359 -0.094948 0.081483 0.21799 -0.097465 0.026168 -0.10602 -0.10397 0.024059 -0.070018 0.52445 0.18633 -0.073671 -0.35562 -0.054465 -0.097507 0.00143 0.2023 -0.18333 0.13338 0.041095 0.18393 -0.29392 -0.06865 0.059011 0.041207 -0.18626 0.15625 0.26244 -0.24781 0.019339 0.098612 0.07991 -0.37244 0.12369 -0.17097 0.13301 0.086952 0.039726 0.098603 0.016187 -0.13387 0.2413 -0.0035869 0.36343 0.10274 0.11466 0.083673 0.018536 -0.10574 0.10023 -0.15598 -0.083613 0.18209 
production 0.30288 -0.10707 0.23247 0.40878 -0.26327 -0.40629 0.16098 0.10297 -0.11655 0.19941 -0.016578 0.049515 0.10537 -0.1719 0.15036 -0.1118 -0.066861 -0.37646 0.19119 0.27669 0.13515 -0.17327 0.17939 -0.017925 -0.15586 -0.084018 -0.068516 0.28982 0.16606 0.25595 0.0094444 0.10508 0.2311 0.12149 -0.16554 0.044716 -0.20333 -0.27204 -0.03289 -0.25599 0.034765 -0.1184 0.13001 0.027828 0.16228 -0.015419 -0.02714 0.64281 -0.37484 0.53325 0.18083 0.1942 -0.073326 -0.020068 0.10796 0.28317 0.35575 0.0020117 0.046224 0.12558 -0.029419 -0.058842 0.23287 -0.24521 -0.3151 -0.20619 -0.20143 0.010446 0.047342 -0.407 0.1024 -0.11348 0.15529 0.074019 0.069493 0.19065 0.52862 0.28699 -0.062331 -0.00054792 0.45071 0.31396 0.099716 0.060919 -0.14551 0.13441 -0.14122 0.16501 -0.26716 -0.09346 0.10116 -0.1642 0.017031 0.061224 0.15636 0.2164 0.069646 -0.11108 0.18773 0.022092 
conclusion 0.24733 0.092668 -0.053088 -0.15028 -0.046029 -0.38141 -0.18512 -0.10892 0.15445 -0.23611 0.078343 -0.45495 -0.14165 0.05771 -0.096853 -0.085361 -0.06015 -0.16663 0.040394 -0.046115 0.0078586 -0.0048235 0.11715 0.073204 0.18504 0.098797 0.11545 0.021909 0.24688 0.049372 0.018831 0.16012 -0.087888 0.31191 0.092048 0.23118 0.11037 0.031977 0.17043 0.072693 -0.25869 0.045853 -0.0439 0.15239 -0.092147 0.045856 0.026925 0.43291 -0.11245 0.25475 0.13507 0.16334 0.24613 -0.01044 -0.0022116 -0.33803 0.31853 0.31107 -0.2431 0.16625 -0.41292 -0.03421 -0.027932 0.028457 -0.24059 0.16601 -0.11575 0.27208 -0.15898 0.044184 0.1838 -0.11477 -0.1173 0.030333 -0.0062576 0.056691 -0.16674 -0.11464 -0.053914 -0.18624 -0.12566 -0.083126 -0.090203 0.068309 -0.16523 -0.05265 0.017046 -0.31023 0.078603 0.0098453 0.15191 0.24583 0.14378 -0.02122 0.13334 -0.41945 -0.35252 0.071222 -0.097977 0.24955 
drought -0.29785 -0.1451 0.16463 -0.2605 -0.022944 -0.11452 -0.0036673 -0.41604 -0.21252 0.078127 -0.13918 -0.18146 0.039576 -0.38882 0.53262 -0.32163 0.069546 -0.4007 0.39336 0.12133 0.071542 -0.073755 0.18924 -0.36032 -0.23379 0.024167 0.013548 0.18164 0.46119 0.019732 0.29839 -0.41089 -0.12418 -0.060842 0.045906 0.20709 -0.34202 -0.29061 -0.49479 0.14261 -0.26082 0.18948 -0.35256 -0.11754 -0.15165 0.10324 0.11674 0.25106 -0.53214 -0.1485 -0.098327 0.5739 -0.098558 0.0076858 -0.16065 -0.21974 0.56835 0.70131 0.30242 0.30726 0.16757 0.0089615 -0.31083 -0.069462 0.39328 0.14275 -0.65124 -0.11176 0.38423 -0.21205 -0.41475 -0.52718 0.34306 -0.16028 -0.25467 -0.11242 0.27041 0.045449 -0.37969 0.22508 -0.033352 -0.29063 -0.052994 -0.55415 -0.0017153 0.056274 -0.011629 -0.043892 -0.10128 -0.0035367 -0.33852 -0.0043203 0.51394 0.31521 0.14709 0.26364 0.17698 -0.21254 -0.18402 0.11749 
consumer -0.009379 -0.51416 0.10048 0.17333 0.0075653 -0.086054 0.024692 0.095272 -0.12742 -0.31737 -0.25272 -0.26586 0.25606 -0.38542 0.034436 0.044095 -0.35542 -0.19242 0.20798 0.055591 0.076704 0.03603 -0.16849 0.17173 -0.28133 0.20722 -0.46913 0.21593 0.11192 0.21581 0.099457 -0.04304 -0.17562 0.43316 -0.053201 0.23566 0.033342 0.18041 -0.16524 0.094416 0.063972 0.043302 0.024764 0.306 -0.37776 0.15701 -0.37663 0.068925 -0.49206 0.30422 0.1505 0.045235 -0.18478 0.24899 -0.051678 0.070738 -0.037181 0.24377 0.038226 -0.42419 0.062267 0.12467 0.040696 -0.15705 -0.2235 -0.23937 0.06683 0.067745 -0.17527 -0.29788 -0.19761 -0.084874 0.017235 0.15787 0.54683 -0.16012 0.13756 0.04083 -0.47062 0.021992 0.13414 0.15987 -0.1379 0.30128 -0.15863 0.64663 0.35545 0.0054608 0.25253 0.11848 0.093314 -0.094071 -0.36833 0.45241 0.19058 0.32983 0.045393 -0.33483 0.6891 0.25297 
isolation -0.090756 0.39454 -0.16207 -0.09019 -0.29523 -0.027076 0.035907 0.12156 0.15409 -0.17445 -0.019091 -0.079295 0.12957 0.037717 0.16607 0.31718 0.24448 -0.51878 -0.19486 0.098378 -0.13993 0.074666 0.25297 0.043836 -0.053432 0.28262 -0.035417 0.30424 0.12811 0.080849 0.054979 0.11189 0.064821 0.64928 -0.33217 0.41386 -0.20661 0.12317 -0.019575 0.29619 0.35515 -0.15447 -0.0811 -0.16243 0.0081978 0.10691 0.038438 0.17745 0.053681 0.0064838 -0.14642 0.30869 -0.078526 -0.016303 0.1895 -0.002981 0.49917 0.24023 0.12907 0.25972 -0.14713 0.036275 -0.32037 -0.068489 -0.072669 0.31171 -0.042345 0.34535 -0.14601 -0.15698 0.036261 -0.1371 0.2096 0.23225 0.35575 0.032609 0.20606 0.14879 0.087383 -0.13956 0.06069 -0.07873 -0.26046 -0.23225 -0.020142 0.19469 0.1075 -0.30251 0.078449 -0.17087 -0.21426 0.35 0.19892 0.032158 -0.096541 -0.035568 0.17415 -0.13067 -0.063862 0.054876 
food -0.10411 0.012289 -0.04401 0.10001 0.26842 -0.080828 0.087698 0.24514 0.00024148 0.40269 -0.11561 0.15553 0.19218 -0.40576 -0.063071 0.079388 0.0080202 -0.23278 0.16022 0.099901 -0.15628 -0.17182 -0.19964 -0.17876 -0.34162 0.36243 -0.20761 0.55823 0.12083 0.15414 0.34436 -0.12147 0.13951 0.30107 -0.25993 0.18589 -0.1714 -0.046239 -0.27759 0.16113 0.28856 -0.14187 -0.18037 0.052211 -0.17578 0.47404 0.10792 0.17631 -0.38394 0.27909 0.1674 0.30517 0.0707 0.065361 0.36154 0.31079 -0.0096442 0.42193 -0.11454 0.0099286 0.29741 -0.15845 0.2697 -0.0059559 -0.099672 -0.20804 -0.13122 0.10436 -0.093086 0.10042 -0.076321 0.12758 0.29402 0.062753 0.18643 -0.13882 0.29531 -0.073051 -0.31389 0.13899 0.044565 0.070747 0.23833 -0.040496 -0.21316 0.13026 0.17483 -0.10777 -0.18461 0.17623 -0.10396 -0.079833 0.034049 0.68546 0.37201 0.24867 0.15218 -0.2923 -0.12029 0.091311 
territory 0.10393 -0.091071 0.067421 0.017772 -0.2262 -0.24178 0.083435 -0.059809 -0.20844 -0.091492 -0.11704 -0.28208 0.096762 0.16612 0.25605 0.22972 0.10647 0.10524 -0.1796 -0.3391 0.077539 -0.12586 0.10847 0.081154 -0.28039 0.11438 -0.23233 0.32464 0.58082 0.52839 0.099556 -0.2312 0.13576 0.0138 -0.02623 0.076817 0.075376 0.29034 -0.19156 0.2919 0.3133 -0.012735 -0.29693 0.21598 0.27636 0.19502 -0.3079 0.10807 0.39744 -0.26362 -0.29067 0.054791 -0.05747 0.26485 -0.03129 -0.12737 0.15172 0.39124 -0.024764 -0.10182 -0.48739 -0.20135 -0.052507 -0.37969 0.062544 -0.14152 0.15281 0.17952 -0.16729 -0.094854 0.066601 -0.13131 0.29626 0.46281 -0.27572 0.13504 -0.026769 0.33377 0.042179 0.044298 0.021306 0.14893 -0.088876 0.11212 -0.19489 -0.2396 0.11578 -0.57618 0.16677 -0.066489 0.030218 0.11483 -0.20905 -0.0070511 -0.036074 -0.055041 0.052096 -0.013789 0.079812 0.1427 
row 0.12467 -0.1774 -0.10785 0.039778 -0.021131 -0.042402 0.1256 -0.37872 -0.056652 -0.0057451 -0.14177 -0.15302 0.15727 -0.48456 0.17093 -0.050312 0.22304 0.10802 -0.31446 0.009247 -0.055161 -0.22484 0.0037609 -0.033833 0.13062 -0.011698 0.048526 -0.13033 0.25033 0.011014 -0.40949 0.10863 0.13213 -0.14262 -0.24083 0.0080888 -0.21282 0.035813 -0.20909 -0.32616 0.033351 0.063257 -0.081385 -0.17356 0.21396 0.25345 -0.17172 -0.11798 0.018204 0.08212 -0.064767 0.37452 -0.11496 -0.23753 -0.0025921 -0.047237 0.38245 0.088587 0.34035 0.2044 -0.25689 -0.15602 -0.015912 0.036699 0.2007 0.14819 -0.03754 -0.0077135 -0.12212 0.036624 0.30495 0.013285 0.25704 -0.012728 -0.3432 -0.024339 -0.037907 -0.20469 -0.18123 0.23072 -0.010049 -0.030297 -0.43454 -0.36489 -0.12336 0.18335 -0.034253 -0.30385 0.50766 -0.099981 -0.011809 -0.15021 0.3798 0.21346 -0.075208 0.088744 -0.10722 0.0013581 0.19252 -0.022109 
lawyer -0.13757 0.10053 0.068362 0.23274 -0.048754 -0.18552 -0.033669 -0.21114 -0.4371 -0.12489 -0.13595 -0.31672 0.11718 0.24039 -0.10605 -0.08801 -0.29937 0.13147 0.092083 -0.068373 -0.097467 0.29793 0.065771 -0.0023632 -0.051484 -0.028291 0.51998 -0.098262 -0.1637 0.30894 0.21013 -0.053567 0.13392 0.35267 -0.1808 0.7577 -0.027252 -0.067289 -0.19629 -0.14191 0.18266 0.31458 0.15848 -0.12062 -0.47546 0.10926 0.38469 0.12805 0.028209 0.38383 -0.38643 -0.1808 -0.017294 -0.066999 0.00063205 -0.24718 0.044778 0.11234 -0.45982 0.046108 0.026373 0.44173 0.048906 0.063249 0.1256 0.10919 0.1033 0.17403 -0.096564 0.20001 0.28955 0.25033 -0.31508 0.31245 -0.1745 0.4794 -0.010552 -0.16563 -0.0091668 -0.14817 -0.13198 0.052143 0.053834 0.090517 0.16904 0.12957 -0.38355 -0.095617 0.47666 -0.021852 0.094302 -0.15306 -0.21177 0.089165 -0.058617 0.13384 -0.37553 -0.062228 -0.092757 -0.28773 
implement -0.062737 0.094723 0.25303 -0.013094 -0.060506 -0.11459 0.12548 -0.020666 0.23913 0.17357 -0.088413 0.14518 0.10436 0.051806 0.60966 -0.089079 0.16564 -0.4478 -0.33701 0.08308 0.050879 0.28769 -0.009977 -0.025125 -0.20716 -0.12559 -0.087491 -0.36538 0.11453 -0.003835 0.34666 0.060257 -0.17504 0.52998 -0.27472 -0.11354 0.19599 0.03378 -0.083288 0.042836 -0.26305 -0.34584 -0.0083164 -0.14141 -0.34766 -0.054204 -0.19463 0.27701 -0.00043207 0.10244 -0.11492 -0.095751 0.092853 0.15109 0.19868 -0.022571 0.26146 -0.051429 0.099033 -0.19801 -0.10301 -0.10868 -0.12755 -0.32225 -0.12512 0.19203 0.24236 0.10785 -0.47186 -0.10125 -0.017266 -0.29068 -0.15634 0.26525 0.31946 0.14852 0.0049349 0.011519 -0.49813 -0.386 -0.09374 0.14811 0.31558 -0.25867 0.04081 0.07617 -0.12268 -0.23344 0.20452 0.030443 0.35196 0.099616 -0.11377 0.23294 -0.01646 -0.20706 0.041957 -0.22274 0.10397 0.17338 
deployment -0.012006 -0.072715 0.1741 0.32175 -0.32926 -0.40253 0.30873 0.40747 0.13161 0.026033 0.11451 -0.23721 -0.2875 0.10576 0.4645 0.090735 0.20716 -0.4732 0.10967 0.05271 0.3121 0.17294 0.11735 0.43634 -0.18638 -0.43786 -0.24815 -0.13657 0.069602 0.1512 0.553 0.035021 0.11073 0.33084 -0.25726 -0.10537 -0.3551 -0.10036 -0.062869 0.22709 -0.059896 -0.33515 0.24845 0.038867 0.13017 0.0067363 -0.054795 0.12717 0.13523 -0.24374 -0.28163 0.46273 -0.21205 0.19969 0.24487 0.10777 0.42544 0.0012196 0.10813 0.1767 -0.10833 -0.01578 0.087565 -0.2676 -0.11817 -0.092852 0.22398 0.23739 -0.40334 0.059851 0.15283 -0.1688 0.18451 0.33137 -0.16249 -0.069994 0.0048695 0.1042 0.20165 -0.12706 0.094946 0.20547 0.13228 0.13796 -0.038587 0.34257 -0.21429 -0.19886 0.32085 -0.28356 0.54153 0.08891 -0.028138 -0.022858 -0.0051802 -0.267 0.19882 0.19038 0.033863 0.32177 
month 0.10571 -0.11518 -0.048648 -0.035185 -0.011533 -0.3616 -0.011571 -0.34358 -0.068185 -5.1657e-05 0.0015694 -0.23069 0.097086 -0.030325 0.040787 0.079614 0.19067 -0.29312 0.12451 0.10643 0.049455 -0.090851 -0.12182 0.14346 0.20851 0.19555 0.17441 0.071275 -0.00051182 0.09739 0.29296 0.32289 0.25919 -0.064067 0.038627 0.11729 -0.017461 0.064694 0.079307 0.050389 -0.24816 0.0597 -0.16912 0.14456 0.065656 0.073635 -0.29065 0.47243 0.19425 0.0040799 -0.080867 0.36776 -0.27812 -0.047433 -0.049862 -0.18379 0.086651 0.11727 0.18018 0.27389 -0.25468 -0.18694 -0.17397 -0.067015 -0.0038836 -0.015802 -0.12681 -0.008186 0.01123 0.065108 0.3597 -0.031903 0.14445 0.099651 0.05946 0.067842 -0.24255 -0.0086797 -0.65 0.2977 0.17443 0.11294 -0.20557 0.37133 -0.099884 0.035929 -0.4499 0.051884 0.165 0.22996 0.10707 -0.058849 0.10645 0.18433 0.055948 -0.13174 -0.09313 -0.28457 0.19955 -0.093195 
substance -0.25554 0.21705 0.083782 0.24539 -0.17251 -0.30166 -0.19232 0.12697 -0.18428 -0.16335 0.40067 0.16931 0.01189 0.21185 -0.29605 0.038382 -0.20984 -0.45232 -0.27487 0.11804 -0.37923 -0.036675 -0.084956 0.192 -0.065188 0.2766 0.15369 0.26577 0.02358 -0.045834 0.00044618 0.024688 0.17608 0.38049 0.012945 -0.015187 0.12683 -0.29051 -0.052051 0.33688 0.21562 -0.062193 -0.3916 0.2453 0.28086 0.15207 0.16257 -0.12156 -0.25991 0.43313 0.19125 0.041281 0.1705 -0.028998 -0.08072 0.23387 0.31686 0.18745 -0.20021 0.42477 -0.22983 -0.12321 0.25537 -0.36097 0.14158 0.44768 0.19235 0.047433 0.11749 0.5114 0.27395 -0.23745 -0.035369 0.23026 0.19725 -0.13384 0.013867 0.2121 0.18705 -0.35926 -0.24622 -0.23987 0.10001 -0.44354 -0.26654 0.05333 0.31049 -0.12252 -0.019386 0.24107 0.17565 0.11551 0.43656 0.029917 0.065048 0.31122 -0.04809 -0.1155 0.041934 0.2451 
world 0.0030715 0.24509 -0.14336 -0.060201 -0.048603 -0.03798 -0.072884 0.29331 0.072587 -0.09934 0.14778 -0.20981 -0.067081 -0.21012 0.14131 0.25504 -0.17992 -0.024106 0.043195 -0.1401 -0.065118 -0.1168 -0.011466 -0.034253 0.010881 0.10894 -0.19859 0.30826 0.23506 0.12907 -0.45215 -0.068579 -0.11217 0.19865 -0.040744 0.19999 -0.082374 0.11116 -0.57468 -0.0061122 0.030309 -0.29289 0.10529 0.25482 -0.18629 -0.09076 -0.0065864 0.30718 0.072771 0.35279 -0.040114 0.21837 -0.1028 0.024672 0.027537 -0.16991 0.24877 0.081334 0.366 -0.21134 -0.101 0.20144 -0.085167 0.0057314 -0.070914 0.07985 -0.25765 -0.14012 -0.16662 -0.015996 -0.0027937 0.44452 0.13449 0.024036 -0.011559 -0.041627 0.30116 -0.026558 -0.10937 0.13561 0.076453 -0.23573 0.096281 0.11658 0.17646 0.11755 -0.02505 -0.084922 -0.002369 0.21147 -0.056119 -0.060081 0.26488 -0.19985 0.2052 0.13917 0.44179 -0.19185 0.23128 0.18202 
rooster -0.15726 0.082582 0.09176 -0.34778 0.26079 -0.19563 -0.0027447 -0.13965 -0.13193 0.20149 0.09234 0.027655 -0.17967 0.031903 -0.53104 0.29339 0.28904 -0.0010271 0.20225 0.094552 -0.08732 -0.17189 0.16157 0.21244 -0.12736 0.41109 0.32679 0.17776 0.33811 0.033096 -0.068866 0.14578 0.28141 0.50389 -0.31942 -0.046811 0.23991 0.22787 -0.014554 0.27876 -0.18215 -0.087846 -0.13623 -0.15966 0.19376 -0.0062345 0.29501 0.26334 -0.337 0.037935 -0.2796 -0.10685 0.39614 -0.22221 -0.0044122 0.41993 -0.1705 0.031032 -0.29505 0.096636 -0.15097 -0.25966 -0.11397 -0.18928 0.26908 0.2047 0.021564 -0.39159 0.26433 0.44763 0.09986 0.47021 0.081949 0.2015 -0.33491 0.14558 0.036624 0.1433 0.012535 0.1535 -0.072665 0.21172 -0.23903 -0.014894 -0.21563 -0.05531 0.18262 -0.27361 -0.21975 0.30056 -0.25063 0.19386 0.065039 0.15423 0.080122 0.083636 0.24827 0.21933 -0.24827 0.061999 
preparation -0.24137 -0.0059004 -0.095243 0.088866 -0.21503 -0.19193 -0.039322 0.1081 0.067584 0.26778 0.14076 -0.20111 0.072226 -0.092276 0.046335 -0.0388 0.20311 -0.47913 0.22831 0.38298 -0.021602 -0.056126 -0.068145 0.12899 -0.0033606 0.11149 -0.027289 -0.12794 0.15901 -0.055788 0.17107 -0.1117 -0.20848 0.27183 -0.14852 0.038773 0.032541 -0.17732 0.14343 0.082775 0.067512 0.038494 0.064659 0.0985 0.12281 -0.052998 0.042994 0.15164 0.027889 -0.031752 0.1364 0.37256 -0.016713 -0.10026 0.088787 0.027886 0.21444 0.075929 0.016197 -0.01983 -0.12237 -0.11877 0.14533 -0.10301 0.12644 0.089655 -0.096602 0.10195 -0.2677 0.14067 0.16646 0.043716 0.084469 0.24894 0.1243 0.088558 0.26924 0.055346 -0.15341 -0.25889 0.036611 0.062015 -0.013143 0.075443 -0.0098418 -0.11116 -0.14258 -0.04148 0.12417 0.093502 0.15689 0.19466 0.12348 0.25528 0.11655 -0.18098 -0.1568 -0.10573 -0.085005 0.026652 
Harvard -0.034794 -0.14146 -0.15959 0.36121 -0.41968 -0.1298 0.013406 0.010898 0.18825 -0.73203 0.079006 0.053022 0.20899 -0.032177 -0.053101 -0.073911 -0.56879 0.31844 0.022991 -0.050776 0.43187 -0.13366 -0.1319 0.13278 -0.36445 0.26336 0.31992 -0.10053 -0.12215 -0.15933 0.19689 0.13753 -0.38395 0.33675 -0.35422 0.60227 -0.68287 0.95721 0.23121 -0.56252 -0.42346 0.51881 -0.04824 0.32104 0.050786 -0.32156 0.16499 0.61017 -0.47609 -0.32507 -0.4985 -0.28222 -0.13602 0.073118 0.41784 0.012019 0.12158 0.19486 -0.045308 0.14618 0.69303 -0.18701 0.66682 0.40029 -0.1054 0.38028 0.10943 -0.25997 -0.058752 0.29823 0.10889 0.19452 -0.011063 -0.28332 0.13256 0.1426 0.269 0.02499 0.23429 0.099832 0.35683 -0.53399 -0.59464 -0.078346 -0.23154 0.16959 0.04869 -0.6568 -0.20123 0.10729 0.24931 -0.45511 0.1778 0.26512 -0.21445 -0.50022 -0.0085017 -0.32385 -0.1036 -0.17789 
brother -0.27019 0.37576 -0.0073148 -0.070814 -0.10461 -0.29478 -0.093138 -0.47305 -0.33473 0.45518 -0.078802 -0.21646 -0.28799 0.079384 -0.2833 0.3076 0.032737 0.11341 -0.10667 -0.2198 0.073145 -0.036797 0.12797 0.16206 -0.14252 -0.14964 0.14158 -0.19241 -0.066793 0.45318 -0.28794 0.21333 0.22088 0.29812 -0.10569 0.47591 -0.014924 -0.14101 -0.38464 -0.14882 0.070818 0.20395 0.22081 -0.26955 0.17557 -0.021757 0.0036555 0.086951 -0.34534 0.10575 -0.31049 -0.17211 -0.11466 -0.28456 0.14206 -0.34951 0.033504 -0.12973 -0.26383 -0.12792 0.37364 0.15385 -0.046437 0.091507 0.24099 0.30677 0.071075 -0.30953 0.20824 0.43213 0.38502 0.096004 -0.027616 0.4794 -0.020302 0.15496 -0.19306 0.08032 0.14629 0.1761 -0.11137 0.12994 0.044097 0.053497 0.089346 0.53472 -0.095665 0.20188 0.021999 0.20208 0.074969 0.0013757 -0.30187 0.027408 -0.30663 0.17466 0.12567 0.057514 0.08586 -0.003142 
day -0.1039 -0.1416 -0.3246 -0.025064 -0.0081422 -0.19335 -0.20055 -0.094752 0.026445 0.21917 0.18366 -0.3085 -0.20453 -0.07757 -0.10795 0.094685 0.29975 -0.23501 0.20122 0.23351 0.007046 -0.12662 -0.035793 -0.049079 -0.056454 0.065378 0.14983 0.091821 0.0015568 0.020205 0.0374 0.19274 0.10706 -0.11212 0.005313 0.17741 0.084125 -0.019105 -0.038743 0.024973 -0.12435 -0.04259 -0.064825 0.095985 0.13105 0.013929 -0.12828 0.39497 0.22054 -0.016469 -0.17016 0.34219 -0.072461 -0.021869 0.16949 -0.045606 0.21043 0.12281 0.069019 0.26699 -0.21084 -0.15431 -0.13635 0.03902 0.071724 0.02054 -0.066144 -0.22187 -0.017736 0.074641 0.26525 0.32089 0.098904 0.24747 0.063601 0.2 -0.13645 -0.026338 -0.11286 0.26767 0.18764 0.071256 -0.065283 0.11769 -0.21037 0.062981 0.02296 0.098724 0.098381 0.086842 -0.10436 0.048525 0.12988 0.34788 0.42245 -0.20107 -0.14242 -0.1261 0.079448 0.0017241 
mouth -0.045814 0.12519 -0.075759 0.064383 -0.40318 -0.17918 0.068694 -0.20088 -0.032794 0.10366 -0.0031382 -0.27039 -0.15973 -0.12064 -0.36633 0.2666 0.49664 0.16371 -0.19249 0.21504 -0.1388 -0.30033 0.47363 -0.26556 -0.23778 0.061682 0.0098193 -0.051132 -0.06087 0.10747 -0.017423 -0.22335 0.26481 0.079665 -0.33645 0.015278 -0.19724 0.13553 -0.18692 0.24378 -0.081874 0.079575 -0.079608 -0.24057 0.033621 0.50862 -0.02082 0.27935 -0.13267 0.65857 -0.11698 -0.045815 -0.10741 0.10101 -0.23536 0.10664 -0.12337 0.12064 -0.33512 -0.081646 -0.13362 0.023185 -0.40486 0.081372 0.31248 -0.11214 0.20577 -0.30418 0.10936 0.19842 0.14487 0.36448 -0.15781 -0.26366 0.1033 0.27121 0.10634 0.35287 0.28279 0.031135 -0.43736 -0.17262 -0.38975 0.091819 -0.40864 0.37901 0.034416 -0.052165 -0.4457 -0.037682 -0.18178 0.11712 0.15072 0.09797 0.21586 -0.12752 -0.19141 -0.40421 0.16331 0.2902 
magician -0.073052 0.28206 -0.12516 -0.10887 -0.17581 -0.32751 -0.036446 -0.42002 -0.32041 0.33081 0.24244 0.04499 -0.091902 -0.074899 -0.57427 -0.061579 0.1242 0.035472 0.17752 -0.03669 -0.066409 -0.11918 0.41593 -0.084309 -0.10169 -0.074268 0.31979 -0.042427 0.017899 -0.030268 -0.15319 -0.35411 0.093604 0.46747 0.21918 0.62057 0.17609 0.32062 -0.0020695 -0.30364 0.16887 -0.18467 0.059191 0.13689 0.11084 -0.067057 0.15596 0.24067 -0.013194 0.28443 -0.30016 0.067423 0.23541 0.24462 0.22982 0.021947 -0.27267 -0.12302 0.14221 -0.10634 -0.16713 0.094137 0.29043 0.035781 -0.0039804 0.14876 -0.045818 -0.20483 0.3273 0.26825 0.1886 0.15509 -0.34636 0.0546 -0.007071 0.12133 0.054935 0.13404 0.30312 -0.13376 0.095191 -0.13027 0.24532 0.17314 -0.23678 0.47714 0.011358 -0.09471 -0.17292 -0.15929 0.22414 -0.29169 0.068899 0.19037 0.034819 0.41132 -0.20737 -0.27034 0.3804 -0.070438 
stroke -0.43809 0.3178 -0.1941 0.14801 -0.63926 -0.0021149 0.13603 -0.6945 0.12802 -0.2166 -0.032327 -0.13281 -0.36016 -0.38375 -0.083103 -0.24637 0.44168 -0.087928 0.19009 0.16006 0.15789 0.034233 0.51919 -0.2747 0.20905 0.11068 -0.16383 0.15752 -0.065241 0.13912 -0.32344 0.013306 -0.025184 0.37607 0.14141 0.41127 0.28261 0.0016034 -0.35592 -0.28282 0.016916 -0.0034227 0.065082 -0.37225 -0.15689 0.24507 -0.20839 0.36278 0.15727 -0.012828 0.31322 0.34239 -0.29008 -0.10702 -0.45898 0.50442 0.3493 0.03622 -0.15174 0.25835 -0.024828 -0.057032 0.36112 -0.20967 0.57993 0.22321 -0.19057 0.12254 0.065011 0.36197 -0.1431 -0.24236 0.051109 -0.012404 0.24469 -0.031514 0.046071 -0.043806 0.23419 0.20516 -0.24049 -0.34836 -0.35916 0.22686 -0.15808 0.27757 0.63916 -0.056465 -0.5072 0.2726 0.045366 0.085841 0.17972 -0.14088 0.19431 -0.32637 0.12939 -0.35601 0.039995 -0.028111 
drug -0.49971 0.29404 0.34962 0.16603 -0.32727 -0.41952 -0.15392 0.094088 -0.41304 -0.11451 0.42534 0.31791 -0.095892 0.28504 0.014526 -0.17096 0.062893 -0.36858 -0.23632 -0.036701 -0.46419 0.022601 -0.13163 0.30348 0.019344 0.09899 -0.39849 0.26518 -0.25779 -0.039844 0.036836 -0.075977 0.25589 0.06104 0.0012577 0.13107 -0.010998 -0.038511 -0.3559 0.22177 0.2869 -0.061377 -0.032209 0.59886 -0.17467 0.21202 -0.032009 0.3034 -0.13423 0.10266 0.29912 -0.23752 -0.016713 -0.13297 -0.33936 0.32475 0.22627 0.11758 -0.21658 0.54259 -0.24139 0.3367 0.55117 -0.24719 0.28012 0.22972 0.4287 -0.20974 -0.14452 0.46645 0.2631 0.12748 0.23459 0.17192 0.37096 -0.2853 -0.029271 0.36538 -0.29949 -0.064977 -0.22402 -0.26787 -0.0040738 -0.077392 -0.28408 0.176 0.16785 -0.33486 -0.19737 0.23445 -0.034719 -0.25626 -0.0016768 0.058924 -0.03169 0.33631 0.31377 -0.12929 0.091577 0.051084 
game 0.15804 -0.10995 0.078656 -0.081815 -0.26974 -0.15411 0.14024 -0.24037 -0.14965 -0.11213 0.11874 -0.27583 -0.24673 0.054996 -0.19389 0.1568 0.22519 -0.21239 0.052244 0.1064 0.016422 -0.073381 -0.48866 -0.35265 0.061168 -0.11424 -0.037949 -0.27722 0.40778 0.31755 -0.31766 -0.30838 0.01959 0.072966 -0.019271 0.11134 0.2028 0.10987 -0.26224 -0.17046 -0.40788 0.19063 -0.063073 0.011477 0.092583 0.30586 -0.038366 0.1876 0.073371 -0.1224 -0.01532 0.17863 0.015554 -0.00036671 0.10155 -0.072823 -0.070026 0.16999 0.23957 0.052021 -0.47685 -0.44419 0.012947 0.29091 0.27029 0.22292 -0.21641 -0.090511 -0.088693 0.063827 0.14612 0.036447 0.3904 -0.22811 0.014144 0.032058 0.26617 -0.1178 0.035734 -0.15323 -0.12685 0.073985 0.073092 -0.19365 0.012321 0.21821 0.27751 0.025207 0.24123 0.22838 -0.046672 -0.23733 0.26003 -0.16537 0.15366 0.021657 -0.29527 -0.10381 0.21924 0.11247 
phone -0.16454 0.09456 0.10713 0.1954 -0.26951 0.18384 -0.33759 -0.13713 -0.45611 0.159 -0.060693 -0.52294 -0.039041 0.32143 -0.32994 0.47792 -0.36999 -0.049508 -0.34812 0.22153 0.11823 0.053663 -0.053882 0.11327 -0.059521 0.16121 -0.17928 -0.17098 -0.10173 0.30904 -0.1909 -0.037162 -0.26501 0.26744 0.19819 0.049923 0.026412 -0.34827 -0.53462 0.11969 -0.30776 -0.31598 -0.033554 -0.52761 0.36757 0.28899 0.16936 -0.068678 0.13556 0.3207 0.2162 0.25909 0.32068 0.52384 -0.032155 -0.20471 -0.25118 0.086301 0.23532 0.56432 -0.08741 0.46989 0.17868 -0.22915 0.12721 -0.25534 0.42769 -0.14464 -0.36699 0.125 0.051087 0.34254 -0.098835 -0.12022 0.0076221 0.44674 -0.65241 0.20985 0.17684 0.63204 0.14596 0.06159 -0.16086 0.086651 0.26001 0.57346 0.19462 -0.17534 0.47036 -0.070141 0.27173 -0.44638 0.34042 0.30647 -0.022634 -0.35593 0.094186 -0.4517 0.21516 0.32011 
FBI -0.027818 0.16444 0.63043 0.4331 0.066801 -0.43437 -0.44863 -0.30671 -0.13492 -0.16473 0.096824 -0.058134 0.12752 0.34321 -0.043585 0.24091 -0.25805 0.017071 -0.17356 -0.29763 -0.22622 0.4764 -0.10826 0.071719 -0.23146 -0.094147 -0.048279 -0.1073 -0.072684 -0.041631 0.30889 -0.2779 0.092963 -0.12997 0.11629 0.35924 0.11515 -0.42997 -0.27984 0.053791 -0.20168 0.26186 -0.044138 0.43683 -0.35371 -0.21191 0.035764 -0.32793 -0.19575 0.24064 -0.0099721 0.067954 -0.29526 -0.06759 0.068598 0.31171 0.18948 -0.20909 -0.032507 0.20178 -0.41096 0.43182 0.2489 0.098393 0.4961 0.68385 0.30449 0.53622 -0.052245 0.10446 0.19567 0.362 -0.28737 -0.17197 -0.26587 0.62526 0.01533 -0.21497 -0.036142 -0.51264 -0.18247 0.1223 -0.062938 0.31262 0.064059 0.008347 -0.16874 -0.020312 0.0010303 0.10043 0.044106 -0.35366 0.036459 0.38453 -0.16881 -0.10834 -0.067287 0.055602 0.11541 0.20451 
keyboard -0.0045923 -0.3307 -0.16297 -0.4147 -0.24779 -0.13997 0.22554 0.13342 -0.1992 -0.10954 0.11165 -0.19848 0.25564 0.28362 -0.63124 0.6196 0.1483 0.048869 -0.17616 0.3113 -0.072332 0.19424 0.12183 -0.13174 0.079476 -0.11149 0.011726 -0.16397 0.14115 -0.013388 -0.2507 -0.17108 -0.014337 0.55045 0.073535 0.06951 -0.15567 0.18431 -0.43815 -0.032311 -0.35632 -0.50695 0.38783 -0.23873 0.60898 0.11217 -0.03271 -0.30349 -0.14099 0.46312 0.10646 0.17275 0.075852 0.45896 -0.18909 0.18234 -0.40997 -0.22557 0.1006 0.11972 -0.18284 0.089089 0.0075456 0.016456 -0.030338 -0.035635 0.014235 -0.38417 -0.10983 0.21499 0.55971 0.042055 -0.05546 0.042808 0.037901 0.14391 -0.0070369 0.48364 0.49899 -0.299 0.13929 0.12527 0.089144 -0.033626 -0.04803 0.66451 0.39818 -0.56585 0.02204 -0.077099 -0.054535 -0.00072667 0.040577 0.15537 -0.12281 0.0097825 -0.11816 -0.66315 -0.04834 0.55241 
kind 0.016392 0.063576 -0.21459 -0.19134 -0.17932 -0.0026354 -0.076136 0.124 0.088057 -0.06802 0.2293 -0.20637 -0.26397 -0.15291 -0.26387 0.071748 0.0034644 -0.0030065 0.012618 0.11876 -0.14468 -0.18198 0.08044 -0.092408 -0.27111 0.11196 -0.071963 -0.034616 0.16102 -0.17503 0.044488 -0.24414 -0.00021131 0.3384 -0.15427 0.1517 0.075653 0.15245 0.14203 -0.088888 -0.024945 -0.019347 -0.27097 -0.040944 -0.036763 -0.047124 -0.030749 0.44225 -0.059493 0.20904 -0.17868 -0.041832 0.11603 0.015844 0.03587 -0.020609 0.052734 -0.031217 0.20868 0.12218 -0.39043 0.082247 -0.036174 -0.075644 -0.13387 0.12156 -0.068017 0.17917 -0.10009 0.13961 0.13264 0.13813 -0.033883 -0.090201 0.30139 0.15147 0.11404 0.1517 0.13609 -0.11055 -0.00064405 -0.13984 0.078746 0.012738 -0.12538 -0.02181 0.086891 0.026251 0.08869 0.0063844 0.12678 0.10718 0.27937 0.088926 -0.04339 0.13597 0.027468 -0.14223 0.052153 0.19756 
animal -0.15174 0.11057 0.46327 0.0066 -0.0019375 -0.29013 0.029483 0.11871 0.015251 0.11345 0.053817 -0.094213 0.14127 0.13589 -0.26516 -0.037374 0.1637 -0.25115 0.10316 0.16412 0.073614 -0.054561 -0.12466 -0.084083 -0.31956 0.52474 0.17074 0.17094 0.19526 0.11913 0.16304 -0.33224 0.13941 0.28103 -0.52182 0.27024 0.076601 0.12392 -0.12151 0.25242 0.43654 -0.15719 -0.44618 -0.12501 -0.1505 -0.13985 -0.10567 0.20223 -0.30183 0.14792 0.10586 0.0066612 -0.0020617 0.0037495 0.075295 0.16791 -0.10761 0.20419 0.0025118 -0.011194 -0.37391 0.31783 -0.082958 0.09949 -0.041101 0.14284 0.20635 -0.34343 0.030343 0.28711 -0.40832 0.23055 0.13501 0.19605 -0.15938 0.15809 0.12242 0.11518 -0.13146 -0.39165 -0.21747 -0.35155 -0.045891 0.0030728 -0.24173 -0.033993 -0.16647 -0.37715 -0.1128 0.29523 -0.081215 -0.14895 0.17415 0.080989 0.44622 0.25919 -0.1018 -0.41387 -0.037576 0.14489 
queen 0.1194 0.44998 -0.13346 0.076479 0.07346 0.0020759 0.14157 -0.15255 -0.23796 0.31219 -0.0018044 -0.097651 0.27212 -0.07026 -0.78743 0.22626 0.10918 0.0029714 -0.06171 -0.13771 -0.36946 -0.47978 0.30224 -0.085527 -0.18871 0.3778 0.51132 0.048313 0.066684 0.11616 -0.34915 -0.33462 0.26315 0.21056 -0.30375 0.45677 -0.11307 0.14465 -0.25459 0.18415 -0.267 0.017603 0.027575 -0.16933 0.11092 -0.086241 -0.057027 0.28295 0.22666 0.13642 -0.12889 -0.02877 -0.10739 -0.26606 0.077878 -0.19828 0.16824 -0.21431 0.31565 -0.12992 0.0042398 -0.032519 0.25332 -0.47049 0.44218 0.16092 -0.23873 -0.18096 0.13128 0.33857 0.46897 0.049065 0.056916 0.071045 -0.16256 -0.13754 0.24389 -0.34864 0.14592 0.0039158 0.15913 -0.41341 -0.010294 0.20626 0.26852 0.17578 -0.098574 -0.38443 -0.016101 -0.43923 -0.24906 -0.055225 0.23916 -0.016834 0.21454 0.23223 0.23144 0.094893 0.23139 0.39113 
organism -0.06815 0.073394 0.17053 0.015305 -0.13678 -0.069933 -0.20808 0.3349 0.047292 0.17867 0.31692 -0.0065869 -0.20636 -0.11953 0.056939 -0.11108 0.099668 -0.20993 -0.14345 -0.090682 0.29902 -0.19711 0.010176 -0.034129 -0.18753 0.40135 0.078307 0.09688 -0.080079 0.0019135 -0.10697 -0.16343 0.043169 0.5101 -0.33894 0.45328 0.010013 -0.11679 -0.11108 0.18176 0.20067 0.099871 -0.52198 -0.14338 -0.13207 0.16688 -0.0043669 0.25849 -0.27722 0.40317 0.14287 -0.061663 0.1399 -0.2139 -0.020622 0.15718 0.31375 0.26445 0.19504 0.018513 -0.17886 0.31481 0.015953 -0.033917 -0.25667 0.34767 -0.26834 0.11848 -0.0069756 0.13232 -0.094228 -0.23425 0.26966 0.12011 -0.32719 0.13117 0.21675 0.068912 0.26956 -0.46786 -0.23715 -0.36712 0.1126 -0.10603 -0.19279 0.12435 -0.081473 -0.29946 -0.25069 0.48916 -0.40234 0.21101 0.52298 0.11311 0.13454 0.16761 0.13065 -0.81348 -0.086763 0.25898 
president 0.014593 -0.22884 -0.22543 0.027481 -0.11555 0.10332 0.15707 -0.31066 0.29147 -0.14324 0.063457 -0.17062 0.26384 0.4535 0.21522 0.19546 -0.12044 -0.19241 -0.015201 -0.28545 0.069465 -0.29753 -0.052565 0.23351 -0.30254 -0.30849 0.23265 0.072698 0.070181 0.35466 -0.17858 0.16753 0.21165 0.34429 -0.15922 0.11789 0.3267 0.10076 0.10823 -0.053584 -0.014815 0.15609 0.25031 0.12016 -0.3743 0.11119 0.1837 0.38954 -0.38325 0.012316 -0.49964 -0.00040583 0.012074 0.097363 -0.028488 -0.12661 0.080628 -0.023958 0.099157 0.061133 0.41913 -0.084719 -0.1423 -0.057925 0.036562 0.080315 0.15773 -0.0039156 -0.027197 0.23876 0.29726 0.049563 -0.21514 0.25106 0.25412 0.1271 0.098239 0.045621 -0.023207 0.18848 -0.11443 0.082172 -0.0051197 0.054814 0.16247 0.23027 -0.34246 -0.31373 0.1426 0.041143 0.44389 -0.025119 0.19789 0.15457 -0.065769 0.0784 0.09845 0.010075 0.060861 -0.010418 
cell -0.16185 -0.31643 0.22297 0.29911 -0.3445 -0.08569 -0.17428 0.14904 -0.4979 -0.10797 0.13874 -0.53791 0.10703 0.31645 -0.11594 0.32518 -0.060045 -0.17341 -0.44967 0.53478 -0.061457 0.053171 -0.059177 0.16026 -0.61832 0.054304 -0.17858 0.082973 -0.02567 0.28864 -0.33929 0.24457 -0.0098543 0.41716 0.073767 0.25855 0.070273 -0.17494 -0.054402 0.09824 0.14298 -0.19767 -0.045717 -0.14755 0.43717 0.16563 0.10779 0.037923 0.12381 0.34733 0.16214 -0.05053 0.12549 0.50926 -0.39724 0.33896 -0.030343 0.098889 0.1742 0.6178 -0.0029969 0.6815 0.30761 -0.048256 0.0059371 0.078969 0.4325 -0.22684 -0.20484 -0.11645 0.11632 0.513 0.31495 0.38315 0.070426 0.76543 -0.24594 0.19311 0.21627 0.32737 0.033142 -0.26847 -0.44646 -0.29338 0.201 0.48249 0.30205 -0.39857 -0.011067 0.60548 -0.087199 -0.055426 0.26123 -0.27587 -0.21952 -0.34102 -0.21803 -0.67651 0.073776 0.26788 
egg 0.00096739 -0.060124 -0.052362 0.17784 0.43308 -0.088934 0.042062 -0.024454 -0.028658 0.31173 0.36616 0.10364 -0.11745 -0.093833 -0.44618 0.20257 0.40146 0.15492 0.063248 0.36049 -0.054585 -0.47961 0.1622 -0.052343 -0.21769 0.28564 0.29006 -0.052389 -0.39084 0.33054 0.1186 -0.27942 0.20667 0.5114 -0.70657 0.153 0.066875 -0.4091 -0.27514 0.26388 -0.095101 0.092739 -0.38661 0.073125 0.19963 0.36606 -0.044155 0.52823 -0.34073 0.59073 -0.012543 0.2041 0.33504 0.1229 0.1768 0.48881 -0.19857 0.41583 -0.087294 -0.041587 -0.15273 -0.040472 0.53862 -0.37098 0.13329 -0.12879 0.16006 -0.13747 0.01296 0.3431 -0.27112 0.13372 0.059705 -0.061234 -0.35367 0.0001336 0.32785 -0.1712 -0.22293 -0.24819 -0.38475 -0.089053 0.16459 -0.075982 -0.43315 0.10005 0.34726 -0.28255 -0.58424 -0.092219 -0.27798 0.34106 0.23191 0.24547 0.56118 -0.16459 0.13419 -0.43555 -0.30571 0.12014 
sun 0.021895 -0.31641 -0.13068 -0.32664 0.12032 0.029594 -0.295 -0.097694 0.10079 0.11161 0.1866 -0.29578 -0.22016 -0.26617 0.041935 0.52791 0.25599 -0.35396 0.19733 0.049898 -0.24324 0.044139 0.41909 0.0056761 -0.20365 0.38791 0.11833 0.27074 0.30915 0.25479 0.23297 -0.16604 -0.40161 0.25113 -0.14115 -0.26196 -0.023454 -0.18518 -0.080545 0.11277 -0.16309 -0.093858 0.050216 -0.014003 0.3874 0.10764 0.22824 -0.022845 -0.12483 0.49346 -0.49588 0.084432 -0.12999 -0.047606 -0.093663 0.10668 0.05203 0.43311 0.26 0.20322 -0.15459 -0.23621 -0.12544 -0.11384 -0.010283 0.37944 -0.37084 -0.59936 0.29778 0.12214 0.037305 0.35422 -0.38592 -0.022799 -0.52484 0.38377 0.23917 0.22054 0.15524 -0.16933 0.095626 -0.15982 -0.2084 -0.26512 -0.24563 0.00069023 0.29383 -0.48424 -0.38909 -0.138 0.015264 0.31177 0.16859 -0.065761 0.18134 0.0047383 -0.45012 -0.077323 0.22146 0.31144 
canyon -0.054926 -0.16161 -0.013728 -0.47995 -0.31883 -0.023107 0.2384 -0.1098 0.13076 0.25063 -0.075261 -0.012679 -0.016913 -0.01645 0.30709 0.19693 -0.19 -0.1373 -0.24765 -0.18322 -0.078964 -0.11743 0.19935 -0.13861 -0.25302 0.25394 -0.020463 0.56294 0.20676 0.31412 0.076352 -0.67532 -0.053529 -0.1756 -0.52933 -0.62721 -0.32802 0.018476 -0.44597 0.26108 -0.077394 -0.10442 0.1323 -0.15719 0.68048 -0.46871 0.32296 -0.075629 -0.14636 0.46838 -0.52619 -0.16744 -0.23358 -0.024018 -0.10529 0.020228 -0.044104 -0.051516 0.084822 0.29971 -0.50217 -0.35047 -0.49893 -0.48121 0.43902 0.14072 -0.46088 -0.29409 -0.060995 -0.13433 -0.26482 0.20804 -0.16512 0.38212 -0.80778 0.15396 0.24939 0.09939 0.036431 -0.30847 -0.36305 -0.65541 -0.24661 0.20518 -0.35039 0.014444 0.43028 -0.12065 -0.40306 0.11788 -0.23995 -0.57138 0.056961 -0.18168 -0.20211 0.078446 -0.17821 -0.39054 -0.24608 0.12582 
star 0.1163 -0.023092 0.078776 0.20482 0.047537 -0.42992 0.2352 -0.050103 -0.58554 0.12836 -0.084291 -0.223 -0.21686 0.11078 -0.48573 0.078424 0.0064215 -0.082779 -0.019693 -0.0066277 -0.23268 -0.18378 0.41823 -0.25788 0.13678 -0.094873 0.18392 0.26678 0.188 -0.03499 -0.35282 -0.0023101 0.16533 0.38936 0.20415 0.10351 0.32472 0.21671 -0.32141 -0.42131 -0.11827 0.015958 0.17561 0.081659 -0.039391 -0.15876 0.12817 0.15215 -0.15845 0.046044 -0.16445 -0.048673 -0.062894 -0.18994 0.10838 -0.45455 -0.027207 0.11973 0.38204 0.18581 0.051597 -0.024102 0.14176 -0.19818 0.23215 0.11418 -0.043088 -0.11423 0.29066 0.31409 0.49588 -0.088357 0.11425 0.14196 -0.26 -0.11412 0.31636 0.0097912 -0.010246 -0.47113 -0.029548 0.0090238 0.055296 0.035761 0.071496 0.21554 -0.097217 0.099684 -0.04035 -0.11412 -0.034139 -0.38526 0.033174 -0.33896 0.18998 0.37015 -0.25781 0.017442 0.13457 0.070585 
law -0.095865 0.0075463 0.090697 0.19007 -0.37487 -0.38535 -0.25123 0.062178 0.18795 -0.20726 -0.10295 0.014697 0.3014 0.12522 -0.04916 -0.10028 -0.015276 -0.2859 -0.13539 0.10763 -0.33435 0.31805 -0.26019 -0.21525 -0.36968 0.2057 0.18254 -0.13046 -0.017995 0.21408 0.30855 0.25708 -0.2022 0.34177 -0.34471 0.16855 0.28074 -0.0077349 -0.1532 0.03094 0.0064445 0.10711 -0.016159 0.11049 -0.4591 -0.14128 0.074402 0.22084 0.18647 0.1508 -0.58147 -0.29728 0.39508 0.1014 -0.2746 -0.27416 0.28844 0.23201 -0.12227 0.17254 -0.1924 -0.22827 -0.10811 -0.20684 -0.31854 0.53383 0.39939 0.36631 -0.34684 0.30478 -0.29883 -0.042698 -0.037564 -0.12294 -0.070209 0.2099 0.15726 -0.14381 -0.16067 0.101 0.096575 -0.21764 -0.043202 -0.32457 0.10295 -0.24733 -0.012737 -0.47671 0.17217 -0.12973 0.27357 -0.22329 -0.64051 0.10476 -0.15314 0.018537 0.011811 -0.43802 0.28199 0.11104 
cucumber 0.067127 0.06759 -0.25108 0.0090692 0.14358 -0.49841 -0.067726 0.060252 0.24842 0.64571 0.0077973 -0.003846 -0.0121 -0.55598 -0.0096144 -0.12218 0.48076 0.16321 0.41869 0.019107 -0.16232 -0.052712 0.076641 -0.10389 -0.24445 0.43476 0.24216 0.057113 -0.14045 -0.029072 0.12267 -0.49739 0.2411 0.59759 -0.69003 0.17615 -0.11606 -0.15013 0.021314 0.36423 -0.18179 0.084454 -0.28854 0.20864 0.26095 0.18988 0.068749 0.33537 -0.030264 0.81583 -0.13035 -0.18911 0.10419 0.3011 0.16092 0.24758 -0.54337 0.4014 -0.15858 -0.035261 0.4751 -0.24035 0.43132 -0.095612 0.30291 0.061193 0.010423 -0.18649 0.50923 0.21155 -0.087439 0.18083 0.1396 0.0095051 -0.38919 0.14918 0.45381 0.098383 -0.25799 -0.11845 -0.11236 0.034847 0.32305 -0.0021379 -0.28636 0.14603 0.091948 -0.13812 -0.31776 -0.28673 -0.41879 0.16008 0.28494 0.54048 0.263 0.34401 0.056153 -0.42584 -0.43046 0.49237 
information -0.3535 0.17123 0.15801 0.37202 -0.072228 -0.19284 -0.12458 0.26417 0.085993 0.23196 -0.018282 -0.42494 0.32113 0.33859 -0.10806 0.35594 -0.12067 -0.22778 0.22581 -0.17892 0.049915 0.28047 0.30705 0.10394 -0.046371 -0.11053 -0.18052 0.058264 -0.19064 0.11426 0.18759 -0.0009613 -0.076608 0.34406 -0.1456 0.2182 -0.012546 0.24079 -0.015666 0.0921 -0.27837 0.034141 -0.053781 0.016913 0.0421 -0.093404 0.00073438 -0.40019 -0.40342 0.34914 0.48794 0.25239 -0.37115 0.058038 0.3386 -0.28962 0.077572 -0.31839 -0.43255 0.15313 -0.36061 0.08457 0.090337 0.109 -0.075648 0.20983 0.45887 0.4193 -0.29394 -0.20225 0.04178 0.090673 -0.15886 0.2815 -0.028936 0.25919 0.10556 -0.27426 -0.15023 0.013627 -0.025407 0.14714 -0.051329 -0.10526 0.02454 -0.367 0.45374 0.19409 0.46989 -0.19396 0.15688 -0.19194 0.49725 0.24136 0.17476 -0.054615 0.044092 -0.55007 -0.18235 0.36686 
precedent -0.23297 0.022536 -0.21641 -0.33108 -0.21106 -0.094564 -0.10242 0.12767 0.01775 -0.16643 0.40625 -0.33447 0.040667 -0.27171 -0.056577 -0.20531 0.092727 -0.12475 -0.082926 0.11254 -0.20324 0.13025 -0.061405 0.054235 0.0956 0.0074307 0.17001 -0.43089 0.30363 0.040306 0.073904 -0.20523 -0.079579 0.1552 -0.007039 -0.059352 0.25117 -0.10238 -0.096099 0.207 0.21882 0.066146 -0.21861 0.017295 -0.42891 0.074294 -0.071312 0.31466 -0.011495 0.3101 -0.25766 -0.044974 0.18114 0.17535 -0.11212 -0.28672 0.36852 -0.036399 -0.17386 0.26607 -0.6281 -0.13296 -0.33757 0.043494 -0.27386 0.29673 -0.18378 0.51218 -0.26134 -0.010459 -0.12931 -0.13076 -0.12612 0.084141 -0.010536 -0.083562 0.058749 -0.0069291 -0.13163 -0.16048 -0.075541 -0.28913 -0.078723 -0.062174 0.043753 0.042011 -0.23561 -0.23116 0.26894 -0.24794 0.13369 0.11583 -0.055121 -0.12728 0.016853 -0.068985 0.041399 -0.17272 -0.069383 0.039037 
sea 0.0050872 -0.042483 -0.046548 -0.11592 0.35176 0.010739 0.081924 -0.10171 0.14571 0.50766 -0.13711 -0.31942 0.15659 -0.22445 0.0093651 -0.057979 0.13853 -0.29676 0.0043103 -0.091198 -0.010097 -0.06958 0.14094 -0.065191 -0.26683 0.37035 -0.084931 0.30436 0.37819 0.20852 0.30686 -0.53736 -0.26541 0.093879 -0.53319 -0.088519 0.037882 0.086689 -0.35285 0.59171 0.25448 -0.030585 0.27471 -0.10272 0.28232 -0.06476 0.056242 0.078826 -0.42346 0.3345 -0.093399 -0.0040747 -0.19907 0.11608 0.078196 0.32176 0.29049 0.52035 0.20764 0.18477 -0.14376 -0.27349 -0.31086 -0.22362 0.24362 0.02576 -0.29151 -0.28999 0.51353 -0.08257 -0.42496 0.11946 -0.33487 0.18353 -0.59302 0.19332 -0.054281 0.22876 0.083496 -0.22711 0.078815 -0.56562 -0.033752 0.047506 -0.26055 0.013609 0.060264 -0.53337 -0.3364 0.24057 0.056261 0.06681 0.38402 -0.12523 -0.052407 0.16917 -0.07857 -0.25676 -0.0065575 0.24987 
butter -0.079392 -0.57657 -0.27567 0.080925 0.48332 -0.11132 0.1948 0.061695 0.14606 0.58477 0.046762 -0.16011 -0.064803 -0.51202 -0.15593 0.37318 0.63328 0.27952 0.25866 -0.095476 -0.42674 -0.68963 -0.24276 -0.41929 -0.40299 0.43549 0.4952 -0.22952 -0.29917 0.27395 0.38241 -0.28569 0.22679 0.58475 -0.68243 0.12602 -0.034089 -0.077578 -0.20209 0.27521 -0.37005 0.20851 -0.48154 0.16686 0.10967 0.42483 0.11337 0.44619 -0.56736 0.92041 -0.058593 0.17493 0.21374 0.12375 -0.086616 0.32208 -0.46557 0.67808 -0.41257 -0.21674 0.42309 -0.1819 0.50847 -0.24507 0.19969 -0.30243 0.15663 -0.49298 0.12605 0.14436 -0.20907 0.075482 0.048341 -0.38171 -0.36928 -0.044719 0.29856 0.30798 -0.43798 -0.29884 -0.66692 0.15723 0.41877 -0.10096 -0.45105 0.17346 0.21219 -0.094408 -0.19742 -0.37222 -0.36899 0.22196 0.38896 0.69685 0.28943 0.24495 0.035211 -0.45993 -0.3788 0.3057 
reservation -0.27213 -0.081403 0.11548 0.041655 -0.082093 0.25589 0.06881 0.10048 -0.094365 0.24627 -0.19205 -0.23181 -0.19847 0.072939 -0.044193 0.1033 -0.19825 -0.072622 -0.028943 0.014625 -0.074618 -0.0032984 -0.13498 -0.016896 -0.31635 0.042361 -0.034056 0.20621 0.0015397 0.029212 0.061077 -0.03673 0.12288 0.12778 -0.40798 0.06353 0.19159 0.011333 -0.056005 0.15226 -0.15944 0.14302 0.025898 -0.19175 0.32719 -0.04371 0.0955 0.15704 -0.15709 0.40194 0.01909 0.060173 0.035625 0.31378 0.21718 -0.077798 0.10661 -0.15088 -0.12304 0.0087542 -0.18802 -0.31364 -0.094974 -0.16307 -0.019916 0.20051 -0.10203 0.3115 -0.10461 -0.011898 -0.10337 -0.010797 -0.042321 0.2734 -0.20309 0.087821 -0.0025352 0.00741 -0.024026 0.10832 0.0058019 -0.07668 0.12045 0.15557 -0.038916 -0.1187 0.12662 -0.039474 0.22288 -0.058821 0.045051 -0.36881 0.034512 0.16719 0.023076 -0.233 0.0022466 -0.25654 -0.13391 0.12752 
archive 0.19206 -0.042713 0.40009 -0.071089 -0.11262 -0.36575 0.47126 0.26555 0.075623 0.18596 0.24507 -0.23565 0.1868 0.45315 -0.43266 0.52325 0.21504 -0.19136 0.11606 -0.15733 0.13928 0.029189 -0.25813 0.34103 0.066263 0.13835 -0.18893 0.12636 -0.07687 0.10386 -0.48074 -0.19049 0.13424 0.29041 0.18073 0.098421 0.12122 0.073314 0.051656 0.0084982 -0.25041 -0.37471 0.11874 0.0025337 0.17113 -0.12194 0.065793 0.41417 -0.18643 0.14899 0.46946 0.095681 0.18904 0.25664 0.21804 -0.16308 -0.047821 -0.04023 0.1385 0.19639 -0.28166 0.14479 0.064596 0.15867 0.0092169 0.43003 0.069129 0.52975 -0.46001 -0.3491 0.26504 -0.13658 -0.25159 -0.040517 -0.53378 0.32042 0.13544 -0.52133 0.44882 -0.28529 0.34414 -0.0043424 -0.5459 0.1184 0.3757 -0.13636 0.041909 0.096134 -0.11243 -0.15135 0.10734 -0.50295 0.28617 0.29708 0.10789 -0.09284 -0.19062 -0.82521 0.20504 0.28097 
clinic -0.17895 0.4064 0.28752 0.030682 -0.13778 -0.066085 -0.21435 0.024963 -0.33869 -0.045616 0.11181 0.259 -0.076466 0.24664 -0.1425 0.044984 0.27946 -0.18909 -0.15342 0.28835 -0.21293 -0.096631 -0.0026999 0.19827 0.08395 0.1541 -0.23751 0.16493 -0.16126 0.18688 0.22609 -0.10252 0.13121 0.21399 -0.35519 0.51805 0.15292 -0.16092 0.07061 -0.33386 0.059768 -0.057783 0.15857 -0.34953 0.089911 0.11255 0.54488 0.58722 0.069962 -0.010527 0.024042 0.13049 -0.28489 -0.24842 -0.051527 -0.13451 0.13398 0.028512 -0.27845 0.19829 0.11998 -0.16916 0.35369 -0.28111 0.071709 0.36303 0.24492 0.07795 -0.35979 0.30422 -0.014491 0.31211 0.068288 0.24525 0.34668 -0.14832 -0.037721 -0.17119 -0.018867 0.14335 -0.088865 -0.26166 -0.37331 0.16521 -0.35094 -0.010066 0.091613 -0.25333 -0.23337 0.33701 -0.057207 -0.3414 -0.32568 0.24515 0.24752 -0.16859 -0.35123 -0.22232 -0.21515 0.23044 
term -0.037648 -0.067509 -0.27237 0.090004 -0.12487 -0.076393 -0.1023 0.18746 0.046903 -0.12132 0.16972 -0.05947 0.25615 0.3845 0.37972 -0.35298 0.41446 -0.35194 0.33896 -0.15128 -0.22286 0.11289 -0.28319 0.21954 -0.29977 -0.17718 0.26719 -0.0055768 -0.10512 0.25387 -0.26122 0.20488 0.45171 0.40743 0.27192 0.026188 0.026917 -0.21071 0.2221 0.18635 0.016551 -0.25553 0.016268 -0.31543 -0.070684 0.040498 -0.42667 0.36803 -0.26785 0.073122 -0.3545 -0.11795 0.13687 0.17536 -0.020671 -0.32049 0.38065 0.25493 0.47517 0.037424 -0.14792 -0.33058 -0.028689 -0.34909 -0.18939 0.16356 -0.10437 0.18529 0.16005 0.043123 0.39074 -0.14556 -0.32863 -0.070595 0.16742 0.38812 0.13115 0.093572 -0.25355 0.3799 -0.039676 0.049783 -0.41485 -0.3193 -0.47062 0.10618 -0.024422 -0.1525 0.27982 0.19464 0.18325 -0.040246 0.0069627 0.35762 -0.1839 -0.03807 -0.072707 -0.032704 0.060028 -0.13379 
space -0.1703 -0.34468 0.33397 -0.1874 -0.047839 -0.087338 0.30966 0.25774 0.035149 0.042401 0.032039 -0.063622 0.02193 -0.36757 -0.30041 0.45852 0.034054 -0.16339 0.23189 0.013858 -0.094998 0.015505 -0.0049443 0.54958 -0.023595 0.42503 -0.10243 0.10417 0.43768 0.050185 -0.032727 -0.19169 0.10295 0.58778 -0.26542 -0.15381 0.14507 -0.32895 0.090277 -0.099349 0.18347 0.034934 0.34965 -0.077427 0.073925 0.091908 0.027951 0.16145 -0.070529 0.14528 -0.134 0.26547 0.18652 0.022844 0.5078 0.79954 0.23403 0.028085 0.42474 -0.14769 0.016391 -0.18055 -0.26232 -0.13103 -0.11297 0.10411 0.072309 0.15487 -0.39575 0.0046833 0.3423 0.20261 -0.24699 0.31625 -0.48536 0.44225 -0.063883 0.01939 0.48342 -0.13717 0.030832 -0.11428 -0.049353 0.047401 0.013825 -0.0402 0.21898 -0.14599 0.25189 0.1269 0.14898 -0.30487 0.10149 -0.1692 0.095231 -0.18833 -0.18205 0.23196 -0.032522 0.18665 
bird -0.17302 0.15147 0.38173 -0.038811 0.0027099 -0.21065 -0.077531 0.23609 0.45211 0.32712 0.080721 0.12378 -0.044729 0.02796 -0.37082 -0.22409 0.56643 0.11931 0.50899 0.03504 0.155 -0.24729 0.3112 -0.078245 -0.41257 0.54649 0.36593 0.10021 0.41248 0.30181 0.12005 -0.1238 0.36102 0.37887 -0.20468 0.31152 -0.018367 0.16453 -0.26537 0.47389 0.072281 0.041491 -0.51696 0.04467 -0.28115 -0.15011 -0.0078005 0.31241 -0.25788 0.31258 0.10192 0.071963 -0.3645 -0.12273 -0.078191 0.23917 -0.050714 0.052138 0.42274 -0.2321 -0.49596 0.19757 -0.25003 -0.14649 0.16376 0.1216 0.059997 -0.23231 0.037133 -0.02016 -0.23963 0.45735 0.13691 0.095356 -0.55566 0.0015816 -0.15898 0.30969 -0.039445 -0.097338 -0.21352 -0.18302 -0.39426 0.1939 -0.17033 0.17569 -0.34896 -0.2855 -0.25775 0.095158 -0.2364 0.041974 0.60048 0.3161 0.45214 0.075908 -0.051853 -0.047894 -0.13025 0.49213 
treatment -0.39984 0.4525 0.31271 0.3503 -0.36393 0.0051069 -0.098148 0.036772 -0.066939 -0.19784 0.28551 0.074982 -0.12918 0.26864 0.15368 -0.10675 0.46215 -0.22983 0.073979 0.33668 -0.25593 -0.011551 0.30247 0.11269 -0.012753 0.038707 -0.090198 0.26658 -0.11792 0.071658 0.28114 0.047072 0.35228 0.4499 -0.051502 0.1904 0.065275 -0.091084 0.16233 0.0042571 0.055591 -0.13647 0.09072 -0.2798 -0.10391 0.28306 0.18671 0.31615 0.20606 0.12516 0.3509 0.22578 -0.47087 -0.15159 0.0047482 0.20228 0.40376 0.11246 -0.30246 0.34104 -0.049585 0.094141 0.33849 -0.33579 0.012498 0.35417 0.12972 0.29418 -0.063413 -0.031634 0.12661 0.056769 0.12571 0.16605 0.43624 -0.24888 -0.042862 0.0073403 -0.025561 -0.052558 -0.10819 -0.45371 -0.17315 -0.020103 -0.1316 0.088591 0.33165 -0.29136 -0.074072 0.25429 -0.092014 0.14549 -0.10221 0.085104 0.27535 -0.061388 -0.17469 -0.33158 -0.17149 -0.041839 
country -0.041271 0.18677 -0.21547 -0.045967 0.071115 -0.13221 0.11037 0.14942 0.0034511 -0.028728 0.010776 0.083235 -0.076935 0.10201 0.30246 0.26108 -0.01496 -0.17311 -0.076037 -0.14902 -0.038355 -0.20821 0.034668 0.063546 -0.41603 0.14919 -0.3218 0.1861 0.15095 0.1594 -0.14549 -0.019274 0.095625 0.11525 -0.20331 0.02028 -0.0051358 -0.006869 -0.2044 0.067549 0.18255 -0.12949 -0.10477 0.050899 -0.13881 0.028381 -0.15748 0.30837 0.043817 0.053383 -0.29506 0.16911 -0.11732 0.019485 0.011955 -0.28915 0.17354 0.22181 0.2075 -0.013463 -0.1415 0.0091098 -0.3436 0.032354 0.049574 0.17791 -0.035597 0.15734 -0.17364 0.20027 0.024746 0.16861 0.17323 0.11611 0.013733 -0.022462 0.22919 0.051171 -0.070961 0.12894 0.13093 0.077049 -0.076483 0.16865 0.15289 0.019509 -0.0041518 -0.30086 0.046607 -0.067196 -0.034815 -0.0040588 0.094376 0.015773 0.17588 0.10217 0.23909 -0.1789 0.12395 0.13994 
science 0.10195 -0.0040348 -0.00093277 0.13401 -0.30279 -0.14746 7.7569e-05 0.25382 0.15769 -0.73633 0.30611 0.028668 0.13569 -0.22223 -0.26211 -0.22611 -0.35915 -0.079641 -0.0041969 0.067511 0.13039 0.0046056 -0.052006 0.16586 -0.30734 0.32277 -0.011984 0.24139 0.063244 -0.19517 0.10944 -0.099814 -0.27253 0.76976 -0.17163 0.58403 -0.16043 0.22308 0.15479 -0.28478 0.0047009 -0.13585 0.3524 0.22055 0.30649 -0.22616 -0.1075 0.24045 -0.4578 -0.14794 -0.23549 -0.089594 0.16503 -0.18275 0.50547 0.26178 0.30715 0.072364 0.11068 -0.076122 0.1122 0.027982 0.09698 0.38371 -0.21837 0.40465 -0.22226 -0.16631 -0.33553 -0.013326 -0.11137 0.26816 -0.054361 -0.22698 0.10836 0.2698 0.34277 0.001744 0.10779 -0.30484 0.33149 -0.27736 0.023281 -0.13267 0.044542 -0.18658 0.10141 -0.51482 0.35449 -0.22117 0.10071 -0.23244 0.17769 0.084999 -0.037059 -0.33116 -0.24121 -0.3623 -0.062939 0.14924 
victory -0.042404 0.084242 -0.086892 -0.11863 -0.28818 0.24833 0.23371 -0.77741 -0.057421 -0.23916 0.11533 -0.46399 0.22631 -0.011079 0.55506 -0.069177 0.35555 -0.29297 0.028707 0.11161 -0.028585 -0.11675 -0.21789 0.065916 0.2098 -0.04655 0.11561 -0.004672 0.072584 0.27508 -0.48665 0.024996 -0.026438 -0.44337 0.11502 0.33935 0.209 0.1231 0.13142 -0.3343 -0.28397 0.13664 -0.40606 -0.22161 0.055019 0.03838 0.032675 0.23913 0.028989 -0.26447 -0.22556 -0.005525 -0.092893 0.053183 -0.081213 -0.029951 -0.048958 0.50509 0.037202 -0.23219 -0.60257 -0.37763 0.17303 0.031572 0.39952 0.19536 -0.26783 -0.021777 -0.040689 0.10356 0.11536 0.19166 0.40524 0.11811 -0.069244 0.12999 0.39904 -0.24313 0.048289 0.037857 -0.44376 -0.037305 0.081094 -0.49861 0.19437 0.23003 0.31458 -0.12371 0.54427 -0.056581 0.11007 -0.073325 0.31988 0.096236 0.26027 -0.038814 -0.10784 0.10391 -0.02425 0.077787 
association 0.019149 -0.05874 0.20688 0.085592 -0.18784 0.085971 0.10237 -0.18129 -0.06398 -0.057098 0.23934 0.025978 -0.04253 0.079998 0.041141 -0.030946 -0.20778 0.060062 -0.02137 -0.11204 -0.01018 -0.12726 -0.1586 -0.10663 -0.12753 0.22963 -0.010442 0.17858 -0.053148 0.16884 -0.24008 -0.20153 0.079078 0.26881 -0.30416 0.21807 0.12965 0.08633 -0.011363 0.0056659 -0.14102 0.34552 0.13818 0.19208 -0.38195 0.027238 0.036659 0.20988 -0.15253 0.34396 0.028943 -0.0613 0.00015368 -0.0026135 -0.10511 -0.25647 0.089819 -0.011682 0.0082496 0.10449 0.018923 0.30493 0.15816 0.10852 -0.022189 0.20125 0.18357 0.21162 -0.099222 0.18308 -0.042464 -0.078169 -0.038233 0.29167 0.20711 0.14943 0.092909 -0.14925 -0.27315 -0.21024 0.18083 -0.060295 0.12716 0.19522 0.10053 -0.044578 -0.092484 -0.092805 0.12082 0.12281 0.12616 -0.28364 -0.15569 0.070053 0.19697 -0.061816 0.099737 -0.33586 0.34886 0.11754 
reason 0.16425 -0.0015322 -0.21545 -0.030411 -0.36527 -0.10346 0.016751 0.11937 0.14152 -0.022058 -0.092843 -0.13727 -0.19736 0.14988 -0.52266 -0.18996 -0.025131 -0.033028 0.31273 -0.12599 -0.067271 -0.021278 0.30462 0.069977 -0.30051 0.011374 0.14712 0.10351 0.23111 -0.080311 -0.0099105 0.14472 0.018325 0.21918 -0.12251 0.12585 0.20899 -0.085296 0.00061191 -0.052275 0.041901 0.081907 -0.16336 -0.046072 -0.12683 0.10977 0.0093974 0.19841 -0.18881 0.29555 -0.29746 -0.091648 -0.043141 0.085924 -0.071961 -0.19507 0.13932 0.19212 -0.064182 -0.0044993 -0.41477 0.087179 0.017466 -0.068753 -0.39503 0.010584 -0.010318 0.24245 -0.2692 0.398 0.15789 0.10209 0.11414 0.07257 0.1603 -0.25178 -0.074978 -0.025266 -0.097309 -0.040293 -0.054436 -0.14725 -0.11507 -0.065911 -0.037227 -0.20643 0.34476 0.22867 0.23169 0.016695 -0.0018247 0.10873 0.30244 0.19899 0.08353 -0.09307 0.15768 0.002965 -0.22363 0.1025 
marathon -0.20421 -0.099273 -0.29747 -0.0717 -0.018523 -0.15646 -0.16919 0.056305 0.072424 0.055495 0.46281 -0.47142 -0.35587 0.0040512 0.15572 -0.16501 0.48192 -0.23609 0.21991 0.11533 -0.24061 -0.12065 0.02762 -0.0012475 0.38595 0.28288 -0.081514 -0.061714 0.080254 0.13727 -0.39888 0.12144 -0.47812 -0.21798 0.23369 0.23406 0.081653 -0.040189 -0.0069583 -0.24252 -0.22105 -0.095697 0.19192 -0.065019 0.19118 -0.097429 -0.16255 0.41317 0.23734 -0.23077 0.14816 0.37111 -0.020766 -0.094181 -0.034911 -0.19007 0.78012 0.057461 0.15485 0.044905 -0.088308 -0.21687 -0.02337 -0.22958 0.33034 -0.03763 -0.26479 -0.49085 0.20239 0.22007 0.53028 0.027567 0.009015 0.12195 -0.049849 0.18071 0.51617 -0.16699 -0.089796 -0.26359 -0.13029 -0.1883 0.11745 0.16057 -0.063017 0.033793 -0.005135 -0.16088 0.16202 0.16435 0.095196 -0.1579 -0.051891 0.30495 0.44214 0.098292 0.15628 0.0041806 0.033207 -0.075322 
war 0.1752 -0.28208 -0.13226 0.089942 -0.27258 -0.2157 -0.001305 0.0044565 -0.13393 0.085618 0.083855 -0.50289 -0.20631 0.06118 0.44777 0.14965 0.27095 -0.16894 -0.19344 -0.20613 -0.20797 -0.037612 0.097816 0.49089 -0.21641 0.039355 -0.42883 -0.078809 -0.083086 0.23226 0.19906 -0.27494 0.33274 0.36912 0.054097 0.21124 -0.49885 0.010913 0.015028 0.16732 0.32152 -0.1189 -0.22911 0.25552 -0.32155 -0.12106 -0.19595 0.2847 0.059203 -0.29432 -0.2841 0.36503 -0.12768 0.25877 0.011186 -0.1405 0.51321 0.41517 -0.11382 0.26525 -0.29938 -0.049276 -0.12982 0.1266 -0.095031 0.34014 0.19034 0.16147 0.025573 0.27431 0.15901 0.047531 0.39548 -0.29703 -0.24639 -0.020122 0.11967 -0.1989 0.099985 0.17694 -0.21596 -0.17498 0.026492 0.022102 -0.3067 -0.015017 -0.075238 -0.27903 -0.010381 -0.49214 0.031972 0.13203 -0.033095 -0.037539 -0.20334 0.046579 0.19525 0.23173 0.16112 0.084015 
tiger 0.1364 0.28914 0.37923 -0.075946 -0.2241 -0.22129 -0.21831 -0.44769 0.29003 0.3835 -0.14137 -0.22961 -0.0023757 0.082108 -0.23044 0.16381 0.087487 0.3874 0.16241 -0.36096 0.53055 -0.17499 0.1757 -0.0053568 -0.11154 0.39737 0.16879 0.4219 0.38504 0.02167 0.10648 -0.27848 -0.003165 0.16245 -0.41556 0.20929 0.1051 0.063596 -0.72365 0.31945 0.33441 -0.40973 -0.2682 -0.23824 -0.16666 0.043146 0.026835 0.16634 -0.012653 0.38868 -0.066396 0.014179 -0.21317 0.070228 -0.24112 0.10313 -0.077837 0.036088 0.27589 -0.14936 -0.46627 -0.12667 -0.01658 -0.33911 -0.058424 0.050939 -0.079671 -0.19301 0.18465 0.10471 -0.25863 0.056882 0.0072624 -0.078441 -0.44812 0.48142 0.1082 -0.25934 -0.18824 -0.033297 -0.11065 -0.14565 -0.086296 0.30305 -0.21086 0.033453 -0.28665 -0.28642 -0.43469 0.2389 -0.085794 -0.2132 0.0062979 0.040033 0.2844 0.19285 -0.0085157 -0.30041 -0.059858 0.01003 
exhibit -0.013532 -0.017327 0.45487 -0.11505 -0.24578 0.29669 0.068378 0.16028 0.11965 0.17936 -0.042777 -0.096357 0.22056 -0.1088 -0.3349 0.12703 -0.034607 -0.0098739 0.028978 -0.0053828 0.21255 -0.37195 -0.25971 0.064828 -0.10603 0.30768 0.2438 0.22421 0.20149 -0.14782 -0.29405 -0.32681 -0.0013002 0.16466 0.065671 0.26262 -0.040958 0.11619 0.11085 -0.068306 -0.47114 -0.53802 0.090479 -0.047227 0.027667 0.060148 -0.064136 0.45685 0.030637 0.18649 0.1369 -0.059112 -0.1397 -0.13052 0.26929 0.08424 0.12803 -0.093927 0.36387 0.19504 0.054212 0.020377 0.10957 0.0095226 -0.28275 0.14741 -0.2815 0.11685 -0.39757 -0.16087 0.16818 -0.0099028 -0.12385 0.16934 -0.45116 0.2943 0.26165 -0.2242 0.27279 -0.47322 0.019349 0.057414 -0.10897 0.32765 0.16012 0.042625 -0.11528 -0.21453 -0.029682 0.11704 0.29716 -0.040101 -0.075195 0.070926 -0.15332 0.15235 -0.24046 -0.20131 0.096653 0.1591 
virtuoso -0.22846 0.3342 -0.29453 -0.44613 -0.40599 -0.28025 0.36198 -0.44553 -0.061571 0.32918 -0.083128 -0.0021274 0.032947 -0.11872 -0.52394 -0.096228 0.36161 0.15062 0.12684 -0.19103 -0.17094 0.23829 0.064202 -0.5055 -0.23247 -0.19448 0.48214 0.075207 -0.040898 -0.10106 -0.43371 -0.15099 0.26211 0.56381 0.20036 0.51542 -0.07304 -0.040902 0.16795 -0.28396 -0.050273 0.12528 0.059272 0.17957 0.32454 -0.0036095 0.084179 0.2099 -0.038622 -0.080991 -0.10458 0.0042179 0.27921 0.0079106 0.030422 -0.10335 -0.096285 -0.21048 0.11667 0.35029 -0.20452 0.27173 0.12477 0.0079435 -0.10335 -0.025109 -0.22515 -0.13784 0.13983 -0.24568 0.27174 -0.41427 0.088408 0.17071 -0.17959 0.18398 0.6249 0.41224 0.41047 -0.63182 0.22404 -0.11111 0.11591 0.43722 -0.1577 0.47132 0.23151 -0.0060743 -0.33142 -0.5611 0.35096 -0.11589 0.14966 0.10366 -0.12732 0.4697 -0.052364 -0.45422 0.29582 0.40315 
calculation 0.15506 -0.15238 0.0029625 -0.077691 -0.17637 -0.24184 -0.15313 0.023966 0.11595 -0.20663 -0.044129 -0.053319 0.1295 -0.28559 -0.012962 -0.07267 -0.2898 -0.2035 0.20846 0.12793 0.0044649 0.45898 0.25804 0.28984 -0.10763 0.20572 0.27613 0.09193 -0.10853 0.0036622 -0.087972 -0.072633 -0.037057 0.30838 0.088328 0.075482 0.033877 0.23326 -0.030893 0.40309 -0.30128 0.086047 -0.23061 0.052826 0.13406 -0.068138 -0.0086219 0.31491 -0.14874 0.25276 0.19843 -0.18161 -0.019102 0.013438 0.14976 0.19984 0.43648 -0.039117 0.038124 -0.15532 -0.54657 -0.058612 0.010389 0.13111 -0.17488 0.055653 0.10431 0.20085 0.068903 -0.041825 0.12852 -0.018936 -0.067138 0.16402 0.053769 -0.21732 0.01082 0.065652 -0.11681 0.036103 0.1737 0.22908 0.12694 -0.21137 -0.23486 0.1759 0.32026 -0.29719 0.34255 0.024855 -0.00084866 0.31143 0.17628 0.026427 -0.12429 -0.21423 -0.01329 -0.34216 0.28979 0.15215 
announcement -0.03659 -0.1285 0.16418 0.14412 -0.065749 -0.19515 -0.1903 -0.089857 -0.090002 -0.12075 -0.24059 -0.48954 0.05149 -0.021838 0.13777 0.25922 0.099485 -0.053673 0.10905 0.065361 0.016973 0.04195 0.14502 0.16903 0.050808 -0.20431 0.31277 0.036944 0.12235 -0.0014282 -0.22973 0.28712 -0.073376 -0.08405 0.0071508 0.051223 0.51709 -0.070915 0.11126 0.11937 -0.14987 -0.18153 -0.041489 0.066507 -0.19922 0.12388 -0.21289 0.34126 -0.18029 0.12593 -0.40612 0.30208 -0.32208 -0.16924 0.26616 -0.14219 0.18151 -0.11461 0.14143 0.27515 -0.23131 -0.032601 0.29558 -0.042304 0.13438 -0.19526 -0.26903 0.044814 -0.27796 -0.16855 0.31551 0.027043 -0.096682 0.171 0.25627 0.032901 -0.41758 -0.036561 -0.2729 -0.22642 -0.23979 0.29602 -0.12795 0.16574 -0.21229 -0.039952 -0.24632 0.11529 0.096998 -0.46244 0.30401 -0.029415 0.16572 0.019572 0.14823 -0.38873 -0.002383 -0.028956 0.10431 -0.093955 
personnel -0.10598 0.023576 0.13459 0.30541 -0.12346 -0.377 0.14591 0.12248 0.16427 -0.075187 0.13773 -0.022618 -0.29536 0.11416 -0.095558 0.15622 0.078146 -0.21313 0.10847 0.11613 0.021412 0.13335 -0.20567 0.087357 -0.36651 -0.26967 -0.23808 -0.21779 -0.049321 0.16777 0.34351 -0.018307 0.1969 0.075293 -0.12911 -0.028715 -0.067065 -0.1406 -0.20422 0.031017 0.0064535 -0.15911 0.088331 -0.2264 -0.068511 0.014771 0.33593 -0.28966 0.10073 -0.091535 -0.35544 0.22276 -0.70907 0.18977 0.37057 0.20108 0.4627 0.11717 -0.13026 0.099851 -0.077941 0.10738 0.070567 -0.020863 0.32666 0.12043 0.31561 0.59486 -0.38634 0.11551 -0.16137 -0.14616 0.20492 0.3171 -0.15258 0.1505 0.13631 -0.03742 0.028346 0.02069 0.46506 -0.20814 0.48982 0.20539 -0.15565 -0.22136 0.032558 -0.22158 0.2362 -0.038407 0.45315 -0.16874 -0.10651 -0.074847 0.098948 0.063208 0.060953 -0.095008 0.017485 0.29106 
nation -0.1521 0.22216 -0.11918 0.06848 0.19665 -0.029858 0.10057 0.11401 0.08835 -0.15315 0.037794 -0.074281 -0.083198 0.10382 0.31531 0.22771 -0.17058 -0.21799 0.046432 -0.084141 -0.15275 -0.022592 0.083304 0.20999 -0.41712 0.15081 -0.237 0.25516 0.080495 0.23277 -0.39793 -0.12815 0.036928 0.28921 -0.34988 0.21453 0.09012 -0.045173 -0.30307 -0.064682 -0.054215 -0.13007 -0.12498 0.1055 -0.21334 -0.033302 -0.17764 0.3967 -0.029248 0.045651 -0.40567 0.26368 -0.13702 -0.1023 -0.077269 -0.15244 0.13998 0.12051 0.49777 -0.11199 -0.022497 0.045092 -0.30323 0.07526 0.031909 0.20689 -0.083228 0.067502 -0.2172 -0.031074 -0.23225 0.16269 0.19371 0.11356 0.058391 -0.094196 0.24067 -0.008993 -0.086284 0.23849 0.0085987 -0.073906 -0.0011764 0.096854 0.19351 0.0082992 0.0051579 -0.10386 0.10792 -0.077644 0.0070787 0.024396 0.0097874 -0.022504 0.3124 0.09251 0.1768 -0.077837 0.26162 0.079383 
Arafat 0.307 0.31523 -0.38388 -0.34989 -0.17692 0.25364 -0.58781 -0.55352 -0.289 0.11922 -0.72191 -0.38253 0.61014 0.50656 0.52932 0.71503 0.40999 0.28969 -0.27299 -0.49407 -0.38412 -0.03355 0.20214 0.43472 -0.5045 0.32128 0.54368 -0.44868 0.26539 0.76556 0.21705 -0.55268 0.3512 0.32993 -0.43187 0.86348 0.19207 -0.12088 0.46397 -0.41854 0.40925 -0.25351 -0.056117 -0.015997 0.30627 0.33019 0.032263 0.16361 0.22738 0.0031577 0.066969 -0.19455 0.22878 -0.21874 -0.16523 -0.18741 0.25624 -0.090083 -0.050423 -0.1808 0.34885 0.13876 -0.22509 0.0059026 0.22237 0.39276 -0.1307 -0.0044107 0.019525 -0.0060035 0.31836 -0.21341 0.23902 0.62083 -0.29836 0.44427 0.066593 -0.1256 0.23825 0.25224 -0.028149 0.087854 0.20708 0.54338 -0.51105 0.72328 0.33921 -0.29484 -0.26569 0.39947 0.07198 1.0191 -0.80921 0.23784 -0.38764 -0.077908 0.18393 -0.25242 0.20033 -0.28394 
basketball 0.089811 -0.23726 0.065334 -0.089471 -0.3272 -0.31212 0.40219 0.21535 -0.22833 -0.26165 0.23265 -0.32499 -0.34028 0.16812 -0.63638 0.36206 -0.33736 -0.15556 -0.20697 0.27116 0.060917 -0.22918 -0.25056 -0.33095 0.077375 0.10971 0.25673 0.026901 0.23667 0.21988 -0.24846 -0.40265 0.15846 0.2351 -0.12222 -0.091233 0.087081 0.069238 -0.39682 -0.33085 -0.55876 0.33279 0.27931 0.27834 0.30512 0.35586 0.076902 0.12467 -0.075 -0.32576 -0.25288 -0.14669 0.057793 -0.34664 0.14049 -0.62543 0.035432 -0.095981 0.37953 -0.016642 0.1503 -0.37896 0.42376 0.25213 0.73035 0.27662 -0.053561 -0.022024 0.12332 0.73013 0.075881 0.12229 0.19556 0.1508 0.15539 -0.14029 0.64098 -0.31601 -0.24302 -0.51563 -0.10919 -0.18596 -0.037078 -0.37607 0.28842 -0.20604 -0.037335 -0.10099 0.24326 0.26807 0.044152 -0.095379 -0.069375 0.0081233 0.076798 -0.051665 0.021396 0.1147 0.26109 0.10181 
life -0.13576 0.2599 -0.19066 -0.16059 0.0060998 8.923e-05 0.11922 0.0041185 -0.1879 0.13965 0.2236 -0.36845 -0.20572 -0.082905 -0.1528 -0.044859 0.22056 -0.091074 0.05775 -0.09044 -0.017364 0.036982 0.049821 0.12502 -0.26311 -0.0093254 -0.036146 0.1897 0.16555 0.052519 -0.1325 -0.15478 0.24003 0.45027 0.023107 0.5695 -0.06225 -0.20189 -0.001597 0.22733 0.18855 -0.1752 -0.13382 -0.34168 0.084977 -0.060318 -0.24671 0.25614 0.062018 0.27547 -0.25521 0.02613 0.085536 -0.19162 0.23434 -0.1205 0.20052 0.052724 0.071845 0.0303 -0.18626 -0.073377 -0.071205 0.033798 -0.01438 0.354 -0.00091319 -0.085184 0.019012 0.20764 0.082683 -0.040578 0.0016838 0.24115 0.26077 0.13941 0.13937 0.0652 0.18436 0.10744 0.20758 -0.058137 -0.10168 -0.17979 -0.2712 0.073854 0.071014 -0.15814 0.12783 0.2347 -0.12469 -0.1509 -0.070334 0.10836 -0.11322 0.22387 -0.11144 -0.19386 0.033491 0.098834 
payment -0.28691 -0.24159 0.26228 0.10734 -0.10111 0.060046 0.1542 0.092902 -0.44584 -0.0058275 -0.0065834 -0.050019 -0.041554 -0.28115 0.39599 0.19704 0.20753 -0.076795 0.18205 0.17206 -0.073523 0.57728 0.19685 0.14739 -0.12968 -0.038951 0.41551 -0.038924 0.088077 0.049389 0.016774 0.37587 0.20238 0.28242 -0.16627 -0.044023 -0.018709 0.21807 0.0056155 0.11626 -0.16427 0.095065 -0.057744 -0.25612 0.10376 0.092746 0.16599 0.29456 -0.22194 0.42104 0.28004 0.13666 0.010298 0.28854 0.40886 -0.14602 0.043924 -0.1189 0.36017 -0.08785 -0.45641 0.088811 0.30548 -0.040485 0.1027 -0.0018785 0.063819 0.1444 -0.11707 0.43069 -0.1094 -0.33327 -0.070775 0.005737 0.32668 -0.0018117 -0.32238 0.058114 -0.327 0.23086 0.24048 0.16341 0.18142 0.10625 0.00033466 -0.095971 0.1004 -0.14965 0.3314 -0.033677 0.082124 0.087636 -0.13914 0.46622 0.0027555 -0.31962 -0.097181 -0.44987 0.37789 -0.29605 
atmosphere 0.15418 0.078399 0.11497 -0.28429 -0.12564 0.25104 -0.25488 0.064846 0.081806 -0.040115 0.33215 -0.22322 -0.026196 -0.68303 -0.24358 0.41924 -0.15672 -0.35355 0.076463 -0.044077 0.0081126 0.055174 -0.071093 0.063002 -0.13058 0.31535 0.16041 0.23685 0.18689 0.12952 -0.10814 -0.245 -0.2482 0.28848 -0.13593 0.059704 0.35707 -0.11665 -0.024257 -0.11332 -0.00586 -0.2152 -0.18711 -0.21519 0.089137 0.30135 -0.12281 0.085469 -0.14723 0.38251 -0.16252 0.12249 0.086319 -0.072356 0.34972 0.42123 0.10029 0.49857 0.20626 0.17895 -0.37197 -0.40205 -0.078505 -0.044769 -0.075318 0.20497 -0.36917 0.16722 0.32161 0.00066578 0.056004 0.11101 -0.18587 0.31503 -0.26655 0.40881 0.29489 0.58021 0.35408 -0.23061 0.39221 -0.15642 0.089174 -0.35236 -0.13167 0.093897 -0.11892 -0.19357 -0.29472 -0.02972 0.15116 0.12961 0.38937 -0.11978 -0.092122 0.17206 -0.16474 -0.2131 -0.24588 0.089621 
children -0.23269 0.41943 0.11301 0.11497 0.070622 -0.12474 0.10915 0.05535 -0.082268 0.407 0.28564 0.11869 -0.23702 -0.089033 -0.57919 0.1512 0.29677 0.099139 -0.093132 0.18259 0.4546 -3.1794e-05 -0.067298 0.12099 -0.12912 0.25662 -0.19759 0.069766 0.20834 0.26158 0.072879 0.10587 0.231 0.21697 -0.21143 0.2581 0.065084 -0.09803 -0.002941 0.21228 0.048071 -0.26954 0.0081492 -0.17112 0.086051 -0.030397 0.11363 0.064439 -0.28646 0.034515 -0.003732 -0.20706 -0.051197 -0.70011 0.040459 -0.27919 0.28932 0.25051 -0.014591 0.079925 0.023165 -0.0084463 -0.057161 0.13008 0.054238 0.30171 0.1729 -0.067158 -0.11361 0.43406 0.063663 0.045018 0.22688 0.16973 0.17871 -0.20872 -0.21817 -0.063983 0.10693 0.17664 0.045527 0.0032472 -0.012606 -0.02905 -0.0041939 0.25919 0.31607 -0.48378 -0.021417 0.38443 -0.01433 -0.18514 -0.27459 0.14008 0.047248 -0.014378 0.08305 0.012103 -0.048395 -0.078217 
potato -0.28462 -0.137 -0.35947 0.089203 0.3132 -0.43957 -0.055898 -0.034682 0.17258 0.72905 0.32738 0.18956 -0.23174 -0.40737 -0.26005 0.17869 0.28271 -0.19011 0.16949 0.094286 -0.023046 -0.18655 0.043558 -0.2094 -0.13144 0.33164 0.53022 0.066394 -0.29431 0.21557 0.098107 -0.57256 0.12646 0.56103 -0.567 0.16326 -0.0080754 -0.11403 -0.35983 0.39683 -0.21235 0.15027 -0.62082 0.11538 0.099015 0.4802 -0.082047 0.4191 -0.31838 0.5018 -0.069102 0.50371 0.010158 0.032868 0.12814 0.21382 -0.46564 0.20858 -0.31715 -0.028012 0.12957 -0.25069 0.61917 0.050777 0.069757 -0.20633 -0.061978 -0.30714 0.12387 0.25828 -0.49313 0.086864 0.2299 -0.17328 -0.098736 -0.14334 0.35437 0.16973 -0.5058 -0.29029 -0.4505 0.13558 0.36897 0.10153 -0.47936 0.41253 0.1793 -0.092453 -0.45428 -0.62822 -0.080126 0.42139 0.32796 0.59776 0.48815 0.21082 0.40922 -0.22527 -0.1305 0.20806 
dollar -0.13048 -0.6048 0.33838 -0.036254 -0.026101 -0.38446 0.13083 0.27747 -0.047936 -0.29299 -0.11019 -0.069163 0.27964 -0.043602 -0.046415 -0.24323 0.13978 -0.32102 -0.091627 -0.095779 0.48018 0.37639 0.53646 0.14311 -0.14218 0.56802 -0.22424 0.37639 0.26423 -0.26534 -0.15299 0.34756 0.39071 -0.3511 0.12975 0.38281 0.28001 -0.17356 -0.57237 0.2609 0.15741 -0.081497 0.16779 0.47182 -0.07666 0.8455 0.14041 0.37142 -0.02108 0.007019 -0.51831 0.077185 -0.26336 0.1345 0.12781 0.26165 -0.087659 0.22346 -0.0058071 -0.2442 0.018151 -0.35859 0.15305 0.0057364 -0.29421 -0.13427 -0.22067 0.060198 0.31899 -0.17135 0.20619 0.18419 -0.04305 -0.35769 -0.0065563 0.13339 0.023515 0.10709 -0.45691 0.079222 -0.0089573 -0.21592 0.44058 0.085809 -0.051671 0.48012 0.47429 -0.015684 0.43723 0.068624 0.092875 0.14381 -0.13267 0.26645 -0.096976 -0.046679 0.034642 -0.042607 0.73806 0.095223 
season 0.083509 -0.16357 0.19587 0.087142 -0.3945 -0.25317 0.13464 -0.32736 -0.092174 0.12554 0.16495 -0.13497 -0.090299 0.065046 -0.018098 0.14649 0.26641 -0.41031 0.48747 -0.00063373 -0.23405 -0.36172 -0.56785 -0.48388 0.058393 -0.22546 0.028989 -0.22152 0.34119 0.15955 -0.11677 -0.16436 0.00016484 0.041126 -0.09699 0.1504 0.20276 0.093877 -0.026062 -0.053236 -0.34767 0.34057 -0.12386 -0.02329 0.22763 -0.084426 -0.25141 0.18552 0.194 -0.084354 -0.053633 0.39038 -0.030441 -0.20688 0.12971 -0.22815 0.18153 0.34829 0.44782 -0.017342 -0.50183 -0.41116 0.015413 0.11891 0.40558 0.052263 -0.4973 -0.13192 0.16838 0.011061 0.10202 0.018992 0.45104 -0.23762 0.066968 -0.064966 0.1618 -0.037094 -0.36645 0.025425 -0.18218 -0.016299 -0.04551 -0.18048 -0.11237 0.27004 0.043995 0.26542 0.091875 0.27787 -0.27322 -0.20589 0.26877 0.13788 0.20367 0.002051 -0.17943 0.075052 0.21628 0.027357 
activity -0.02088 -0.21967 0.26012 0.11666 -0.38926 -0.12505 -0.34209 0.14688 -0.0063596 0.019505 0.018455 -0.12946 0.33221 -0.11213 -0.069798 -0.089639 -0.14294 -0.31438 0.047366 0.058587 0.27227 0.25908 0.24833 0.11741 -0.053473 0.19112 -0.099141 0.20358 0.15369 -0.19178 0.028041 -0.17039 -0.14255 0.18296 -0.19298 0.23969 0.049526 -0.045794 -0.086425 0.16655 -0.061898 0.2309 -0.16226 0.044023 0.099791 0.1709 -0.2695 -0.0043914 -0.03289 0.15973 0.027249 0.079238 -0.27772 -0.060662 -0.011462 0.058787 0.33492 0.55988 0.12614 0.25205 -0.082405 0.22134 -0.13309 -0.35038 -0.034532 0.23986 0.16494 0.29602 -0.17503 -0.27201 -0.020579 0.023622 0.058983 0.35346 0.2954 0.052101 -0.02327 0.32735 0.13535 -0.039975 0.35077 -0.01239 -0.22738 -0.019171 -0.35339 0.046854 0.2294 0.093876 0.32147 0.16657 -0.074385 -0.030228 0.17445 0.019213 -0.19312 0.083474 0.19088 -0.27012 0.38655 0.21106 
car 0.064242 -0.1094 0.076934 -0.18667 -0.3689 -0.093092 0.03004 -0.099186 -0.048349 -0.021758 -0.17371 -0.056554 -0.44108 -0.31833 -0.42219 0.18786 -0.28701 -0.36675 0.078827 0.025832 0.010215 -0.15273 0.027544 0.022006 -0.17744 0.35756 -0.25016 -0.076539 0.2764 0.38157 -0.21969 0.4805 0.25629 -0.090853 0.17536 0.057448 -0.18241 0.010911 -0.0708 -0.048604 0.27667 -0.031363 -0.38167 -0.1389 0.33883 -0.34523 0.35997 -0.085959 -0.065567 0.60794 -0.10391 0.0023175 -0.074087 0.26367 0.098887 0.37603 -0.16887 -0.34191 0.081322 0.45187 -0.032763 -0.065223 0.16914 -0.29136 0.19737 -0.047897 0.24433 -0.27562 -0.12481 0.25661 0.049768 0.093521 -0.37888 0.38281 0.19481 0.32533 0.073149 -0.10397 -0.61748 0.14999 -0.030459 0.0070057 -0.28373 0.12735 -0.085325 0.32424 0.21559 0.063125 0.1432 0.099346 -0.019372 -0.31518 -0.36504 0.086942 0.3059 0.13055 0.22235 0.0072073 -0.060815 0.31006 
valor 0.21072 0.36448 -0.15866 -0.047842 -0.085547 0.09323 -0.13091 0.41897 0.21979 -0.010857 0.22926 0.066581 -0.1256 0.23962 0.25181 0.15472 -0.048269 0.010728 0.33489 -0.19991 -0.11181 -0.14006 0.10586 0.23409 -0.43026 0.31977 0.13204 0.15656 0.11093 0.17106 -0.17195 -0.10533 0.78011 0.20282 -0.038607 0.67085 0.040528 0.35685 -0.30714 0.078361 -0.047268 -0.11546 -0.051655 -0.090032 -0.13184 -0.42446 0.039485 -0.099047 0.091615 0.023978 -0.35114 0.13131 0.024752 0.1372 0.40679 -0.03284 0.28139 -0.008619 -0.045189 0.18278 0.054402 0.15747 0.24253 0.17933 0.27176 0.4611 0.031829 0.39828 -0.0023714 0.41881 -0.12919 -0.085029 0.15419 0.18581 -0.49615 0.064855 0.32475 0.11828 -0.11855 -0.17924 0.28631 -0.41952 0.28052 0.38379 -0.19036 0.055891 0.25106 -0.29942 0.13404 -0.15901 0.40941 -0.089082 -0.006935 -0.00088749 -0.0041606 0.081007 0.07481 0.057014 0.40109 0.34531 
chord -0.29346 -0.025591 -0.20234 -0.29905 -0.27273 -0.02742 0.33149 -0.049227 0.41229 0.094436 0.24477 -0.18545 -0.091066 -0.33508 -0.25207 -0.30241 0.18858 0.4127 0.17475 -0.092545 -0.15276 -0.28981 0.22883 -0.57968 -0.31057 0.26291 0.12351 -0.22239 -0.22585 0.0053801 -0.70636 0.23635 0.13305 0.075954 -0.12991 0.10361 0.0052802 0.15607 0.29699 -0.12632 -0.051187 -0.16728 -0.32265 0.079435 0.35093 -0.0076415 0.037299 0.38071 -0.096499 0.11865 -0.44809 0.23191 -0.034147 0.20215 -0.12267 0.047402 0.012048 0.24963 -0.11987 0.4923 -0.61871 -0.0115 -0.24162 0.0066164 0.1061 0.20831 0.13912 0.01908 -0.46469 0.088337 0.45502 -0.29156 0.00029534 0.35474 0.21967 0.25282 -0.08101 0.38414 0.30258 -0.53394 0.45149 0.36098 -0.16528 -0.1061 -0.17369 0.87339 0.30305 -0.27334 -0.17954 -0.87067 0.33239 0.261 0.073363 -0.44623 -0.1132 0.014073 -0.17081 -0.14433 0.014544 0.054945 
vodka -0.092034 -0.29046 0.0314 -0.11067 -0.17646 -0.038515 0.06351 0.019484 -0.12562 0.92253 0.096183 0.13237 -0.21829 -0.43745 -0.42669 0.022913 0.17755 -0.20769 -0.29808 0.073979 -0.45223 -0.53995 -0.2924 -0.098775 0.050226 0.46623 0.15675 0.064884 -0.11566 0.42619 0.13073 -0.030946 0.17621 0.23093 -0.2858 0.011376 -0.2744 -0.14441 0.006197 0.056341 0.097699 0.26449 -0.028303 0.32612 0.19173 0.37023 0.094248 0.23818 -0.32022 0.61564 0.13019 -0.085115 0.0035279 0.19712 0.24409 0.69448 -0.469 0.25024 -0.4779 0.017734 0.3206 -0.33609 0.21548 -0.39972 0.084861 -0.003097 0.24573 -0.18613 0.4244 0.079567 0.062561 0.10618 0.012607 0.28351 -0.24744 0.061839 0.04595 0.18911 -0.023699 0.17176 -0.31598 0.024458 0.33637 -0.075805 -0.18451 0.26554 0.3453 -0.32762 -0.074711 -0.33221 0.087482 -0.23077 0.22125 0.56646 0.31906 0.63894 0.25954 -0.39833 0.3614 0.175 
effort -0.092849 0.17924 0.2529 -0.079639 -0.13684 -0.29462 0.25694 -0.12501 0.18252 -0.13629 0.004641 -0.18903 -0.097369 -0.10395 0.0064937 0.016425 0.068992 -0.39017 -0.24074 0.068947 -0.010278 0.35885 0.20063 0.15753 -0.24684 -0.15361 -0.1793 0.024892 0.16832 -0.034438 0.12063 -0.11932 -0.025598 0.42876 -0.13934 0.2984 0.16307 0.023778 0.035984 -0.048548 -0.092551 -0.09889 -0.21001 -0.10967 -0.13035 0.12509 -0.19113 0.2469 0.069916 -0.2126 -0.088171 0.09099 -0.11157 0.089416 -0.051452 0.012312 -0.045671 0.31661 0.13813 0.10629 -0.23297 -0.15191 -0.10713 0.1632 0.0066743 -0.13054 0.029377 0.052593 -0.29893 0.098718 0.25991 -0.14471 -0.10886 0.1701 0.041168 0.054949 0.32844 -0.052118 -0.17648 -0.14225 -0.071707 -0.085592 0.24649 0.031929 -0.19752 0.12293 -0.11081 0.11993 -0.0049638 -0.33689 0.30455 -0.17668 0.10006 0.16645 0.087362 -0.14006 0.29448 0.0044018 -0.18195 -0.059605 
glass 0.099918 -0.37496 -0.27181 -0.099425 -0.27086 0.17507 0.19668 0.014946 0.077563 0.32183 -0.022969 0.22605 -0.05295 -0.41418 -0.51267 0.42672 0.17903 -0.055169 -0.31557 0.12684 -0.36241 -0.090603 -0.093097 -0.19606 -0.1572 0.24276 0.53571 0.2367 0.26412 0.033599 -0.084785 -0.16507 0.029017 0.4246 -0.35548 -0.15088 -0.35055 -0.013264 -0.13142 -0.039159 -0.14637 -0.23529 -0.16954 0.037964 0.10501 0.36608 0.27685 0.0081647 0.020266 0.89582 -0.042192 0.10698 -0.10891 0.06072 -0.02522 0.61453 -0.25882 0.075108 -0.20054 -0.086112 0.23421 -0.15272 -0.05287 -0.45944 0.25137 -0.10735 -0.30994 -0.074909 -0.33266 0.23868 0.1135 0.0051724 -0.18756 -0.24882 -0.44857 0.53293 0.28184 0.066411 0.16851 -0.15803 0.11941 -0.39097 -0.28019 0.14556 -0.18747 0.10362 0.4005 -0.35158 -0.1181 -0.014896 0.015822 0.036797 0.080656 0.35722 0.053939 0.24674 -0.18172 -0.044813 0.17114 0.41539 
prominence 0.12148 -0.073618 0.042729 -0.11985 -0.17315 -0.4767 -0.086127 0.0011746 -0.072391 -0.075538 -0.14074 -0.19259 0.38025 -0.17629 -0.071978 -0.1996 0.14541 0.058694 -0.14688 -0.31032 0.063588 -0.17502 0.24817 0.1388 0.0028866 0.24227 0.22477 0.23779 -0.11663 0.12134 -0.30447 -0.087637 0.1598 0.18299 0.14645 0.51443 0.48056 -0.17296 -0.11204 -0.2312 0.13114 0.035437 -0.0098002 0.12898 -0.04815 0.11301 -0.22909 0.27356 -0.11493 -0.1596 -0.27485 -0.20835 -0.20917 -0.093728 -0.11079 -0.38441 0.32553 0.053724 0.10047 0.057745 0.16397 0.002538 0.20994 -0.013036 -0.1643 0.2104 -0.072534 0.020356 -0.035953 0.22745 0.31004 -0.22158 0.18397 -0.042047 -0.1423 0.32768 0.27127 0.17793 -0.18153 -0.12621 0.13187 -0.16885 -0.028877 0.045683 -0.075432 0.11688 -0.0036893 -0.071105 0.38082 -0.38047 0.19881 -0.24222 0.10033 -0.036569 0.063708 0.20515 0.28257 -0.025951 0.30913 0.12948 
Mexico -0.53961 0.18887 0.20633 0.21996 -0.30368 -0.076549 -0.20335 -0.47628 -0.044843 0.22096 0.019336 0.12049 -0.18772 0.45444 0.19618 -0.034984 -0.089733 -0.14628 -0.099277 -0.16092 -0.1971 -0.053187 -0.18833 0.034468 -0.41842 0.04865 -0.16862 0.52466 -0.043877 -0.09892 0.027437 0.040417 0.010456 -0.21828 -0.24765 0.10165 -0.058845 -0.046899 -0.40722 0.38466 0.050927 0.028178 0.060988 0.55774 0.17083 -0.0002621 0.26376 0.37256 -0.33289 -0.006786 -0.1366 0.055965 -0.58632 -0.061895 -0.15703 -0.20151 0.30972 -0.05073 0.13826 -0.00038205 -0.19474 -0.27469 -0.09106 -0.34979 0.10207 0.12038 0.029024 -0.31331 -0.20794 -0.0028777 -0.0098292 0.46413 0.11313 0.071512 -0.077794 -0.13793 0.39768 0.73689 -0.096418 0.28923 0.12672 0.44829 -0.1416 -0.047629 0.2495 -0.070655 -0.36731 -0.38659 -0.36047 0.062919 -0.21699 -0.32966 -0.062094 0.053745 0.041367 0.090609 0.22191 0.28308 -0.056103 0.13322 
CD 0.28693 -0.13788 0.31944 0.042434 -0.079688 0.1259 0.13396 0.16522 -0.33232 0.28643 -0.22714 -0.30735 0.25566 0.078308 -0.53578 0.32648 0.0601 -0.11097 0.050037 -0.042414 -0.21644 -0.16017 -0.41579 -0.031097 0.0052741 -0.065847 -0.20193 -0.24427 0.19688 0.00099376 -0.12904 0.052049 0.35157 -0.0032053 0.2116 0.41128 0.23664 0.36759 -0.34743 -0.11163 -0.28466 -0.33195 0.42919 0.25657 0.2805 0.033618 -0.16349 0.35662 -0.25768 0.51141 0.22566 0.16318 0.043828 0.16889 -0.0090176 -0.012833 -0.66673 -0.042266 0.23993 0.43121 -0.099218 0.16104 0.13956 0.074148 0.14946 -0.31298 -0.29157 0.11957 -0.055066 0.26981 0.45762 -0.15705 0.27358 -0.0013375 -0.0032457 0.075862 0.10705 0.22176 0.1365 -0.24864 0.44517 0.40039 0.15245 0.020445 0.16954 0.32587 0.42166 -0.17241 -0.2115 -0.42242 -0.19748 0.013876 -0.26303 0.083006 0.07843 -0.028921 -0.34008 -0.72399 0.16786 0.52383 
paper 0.091473 -0.089418 0.042808 0.32019 -0.17618 -0.075067 0.13693 -0.067515 0.10055 -0.029826 -0.099154 -0.31105 0.14956 0.02797 -0.025876 0.057195 -0.11739 0.022146 0.048353 0.029596 -0.091315 0.032345 -0.11862 0.3443 -0.083501 0.41796 0.10654 0.040222 -0.099914 -0.11681 -0.07277 0.037418 -0.16126 0.31969 0.031284 0.074375 -0.1165 -0.044286 -0.096209 0.11364 -0.1683 -0.011687 -0.10252 0.11736 0.1177 0.1837 0.21658 0.12877 0.0098817 0.5753 -0.023638 -0.20403 0.099032 -0.10931 0.30465 0.12677 -0.24763 0.097463 -0.20401 -0.041957 -0.19428 -0.11963 0.10269 0.14671 0.15735 -0.21854 -0.18293 0.15029 -0.19093 0.11341 0.31534 0.052135 -0.049261 -0.21585 -0.042859 0.16972 0.0078293 0.066025 -0.0030646 0.029988 0.19799 -0.046129 -0.16848 0.034771 -0.2188 -0.06418 0.082603 -0.16396 -0.06819 0.093758 0.2401 0.15907 -0.13411 0.30806 0.21178 -0.018484 0.045667 -0.47447 -0.051528 0.17872 
avenue -0.27977 0.27581 -0.42737 -0.34476 -0.10555 0.12587 0.11335 0.46617 -0.097427 0.20711 0.0268 -0.073516 -0.086425 0.12156 0.065329 0.34917 0.30424 -0.073511 -0.049563 -0.092434 -0.38432 0.35359 0.28955 -0.37475 -0.13036 -0.057824 0.038645 0.096994 0.037437 -0.064737 -0.049392 -0.01171 -0.19201 0.094314 0.08739 -0.17876 -0.1453 0.10557 0.039909 -0.17447 -0.058078 0.055408 -0.11918 0.2007 -0.14476 0.018489 0.15703 0.21267 0.23348 0.50012 -0.18027 -0.3345 -0.059718 -0.22371 -0.057092 -0.18601 0.12936 0.35604 -0.10778 0.1644 -0.54693 -0.007039 -0.088613 -0.25322 0.062232 -0.033742 0.0067697 -0.060834 -0.31766 -0.062998 -0.11612 0.29979 0.082886 0.39132 -0.22847 0.43981 0.39264 -0.22518 -0.12491 -0.028284 -0.0049329 -0.31734 -0.10224 0.38803 -0.26897 0.19773 -0.082147 -0.2592 0.031189 -0.089853 0.091615 -0.11736 -0.011489 -0.13283 -0.011798 -0.21584 0.22443 -0.080498 -0.11511 0.26796 
insurance -0.57277 -0.027067 0.42952 0.011094 0.0010555 0.2911 0.42115 -0.29455 -0.45377 -0.069155 0.027212 0.12039 0.054432 -0.026437 0.042567 0.24289 -0.30725 -0.025427 0.28534 0.11044 -0.37454 0.37046 0.1999 0.30848 -0.24616 0.088399 -0.21609 0.043678 -0.00093082 0.32769 0.14306 -0.035166 0.04617 0.52354 -0.1528 -0.07125 -0.02551 0.14081 -0.14577 -0.15501 0.014886 -0.27685 -0.19802 -0.29003 -0.29433 -0.006732 0.17461 0.13917 0.17782 0.41729 0.011899 0.21603 -0.17257 0.24968 0.085316 -0.1651 0.049157 -0.09559 0.41696 -0.20369 -0.3789 -0.058922 0.1698 -0.15125 -0.32345 0.32185 0.14863 0.080661 0.088456 0.21657 -0.30366 -0.15702 -0.10817 -0.002551 0.7219 -0.11427 -0.28345 -0.20207 -0.43039 0.37536 -0.02152 -0.23311 0.33444 -0.067378 -0.28065 -0.37702 0.25174 -0.13038 0.028488 -0.044445 0.28034 -0.38777 -0.69934 0.73347 0.38967 0.094337 -0.1109 -0.25374 0.42932 0.071429 
gender -0.071661 0.14106 -0.20714 0.16637 -0.28541 0.080778 0.040885 0.090304 0.37281 -0.18573 0.44324 -0.027612 -0.21347 -0.24099 -0.43561 -0.014468 -0.38925 -0.054163 -0.036962 0.043159 0.23111 -0.31884 0.38033 0.17689 0.23381 0.3907 0.1001 0.17826 -0.029879 0.12964 -0.019071 -0.041793 -0.10914 0.44281 -0.34116 0.16859 -0.1777 -0.17238 0.13451 0.0029341 -0.10672 0.25695 0.11197 -0.04906 0.27726 -0.27545 -0.046119 -0.26459 -0.10702 0.51078 -0.048296 -0.22866 0.0070174 -0.091761 0.099008 -0.52675 0.96308 0.33832 -0.062052 0.083992 -0.30738 0.041548 -0.18748 0.12124 -0.41499 0.37671 0.39278 0.20154 -0.3053 0.2965 -0.14032 -0.025248 0.031267 -0.12634 0.2207 -0.020897 0.1614 0.27406 0.086331 -0.38905 -0.33143 -0.31422 0.14323 -0.35531 -0.19298 0.18755 0.3518 -0.6452 0.38253 -0.14784 -0.045813 0.086272 -0.13049 0.3103 0.19756 0.10447 -0.17185 -0.32597 0.38945 -0.0082066 
project -0.043208 -0.19841 0.53101 0.10496 -0.17994 -0.31193 0.086017 -0.043053 0.03839 -0.004634 0.1172 -0.10755 -0.017175 0.050703 0.085589 -0.29296 0.090228 -0.36648 -0.11039 0.06534 0.050021 0.0042402 0.10377 0.22473 -0.11044 0.010293 -0.070713 0.25871 0.2951 -0.17272 0.042297 -0.22157 0.1081 0.3631 -0.34844 0.20223 -0.13185 -0.1063 0.18784 -0.31986 -0.10908 -0.13929 0.21639 -0.10454 0.088468 -0.15376 0.088155 0.44043 -0.12186 0.30763 0.037806 -0.015374 -0.089823 -0.081282 0.038346 0.0098133 0.21233 -0.22697 0.23662 -0.14595 -0.13523 -0.12389 -0.02357 0.016472 -0.15599 -0.053931 -0.26088 0.11961 -0.16599 -0.15351 0.19462 -0.12462 -0.18706 0.25877 -0.16698 0.2943 0.04529 -0.13557 -0.071873 -0.089035 0.017317 0.15193 0.037752 0.038572 -0.058687 -0.081326 -0.17302 -0.12205 0.11179 -0.047641 0.13616 -0.2881 -0.0079156 0.074641 -0.011218 -0.13145 0.25507 -0.16304 -0.2187 0.051495 
maker 0.47755 0.053227 0.12421 0.093793 -0.091968 -0.1021 0.4145 0.18644 -0.44423 -0.096005 -0.0035273 -0.21186 0.01584 -0.15477 -0.26919 0.0033328 0.14924 0.058015 0.047957 0.39919 -0.3358 -0.078217 -0.055262 0.39427 0.3665 0.32877 0.0032302 0.31074 0.22813 0.51684 -0.30769 -0.026767 -0.098219 0.36413 0.037751 0.24699 0.13046 0.026928 -0.85578 -0.31396 -0.11604 -0.33398 -0.017576 0.55044 0.1312 -0.080985 0.096685 0.4613 -0.064445 0.63238 -0.12982 0.45634 -0.13544 0.21498 -0.060386 0.71749 -0.58611 -0.51834 0.054131 0.29846 0.53967 0.26333 0.4604 0.13005 0.11609 -0.60364 0.088031 -0.40337 -0.74212 -0.015233 -0.067145 0.30791 0.40004 0.22482 0.31782 0.085843 -0.12099 0.26337 -0.32931 0.3189 -0.22986 0.032196 0.15732 0.073352 -0.029139 0.38989 -0.020066 -0.050385 0.17652 -0.11228 0.27962 -0.4914 0.11375 0.025758 -0.070783 0.20324 0.34742 -0.29318 0.24837 -0.35848 
feline -0.14381 0.4121 0.51345 -0.36348 -0.073166 -0.075455 -0.17047 0.0014234 0.11963 0.37051 -0.0098143 -0.046732 -0.055397 -0.030289 -0.49168 0.23897 0.25434 0.14853 0.026497 0.029178 0.059961 0.050083 0.2037 -0.028005 -0.060006 0.35226 0.35776 0.067506 0.091999 0.048317 -0.016076 0.016214 0.16189 0.44306 -0.13959 0.15844 0.052523 0.015096 -0.13737 0.2197 -0.20159 -0.013659 -0.19844 -0.25631 0.18533 -0.11709 0.048792 0.21619 0.15584 0.33564 -0.098238 -0.0035061 -0.033705 -0.19018 0.07537 -0.086062 0.16652 0.1147 0.099157 0.069694 -0.31965 0.15857 -0.195 0.006396 0.35929 0.10826 0.029439 -0.087906 0.0114 0.20755 0.27255 0.30619 0.028506 -0.072264 -0.21824 0.051534 -0.060012 0.029155 0.21498 0.18693 -0.32297 -0.30907 -0.15101 0.02818 -0.030121 0.15291 -0.024658 -0.25384 -0.13112 -0.0099444 -0.17902 -0.21197 0.068021 0.13909 0.010337 0.25821 0.13042 -0.3956 -0.043939 -0.055644 
departure 0.017954 -0.076285 0.19023 -0.062425 -0.36851 -0.0053205 0.012987 -0.27786 -0.18716 0.06522 -0.30046 -0.028271 -0.047611 -0.047939 0.11551 0.2632 0.13604 -0.19512 0.18912 -0.051943 -0.23262 -0.21036 -0.075493 -0.056145 -0.17503 -0.12938 0.31032 -0.10623 0.023228 -0.043721 -0.1407 0.13674 0.046564 0.11195 0.091443 0.13937 0.30761 -0.30593 0.12431 0.10704 0.084401 0.19133 0.29157 0.023979 -0.028596 0.058693 0.044884 0.25744 0.026609 0.052226 -0.50282 0.20642 -0.055577 0.003305 0.24795 -0.17459 0.37924 -0.019112 0.10792 0.12851 -0.27086 0.020291 0.16658 -0.033457 0.0040085 0.064325 -0.10802 0.014257 -0.10282 0.041677 0.33374 -0.11634 -0.13586 0.34345 0.10181 -0.081939 -0.079145 0.026695 -0.043862 -0.039449 -0.060653 0.144 -0.22853 0.20327 -0.26599 0.14988 -0.22911 0.014524 0.33593 -0.39278 0.10303 -0.090703 0.35283 -0.023992 0.090104 -0.23685 -0.12469 0.077748 -0.14464 -0.10853 
flood -0.37063 -0.23475 0.12943 -0.21544 0.13673 -0.2446 0.23943 0.0032737 -0.30703 0.22847 -0.11549 -0.1048 0.010811 -0.088922 0.30913 0.2471 0.083307 -0.295 0.059812 0.18048 0.12557 0.26841 0.19714 -0.13997 -0.43583 0.1899 -0.0446 0.48264 0.40669 -0.099119 0.43944 -0.44358 -0.091303 -0.27368 0.092482 -0.36168 0.17204 -0.10634 -0.48043 0.034625 0.1765 -0.20142 -0.19871 -0.39653 -0.15666 -0.28644 0.30549 0.18957 -0.34643 0.041478 0.025379 0.18246 -0.17009 0.016693 -0.13305 -0.067752 0.25562 0.33521 -0.01475 0.34184 -0.062799 -0.24195 -0.38469 -0.18455 0.52323 0.018169 -0.49734 -0.12495 0.063967 -0.013229 -0.19169 -0.14248 -0.17081 0.10182 -0.27567 -0.093592 -0.033724 -0.068474 -0.10789 0.037111 0.11949 -0.36863 -0.37992 -0.17303 -0.07923 0.15566 0.016187 -0.38709 -0.06983 0.031252 0.043402 -0.11203 -0.071835 0.097454 -0.11686 -0.11116 0.22389 -0.47151 -0.27629 0.21916 
crisis -0.055182 -0.09595 -0.0061669 -0.082175 -0.018514 -0.039079 0.051388 0.0025684 -0.2819 -0.31731 -0.11111 -0.052057 0.077285 -0.41268 0.04846 -0.025702 -0.2243 -0.56601 -0.055044 -0.1762 -0.13532 0.1549 0.12896 0.071079 -0.25577 0.30897 -0.59709 -0.066645 -0.087223 -0.23057 -0.10627 -0.017781 0.10841 0.22602 -0.16156 0.47764 -0.27985 0.05792 -0.40209 0.069305 -0.055209 -0.11791 -0.28319 0.34146 -0.44265 0.15231 0.21767 -0.19076 -0.17931 -0.083994 -0.19389 0.46013 -0.31008 0.098487 0.17486 -0.20112 0.29153 0.68682 0.46405 -0.26116 0.17061 -0.049657 -0.55727 -0.066911 0.17649 0.27828 -0.43995 0.095297 -0.18222 -0.24643 0.028707 -0.25018 -0.28988 -0.041445 0.45309 -0.34694 -0.16944 -0.050189 -0.40039 0.063535 -0.09066 -0.047291 -0.33503 0.048386 -0.0966 0.059874 0.026277 -0.060962 0.11856 -0.44432 0.073262 0.37915 0.29616 0.19618 -0.19544 0.24406 0.29637 -0.49799 -0.33678 0.17279 
physics 0.044685 0.1152 -0.25594 0.34585 -0.67486 -0.21592 -0.31809 0.21849 0.45733 -0.89966 0.1277 -0.0035378 0.14146 -0.42847 -0.061568 -0.16662 0.027557 -0.080698 0.0018832 0.18553 0.019661 -0.051521 -0.046774 -0.091063 -0.16344 0.53328 0.37542 0.018335 0.24075 -0.09188 0.27838 -0.00928 -0.24753 0.70196 -0.055035 0.67035 -0.37389 0.25195 0.06426 -0.45901 -0.13247 -0.094532 0.38378 0.32576 0.68004 -0.36521 0.045106 0.31292 -0.5033 -0.0408 -0.26501 -0.24097 0.29567 -0.17006 0.3677 0.37521 0.27303 -0.057107 -0.03334 -0.021746 0.34331 0.21346 0.36071 0.074214 -0.53099 0.67162 -0.41569 -0.26186 -0.41917 -0.023173 -0.1244 0.18049 -0.15414 -0.46139 0.016144 0.35758 0.27401 0.29196 -0.15136 -0.11592 0.46696 -0.35819 -0.22757 -0.10302 0.31189 -0.024562 0.11482 -0.66767 0.23587 -0.082937 -0.032976 -0.02703 0.2228 -0.0033647 -0.24961 -0.34302 -0.043963 -0.4736 -0.2966 0.06851 
Jackson -0.42099 -0.061896 -0.040842 0.012982 0.057779 -0.36797 0.12729 -0.12781 -0.80837 0.078395 -0.1693 -0.27591 -0.03563 0.089526 -0.3623 0.20173 0.27586 0.17567 0.020661 0.068128 -0.29244 0.12219 -0.14283 -0.036716 -0.029347 -0.0074377 -0.25666 0.036296 -0.048388 0.28014 -0.10426 0.092108 0.27759 0.12092 0.35314 0.52646 0.17794 0.10069 -0.37041 -0.29332 -0.29874 0.25316 -0.068711 -0.22707 -0.20392 0.12594 0.16377 0.20262 -0.31972 -0.061787 0.11474 -0.15213 -0.19509 -0.12105 -0.003554 -0.16788 0.14116 -0.12057 -0.20574 0.38393 -0.010504 0.38743 0.051497 0.087048 0.069255 0.044764 -0.24115 -0.089314 0.47324 0.42444 0.21215 0.023542 -0.077986 0.17302 -0.19106 -0.18142 0.3335 -0.30471 0.22721 -0.52151 -0.18075 0.21137 -0.12021 0.34437 0.063737 -0.0016115 -0.067759 0.10831 0.029535 0.17147 0.03156 -0.28123 -0.22877 -0.069621 0.02688 0.019226 -0.3031 -0.13908 0.13075 0.094076 
senate 0.36562 -0.12549 0.0017327 -0.11183 0.3285 -0.049992 0.10282 -0.28271 0.37425 -0.24733 0.1295 -0.26441 0.27362 0.32069 0.39852 0.48001 -0.08949 -0.25185 -0.23812 -0.13292 -0.12753 -0.14427 0.0098294 -0.13009 -0.33982 0.22914 0.15996 -0.38391 -0.25851 -0.080341 -0.16184 0.39428 0.039921 0.37203 -0.74289 0.17506 0.4679 -0.17033 0.13306 -0.34307 -0.27144 -0.13394 -0.16143 -0.13786 0.12703 0.20362 -0.40111 0.10096 -0.12413 0.12805 -0.28188 -0.15246 0.13825 -0.094154 -0.16468 -0.06394 0.37729 -0.055927 -0.09137 0.20622 -0.24067 -0.16289 -0.3567 -0.1813 0.15845 0.3846 -0.067125 -0.27864 -0.13189 0.22155 0.019729 -0.11054 -0.30613 0.034615 0.11085 0.09862 -0.018408 0.35778 0.05663 0.38962 -0.21774 -0.038672 -0.12473 -0.044893 0.29637 0.20324 0.032048 -0.57132 0.13424 -0.022994 0.27441 -0.092471 -0.30692 0.71046 0.060807 0.3535 -0.152 0.6557 0.10926 0.064779 
jazz -0.35311 0.28833 0.090473 -0.2198 0.046321 0.0086711 0.16521 0.31422 -0.11307 0.31768 -0.061675 -0.155 0.067042 0.0058564 -0.66561 -0.0047414 0.029958 0.1917 0.033309 0.090314 -0.12941 -0.27712 -0.3173 -0.49932 -0.41476 -0.0049068 0.078226 0.18299 -0.11939 0.012199 -0.65426 -0.026927 0.39583 0.31097 -0.038387 0.49596 0.40215 0.19028 0.16303 -0.51188 -0.28475 -0.039509 -0.070566 0.49105 0.18716 0.13659 0.12117 0.32356 0.085891 -0.011484 0.0031959 0.079362 0.038297 -0.053717 0.24681 -0.55649 -0.061063 -0.18626 0.51231 0.33838 0.14111 0.028322 -0.040668 -0.22039 -0.016503 0.49393 -0.42051 -0.14829 0.15106 -0.15444 0.10505 -0.20081 0.062817 0.18996 -0.13852 0.31814 0.64017 0.18021 0.54731 -0.72555 0.29831 0.04357 0.4077 0.32703 0.082792 0.46899 0.089273 -0.41692 -0.42128 -0.61483 -0.10483 0.033299 -0.053643 -0.1418 -0.079173 0.22449 -0.077157 -0.49463 0.052211 0.63464 
fuck -0.010433 -0.050921 0.11975 -0.15676 -0.17333 -0.015835 0.027124 -0.2508 0.38262 -0.19033 0.049822 -0.23433 -0.10288 0.02516 -0.42862 0.054377 0.17249 -0.055667 0.068789 -0.018376 -0.36079 -0.29017 0.044934 -0.069921 -0.5149 0.2731 0.19305 -0.29933 0.1509 0.0054641 0.01758 -0.22088 0.23189 0.51938 0.14241 0.1452 0.080069 0.54681 0.28043 0.099567 -0.23342 0.13434 -0.22242 -0.18401 -0.22666 0.31999 -0.17665 0.13739 -0.35787 0.26691 -0.11871 -0.011476 0.39932 0.18131 0.061304 -0.14477 -0.051887 0.21769 0.33267 0.19412 -0.38991 0.048899 -0.37966 0.094207 0.27931 0.26123 0.10543 -0.23157 0.12369 0.23521 0.468 0.4999 -0.29882 -0.38377 0.13349 0.11552 0.61106 0.13547 0.3291 -0.3852 -0.20116 -0.11913 -0.093791 -0.028495 -0.42781 0.14812 0.27623 0.072051 -0.071011 -0.20811 0.22618 0.21625 0.16957 0.086545 -0.0033784 0.088545 -0.14942 -0.38692 -0.020543 0.2247 
